genomestart 9
trait 1 0.529001 0.402786 0.422872 0.211204 0.902788 0.941464 0.987347 1 
node 1 1 1 1
node 2 1 1 1
node 3 1 1 1
node 4 1 1 1
node 5 1 1 1
node 6 1 1 1
node 7 1 1 1
node 8 1 1 1
node 9 1 1 1
node 10 1 1 1
node 11 1 1 1
node 12 1 1 1
node 13 1 1 1
node 14 1 1 1
node 15 1 1 1
node 16 1 1 1
node 17 1 0 2
node 18 1 0 2
node 19 1 0 2
node 20 1 0 2
node 22 1 0 0
node 49 1 0 0
node 58 1 0 0
node 66 1 0 0
node 85 1 0 0
node 90 1 0 0
node 94 1 0 0
node 98 1 0 0
node 105 1 0 0
gene 1 1 17 1.82271 0 1 1.82271 1
gene 1 2 17 -1.10773 0 2 -1.10773 1
gene 1 3 17 -0.494387 0 3 -0.494387 1
gene 1 4 17 -1.1871 0 4 -1.1871 1
gene 1 5 17 2.53242 0 5 2.53242 1
gene 1 6 17 2.41026 0 6 2.41026 1
gene 1 7 17 1.69557 0 7 1.69557 1
gene 1 8 17 -6.15066 0 8 -6.15066 1
gene 1 9 17 1.15935 0 9 1.15935 1
gene 1 10 17 5.29979 0 10 5.29979 1
gene 1 11 17 -1.58688 0 11 -1.58688 1
gene 1 12 17 0.538276 0 12 0.538276 1
gene 1 13 17 3.30639 0 13 3.30639 1
gene 1 14 17 -1.22296 0 14 -1.22296 1
gene 1 15 17 3.32688 0 15 3.32688 1
gene 1 16 17 -3.70511 0 16 -3.70511 1
gene 1 1 18 -2.17729 0 17 -2.17729 1
gene 1 2 18 -3.75026 0 18 -3.75026 1
gene 1 3 18 -2.65038 0 19 -2.65038 1
gene 1 4 18 -1.8164 0 20 -1.8164 1
gene 1 5 18 -0.673308 0 21 -0.673308 1
gene 1 6 18 1.25157 0 22 1.25157 1
gene 1 7 18 2.1261 0 23 2.1261 1
gene 1 8 18 -5.66113 0 24 -5.66113 1
gene 1 9 18 2.85165 0 25 2.85165 1
gene 1 10 18 0.930649 0 26 0.930649 1
gene 1 11 18 -8 0 27 -8 1
gene 1 12 18 -1.04344 0 28 -1.04344 1
gene 1 13 18 -7.64343 0 29 -7.64343 1
gene 1 14 18 2.67049 0 30 2.67049 1
gene 1 15 18 1.09502 0 31 1.09502 1
gene 1 16 18 5.68323 0 32 5.68323 1
gene 1 1 19 -0.898783 0 33 -0.898783 0
gene 1 2 19 4.78422 0 34 4.78422 1
gene 1 3 19 6.456 0 35 6.456 1
gene 1 4 19 3.82341 0 36 3.82341 1
gene 1 5 19 -7.41225 0 37 -7.41225 1
gene 1 6 19 -2.07723 0 38 -2.07723 1
gene 1 7 19 -1.86656 0 39 -1.86656 1
gene 1 8 19 6.62026 0 40 6.62026 1
gene 1 9 19 -2.09117 0 41 -2.09117 1
gene 1 10 19 -3.31811 0 42 -3.31811 1
gene 1 11 19 -2.63286 0 43 -2.63286 1
gene 1 12 19 2.57546 0 44 2.57546 1
gene 1 13 19 0.258924 0 45 0.258924 1
gene 1 14 19 -1.17794 0 46 -1.17794 1
gene 1 15 19 3.40671 0 47 3.40671 1
gene 1 16 19 -7.91192 0 48 -7.91192 1
gene 1 1 20 -1.62253 0 49 -1.62253 1
gene 1 2 20 7.22673 0 50 7.22673 1
gene 1 3 20 5.55504 0 51 5.55504 1
gene 1 4 20 -3.2533 0 52 -3.2533 1
gene 1 5 20 7.23052 0 53 7.23052 1
gene 1 6 20 3.41279 0 54 3.41279 1
gene 1 7 20 1.27863 0 55 1.27863 1
gene 1 8 20 4.78909 0 56 4.78909 1
gene 1 9 20 -0.445376 0 57 -0.445376 1
gene 1 10 20 5.13089 0 58 5.13089 1
gene 1 11 20 2.86838 0 59 2.86838 1
gene 1 12 20 1.7535 0 60 1.7535 1
gene 1 13 20 -1.4258 0 61 -1.4258 1
gene 1 14 20 -0.857571 0 62 -0.857571 1
gene 1 15 20 -1.03903 0 63 -1.03903 1
gene 1 16 20 -1.36716 0 64 -1.36716 1
gene 1 3 22 -0.638725 0 69 -0.638725 0
gene 1 22 20 6.51824 0 70 6.51824 1
gene 1 17 19 2.72203 0 130 2.72203 1
gene 1 13 49 -0.125523 0 149 -0.125523 1
gene 1 49 18 0.0652657 0 150 0.0652657 1
gene 1 20 18 3.29526 0 162 3.29526 1
gene 1 20 58 1.28785 0 177 1.28785 1
gene 1 58 18 -1.83349 0 178 -1.83349 1
gene 1 2 58 -4.9991 0 182 -4.9991 1
gene 1 2 66 -2.11645 0 202 -2.11645 1
gene 1 66 19 -1.16714 0 203 -1.16714 1
gene 1 17 58 2.83842 0 224 2.83842 1
gene 1 17 20 2.26963 0 228 2.26963 1
gene 1 15 22 0.704445 0 267 0.704445 1
gene 1 6 58 2.47457 0 269 2.47457 1
gene 1 49 17 -3.27112 0 283 -3.27112 1
gene 1 9 85 4.08995 0 288 4.08995 1
gene 1 85 19 2.36284 0 289 2.36284 1
gene 1 9 90 -0.338398 0 314 -0.338398 1
gene 1 90 20 -4.24513 0 315 -4.24513 1
gene 1 13 94 2.46685 0 326 2.46685 1
gene 1 94 17 8 0 327 8 1
gene 1 11 22 1.28892 0 347 1.28892 1
gene 1 1 98 0.0547353 0 351 0.0547353 1
gene 1 98 19 2.0366 0 352 2.0366 1
gene 1 3 105 2.93127 0 378 2.93127 1
gene 1 105 22 -6.85723 0 379 -6.85723 1
gene 1 5 49 -2.23726 0 427 -2.23726 1
genomeend 9
