genomestart 35
trait 1 0 0.114277 1 1 0.769327 1 0.373862 1 
node 1 1 1 1
node 2 1 1 1
node 3 1 1 1
node 4 1 1 1
node 5 1 1 1
node 6 1 1 1
node 7 1 1 1
node 8 1 1 1
node 9 1 1 1
node 10 1 1 1
node 11 1 1 1
node 12 1 1 1
node 13 1 1 1
node 14 1 1 1
node 15 1 1 1
node 16 1 1 1
node 17 1 0 2
node 18 1 0 2
node 19 1 0 2
node 20 1 0 2
node 25 1 0 0
node 36 1 0 0
node 40 1 0 0
node 109 1 0 0
node 141 1 0 0
node 145 1 0 0
node 180 1 0 0
node 185 1 0 0
node 228 1 0 0
node 246 1 0 0
node 267 1 0 0
node 273 1 0 0
node 281 1 0 0
node 299 1 0 0
node 315 1 0 0
node 342 1 0 0
node 367 1 0 0
node 371 1 0 0
node 384 1 0 0
node 393 1 0 0
node 402 1 0 0
node 407 1 0 0
node 442 1 0 0
node 455 1 0 0
node 506 1 0 0
node 507 1 0 0
node 514 1 0 0
node 522 1 0 0
node 573 1 0 0
node 578 1 0 0
node 586 1 0 0
node 603 1 0 0
node 608 1 0 0
node 649 1 0 0
node 658 1 0 0
node 666 1 0 0
node 676 1 0 0
node 686 1 0 0
node 725 1 0 0
node 737 1 0 0
node 749 1 0 0
node 765 1 0 0
node 796 1 0 0
node 803 1 0 0
gene 1 1 17 7.60261 0 1 7.60261 1
gene 1 2 17 -4.14128 0 2 -4.14128 1
gene 1 3 17 0.768308 0 3 0.768308 1
gene 1 4 17 -5.3015 0 4 -5.3015 1
gene 1 5 17 2.56539 0 5 2.56539 1
gene 1 6 17 3.05979 0 6 3.05979 1
gene 1 7 17 -2.38638 0 7 -2.38638 1
gene 1 8 17 -2.46253 0 8 -2.46253 1
gene 1 9 17 2.94839 0 9 2.94839 1
gene 1 10 17 -2.30687 0 10 -2.30687 1
gene 1 11 17 -2.99143 0 11 -2.99143 1
gene 1 12 17 -2.56066 0 12 -2.56066 1
gene 1 13 17 -0.263662 0 13 -0.263662 1
gene 1 14 17 0.219582 0 14 0.219582 1
gene 1 15 17 -1.95952 0 15 -1.95952 1
gene 1 16 17 -5.57626 0 16 -5.57626 1
gene 1 1 18 -6.22088 0 17 -6.22088 1
gene 1 2 18 -5.83181 0 18 -5.83181 1
gene 1 3 18 0.155303 0 19 0.155303 1
gene 1 4 18 -0.205766 0 20 -0.205766 1
gene 1 5 18 0.950607 0 21 0.950607 1
gene 1 6 18 0.0106482 0 22 0.0106482 1
gene 1 7 18 -1.54765 0 23 -1.54765 1
gene 1 8 18 3.40593 0 24 3.40593 1
gene 1 9 18 -0.21361 0 25 -0.21361 1
gene 1 10 18 1.29975 0 26 1.29975 1
gene 1 11 18 -5.24126 0 27 -5.24126 1
gene 1 12 18 -2.47747 0 28 -2.47747 1
gene 1 13 18 -3.52567 0 29 -3.52567 1
gene 1 14 18 -0.497927 0 30 -0.497927 1
gene 1 15 18 -2.35858 0 31 -2.35858 1
gene 1 16 18 -5.43058 0 32 -5.43058 1
gene 1 1 19 1.55432 0 33 1.55432 1
gene 1 2 19 2.37853 0 34 2.37853 1
gene 1 3 19 1.19664 0 35 1.19664 0
gene 1 4 19 8 0 36 8 1
gene 1 5 19 -0.39704 0 37 -0.39704 1
gene 1 6 19 2.84987 0 38 2.84987 1
gene 1 7 19 -6.6836 0 39 -6.6836 1
gene 1 8 19 -1.53094 0 40 -1.53094 1
gene 1 9 19 -0.292313 0 41 -0.292313 1
gene 1 10 19 1.72027 0 42 1.72027 1
gene 1 11 19 0.279213 0 43 0.279213 1
gene 1 12 19 0.723188 0 44 0.723188 1
gene 1 13 19 0.603697 0 45 0.603697 1
gene 1 14 19 0.80549 0 46 0.80549 1
gene 1 15 19 0.235289 0 47 0.235289 1
gene 1 16 19 -1.4538 0 48 -1.4538 1
gene 1 1 20 5.45673 0 49 5.45673 1
gene 1 2 20 7.06668 0 50 7.06668 1
gene 1 3 20 -3.24947 0 51 -3.24947 1
gene 1 4 20 -0.268882 0 52 -0.268882 1
gene 1 5 20 1.49421 0 53 1.49421 1
gene 1 6 20 -0.900184 0 54 -0.900184 1
gene 1 7 20 -0.737201 0 55 -0.737201 1
gene 1 8 20 -1.29757 0 56 -1.29757 1
gene 1 9 20 2.33752 0 57 2.33752 1
gene 1 10 20 1.64437 0 58 1.64437 1
gene 1 11 20 3.02375 0 59 3.02375 1
gene 1 12 20 6.11523 0 60 6.11523 1
gene 1 13 20 -0.682976 0 61 -0.682976 1
gene 1 14 20 2.3972 0 62 2.3972 1
gene 1 15 20 -2.05625 0 63 -2.05625 1
gene 1 16 20 4.90265 0 64 4.90265 1
gene 1 20 18 -2.02033 0 83 -2.02033 0
gene 1 13 25 2.78844 0 86 2.78844 1
gene 1 25 18 -0.209352 0 87 -0.209352 1
gene 1 3 36 5.28838 0 119 5.28838 1
gene 1 36 19 1.74883 0 120 1.74883 1
gene 1 11 40 0.68995 0 132 0.68995 1
gene 1 40 20 1.00893 0 133 1.00893 1
gene 1 16 25 -6.00189 0 254 -6.00189 1
gene 1 4 40 -2.77692 0 281 -2.77692 1
gene 1 19 40 -4.50016 0 389 -4.50016 1
gene 1 1 109 -5.35844 0 393 -5.35844 1
gene 1 109 18 1.66068 0 394 1.66068 1
gene 1 3 25 -0.809772 0 429 -0.809772 1
gene 1 19 20 -5.90731 0 435 -5.90731 1
gene 1 19 17 -7.02908 0 453 -7.02908 1
gene 1 7 36 -8 0 508 -8 1
gene 1 2 25 3.40995 0 514 3.40995 1
gene 1 10 141 -2.0525 0 528 -2.0525 1
gene 1 141 19 0.498786 0 529 0.498786 1
gene 1 9 145 6.64379 0 540 6.64379 1
gene 1 145 20 2.02763 0 541 2.02763 1
gene 1 2 141 8 0 574 8 1
gene 1 6 141 -8 0 610 -8 1
gene 1 1 180 3.23564 0 673 3.23564 1
gene 1 180 109 1.38821 0 674 1.38821 1
gene 1 180 36 -1.93627 0 687 -1.93627 1
gene 1 12 185 -0.909341 0 695 -0.909341 1
gene 1 185 19 -8 0 696 -8 1
gene 1 8 36 0.972303 0 735 0.972303 1
gene 1 14 109 -1.17304 0 748 -1.17304 1
gene 1 5 228 5.34144 0 848 5.34144 1
gene 1 228 20 2.93922 0 849 2.93922 1
gene 1 1 246 -7.38304 0 894 -7.38304 1
gene 1 246 19 -0.581904 0 895 -0.581904 1
gene 1 141 17 0.434503 0 961 0.434503 1
gene 1 10 267 4.22764 0 991 4.22764 1
gene 1 267 19 -1.87067 0 992 -1.87067 1
gene 1 10 273 -3.64783 0 1011 -3.64783 1
gene 1 273 18 0.641797 0 1012 0.641797 1
gene 1 10 281 -1.35412 0 1040 -1.35412 0
gene 1 281 20 -0.179957 0 1041 -0.179957 1
gene 1 180 18 8 0 1090 8 1
gene 1 17 20 -4.67593 0 1098 -4.67593 1
gene 1 185 299 2.5151 0 1114 2.5151 1
gene 1 299 19 -1.7252 0 1115 -1.7252 1
gene 1 11 299 -2.50026 0 1124 -2.50026 1
gene 1 3 315 -1.99388 0 1198 -1.99388 1
gene 1 315 19 -2.10421 0 1199 -2.10421 1
gene 1 2 342 -3.16102 0 1333 -3.16102 1
gene 1 342 18 4.0501 0 1334 4.0501 1
gene 1 16 367 2.07767 0 1435 2.07767 1
gene 1 367 19 3.4133 0 1436 3.4133 1
gene 1 1 141 0.121572 0 1443 0.121572 1
gene 1 13 371 -6.65793 0 1451 -6.65793 1
gene 1 371 20 -2.96326 0 1452 -2.96326 1
gene 1 141 342 1.20431 0 1464 1.20431 1
gene 1 145 281 -5.048 0 1481 -5.048 1
gene 1 1 384 -3.35983 0 1519 -3.35983 1
gene 1 384 19 2.92313 0 1520 2.92313 1
gene 1 2 393 -2.30911 0 1542 -2.30911 1
gene 1 393 17 0.439627 0 1543 0.439627 1
gene 1 141 180 -8 0 1580 -8 1
gene 1 13 402 4.34089 0 1590 4.34089 1
gene 1 402 18 -0.0858414 0 1591 -0.0858414 1
gene 1 10 407 0.688126 0 1605 0.688126 1
gene 1 407 19 -6.56448 0 1606 -6.56448 1
gene 1 20 402 1.50325 0 1725 1.50325 1
gene 1 6 442 -3.76581 0 1730 -3.76581 1
gene 1 442 17 1.01261 0 1731 1.01261 1
gene 1 40 281 1.50273 0 1758 1.50273 1
gene 1 7 455 -0.301188 0 1770 -0.301188 1
gene 1 455 20 4.36151 0 1771 4.36151 1
gene 1 9 506 -0.98992 0 1982 -0.98992 1
gene 1 506 19 3.8271 0 1983 3.8271 1
gene 1 246 507 -0.185476 0 1986 -0.185476 1
gene 1 507 19 2.00086 0 1987 2.00086 1
gene 1 3 514 -1.89877 0 2016 -1.89877 1
gene 1 514 25 -0.653919 0 2017 -0.653919 1
gene 1 3 522 2.21943 0 2051 2.21943 1
gene 1 522 18 1.80185 0 2052 1.80185 1
gene 1 393 145 -2.6623 0 2069 -2.6623 1
gene 1 109 20 0.142482 0 2106 0.142482 1
gene 1 109 506 6.03094 0 2142 6.03094 1
gene 1 185 573 8 0 2242 8 1
gene 1 573 299 6.46624 0 2243 6.46624 1
gene 1 2 578 0.896867 0 2259 0.896867 1
gene 1 578 20 1.86086 0 2260 1.86086 1
gene 1 273 586 -3.52248 0 2304 -3.52248 1
gene 1 586 18 1.77965 0 2305 1.77965 1
gene 1 586 109 -5.25806 0 2317 -5.25806 0
gene 1 11 603 -1.8538 0 2381 -1.8538 0
gene 1 603 299 1.93403 0 2382 1.93403 1
gene 1 407 608 -2.40785 0 2401 -2.40785 1
gene 1 608 19 -1.79749 0 2402 -1.79749 1
gene 1 267 578 -1.62263 0 2478 -1.62263 1
gene 1 4 273 -3.0686 0 2537 -3.0686 1
gene 1 1 608 -2.64077 0 2550 -2.64077 1
gene 1 1 649 2.09077 0 2557 2.09077 1
gene 1 649 17 3.17559 0 2558 3.17559 1
gene 1 16 109 0.921203 0 2575 0.921203 1
gene 1 6 658 1.72526 0 2590 1.72526 1
gene 1 658 442 3.2686 0 2591 3.2686 1
gene 1 3 666 -2.39018 0 2624 -2.39018 1
gene 1 666 19 -0.298051 0 2625 -0.298051 1
gene 1 522 25 0.612714 0 2663 0.612714 1
gene 1 180 676 -1.43511 0 2672 -1.43511 1
gene 1 676 109 0.0465214 0 2673 0.0465214 1
gene 1 2 246 -0.288505 0 2676 -0.288505 1
gene 1 315 185 -1.19775 0 2680 -1.19775 1
gene 1 267 676 2.02641 0 2688 2.02641 1
gene 1 180 686 -0.550039 0 2704 -0.550039 1
gene 1 686 676 -0.613771 0 2705 -0.613771 1
gene 1 11 407 1.11685 0 2715 1.11685 1
gene 1 36 573 -2.05616 0 2725 -2.05616 1
gene 1 25 20 0.21245 0 2815 0.21245 1
gene 1 522 725 1.1716 0 2847 1.1716 1
gene 1 725 25 -0.241324 0 2848 -0.241324 1
gene 1 522 40 -0.657464 0 2883 -0.657464 1
gene 1 5 725 0.530347 0 2902 0.530347 1
gene 1 185 737 0.0519146 0 2911 0.0519146 1
gene 1 737 19 3.68282 0 2912 3.68282 1
gene 1 608 749 1.54753 0 2959 1.54753 1
gene 1 749 19 0.335698 0 2960 0.335698 1
gene 1 10 765 2.09259 0 3021 2.09259 1
gene 1 765 281 0.308284 0 3022 0.308284 1
gene 1 20 796 3.55427 0 3109 3.55427 1
gene 1 796 18 2.86494 0 3110 2.86494 1
gene 1 586 803 1.59003 0 3155 1.59003 1
gene 1 803 109 -0.883091 0 3156 -0.883091 1
genomeend 35
