
/* Species #133 : (Size 7) (AF 2196.86) (Age 21)  */


/* Organism #0 Fitness: 2097 Error: 219 */
genomestart 0
trait 1 0.230766 0.357832 0.645577 1 0.871032 0.126694 0.384071 0.528621 
node 1 1 1 1
node 2 1 1 1
node 3 1 1 1
node 4 1 1 1
node 5 1 1 1
node 6 1 1 1
node 7 1 1 1
node 8 1 1 1
node 9 1 1 1
node 10 1 1 1
node 11 1 1 1
node 12 1 1 1
node 13 1 1 1
node 14 1 1 1
node 15 1 1 1
node 16 1 1 1
node 17 1 0 2
node 18 1 0 2
node 19 1 0 2
node 20 1 0 2
node 27 1 0 0
node 30 1 0 0
node 35 1 0 0
node 49 1 0 0
node 108 1 0 0
node 117 1 0 0
node 118 1 0 0
node 123 1 0 0
node 124 1 0 0
node 126 1 0 0
node 136 1 0 0
node 142 1 0 0
node 150 1 0 0
node 160 1 0 0
node 165 1 0 0
node 169 1 0 0
node 182 1 0 0
node 187 1 0 0
node 192 1 0 0
node 209 1 0 0
node 211 1 0 0
node 220 1 0 0
node 226 1 0 0
node 238 1 0 0
node 262 1 0 0
node 263 1 0 0
node 282 1 0 0
node 284 1 0 0
node 307 1 0 0
node 314 1 0 0
node 326 1 0 0
node 328 1 0 0
node 332 1 0 0
node 338 1 0 0
node 345 1 0 0
node 347 1 0 0
node 349 1 0 0
node 351 1 0 0
node 358 1 0 0
node 377 1 0 0
node 397 1 0 0
node 409 1 0 0
node 416 1 0 0
node 419 1 0 0
node 426 1 0 0
node 431 1 0 0
node 437 1 0 0
node 438 1 0 0
node 449 1 0 0
node 450 1 0 0
node 452 1 0 0
node 459 1 0 0
node 478 1 0 0
node 481 1 0 0
node 482 1 0 0
node 483 1 0 0
node 484 1 0 0
gene 1 1 17 -0.236757 0 1 -0.236757 1
gene 1 2 17 5.74049 0 2 5.74049 1
gene 1 3 17 -2.01941 0 3 -2.01941 1
gene 1 4 17 -7.38205 0 4 -7.38205 1
gene 1 5 17 1.07466 0 5 1.07466 1
gene 1 6 17 -0.472006 0 6 -0.472006 1
gene 1 7 17 -5.66226 0 7 -5.66226 1
gene 1 8 17 -4.6514 0 8 -4.6514 1
gene 1 9 17 6.4265 0 9 6.4265 1
gene 1 10 17 5.6707 0 10 5.6707 1
gene 1 11 17 -0.780032 0 11 -0.780032 1
gene 1 12 17 0.051775 0 12 0.051775 1
gene 1 13 17 -3.45578 0 13 -3.45578 1
gene 1 14 17 3.72973 0 14 3.72973 1
gene 1 15 17 2.55332 0 15 2.55332 1
gene 1 16 17 -1.53122 0 16 -1.53122 1
gene 1 1 18 -6.83636 0 17 -6.83636 1
gene 1 2 18 -2.45418 0 18 -2.45418 1
gene 1 3 18 -1.23002 0 19 -1.23002 1
gene 1 4 18 5.95155 0 20 5.95155 1
gene 1 5 18 -1.68802 0 21 -1.68802 1
gene 1 6 18 -3.16075 0 22 -3.16075 1
gene 1 7 18 1.42503 0 23 1.42503 1
gene 1 8 18 6.74484 0 24 6.74484 1
gene 1 9 18 1.72332 0 25 1.72332 1
gene 1 10 18 -0.793424 0 26 -0.793424 1
gene 1 11 18 -0.102616 0 27 -0.102616 1
gene 1 12 18 0.517298 0 28 0.517298 1
gene 1 13 18 -2.9276 0 29 -2.9276 1
gene 1 14 18 -1.9052 0 30 -1.9052 1
gene 1 15 18 -6.93349 0 31 -6.93349 1
gene 1 16 18 -1.80957 0 32 -1.80957 1
gene 1 1 19 0.56491 0 33 0.56491 1
gene 1 2 19 0.720674 0 34 0.720674 1
gene 1 3 19 -0.75785 0 35 -0.75785 1
gene 1 4 19 -1.83326 0 36 -1.83326 1
gene 1 5 19 3.82641 0 37 3.82641 1
gene 1 6 19 6.40478 0 38 6.40478 1
gene 1 7 19 2.03943 0 39 2.03943 1
gene 1 8 19 2.25682 0 40 2.25682 1
gene 1 9 19 7.75898 0 41 7.75898 1
gene 1 10 19 -5.45951 0 42 -5.45951 1
gene 1 11 19 1.57038 0 43 1.57038 1
gene 1 12 19 -0.492376 0 44 -0.492376 1
gene 1 13 19 -3.18545 0 45 -3.18545 1
gene 1 14 19 -1.20933 0 46 -1.20933 1
gene 1 15 19 3.59389 0 47 3.59389 1
gene 1 16 19 4.21489 0 48 4.21489 1
gene 1 1 20 -7.50733 0 49 -7.50733 1
gene 1 2 20 -5.89866 0 50 -5.89866 1
gene 1 3 20 -1.5883 0 51 -1.5883 1
gene 1 4 20 -4.7577 0 52 -4.7577 1
gene 1 5 20 -1.11967 0 53 -1.11967 1
gene 1 6 20 5.54131 0 54 5.54131 1
gene 1 7 20 7.82868 0 55 7.82868 1
gene 1 8 20 -0.184814 0 56 -0.184814 1
gene 1 9 20 3.94638 0 57 3.94638 1
gene 1 10 20 6.77478 0 58 6.77478 1
gene 1 11 20 2.74165 0 59 2.74165 1
gene 1 12 20 5.54041 0 60 5.54041 1
gene 1 13 20 8 0 61 8 1
gene 1 14 20 -3.20493 0 62 -3.20493 1
gene 1 15 20 -3.69978 0 63 -3.69978 1
gene 1 16 20 0.00372884 0 64 0.00372884 1
gene 1 20 18 -0.762798 0 75 -0.762798 1
gene 1 16 27 -2.69329 0 92 -2.69329 1
gene 1 27 17 0.446646 0 93 0.446646 1
gene 1 6 30 -1.70986 0 100 -1.70986 1
gene 1 30 20 -6.22088 0 101 -6.22088 1
gene 1 6 35 4.38853 0 117 4.38853 1
gene 1 35 17 -2.21432 0 118 -2.21432 1
gene 1 17 30 0.765459 0 135 0.765459 1
gene 1 15 49 -0.954225 0 154 -0.954225 1
gene 1 49 20 0.995128 0 155 0.995128 1
gene 1 49 18 7.60558 0 225 7.60558 1
gene 1 35 19 7.63047 0 234 7.63047 1
gene 1 12 35 -5.50178 0 250 -5.50178 1
gene 1 49 19 -0.0706885 0 270 -0.0706885 1
gene 1 14 30 -0.0640235 0 272 -0.0640235 1
gene 1 35 18 -0.433157 0 298 -0.433157 1
gene 1 19 30 -0.724332 0 312 -0.724332 1
gene 1 2 49 -7.20647 0 326 -7.20647 1
gene 1 6 49 -3.06825 0 350 -3.06825 1
gene 1 7 30 2.18065 0 373 2.18065 1
gene 1 1 108 -3.69151 0 377 -3.69151 1
gene 1 108 18 6.98125 0 378 6.98125 1
gene 1 14 49 -3.43062 0 398 -3.43062 1
gene 1 16 117 3.66931 0 417 3.66931 1
gene 1 117 17 2.34239 0 418 2.34239 1
gene 1 19 117 -2.307 0 419 -2.307 1
gene 1 15 118 -1.061 0 423 -1.061 1
gene 1 118 18 4.37169 0 424 4.37169 1
gene 1 13 27 1.69992 0 428 1.69992 1
gene 1 11 30 -3.81444 0 438 -3.81444 1
gene 1 19 123 1.33114 0 441 1.33114 1
gene 1 123 30 0.340835 0 442 0.340835 1
gene 1 1 124 1.66165 0 445 1.66165 1
gene 1 124 19 3.31572 0 446 3.31572 1
gene 1 11 126 2.28052 0 451 2.28052 1
gene 1 126 20 7.37279 0 452 7.37279 1
gene 1 13 136 2.0828 0 486 2.0828 1
gene 1 136 18 -1.3593 0 487 -1.3593 1
gene 1 27 49 0.705583 0 488 0.705583 1
gene 1 16 142 3.93793 0 500 3.93793 1
gene 1 142 20 3.61914 0 501 3.61914 1
gene 1 123 150 -0.952669 0 526 -0.952669 1
gene 1 150 30 2.02955 0 527 2.02955 1
gene 1 16 160 3.54576 0 551 3.54576 1
gene 1 160 18 -3.90579 0 552 -3.90579 1
gene 1 6 165 8 0 570 8 1
gene 1 165 30 -2.3895 0 571 -2.3895 1
gene 1 6 169 1.52098 0 579 1.52098 1
gene 1 169 18 4.29405 0 580 4.29405 1
gene 1 165 136 0.959299 0 588 0.959299 0
gene 1 3 49 -1.47286 0 622 -1.47286 1
gene 1 118 182 1.60894 0 629 1.60894 1
gene 1 182 18 1.30406 0 630 1.30406 1
gene 1 117 187 4.66369 0 650 4.66369 1
gene 1 187 17 5.45383 0 651 5.45383 1
gene 1 12 192 8 0 669 8 1
gene 1 192 19 8 0 670 8 1
gene 1 30 209 -5.92098 0 724 -5.92098 1
gene 1 209 20 2.03957 0 725 2.03957 1
gene 1 1 211 -0.930062 0 731 -0.930062 1
gene 1 211 19 0.331388 0 732 0.331388 1
gene 1 150 160 3.67384 0 735 3.67384 1
gene 1 9 187 -2.75313 0 747 -2.75313 1
gene 1 35 220 -3.11838 0 761 -3.11838 1
gene 1 220 19 -8 0 762 -8 1
gene 1 14 27 -5.57993 0 770 -5.57993 1
gene 1 150 226 5.61803 0 784 5.61803 1
gene 1 226 30 3.77435 0 785 3.77435 1
gene 1 226 169 -0.195158 0 796 -0.195158 0
gene 1 7 238 1.35495 0 830 1.35495 1
gene 1 238 30 -0.81871 0 831 -0.81871 1
gene 1 226 238 3.05859 0 872 3.05859 1
gene 1 209 262 -0.896089 0 912 -0.896089 1
gene 1 262 20 -3.07559 0 913 -3.07559 1
gene 1 11 263 0.605819 0 921 0.605819 1
gene 1 263 126 0.867451 0 922 0.867451 1
gene 1 263 118 -0.280483 0 932 -0.280483 1
gene 1 192 30 -0.920015 0 989 -0.920015 1
gene 1 35 282 -1.8503 0 992 -1.8503 1
gene 1 282 18 5.14968 0 993 5.14968 1
gene 1 12 209 -3.23523 0 999 -3.23523 1
gene 1 238 284 4.41954 0 1002 4.41954 1
gene 1 284 30 8 0 1003 8 1
gene 1 8 282 -0.349053 0 1033 -0.349053 1
gene 1 17 142 -8 0 1084 -8 1
gene 1 16 30 -5.06117 0 1087 -5.06117 1
gene 1 1 307 -1.98648 0 1088 -1.98648 1
gene 1 307 17 -0.229807 0 1089 -0.229807 1
gene 1 117 142 -3.2372 0 1101 -3.2372 1
gene 1 16 314 2.74518 0 1108 2.74518 1
gene 1 314 27 -2.50517 0 1109 -2.50517 1
gene 1 1 314 -2.4195 0 1142 -2.4195 1
gene 1 3 326 -5.13358 0 1157 -5.13358 1
gene 1 326 19 -1.6545 0 1158 -1.6545 1
gene 1 187 328 2.32724 0 1163 2.32724 1
gene 1 328 17 -1.68494 0 1164 -1.68494 1
gene 1 1 332 5.55682 0 1175 5.55682 1
gene 1 332 124 -6.91443 0 1176 -6.91443 1
gene 1 16 338 -3.29913 0 1210 -3.29913 1
gene 1 338 30 2.20422 0 1211 2.20422 1
gene 1 9 192 -8 0 1220 -8 1
gene 1 118 142 5.97875 0 1243 5.97875 1
gene 1 150 345 2.00184 0 1245 2.00184 1
gene 1 345 226 -1.74527 0 1246 -1.74527 1
gene 1 9 347 -6.13623 0 1256 -6.13623 1
gene 1 347 17 0.319672 0 1257 0.319672 1
gene 1 263 19 -2.84817 0 1266 -2.84817 1
gene 1 118 49 -0.0512548 0 1271 -0.0512548 1
gene 1 13 349 7.16723 0 1274 7.16723 1
gene 1 349 19 2.04798 0 1275 2.04798 1
gene 1 10 30 2.38385 0 1278 2.38385 1
gene 1 165 314 -0.851141 0 1280 -0.851141 1
gene 1 12 351 0.890457 0 1284 0.890457 1
gene 1 351 17 -3.43568 0 1285 -3.43568 1
gene 1 5 358 -4.64668 0 1305 -4.64668 1
gene 1 358 17 -2.39205 0 1306 -2.39205 1
gene 1 238 136 2.15244 0 1311 2.15244 1
gene 1 282 187 -1.00031 0 1330 -1.00031 1
gene 1 351 160 -1.17132 0 1332 -1.17132 1
gene 1 263 182 1.13634 0 1352 1.13634 1
gene 1 5 377 2.30934 0 1376 2.30934 1
gene 1 377 17 1.30704 0 1377 1.30704 1
gene 1 124 377 6.22391 0 1379 6.22391 1
gene 1 326 20 -7.642 0 1423 -7.642 1
gene 1 338 326 -6.40177 0 1447 -6.40177 1
gene 1 349 30 2.90299 0 1458 2.90299 1
gene 1 117 397 0.864611 0 1464 0.864611 1
gene 1 397 187 0.907279 0 1465 0.907279 1
gene 1 2 409 -2.87096 0 1511 -2.87096 1
gene 1 409 18 -0.266852 0 1512 -0.266852 1
gene 1 187 262 3.54058 0 1561 3.54058 1
gene 1 6 416 2.21685 0 1563 2.21685 1
gene 1 416 35 -1.27457 0 1564 -1.27457 1
gene 1 416 326 -1.53921 0 1575 -1.53921 1
gene 1 118 419 0.872928 0 1578 0.872928 1
gene 1 419 18 0.0264351 0 1579 0.0264351 1
gene 1 165 263 -1.25619 0 1587 -1.25619 1
gene 1 263 220 2.78743 0 1598 2.78743 1
gene 1 409 160 4.54002 0 1603 4.54002 1
gene 1 30 426 1.92228 0 1610 1.92228 1
gene 1 426 20 -1.4477 0 1611 -1.4477 1
gene 1 12 136 3.90985 0 1618 3.90985 1
gene 1 49 431 0.464282 0 1629 0.464282 1
gene 1 431 19 -3.11654 0 1630 -3.11654 1
gene 1 5 437 -5.54997 0 1645 -5.54997 1
gene 1 437 358 0.494042 0 1646 0.494042 1
gene 1 220 438 1.32931 0 1650 1.32931 1
gene 1 438 19 -1.50327 0 1651 -1.50327 1
gene 1 349 160 0.824898 0 1678 0.824898 1
gene 1 6 449 -2.33585 0 1707 -2.33585 1
gene 1 449 416 0.42563 0 1708 0.42563 1
gene 1 16 450 -1.16347 0 1709 -1.16347 1
gene 1 450 117 1.22851 0 1710 1.22851 1
gene 1 7 452 0.600904 0 1716 0.600904 1
gene 1 452 238 2.84093 0 1717 2.84093 1
gene 1 211 226 -0.956473 0 1726 -0.956473 1
gene 1 108 126 -1.9672 0 1729 -1.9672 1
gene 1 8 426 0.768134 0 1733 0.768134 1
gene 1 226 459 -4.04559 0 1751 -4.04559 1
gene 1 459 30 4.20106 0 1752 4.20106 1
gene 1 30 160 1.96259 0 1769 1.96259 1
gene 1 150 282 -3.02439 0 1774 -3.02439 1
gene 1 49 136 0.804742 0 1806 0.804742 1
gene 1 27 118 -0.88775 0 1814 -0.88775 1
gene 1 35 478 1.61596 0 1829 1.61596 1
gene 1 478 282 -2.32629 0 1830 -2.32629 1
gene 1 19 481 1.70115 0 1839 1.70115 1
gene 1 481 117 -0.795345 0 1840 -0.795345 1
gene 1 12 314 -2.54124 0 1843 -2.54124 1
gene 1 150 482 -4.20994 0 1844 -4.20994 1
gene 1 482 160 0.0196892 0 1845 0.0196892 1
gene 1 349 314 5.81174 0 1848 5.81174 1
gene 1 226 483 3.24715 0 1851 3.24715 1
gene 1 483 169 5.47234 0 1852 5.47234 1
gene 1 416 437 0.219405 0 1856 0.219405 1
gene 1 165 484 0.981235 0 1858 0.981235 1
gene 1 484 136 0.773988 0 1859 0.773988 1
gene 1 124 437 -1.69537 0 1878 -1.69537 1
genomeend 0

/* Organism #1 Fitness: 3728 Error: 520 */
genomestart 1
trait 1 0.230766 0.357832 0.645577 1 0.871032 0.126694 0.384071 0.528621 
node 1 1 1 1
node 2 1 1 1
node 3 1 1 1
node 4 1 1 1
node 5 1 1 1
node 6 1 1 1
node 7 1 1 1
node 8 1 1 1
node 9 1 1 1
node 10 1 1 1
node 11 1 1 1
node 12 1 1 1
node 13 1 1 1
node 14 1 1 1
node 15 1 1 1
node 16 1 1 1
node 17 1 0 2
node 18 1 0 2
node 19 1 0 2
node 20 1 0 2
node 27 1 0 0
node 30 1 0 0
node 35 1 0 0
node 49 1 0 0
node 108 1 0 0
node 117 1 0 0
node 118 1 0 0
node 123 1 0 0
node 124 1 0 0
node 126 1 0 0
node 136 1 0 0
node 142 1 0 0
node 150 1 0 0
node 160 1 0 0
node 165 1 0 0
node 169 1 0 0
node 182 1 0 0
node 187 1 0 0
node 192 1 0 0
node 209 1 0 0
node 211 1 0 0
node 220 1 0 0
node 226 1 0 0
node 238 1 0 0
node 262 1 0 0
node 263 1 0 0
node 282 1 0 0
node 284 1 0 0
node 307 1 0 0
node 314 1 0 0
node 326 1 0 0
node 328 1 0 0
node 332 1 0 0
node 338 1 0 0
node 345 1 0 0
node 347 1 0 0
node 349 1 0 0
node 351 1 0 0
node 358 1 0 0
node 377 1 0 0
node 397 1 0 0
node 409 1 0 0
node 416 1 0 0
node 419 1 0 0
node 426 1 0 0
node 431 1 0 0
node 437 1 0 0
node 438 1 0 0
node 449 1 0 0
node 450 1 0 0
node 452 1 0 0
node 459 1 0 0
node 478 1 0 0
node 481 1 0 0
node 482 1 0 0
node 483 1 0 0
node 484 1 0 0
gene 1 1 17 1.39855 0 1 1.39855 1
gene 1 2 17 6.87025 0 2 6.87025 1
gene 1 3 17 -2.55034 0 3 -2.55034 1
gene 1 4 17 0.687245 0 4 0.687245 1
gene 1 5 17 2.13857 0 5 2.13857 1
gene 1 6 17 2.86444 0 6 2.86444 1
gene 1 7 17 -3.44934 0 7 -3.44934 1
gene 1 8 17 -5.31398 0 8 -5.31398 1
gene 1 9 17 4.0218 0 9 4.0218 1
gene 1 10 17 6.65043 0 10 6.65043 1
gene 1 11 17 -0.18973 0 11 -0.18973 1
gene 1 12 17 -0.159234 0 12 -0.159234 1
gene 1 13 17 -4.11046 0 13 -4.11046 1
gene 1 14 17 2.0043 0 14 2.0043 1
gene 1 15 17 2.55332 0 15 2.55332 1
gene 1 16 17 -0.656056 0 16 -0.656056 1
gene 1 1 18 -6.94963 0 17 -6.94963 1
gene 1 2 18 -2.02764 0 18 -2.02764 1
gene 1 3 18 1.65114 0 19 1.65114 1
gene 1 4 18 7.8787 0 20 7.8787 1
gene 1 5 18 -0.935301 0 21 -0.935301 1
gene 1 6 18 -2.41956 0 22 -2.41956 1
gene 1 7 18 -1.94438 0 23 -1.94438 1
gene 1 8 18 5.33962 0 24 5.33962 1
gene 1 9 18 1.42718 0 25 1.42718 1
gene 1 10 18 -0.859793 0 26 -0.859793 1
gene 1 11 18 -3.93143 0 27 -3.93143 1
gene 1 12 18 -0.83769 0 28 -0.83769 1
gene 1 13 18 2.49872 0 29 2.49872 1
gene 1 14 18 -2.24514 0 30 -2.24514 1
gene 1 15 18 -6.94228 0 31 -6.94228 1
gene 1 16 18 -1.80957 0 32 -1.80957 1
gene 1 1 19 1.93532 0 33 1.93532 1
gene 1 2 19 0.296221 0 34 0.296221 1
gene 1 3 19 0.72946 0 35 0.72946 1
gene 1 4 19 -1.83326 0 36 -1.83326 1
gene 1 5 19 6.29064 0 37 6.29064 1
gene 1 6 19 3.6538 0 38 3.6538 1
gene 1 7 19 -0.056987 0 39 -0.056987 1
gene 1 8 19 4.39126 0 40 4.39126 1
gene 1 9 19 5.72004 0 41 5.72004 1
gene 1 10 19 -6.78019 0 42 -6.78019 1
gene 1 11 19 0.595724 0 43 0.595724 1
gene 1 12 19 -2.49287 0 44 -2.49287 1
gene 1 13 19 -3.18545 0 45 -3.18545 1
gene 1 14 19 -3.70499 0 46 -3.70499 1
gene 1 15 19 4.4362 0 47 4.4362 1
gene 1 16 19 5.14676 0 48 5.14676 1
gene 1 1 20 2.292 0 49 2.292 1
gene 1 2 20 -5.17206 0 50 -5.17206 1
gene 1 3 20 -1.64183 0 51 -1.64183 1
gene 1 4 20 -2.95002 0 52 -2.95002 1
gene 1 5 20 -1.74416 0 53 -1.74416 1
gene 1 6 20 1.59935 0 54 1.59935 1
gene 1 7 20 6.18987 0 55 6.18987 1
gene 1 8 20 0.481208 0 56 0.481208 1
gene 1 9 20 3.51842 0 57 3.51842 1
gene 1 10 20 -2.33588 0 58 -2.33588 1
gene 1 11 20 -0.774476 0 59 -0.774476 1
gene 1 12 20 5.81694 0 60 5.81694 1
gene 1 13 20 7.90397 0 61 7.90397 1
gene 1 14 20 -2.57877 0 62 -2.57877 1
gene 1 15 20 -3.47435 0 63 -3.47435 1
gene 1 16 20 2.38021 0 64 2.38021 1
gene 1 20 18 0.881527 0 75 0.881527 1
gene 1 16 27 -4.5792 0 92 -4.5792 1
gene 1 27 17 -1.70144 0 93 -1.70144 1
gene 1 6 30 -3.90721 0 100 -3.90721 1
gene 1 30 20 -6.26944 0 101 -6.26944 1
gene 1 6 35 5.79884 0 117 5.79884 1
gene 1 35 17 0.078715 0 118 0.078715 1
gene 1 17 30 -0.150483 0 135 -0.150483 1
gene 1 15 49 2.41944 0 154 2.41944 1
gene 1 49 20 -2.45325 0 155 -2.45325 1
gene 1 49 18 7.06804 0 225 7.06804 1
gene 1 35 19 -2.392 0 234 -2.392 1
gene 1 12 35 -0.571292 0 250 -0.571292 1
gene 1 49 19 0.505554 0 270 0.505554 1
gene 1 14 30 -1.86817 0 272 -1.86817 1
gene 1 35 18 -1.01473 0 298 -1.01473 1
gene 1 19 30 0.573902 0 312 0.573902 1
gene 1 2 49 -3.90034 0 326 -3.90034 1
gene 1 6 49 -1.88088 0 350 -1.88088 1
gene 1 7 30 1.17335 0 373 1.17335 1
gene 1 1 108 -3.68119 0 377 -3.68119 1
gene 1 108 18 3.99611 0 378 3.99611 1
gene 1 14 49 0.817732 0 398 0.817732 1
gene 1 16 117 4.11918 0 417 4.11918 1
gene 1 117 17 -1.15396 0 418 -1.15396 1
gene 1 19 117 -3.77295 0 419 -3.77295 1
gene 1 15 118 -1.54802 0 423 -1.54802 1
gene 1 118 18 3.77903 0 424 3.77903 1
gene 1 13 27 -0.51624 0 428 -0.51624 1
gene 1 11 30 -5.61601 0 438 -5.61601 1
gene 1 19 123 -1.56538 0 441 -1.56538 1
gene 1 123 30 1.09274 0 442 1.09274 1
gene 1 1 124 -0.384283 0 445 -0.384283 1
gene 1 124 19 3.71391 0 446 3.71391 1
gene 1 11 126 3.32682 0 451 3.32682 1
gene 1 126 20 8 0 452 8 1
gene 1 13 136 2.6686 0 486 2.6686 1
gene 1 136 18 1.14573 0 487 1.14573 1
gene 1 27 49 3.50788 0 488 3.50788 1
gene 1 16 142 2.08166 0 500 2.08166 1
gene 1 142 20 2.48541 0 501 2.48541 1
gene 1 123 150 1.42293 0 526 1.42293 1
gene 1 150 30 1.58081 0 527 1.58081 1
gene 1 16 160 3.54576 0 551 3.54576 1
gene 1 160 18 -3.12234 0 552 -3.12234 1
gene 1 6 165 7.25281 0 570 7.25281 1
gene 1 165 30 -3.72184 0 571 -3.72184 1
gene 1 6 169 2.27526 0 579 2.27526 1
gene 1 169 18 4.8048 0 580 4.8048 1
gene 1 165 136 0.856312 0 588 0.856312 1
gene 1 3 49 -0.310694 0 622 -0.310694 1
gene 1 118 182 0.148342 0 629 0.148342 1
gene 1 182 18 3.94523 0 630 3.94523 1
gene 1 117 187 3.56405 0 650 3.56405 1
gene 1 187 17 -1.86576 0 651 -1.86576 1
gene 1 12 192 6.36944 0 669 6.36944 1
gene 1 192 19 -0.633002 0 670 -0.633002 1
gene 1 30 209 -0.198433 0 724 -0.198433 1
gene 1 209 20 1.21507 0 725 1.21507 1
gene 1 1 211 -2.78791 0 731 -2.78791 1
gene 1 211 19 -1.13132 0 732 -1.13132 1
gene 1 150 160 1.96249 0 735 1.96249 1
gene 1 9 187 -2.67436 0 747 -2.67436 1
gene 1 35 220 -2.34865 0 761 -2.34865 1
gene 1 220 19 -8 0 762 -8 1
gene 1 14 27 -3.19066 0 770 -3.19066 1
gene 1 150 226 0.371269 0 784 0.371269 1
gene 1 226 30 -2.39372 0 785 -2.39372 1
gene 1 226 169 1.654 0 796 1.654 0
gene 1 7 238 -0.612449 0 830 -0.612449 1
gene 1 238 30 0.0190634 0 831 0.0190634 1
gene 1 226 238 -1.76825 0 872 -1.76825 1
gene 1 209 262 -0.620393 0 912 -0.620393 1
gene 1 262 20 -2.22713 0 913 -2.22713 1
gene 1 11 263 -0.117043 0 921 -0.117043 1
gene 1 263 126 2.0677 0 922 2.0677 1
gene 1 263 118 0.247339 0 932 0.247339 1
gene 1 192 30 -0.456285 0 989 -0.456285 1
gene 1 35 282 -1.27761 0 992 -1.27761 1
gene 1 282 18 4.73756 0 993 4.73756 1
gene 1 12 209 0.001045 0 999 0.001045 1
gene 1 238 284 2.24353 0 1002 2.24353 1
gene 1 284 30 7.09513 0 1003 7.09513 1
gene 1 8 282 -2.42375 0 1033 -2.42375 1
gene 1 17 142 -6.42917 0 1084 -6.42917 1
gene 1 16 30 0.227948 0 1087 0.227948 1
gene 1 1 307 -2.38239 0 1088 -2.38239 1
gene 1 307 17 -0.838244 0 1089 -0.838244 1
gene 1 117 142 -3.00716 0 1101 -3.00716 1
gene 1 16 314 0.838748 0 1108 0.838748 1
gene 1 314 27 -0.962149 0 1109 -0.962149 1
gene 1 1 314 -2.02586 0 1142 -2.02586 1
gene 1 3 326 -4.60171 0 1157 -4.60171 1
gene 1 326 19 -3.9399 0 1158 -3.9399 1
gene 1 187 328 0.477883 0 1163 0.477883 1
gene 1 328 17 -2.45328 0 1164 -2.45328 1
gene 1 1 332 4.01682 0 1175 4.01682 1
gene 1 332 124 -6.11142 0 1176 -6.11142 1
gene 1 16 338 -1.879 0 1210 -1.879 1
gene 1 338 30 1.11634 0 1211 1.11634 1
gene 1 9 192 -2.40763 0 1220 -2.40763 1
gene 1 118 142 -1.21714 0 1243 -1.21714 1
gene 1 150 345 1.78938 0 1245 1.78938 1
gene 1 345 226 -2.41794 0 1246 -2.41794 1
gene 1 9 347 -8 0 1256 -8 1
gene 1 347 17 2.34082 0 1257 2.34082 1
gene 1 263 19 -4.40211 0 1266 -4.40211 1
gene 1 118 49 -3.71262 0 1271 -3.71262 1
gene 1 13 349 6.97373 0 1274 6.97373 1
gene 1 349 19 -0.296737 0 1275 -0.296737 1
gene 1 10 30 5.36412 0 1278 5.36412 1
gene 1 165 314 -0.500353 0 1280 -0.500353 1
gene 1 12 351 1.66082 0 1284 1.66082 1
gene 1 351 17 -4.08408 0 1285 -4.08408 1
gene 1 5 358 -1.23036 0 1305 -1.23036 1
gene 1 358 17 -1.92506 0 1306 -1.92506 1
gene 1 238 136 -2.30285 0 1311 -2.30285 1
gene 1 282 187 0.629331 0 1330 0.629331 1
gene 1 351 160 1.12234 0 1332 1.12234 1
gene 1 263 182 2.18293 0 1352 2.18293 1
gene 1 5 377 -0.501234 0 1376 -0.501234 1
gene 1 377 17 3.68128 0 1377 3.68128 1
gene 1 124 377 5.69476 0 1379 5.69476 1
gene 1 326 20 -8 0 1423 -8 1
gene 1 338 326 -8 0 1447 -8 1
gene 1 349 30 1.86313 0 1458 1.86313 1
gene 1 117 397 -1.18447 0 1464 -1.18447 1
gene 1 397 187 0.0778255 0 1465 0.0778255 1
gene 1 2 409 -0.496498 0 1511 -0.496498 1
gene 1 409 18 0.534406 0 1512 0.534406 1
gene 1 187 262 1.53278 0 1561 1.53278 1
gene 1 6 416 4.16675 0 1563 4.16675 1
gene 1 416 35 -2.22881 0 1564 -2.22881 1
gene 1 416 326 0.234515 0 1575 0.234515 1
gene 1 118 419 -2.14361 0 1578 -2.14361 1
gene 1 419 18 -1.20795 0 1579 -1.20795 1
gene 1 165 263 -1.25619 0 1587 -1.25619 1
gene 1 263 220 2.29746 0 1598 2.29746 1
gene 1 409 160 0.576678 0 1603 0.576678 1
gene 1 30 426 1.75304 0 1610 1.75304 1
gene 1 426 20 0.380538 0 1611 0.380538 1
gene 1 12 136 6.26702 0 1618 6.26702 1
gene 1 49 431 1.46015 0 1629 1.46015 1
gene 1 431 19 -4.84834 0 1630 -4.84834 1
gene 1 5 437 -4.87614 0 1645 -4.87614 1
gene 1 437 358 -1.51726 0 1646 -1.51726 1
gene 1 220 438 0.100433 0 1650 0.100433 1
gene 1 438 19 0.124803 0 1651 0.124803 1
gene 1 349 160 2.13093 0 1678 2.13093 1
gene 1 6 449 -0.280553 0 1707 -0.280553 1
gene 1 449 416 0.42563 0 1708 0.42563 1
gene 1 16 450 -1.16347 0 1709 -1.16347 1
gene 1 450 117 0.255859 0 1710 0.255859 1
gene 1 7 452 -1.09356 0 1716 -1.09356 1
gene 1 452 238 3.45774 0 1717 3.45774 1
gene 1 211 226 -1.26143 0 1726 -1.26143 1
gene 1 108 126 -1.9672 0 1729 -1.9672 1
gene 1 8 426 1.29873 0 1733 1.29873 1
gene 1 226 459 -3.97703 0 1751 -3.97703 1
gene 1 459 30 3.94837 0 1752 3.94837 1
gene 1 30 160 -2.36319 0 1769 -2.36319 1
gene 1 150 282 -4.84251 0 1774 -4.84251 1
gene 1 49 136 1.90863 0 1806 1.90863 1
gene 1 27 118 0.286973 0 1814 0.286973 1
gene 1 35 478 2.9469 0 1829 2.9469 1
gene 1 478 282 -3.24349 0 1830 -3.24349 1
gene 1 19 481 0.23431 0 1839 0.23431 1
gene 1 481 117 -1.46548 0 1840 -1.46548 1
gene 1 12 314 -2.7918 0 1843 -2.7918 1
gene 1 150 482 -2.69107 0 1844 -2.69107 1
gene 1 482 160 -0.735446 0 1845 -0.735446 1
gene 1 349 314 2.69135 0 1848 2.69135 1
gene 1 226 483 1.56407 0 1851 1.56407 1
gene 1 483 169 -2.29553 0 1852 -2.29553 1
gene 1 416 437 0.97709 0 1856 0.97709 1
gene 1 165 484 0.824634 0 1858 0.824634 1
gene 1 484 136 -1.3108 0 1859 -1.3108 1
gene 1 124 437 -0.704455 0 1878 -0.704455 1
genomeend 1

/* Organism #2 Fitness: 2576 Error: 233 */
genomestart 2
trait 1 0.230766 0.357832 0.645577 1 0.871032 0.126694 0.384071 0.528621 
node 1 1 1 1
node 2 1 1 1
node 3 1 1 1
node 4 1 1 1
node 5 1 1 1
node 6 1 1 1
node 7 1 1 1
node 8 1 1 1
node 9 1 1 1
node 10 1 1 1
node 11 1 1 1
node 12 1 1 1
node 13 1 1 1
node 14 1 1 1
node 15 1 1 1
node 16 1 1 1
node 17 1 0 2
node 18 1 0 2
node 19 1 0 2
node 20 1 0 2
node 27 1 0 0
node 30 1 0 0
node 35 1 0 0
node 49 1 0 0
node 108 1 0 0
node 117 1 0 0
node 118 1 0 0
node 123 1 0 0
node 124 1 0 0
node 126 1 0 0
node 136 1 0 0
node 142 1 0 0
node 150 1 0 0
node 160 1 0 0
node 165 1 0 0
node 169 1 0 0
node 182 1 0 0
node 187 1 0 0
node 192 1 0 0
node 209 1 0 0
node 211 1 0 0
node 220 1 0 0
node 226 1 0 0
node 238 1 0 0
node 262 1 0 0
node 263 1 0 0
node 282 1 0 0
node 284 1 0 0
node 307 1 0 0
node 314 1 0 0
node 326 1 0 0
node 328 1 0 0
node 332 1 0 0
node 338 1 0 0
node 345 1 0 0
node 347 1 0 0
node 349 1 0 0
node 351 1 0 0
node 358 1 0 0
node 377 1 0 0
node 397 1 0 0
node 409 1 0 0
node 416 1 0 0
node 419 1 0 0
node 426 1 0 0
node 431 1 0 0
node 437 1 0 0
node 438 1 0 0
node 449 1 0 0
node 450 1 0 0
node 452 1 0 0
node 459 1 0 0
node 478 1 0 0
node 481 1 0 0
node 482 1 0 0
node 483 1 0 0
node 484 1 0 0
gene 1 1 17 0.781577 0 1 0.781577 1
gene 1 2 17 4.60223 0 2 4.60223 1
gene 1 3 17 -4.11547 0 3 -4.11547 1
gene 1 4 17 -7.6287 0 4 -7.6287 1
gene 1 5 17 2.21288 0 5 2.21288 1
gene 1 6 17 -1.40795 0 6 -1.40795 1
gene 1 7 17 -3.90196 0 7 -3.90196 1
gene 1 8 17 -4.11656 0 8 -4.11656 1
gene 1 9 17 3.9464 0 9 3.9464 1
gene 1 10 17 5.27229 0 10 5.27229 1
gene 1 11 17 -0.00440361 0 11 -0.00440361 1
gene 1 12 17 -1.0314 0 12 -1.0314 1
gene 1 13 17 -2.68088 0 13 -2.68088 1
gene 1 14 17 4.72115 0 14 4.72115 1
gene 1 15 17 4.86861 0 15 4.86861 1
gene 1 16 17 0.21906 0 16 0.21906 1
gene 1 1 18 -8 0 17 -8 1
gene 1 2 18 -3.09235 0 18 -3.09235 1
gene 1 3 18 -3.33183 0 19 -3.33183 1
gene 1 4 18 7.48115 0 20 7.48115 1
gene 1 5 18 -0.666391 0 21 -0.666391 1
gene 1 6 18 -1.46115 0 22 -1.46115 1
gene 1 7 18 1.31252 0 23 1.31252 1
gene 1 8 18 4.88772 0 24 4.88772 1
gene 1 9 18 0.0140933 0 25 0.0140933 1
gene 1 10 18 1.44231 0 26 1.44231 1
gene 1 11 18 -1.19678 0 27 -1.19678 1
gene 1 12 18 0.213261 0 28 0.213261 1
gene 1 13 18 -2.03808 0 29 -2.03808 1
gene 1 14 18 -0.826506 0 30 -0.826506 1
gene 1 15 18 -7.79341 0 31 -7.79341 1
gene 1 16 18 -3.54049 0 32 -3.54049 1
gene 1 1 19 -1.85806 0 33 -1.85806 1
gene 1 2 19 1.23231 0 34 1.23231 1
gene 1 3 19 -0.822163 0 35 -0.822163 1
gene 1 4 19 -1.67142 0 36 -1.67142 1
gene 1 5 19 3.21297 0 37 3.21297 1
gene 1 6 19 5.71928 0 38 5.71928 1
gene 1 7 19 -0.72787 0 39 -0.72787 1
gene 1 8 19 2.93881 0 40 2.93881 1
gene 1 9 19 8 0 41 8 1
gene 1 10 19 -7.65462 0 42 -7.65462 1
gene 1 11 19 -1.58777 0 43 -1.58777 1
gene 1 12 19 0.100091 0 44 0.100091 1
gene 1 13 19 -5.01297 0 45 -5.01297 1
gene 1 14 19 0.790034 0 46 0.790034 1
gene 1 15 19 6.05455 0 47 6.05455 1
gene 1 16 19 4.95583 0 48 4.95583 1
gene 1 1 20 -8 0 49 -8 1
gene 1 2 20 -8 0 50 -8 1
gene 1 3 20 -2.04134 0 51 -2.04134 1
gene 1 4 20 -2.38753 0 52 -2.38753 1
gene 1 5 20 -0.293258 0 53 -0.293258 1
gene 1 6 20 5.4455 0 54 5.4455 1
gene 1 7 20 8 0 55 8 1
gene 1 8 20 -0.268212 0 56 -0.268212 1
gene 1 9 20 2.0912 0 57 2.0912 1
gene 1 10 20 7.60668 0 58 7.60668 1
gene 1 11 20 0.4927 0 59 0.4927 1
gene 1 12 20 3.44909 0 60 3.44909 1
gene 1 13 20 8 0 61 8 1
gene 1 14 20 -1.82422 0 62 -1.82422 1
gene 1 15 20 -4.06013 0 63 -4.06013 1
gene 1 16 20 4.0438 0 64 4.0438 1
gene 1 20 18 -1.80031 0 75 -1.80031 1
gene 1 16 27 -0.265535 0 92 -0.265535 1
gene 1 27 17 2.91579 0 93 2.91579 1
gene 1 6 30 -1.80409 0 100 -1.80409 1
gene 1 30 20 -3.90733 0 101 -3.90733 1
gene 1 6 35 2.56788 0 117 2.56788 1
gene 1 35 17 0.26829 0 118 0.26829 1
gene 1 17 30 1.68648 0 135 1.68648 1
gene 1 15 49 -1.75767 0 154 -1.75767 1
gene 1 49 20 -0.0975481 0 155 -0.0975481 1
gene 1 49 18 5.41446 0 225 5.41446 1
gene 1 35 19 7.15592 0 234 7.15592 1
gene 1 12 35 -2.59889 0 250 -2.59889 1
gene 1 49 19 -0.0556625 0 270 -0.0556625 1
gene 1 14 30 -0.840103 0 272 -0.840103 1
gene 1 35 18 1.89475 0 298 1.89475 1
gene 1 19 30 1.14345 0 312 1.14345 1
gene 1 2 49 -4.32714 0 326 -4.32714 1
gene 1 6 49 -0.412818 0 350 -0.412818 1
gene 1 7 30 3.18447 0 373 3.18447 1
gene 1 1 108 -6.07601 0 377 -6.07601 1
gene 1 108 18 4.70491 0 378 4.70491 1
gene 1 14 49 -4.21849 0 398 -4.21849 1
gene 1 16 117 2.10501 0 417 2.10501 1
gene 1 117 17 3.76815 0 418 3.76815 1
gene 1 19 117 -4.44858 0 419 -4.44858 1
gene 1 15 118 -2.67442 0 423 -2.67442 1
gene 1 118 18 5.1457 0 424 5.1457 1
gene 1 13 27 -0.719519 0 428 -0.719519 1
gene 1 11 30 -5.36654 0 438 -5.36654 1
gene 1 19 123 -1.21741 0 441 -1.21741 1
gene 1 123 30 0.516803 0 442 0.516803 1
gene 1 1 124 0.615047 0 445 0.615047 1
gene 1 124 19 4.16013 0 446 4.16013 1
gene 1 11 126 -0.489669 0 451 -0.489669 1
gene 1 126 20 8 0 452 8 1
gene 1 13 136 4.32794 0 486 4.32794 1
gene 1 136 18 -1.04966 0 487 -1.04966 1
gene 1 27 49 3.1301 0 488 3.1301 1
gene 1 16 142 1.69959 0 500 1.69959 1
gene 1 142 20 5.78307 0 501 5.78307 1
gene 1 123 150 -1.58289 0 526 -1.58289 1
gene 1 150 30 1.48959 0 527 1.48959 1
gene 1 16 160 1.14243 0 551 1.14243 1
gene 1 160 18 -2.5323 0 552 -2.5323 1
gene 1 6 165 5.78758 0 570 5.78758 1
gene 1 165 30 -0.787792 0 571 -0.787792 1
gene 1 6 169 0.00230409 0 579 0.00230409 1
gene 1 169 18 5.46486 0 580 5.46486 1
gene 1 165 136 -0.438221 0 588 -0.438221 0
gene 1 3 49 -1.79301 0 622 -1.79301 1
gene 1 118 182 0.600237 0 629 0.600237 1
gene 1 182 18 2.39791 0 630 2.39791 1
gene 1 117 187 3.67252 0 650 3.67252 1
gene 1 187 17 4.5091 0 651 4.5091 1
gene 1 12 192 5.88761 0 669 5.88761 1
gene 1 192 19 6.4903 0 670 6.4903 1
gene 1 30 209 -7.44714 0 724 -7.44714 1
gene 1 209 20 2.93783 0 725 2.93783 1
gene 1 1 211 -1.54844 0 731 -1.54844 1
gene 1 211 19 0.0720147 0 732 0.0720147 1
gene 1 150 160 5.38231 0 735 5.38231 1
gene 1 9 187 -2.12642 0 747 -2.12642 1
gene 1 35 220 -1.70547 0 761 -1.70547 1
gene 1 220 19 -8 0 762 -8 1
gene 1 14 27 -3.76823 0 770 -3.76823 1
gene 1 150 226 6.64322 0 784 6.64322 1
gene 1 226 30 1.7087 0 785 1.7087 1
gene 1 226 169 -0.872792 0 796 -0.872792 1
gene 1 7 238 0.629132 0 830 0.629132 1
gene 1 238 30 0.187148 0 831 0.187148 1
gene 1 226 238 1.32622 0 872 1.32622 1
gene 1 209 262 0.994577 0 912 0.994577 1
gene 1 262 20 -2.40207 0 913 -2.40207 1
gene 1 11 263 0.994849 0 921 0.994849 1
gene 1 263 126 -1.03805 0 922 -1.03805 1
gene 1 263 118 2.06571 0 932 2.06571 1
gene 1 192 30 -1.40599 0 989 -1.40599 1
gene 1 35 282 -4.81199 0 992 -4.81199 1
gene 1 282 18 6.42229 0 993 6.42229 1
gene 1 12 209 -0.855641 0 999 -0.855641 1
gene 1 238 284 2.2129 0 1002 2.2129 1
gene 1 284 30 5.84754 0 1003 5.84754 1
gene 1 8 282 -2.05267 0 1033 -2.05267 1
gene 1 17 142 -8 0 1084 -8 1
gene 1 16 30 -6.75591 0 1087 -6.75591 1
gene 1 1 307 -3.4788 0 1088 -3.4788 1
gene 1 307 17 -1.46523 0 1089 -1.46523 1
gene 1 117 142 -5.23728 0 1101 -5.23728 1
gene 1 16 314 2.11759 0 1108 2.11759 1
gene 1 314 27 -3.42787 0 1109 -3.42787 1
gene 1 1 314 -4.10232 0 1142 -4.10232 1
gene 1 3 326 -5.03759 0 1157 -5.03759 1
gene 1 326 19 0.838077 0 1158 0.838077 1
gene 1 187 328 1.91326 0 1163 1.91326 1
gene 1 328 17 -2.8052 0 1164 -2.8052 1
gene 1 1 332 2.39438 0 1175 2.39438 1
gene 1 332 124 -6.07845 0 1176 -6.07845 1
gene 1 16 338 -4.79275 0 1210 -4.79275 1
gene 1 338 30 2.4405 0 1211 2.4405 1
gene 1 9 192 -5.44455 0 1220 -5.44455 1
gene 1 118 142 7.72183 0 1243 7.72183 1
gene 1 150 345 2.65062 0 1245 2.65062 1
gene 1 345 226 -0.958337 0 1246 -0.958337 1
gene 1 9 347 -8 0 1256 -8 1
gene 1 347 17 1.12007 0 1257 1.12007 1
gene 1 263 19 -1.54498 0 1266 -1.54498 1
gene 1 118 49 -2.59103 0 1271 -2.59103 1
gene 1 13 349 7.91147 0 1274 7.91147 1
gene 1 349 19 1.00967 0 1275 1.00967 1
gene 1 10 30 3.95112 0 1278 3.95112 1
gene 1 165 314 0.655703 0 1280 0.655703 1
gene 1 12 351 1.38282 0 1284 1.38282 1
gene 1 351 17 -3.48435 0 1285 -3.48435 1
gene 1 5 358 -4.31745 0 1305 -4.31745 1
gene 1 358 17 -4.42254 0 1306 -4.42254 1
gene 1 238 136 -1.10491 0 1311 -1.10491 1
gene 1 282 187 0.379666 0 1330 0.379666 1
gene 1 351 160 -0.317996 0 1332 -0.317996 1
gene 1 263 182 1.78056 0 1352 1.78056 1
gene 1 5 377 1.62814 0 1376 1.62814 1
gene 1 377 17 0.194912 0 1377 0.194912 1
gene 1 124 377 6.50175 0 1379 6.50175 1
gene 1 326 20 -5.55313 0 1423 -5.55313 1
gene 1 338 326 -4.58298 0 1447 -4.58298 1
gene 1 349 30 4.73553 0 1458 4.73553 1
gene 1 117 397 0.7503 0 1464 0.7503 1
gene 1 397 187 1.91243 0 1465 1.91243 1
gene 1 2 409 -1.63784 0 1511 -1.63784 1
gene 1 409 18 -2.33292 0 1512 -2.33292 1
gene 1 187 262 3.54058 0 1561 3.54058 1
gene 1 6 416 1.68034 0 1563 1.68034 1
gene 1 416 35 -1.27457 0 1564 -1.27457 1
gene 1 416 326 -1.46614 0 1575 -1.46614 1
gene 1 118 419 2.43754 0 1578 2.43754 1
gene 1 419 18 0.0264351 0 1579 0.0264351 1
gene 1 165 263 -2.54005 0 1587 -2.54005 1
gene 1 263 220 2.15335 0 1598 2.15335 1
gene 1 409 160 0.951896 0 1603 0.951896 1
gene 1 30 426 -0.596983 0 1610 -0.596983 1
gene 1 426 20 -1.15641 0 1611 -1.15641 1
gene 1 12 136 3.90985 0 1618 3.90985 1
gene 1 49 431 -1.44698 0 1629 -1.44698 1
gene 1 431 19 -3.24462 0 1630 -3.24462 1
gene 1 5 437 -4.29274 0 1645 -4.29274 1
gene 1 437 358 1.15797 0 1646 1.15797 1
gene 1 220 438 1.32931 0 1650 1.32931 1
gene 1 438 19 0.0846152 0 1651 0.0846152 1
gene 1 349 160 -0.213386 0 1678 -0.213386 1
gene 1 6 449 -2.33585 0 1707 -2.33585 1
gene 1 449 416 0.42563 0 1708 0.42563 1
gene 1 16 450 -1.16347 0 1709 -1.16347 1
gene 1 450 117 0.767925 0 1710 0.767925 1
gene 1 7 452 -1.23793 0 1716 -1.23793 1
gene 1 452 238 4.14867 0 1717 4.14867 1
gene 1 211 226 -1.11168 0 1726 -1.11168 1
gene 1 108 126 -1.73879 0 1729 -1.73879 1
gene 1 8 426 3.46005 0 1733 3.46005 1
gene 1 226 459 -2.99822 0 1751 -2.99822 1
gene 1 459 30 1.21488 0 1752 1.21488 1
gene 1 30 160 -0.162869 0 1769 -0.162869 1
gene 1 150 282 -3.26152 0 1774 -3.26152 1
gene 1 49 136 0.804742 0 1806 0.804742 1
gene 1 27 118 -0.334676 0 1814 -0.334676 1
gene 1 35 478 1.54623 0 1829 1.54623 1
gene 1 478 282 0.404822 0 1830 0.404822 1
gene 1 19 481 0.483688 0 1839 0.483688 1
gene 1 481 117 -0.268007 0 1840 -0.268007 1
gene 1 12 314 -1.39069 0 1843 -1.39069 1
gene 1 150 482 -0.936955 0 1844 -0.936955 1
gene 1 482 160 -0.0920394 0 1845 -0.0920394 1
gene 1 349 314 0.483671 0 1848 0.483671 1
gene 1 226 483 1.09092 0 1851 1.09092 1
gene 1 483 169 6.15474 0 1852 6.15474 1
gene 1 416 437 1.20975 0 1856 1.20975 1
gene 1 165 484 0.238725 0 1858 0.238725 1
gene 1 484 136 0.773988 0 1859 0.773988 1
gene 1 124 437 -1.69537 0 1878 -1.69537 1
genomeend 2

/* Organism #3 Fitness: 2341 Error: 265 */
genomestart 3
trait 1 0.230766 0.357832 0.645577 1 0.871032 0.126694 0.384071 0.528621 
node 1 1 1 1
node 2 1 1 1
node 3 1 1 1
node 4 1 1 1
node 5 1 1 1
node 6 1 1 1
node 7 1 1 1
node 8 1 1 1
node 9 1 1 1
node 10 1 1 1
node 11 1 1 1
node 12 1 1 1
node 13 1 1 1
node 14 1 1 1
node 15 1 1 1
node 16 1 1 1
node 17 1 0 2
node 18 1 0 2
node 19 1 0 2
node 20 1 0 2
node 27 1 0 0
node 30 1 0 0
node 35 1 0 0
node 49 1 0 0
node 108 1 0 0
node 117 1 0 0
node 118 1 0 0
node 123 1 0 0
node 124 1 0 0
node 126 1 0 0
node 136 1 0 0
node 142 1 0 0
node 150 1 0 0
node 160 1 0 0
node 165 1 0 0
node 169 1 0 0
node 182 1 0 0
node 187 1 0 0
node 192 1 0 0
node 209 1 0 0
node 211 1 0 0
node 220 1 0 0
node 226 1 0 0
node 238 1 0 0
node 262 1 0 0
node 263 1 0 0
node 282 1 0 0
node 284 1 0 0
node 307 1 0 0
node 314 1 0 0
node 326 1 0 0
node 328 1 0 0
node 332 1 0 0
node 338 1 0 0
node 345 1 0 0
node 347 1 0 0
node 349 1 0 0
node 351 1 0 0
node 358 1 0 0
node 377 1 0 0
node 397 1 0 0
node 409 1 0 0
node 416 1 0 0
node 419 1 0 0
node 426 1 0 0
node 431 1 0 0
node 437 1 0 0
node 438 1 0 0
node 449 1 0 0
node 450 1 0 0
node 452 1 0 0
node 459 1 0 0
node 478 1 0 0
node 481 1 0 0
node 482 1 0 0
node 483 1 0 0
node 484 1 0 0
gene 1 1 17 0.723338 0 1 0.723338 1
gene 1 2 17 7.53187 0 2 7.53187 1
gene 1 3 17 0.534629 0 3 0.534629 1
gene 1 4 17 -7.50738 0 4 -7.50738 1
gene 1 5 17 -0.92619 0 5 -0.92619 1
gene 1 6 17 0.473892 0 6 0.473892 1
gene 1 7 17 -5.60504 0 7 -5.60504 1
gene 1 8 17 -3.41828 0 8 -3.41828 1
gene 1 9 17 6.4265 0 9 6.4265 1
gene 1 10 17 4.74429 0 10 4.74429 1
gene 1 11 17 -1.13885 0 11 -1.13885 1
gene 1 12 17 -0.252799 0 12 -0.252799 1
gene 1 13 17 -5.01362 0 13 -5.01362 1
gene 1 14 17 3.72973 0 14 3.72973 1
gene 1 15 17 0.256925 0 15 0.256925 1
gene 1 16 17 1.28258 0 16 1.28258 1
gene 1 1 18 -6.83636 0 17 -6.83636 1
gene 1 2 18 -2.98846 0 18 -2.98846 1
gene 1 3 18 -2.61382 0 19 -2.61382 1
gene 1 4 18 -0.979217 0 20 -0.979217 1
gene 1 5 18 -6.57372 0 21 -6.57372 1
gene 1 6 18 -1.20676 0 22 -1.20676 1
gene 1 7 18 1.90258 0 23 1.90258 1
gene 1 8 18 8 0 24 8 1
gene 1 9 18 0.482949 0 25 0.482949 1
gene 1 10 18 2.27108 0 26 2.27108 1
gene 1 11 18 -1.54464 0 27 -1.54464 1
gene 1 12 18 0.517298 0 28 0.517298 1
gene 1 13 18 -3.93203 0 29 -3.93203 1
gene 1 14 18 -1.9052 0 30 -1.9052 1
gene 1 15 18 -7.19326 0 31 -7.19326 1
gene 1 16 18 -2.27555 0 32 -2.27555 1
gene 1 1 19 0.0479076 0 33 0.0479076 1
gene 1 2 19 0.797009 0 34 0.797009 1
gene 1 3 19 0.236857 0 35 0.236857 1
gene 1 4 19 -3.0319 0 36 -3.0319 1
gene 1 5 19 3.92106 0 37 3.92106 1
gene 1 6 19 3.12287 0 38 3.12287 1
gene 1 7 19 -2.14356 0 39 -2.14356 1
gene 1 8 19 0.0646726 0 40 0.0646726 1
gene 1 9 19 7.75898 0 41 7.75898 1
gene 1 10 19 2.06325 0 42 2.06325 1
gene 1 11 19 2.4957 0 43 2.4957 1
gene 1 12 19 -0.159083 0 44 -0.159083 1
gene 1 13 19 0.474369 0 45 0.474369 1
gene 1 14 19 -1.12767 0 46 -1.12767 1
gene 1 15 19 3.81252 0 47 3.81252 1
gene 1 16 19 4.24865 0 48 4.24865 1
gene 1 1 20 -7.28716 0 49 -7.28716 1
gene 1 2 20 -8 0 50 -8 1
gene 1 3 20 -1.30968 0 51 -1.30968 1
gene 1 4 20 0.0809382 0 52 0.0809382 1
gene 1 5 20 0.8582 0 53 0.8582 1
gene 1 6 20 4.96007 0 54 4.96007 1
gene 1 7 20 6.77533 0 55 6.77533 1
gene 1 8 20 1.51516 0 56 1.51516 1
gene 1 9 20 3.32356 0 57 3.32356 1
gene 1 10 20 5.79971 0 58 5.79971 1
gene 1 11 20 4.80789 0 59 4.80789 1
gene 1 12 20 3.97799 0 60 3.97799 1
gene 1 13 20 5.63594 0 61 5.63594 1
gene 1 14 20 -1.53326 0 62 -1.53326 1
gene 1 15 20 -0.10653 0 63 -0.10653 1
gene 1 16 20 4.42918 0 64 4.42918 1
gene 1 20 18 -4.36384 0 75 -4.36384 1
gene 1 16 27 -1.4927 0 92 -1.4927 1
gene 1 27 17 0.275164 0 93 0.275164 1
gene 1 6 30 -1.86707 0 100 -1.86707 1
gene 1 30 20 -7.62573 0 101 -7.62573 1
gene 1 6 35 0.117834 0 117 0.117834 1
gene 1 35 17 2.74466 0 118 2.74466 1
gene 1 17 30 0.429955 0 135 0.429955 1
gene 1 15 49 -2.73676 0 154 -2.73676 1
gene 1 49 20 2.33328 0 155 2.33328 1
gene 1 49 18 -1.83563 0 225 -1.83563 1
gene 1 35 19 7.29803 0 234 7.29803 1
gene 1 12 35 -6.02894 0 250 -6.02894 1
gene 1 49 19 -3.00341 0 270 -3.00341 1
gene 1 14 30 1.60351 0 272 1.60351 1
gene 1 35 18 -0.790734 0 298 -0.790734 1
gene 1 19 30 -0.826894 0 312 -0.826894 1
gene 1 2 49 -3.05692 0 326 -3.05692 1
gene 1 6 49 -1.54282 0 350 -1.54282 1
gene 1 7 30 0.289535 0 373 0.289535 1
gene 1 1 108 -4.95589 0 377 -4.95589 1
gene 1 108 18 7.16663 0 378 7.16663 1
gene 1 14 49 2.13325 0 398 2.13325 1
gene 1 16 117 1.96314 0 417 1.96314 1
gene 1 117 17 4.13376 0 418 4.13376 1
gene 1 19 117 -2.8299 0 419 -2.8299 1
gene 1 15 118 0.299698 0 423 0.299698 1
gene 1 118 18 3.0851 0 424 3.0851 1
gene 1 13 27 0.0591629 0 428 0.0591629 1
gene 1 11 30 0.0495059 0 438 0.0495059 1
gene 1 19 123 -2.3493 0 441 -2.3493 1
gene 1 123 30 -1.34553 0 442 -1.34553 1
gene 1 1 124 -0.506679 0 445 -0.506679 1
gene 1 124 19 1.56747 0 446 1.56747 1
gene 1 11 126 1.22648 0 451 1.22648 1
gene 1 126 20 0.789309 0 452 0.789309 1
gene 1 13 136 1.97133 0 486 1.97133 1
gene 1 136 18 -1.3593 0 487 -1.3593 1
gene 1 27 49 0.217467 0 488 0.217467 1
gene 1 16 142 -0.619337 0 500 -0.619337 1
gene 1 142 20 5.86037 0 501 5.86037 1
gene 1 123 150 1.30076 0 526 1.30076 1
gene 1 150 30 3.60019 0 527 3.60019 1
gene 1 16 160 -1.63203 0 551 -1.63203 1
gene 1 160 18 -6.13251 0 552 -6.13251 1
gene 1 6 165 8 0 570 8 1
gene 1 165 30 -0.376214 0 571 -0.376214 1
gene 1 6 169 3.9088 0 579 3.9088 1
gene 1 169 18 5.21568 0 580 5.21568 1
gene 1 165 136 1.62319 0 588 1.62319 0
gene 1 3 49 0.952248 0 622 0.952248 1
gene 1 118 182 2.04909 0 629 2.04909 1
gene 1 182 18 1.69781 0 630 1.69781 1
gene 1 117 187 1.04889 0 650 1.04889 1
gene 1 187 17 7.75776 0 651 7.75776 1
gene 1 12 192 6.63491 0 669 6.63491 1
gene 1 192 19 6.6756 0 670 6.6756 1
gene 1 30 209 -1.18171 0 724 -1.18171 1
gene 1 209 20 -0.807777 0 725 -0.807777 1
gene 1 1 211 -1.63461 0 731 -1.63461 1
gene 1 211 19 -2.33888 0 732 -2.33888 1
gene 1 150 160 -2.47153 0 735 -2.47153 1
gene 1 9 187 -0.76916 0 747 -0.76916 1
gene 1 35 220 -3.68364 0 761 -3.68364 1
gene 1 220 19 0.781269 0 762 0.781269 1
gene 1 14 27 -5.17962 0 770 -5.17962 1
gene 1 150 226 4.38933 0 784 4.38933 1
gene 1 226 30 3.44746 0 785 3.44746 1
gene 1 226 169 1.52002 0 796 1.52002 0
gene 1 7 238 0.241694 0 830 0.241694 1
gene 1 238 30 -0.939949 0 831 -0.939949 1
gene 1 226 238 -3.81415 0 872 -3.81415 1
gene 1 209 262 -0.0467993 0 912 -0.0467993 1
gene 1 262 20 -3.07559 0 913 -3.07559 1
gene 1 11 263 2.98107 0 921 2.98107 1
gene 1 263 126 2.14589 0 922 2.14589 1
gene 1 263 118 1.742 0 932 1.742 1
gene 1 192 30 -3.40359 0 989 -3.40359 1
gene 1 35 282 -1.92091 0 992 -1.92091 1
gene 1 282 18 5.39121 0 993 5.39121 1
gene 1 12 209 1.55013 0 999 1.55013 1
gene 1 238 284 6.68687 0 1002 6.68687 1
gene 1 284 30 4.98212 0 1003 4.98212 1
gene 1 8 282 -0.27868 0 1033 -0.27868 1
gene 1 17 142 -8 0 1084 -8 1
gene 1 16 30 -2.35712 0 1087 -2.35712 1
gene 1 1 307 -1.18953 0 1088 -1.18953 1
gene 1 307 17 -0.314551 0 1089 -0.314551 1
gene 1 117 142 -4.54607 0 1101 -4.54607 1
gene 1 16 314 3.16756 0 1108 3.16756 1
gene 1 314 27 -4.49884 0 1109 -4.49884 1
gene 1 1 314 -2.27803 0 1142 -2.27803 1
gene 1 3 326 -4.57018 0 1157 -4.57018 1
gene 1 326 19 -1.1815 0 1158 -1.1815 1
gene 1 187 328 1.78587 0 1163 1.78587 1
gene 1 328 17 0.852379 0 1164 0.852379 1
gene 1 1 332 3.67855 0 1175 3.67855 1
gene 1 332 124 -5.80458 0 1176 -5.80458 1
gene 1 16 338 -4.0254 0 1210 -4.0254 1
gene 1 338 30 2.63435 0 1211 2.63435 1
gene 1 9 192 -7.0377 0 1220 -7.0377 1
gene 1 118 142 5.48416 0 1243 5.48416 1
gene 1 150 345 1.74141 0 1245 1.74141 1
gene 1 345 226 2.1701 0 1246 2.1701 1
gene 1 9 347 -8 0 1256 -8 1
gene 1 347 17 1.90473 0 1257 1.90473 1
gene 1 263 19 -4.25078 0 1266 -4.25078 1
gene 1 118 49 -3.91284 0 1271 -3.91284 1
gene 1 13 349 8 0 1274 8 1
gene 1 349 19 1.26568 0 1275 1.26568 1
gene 1 10 30 2.3307 0 1278 2.3307 1
gene 1 165 314 -2.71329 0 1280 -2.71329 1
gene 1 12 351 2.28972 0 1284 2.28972 1
gene 1 351 17 1.52929 0 1285 1.52929 1
gene 1 5 358 -0.949277 0 1305 -0.949277 1
gene 1 358 17 0.282687 0 1306 0.282687 1
gene 1 238 136 -4.16785 0 1311 -4.16785 1
gene 1 282 187 -0.782078 0 1330 -0.782078 1
gene 1 351 160 0.0445659 0 1332 0.0445659 1
gene 1 263 182 -1.63322 0 1352 -1.63322 1
gene 1 5 377 -1.13736 0 1376 -1.13736 1
gene 1 377 17 3.07684 0 1377 3.07684 1
gene 1 124 377 1.18416 0 1379 1.18416 1
gene 1 326 20 -8 0 1423 -8 1
gene 1 338 326 -4.37413 0 1447 -4.37413 1
gene 1 349 30 3.57511 0 1458 3.57511 1
gene 1 117 397 -0.903334 0 1464 -0.903334 1
gene 1 397 187 -1.41792 0 1465 -1.41792 1
gene 1 2 409 0.871899 0 1511 0.871899 1
gene 1 409 18 2.40966 0 1512 2.40966 1
gene 1 187 262 2.70026 0 1561 2.70026 1
gene 1 6 416 1.16052 0 1563 1.16052 1
gene 1 416 35 -0.841188 0 1564 -0.841188 1
gene 1 416 326 -1.39308 0 1575 -1.39308 1
gene 1 118 419 2.93568 0 1578 2.93568 1
gene 1 419 18 1.26623 0 1579 1.26623 1
gene 1 165 263 -0.488531 0 1587 -0.488531 1
gene 1 263 220 1.6382 0 1598 1.6382 1
gene 1 409 160 2.56182 0 1603 2.56182 1
gene 1 30 426 0.935991 0 1610 0.935991 1
gene 1 426 20 -2.72562 0 1611 -2.72562 1
gene 1 12 136 6.08132 0 1618 6.08132 1
gene 1 49 431 0.308621 0 1629 0.308621 1
gene 1 431 19 -1.96455 0 1630 -1.96455 1
gene 1 5 437 1.18786 0 1645 1.18786 1
gene 1 437 358 -5.24395 0 1646 -5.24395 1
gene 1 220 438 3.40718 0 1650 3.40718 1
gene 1 438 19 0.309972 0 1651 0.309972 1
gene 1 349 160 -0.0359406 0 1678 -0.0359406 1
gene 1 6 449 -4.00665 0 1707 -4.00665 1
gene 1 449 416 0.78266 0 1708 0.78266 1
gene 1 16 450 -1.72035 0 1709 -1.72035 1
gene 1 450 117 -1.16606 0 1710 -1.16606 1
gene 1 7 452 1.69238 0 1716 1.69238 1
gene 1 452 238 4.55008 0 1717 4.55008 1
gene 1 211 226 -1.95589 0 1726 -1.95589 1
gene 1 108 126 -3.16757 0 1729 -3.16757 1
gene 1 8 426 1.82934 0 1733 1.82934 1
gene 1 226 459 -0.291445 0 1751 -0.291445 1
gene 1 459 30 4.20106 0 1752 4.20106 1
gene 1 30 160 0.686862 0 1769 0.686862 1
gene 1 150 282 -0.967365 0 1774 -0.967365 1
gene 1 49 136 -1.65687 0 1806 -1.65687 1
gene 1 27 118 1.44626 0 1814 1.44626 1
gene 1 35 478 1.30926 0 1829 1.30926 1
gene 1 478 282 -1.54034 0 1830 -1.54034 1
gene 1 19 481 0.0243178 0 1839 0.0243178 1
gene 1 481 117 3.57675 0 1840 3.57675 1
gene 1 12 314 -1.82968 0 1843 -1.82968 1
gene 1 150 482 -3.14211 0 1844 -3.14211 1
gene 1 482 160 0.197215 0 1845 0.197215 1
gene 1 349 314 4.39581 0 1848 4.39581 1
gene 1 226 483 3.24715 0 1851 3.24715 1
gene 1 483 169 3.539 0 1852 3.539 1
gene 1 416 437 -0.473704 0 1856 -0.473704 1
gene 1 165 484 -0.138011 0 1858 -0.138011 1
gene 1 484 136 1.86654 0 1859 1.86654 1
gene 1 124 437 -2.4715 0 1878 -2.4715 1
genomeend 3

/* Organism #4 Fitness: 1885 Error: 196 */
genomestart 4
trait 1 0.230766 0.357832 0.645577 1 0.871032 0.126694 0.384071 0.528621 
node 1 1 1 1
node 2 1 1 1
node 3 1 1 1
node 4 1 1 1
node 5 1 1 1
node 6 1 1 1
node 7 1 1 1
node 8 1 1 1
node 9 1 1 1
node 10 1 1 1
node 11 1 1 1
node 12 1 1 1
node 13 1 1 1
node 14 1 1 1
node 15 1 1 1
node 16 1 1 1
node 17 1 0 2
node 18 1 0 2
node 19 1 0 2
node 20 1 0 2
node 27 1 0 0
node 30 1 0 0
node 35 1 0 0
node 49 1 0 0
node 108 1 0 0
node 117 1 0 0
node 118 1 0 0
node 123 1 0 0
node 124 1 0 0
node 126 1 0 0
node 136 1 0 0
node 142 1 0 0
node 150 1 0 0
node 160 1 0 0
node 165 1 0 0
node 169 1 0 0
node 182 1 0 0
node 187 1 0 0
node 192 1 0 0
node 209 1 0 0
node 211 1 0 0
node 220 1 0 0
node 226 1 0 0
node 238 1 0 0
node 262 1 0 0
node 263 1 0 0
node 282 1 0 0
node 284 1 0 0
node 307 1 0 0
node 314 1 0 0
node 326 1 0 0
node 328 1 0 0
node 332 1 0 0
node 338 1 0 0
node 345 1 0 0
node 347 1 0 0
node 349 1 0 0
node 351 1 0 0
node 358 1 0 0
node 377 1 0 0
node 397 1 0 0
node 409 1 0 0
node 416 1 0 0
node 419 1 0 0
node 426 1 0 0
node 431 1 0 0
node 437 1 0 0
node 438 1 0 0
node 449 1 0 0
node 450 1 0 0
node 452 1 0 0
node 459 1 0 0
node 478 1 0 0
node 481 1 0 0
node 482 1 0 0
node 483 1 0 0
node 484 1 0 0
gene 1 1 17 -0.116087 0 1 -0.116087 1
gene 1 2 17 6.12077 0 2 6.12077 1
gene 1 3 17 -3.13891 0 3 -3.13891 1
gene 1 4 17 -8 0 4 -8 1
gene 1 5 17 -0.961577 0 5 -0.961577 1
gene 1 6 17 1.83131 0 6 1.83131 1
gene 1 7 17 -3.90191 0 7 -3.90191 1
gene 1 8 17 -5.00277 0 8 -5.00277 1
gene 1 9 17 4.31735 0 9 4.31735 1
gene 1 10 17 6.57813 0 10 6.57813 1
gene 1 11 17 -2.08175 0 11 -2.08175 1
gene 1 12 17 1.50798 0 12 1.50798 1
gene 1 13 17 -2.91688 0 13 -2.91688 1
gene 1 14 17 2.14585 0 14 2.14585 1
gene 1 15 17 2.66324 0 15 2.66324 1
gene 1 16 17 2.05418 0 16 2.05418 1
gene 1 1 18 -8 0 17 -8 1
gene 1 2 18 -2.77908 0 18 -2.77908 1
gene 1 3 18 -5.63136 0 19 -5.63136 1
gene 1 4 18 4.12527 0 20 4.12527 1
gene 1 5 18 -4.81131 0 21 -4.81131 1
gene 1 6 18 -3.00414 0 22 -3.00414 1
gene 1 7 18 3.24736 0 23 3.24736 1
gene 1 8 18 5.7257 0 24 5.7257 1
gene 1 9 18 0.177844 0 25 0.177844 1
gene 1 10 18 -2.62405 0 26 -2.62405 1
gene 1 11 18 -2.72805 0 27 -2.72805 1
gene 1 12 18 -1.82637 0 28 -1.82637 1
gene 1 13 18 -0.270158 0 29 -0.270158 1
gene 1 14 18 -3.84201 0 30 -3.84201 1
gene 1 15 18 -8 0 31 -8 1
gene 1 16 18 0.147044 0 32 0.147044 1
gene 1 1 19 -0.577339 0 33 -0.577339 1
gene 1 2 19 0.44327 0 34 0.44327 1
gene 1 3 19 1.21198 0 35 1.21198 1
gene 1 4 19 -1.87163 0 36 -1.87163 1
gene 1 5 19 6.17216 0 37 6.17216 1
gene 1 6 19 2.05061 0 38 2.05061 1
gene 1 7 19 -0.966939 0 39 -0.966939 1
gene 1 8 19 4.53696 0 40 4.53696 1
gene 1 9 19 6.57813 0 41 6.57813 1
gene 1 10 19 -6.00746 0 42 -6.00746 1
gene 1 11 19 -0.927104 0 43 -0.927104 1
gene 1 12 19 -1.5124 0 44 -1.5124 1
gene 1 13 19 -4.80581 0 45 -4.80581 1
gene 1 14 19 0.608669 0 46 0.608669 1
gene 1 15 19 3.17982 0 47 3.17982 1
gene 1 16 19 5.28129 0 48 5.28129 1
gene 1 1 20 -6.39473 0 49 -6.39473 1
gene 1 2 20 -7.29505 0 50 -7.29505 1
gene 1 3 20 2.08454 0 51 2.08454 1
gene 1 4 20 -6.01021 0 52 -6.01021 1
gene 1 5 20 -2.62592 0 53 -2.62592 1
gene 1 6 20 5.84546 0 54 5.84546 1
gene 1 7 20 5.90499 0 55 5.90499 1
gene 1 8 20 0.549264 0 56 0.549264 1
gene 1 9 20 0.719399 0 57 0.719399 1
gene 1 10 20 5.76022 0 58 5.76022 1
gene 1 11 20 4.32268 0 59 4.32268 1
gene 1 12 20 6.18493 0 60 6.18493 1
gene 1 13 20 6.17964 0 61 6.17964 1
gene 1 14 20 -1.85734 0 62 -1.85734 1
gene 1 15 20 -2.24681 0 63 -2.24681 1
gene 1 16 20 7.16637 0 64 7.16637 1
gene 1 20 18 -3.35905 0 75 -3.35905 1
gene 1 16 27 -2.36534 0 92 -2.36534 1
gene 1 27 17 -0.497807 0 93 -0.497807 1
gene 1 6 30 -3.2567 0 100 -3.2567 1
gene 1 30 20 -4.83766 0 101 -4.83766 1
gene 1 6 35 4.88279 0 117 4.88279 1
gene 1 35 17 4.06887 0 118 4.06887 1
gene 1 17 30 -1.35773 0 135 -1.35773 1
gene 1 15 49 -0.184049 0 154 -0.184049 1
gene 1 49 20 2.88788 0 155 2.88788 1
gene 1 49 18 4.09433 0 225 4.09433 1
gene 1 35 19 6.7472 0 234 6.7472 1
gene 1 12 35 -4.72104 0 250 -4.72104 1
gene 1 49 19 1.73875 0 270 1.73875 1
gene 1 14 30 1.81906 0 272 1.81906 1
gene 1 35 18 -0.665989 0 298 -0.665989 1
gene 1 19 30 1.69362 0 312 1.69362 1
gene 1 2 49 -5.70993 0 326 -5.70993 1
gene 1 6 49 -0.347889 0 350 -0.347889 1
gene 1 7 30 3.0681 0 373 3.0681 1
gene 1 1 108 -2.66813 0 377 -2.66813 1
gene 1 108 18 7.99409 0 378 7.99409 1
gene 1 14 49 -4.11777 0 398 -4.11777 1
gene 1 16 117 3.92427 0 417 3.92427 1
gene 1 117 17 1.30194 0 418 1.30194 1
gene 1 19 117 -1.19755 0 419 -1.19755 1
gene 1 15 118 -1.03219 0 423 -1.03219 1
gene 1 118 18 6.33688 0 424 6.33688 1
gene 1 13 27 0.845344 0 428 0.845344 1
gene 1 11 30 -4.01116 0 438 -4.01116 1
gene 1 19 123 0.219328 0 441 0.219328 1
gene 1 123 30 -2.01411 0 442 -2.01411 1
gene 1 1 124 2.94261 0 445 2.94261 1
gene 1 124 19 3.40533 0 446 3.40533 1
gene 1 11 126 -1.92854 0 451 -1.92854 1
gene 1 126 20 6.76808 0 452 6.76808 1
gene 1 13 136 0.358189 0 486 0.358189 1
gene 1 136 18 -3.27754 0 487 -3.27754 1
gene 1 27 49 5.59676 0 488 5.59676 1
gene 1 16 142 1.88892 0 500 1.88892 1
gene 1 142 20 2.87967 0 501 2.87967 1
gene 1 123 150 0.678473 0 526 0.678473 1
gene 1 150 30 0.76573 0 527 0.76573 1
gene 1 16 160 2.11441 0 551 2.11441 1
gene 1 160 18 -5.99795 0 552 -5.99795 1
gene 1 6 165 6.24776 0 570 6.24776 1
gene 1 165 30 0.953744 0 571 0.953744 1
gene 1 6 169 1.46299 0 579 1.46299 1
gene 1 169 18 2.41924 0 580 2.41924 1
gene 1 165 136 -0.105244 0 588 -0.105244 0
gene 1 3 49 -1.81642 0 622 -1.81642 1
gene 1 118 182 2.07745 0 629 2.07745 1
gene 1 182 18 0.877225 0 630 0.877225 1
gene 1 117 187 1.48958 0 650 1.48958 1
gene 1 187 17 7.45656 0 651 7.45656 1
gene 1 12 192 6.18632 0 669 6.18632 1
gene 1 192 19 8 0 670 8 1
gene 1 30 209 -4.69422 0 724 -4.69422 1
gene 1 209 20 1.87393 0 725 1.87393 1
gene 1 1 211 -0.715938 0 731 -0.715938 1
gene 1 211 19 1.11564 0 732 1.11564 1
gene 1 150 160 1.68225 0 735 1.68225 1
gene 1 9 187 1.20487 0 747 1.20487 1
gene 1 35 220 -2.22716 0 761 -2.22716 1
gene 1 220 19 -7.87329 0 762 -7.87329 1
gene 1 14 27 -6.39692 0 770 -6.39692 1
gene 1 150 226 5.63513 0 784 5.63513 1
gene 1 226 30 6.02916 0 785 6.02916 1
gene 1 226 169 1.37863 0 796 1.37863 0
gene 1 7 238 2.77491 0 830 2.77491 1
gene 1 238 30 0.219472 0 831 0.219472 1
gene 1 226 238 -5.33957 0 872 -5.33957 1
gene 1 209 262 -0.160431 0 912 -0.160431 1
gene 1 262 20 -3.90971 0 913 -3.90971 1
gene 1 11 263 -0.696407 0 921 -0.696407 1
gene 1 263 126 1.78375 0 922 1.78375 1
gene 1 263 118 -2.25121 0 932 -2.25121 1
gene 1 192 30 -2.50129 0 989 -2.50129 1
gene 1 35 282 -3.72605 0 992 -3.72605 1
gene 1 282 18 6.65898 0 993 6.65898 1
gene 1 12 209 -2.33177 0 999 -2.33177 1
gene 1 238 284 6.6144 0 1002 6.6144 1
gene 1 284 30 6.73078 0 1003 6.73078 1
gene 1 8 282 -1.36214 0 1033 -1.36214 1
gene 1 17 142 -6.03969 0 1084 -6.03969 1
gene 1 16 30 -6.71721 0 1087 -6.71721 1
gene 1 1 307 1.64411 0 1088 1.64411 1
gene 1 307 17 -1.14203 0 1089 -1.14203 1
gene 1 117 142 -4.26459 0 1101 -4.26459 1
gene 1 16 314 2.93264 0 1108 2.93264 1
gene 1 314 27 -1.48005 0 1109 -1.48005 1
gene 1 1 314 0.00417224 0 1142 0.00417224 1
gene 1 3 326 -4.71648 0 1157 -4.71648 1
gene 1 326 19 0.581803 0 1158 0.581803 1
gene 1 187 328 4.62377 0 1163 4.62377 1
gene 1 328 17 0.719216 0 1164 0.719216 1
gene 1 1 332 4.94027 0 1175 4.94027 1
gene 1 332 124 -6.40866 0 1176 -6.40866 1
gene 1 16 338 -4.42289 0 1210 -4.42289 1
gene 1 338 30 1.14549 0 1211 1.14549 1
gene 1 9 192 -8 0 1220 -8 1
gene 1 118 142 3.53517 0 1243 3.53517 1
gene 1 150 345 0.462332 0 1245 0.462332 1
gene 1 345 226 -1.66152 0 1246 -1.66152 1
gene 1 9 347 -8 0 1256 -8 1
gene 1 347 17 0.948246 0 1257 0.948246 1
gene 1 263 19 -3.43492 0 1266 -3.43492 1
gene 1 118 49 -1.01515 0 1271 -1.01515 1
gene 1 13 349 6.22956 0 1274 6.22956 1
gene 1 349 19 1.79081 0 1275 1.79081 1
gene 1 10 30 3.26478 0 1278 3.26478 1
gene 1 165 314 1.22563 0 1280 1.22563 1
gene 1 12 351 1.76089 0 1284 1.76089 1
gene 1 351 17 -2.92233 0 1285 -2.92233 1
gene 1 5 358 -3.01585 0 1305 -3.01585 1
gene 1 358 17 -0.512174 0 1306 -0.512174 1
gene 1 238 136 -2.81512 0 1311 -2.81512 1
gene 1 282 187 -1.78466 0 1330 -1.78466 1
gene 1 351 160 0.549942 0 1332 0.549942 1
gene 1 263 182 -0.88061 0 1352 -0.88061 1
gene 1 5 377 5.11031 0 1376 5.11031 1
gene 1 377 17 4.12787 0 1377 4.12787 1
gene 1 124 377 0.808998 0 1379 0.808998 1
gene 1 326 20 -6.69121 0 1423 -6.69121 1
gene 1 338 326 -7.1631 0 1447 -7.1631 1
gene 1 349 30 5.37228 0 1458 5.37228 1
gene 1 117 397 -2.11847 0 1464 -2.11847 1
gene 1 397 187 -2.27432 0 1465 -2.27432 1
gene 1 2 409 -2.75399 0 1511 -2.75399 1
gene 1 409 18 2.1161 0 1512 2.1161 1
gene 1 187 262 5.67987 0 1561 5.67987 1
gene 1 6 416 1.14382 0 1563 1.14382 1
gene 1 416 35 0.287428 0 1564 0.287428 1
gene 1 416 326 -3.60592 0 1575 -3.60592 1
gene 1 118 419 -1.30921 0 1578 -1.30921 1
gene 1 419 18 0.0264351 0 1579 0.0264351 1
gene 1 165 263 -0.835969 0 1587 -0.835969 1
gene 1 263 220 0.846153 0 1598 0.846153 1
gene 1 409 160 1.24683 0 1603 1.24683 1
gene 1 30 426 3.68141 0 1610 3.68141 1
gene 1 426 20 0.277692 0 1611 0.277692 1
gene 1 12 136 -0.492463 0 1618 -0.492463 1
gene 1 49 431 0.475105 0 1629 0.475105 1
gene 1 431 19 -0.961516 0 1630 -0.961516 1
gene 1 5 437 -5.4203 0 1645 -5.4203 1
gene 1 437 358 -3.00835 0 1646 -3.00835 1
gene 1 220 438 0.999506 0 1650 0.999506 1
gene 1 438 19 1.60388 0 1651 1.60388 1
gene 1 349 160 0.389087 0 1678 0.389087 1
gene 1 6 449 0.947662 0 1707 0.947662 1
gene 1 449 416 0.42563 0 1708 0.42563 1
gene 1 16 450 -1.16347 0 1709 -1.16347 1
gene 1 450 117 -1.89983 0 1710 -1.89983 1
gene 1 7 452 0.772607 0 1716 0.772607 1
gene 1 452 238 2.02358 0 1717 2.02358 1
gene 1 211 226 -0.369706 0 1726 -0.369706 1
gene 1 108 126 -3.80165 0 1729 -3.80165 1
gene 1 8 426 -0.111325 0 1733 -0.111325 1
gene 1 226 459 -1.95085 0 1751 -1.95085 1
gene 1 459 30 0.0417624 0 1752 0.0417624 1
gene 1 30 160 -1.51264 0 1769 -1.51264 1
gene 1 150 282 -0.0306673 0 1774 -0.0306673 1
gene 1 49 136 -1.0666 0 1806 -1.0666 1
gene 1 27 118 -0.88775 0 1814 -0.88775 1
gene 1 35 478 -0.604185 0 1829 -0.604185 1
gene 1 478 282 -2.32629 0 1830 -2.32629 1
gene 1 19 481 0.248276 0 1839 0.248276 1
gene 1 481 117 2.94206 0 1840 2.94206 1
gene 1 12 314 -0.371396 0 1843 -0.371396 1
gene 1 150 482 -4.92192 0 1844 -4.92192 1
gene 1 482 160 0.990272 0 1845 0.990272 1
gene 1 349 314 2.47443 0 1848 2.47443 1
gene 1 226 483 0.886473 0 1851 0.886473 1
gene 1 483 169 4.17062 0 1852 4.17062 1
gene 1 416 437 3.41481 0 1856 3.41481 1
gene 1 165 484 1.23575 0 1858 1.23575 1
gene 1 484 136 0.206943 0 1859 0.206943 1
gene 1 124 437 0.524866 0 1878 0.524866 1
genomeend 4

/* Organism #5 Fitness: 438 Error: 64 */
genomestart 5
trait 1 0.230766 0.357832 0.645577 1 0.871032 0.126694 0.384071 0.528621 
node 1 1 1 1
node 2 1 1 1
node 3 1 1 1
node 4 1 1 1
node 5 1 1 1
node 6 1 1 1
node 7 1 1 1
node 8 1 1 1
node 9 1 1 1
node 10 1 1 1
node 11 1 1 1
node 12 1 1 1
node 13 1 1 1
node 14 1 1 1
node 15 1 1 1
node 16 1 1 1
node 17 1 0 2
node 18 1 0 2
node 19 1 0 2
node 20 1 0 2
node 27 1 0 0
node 30 1 0 0
node 35 1 0 0
node 49 1 0 0
node 108 1 0 0
node 117 1 0 0
node 118 1 0 0
node 123 1 0 0
node 124 1 0 0
node 126 1 0 0
node 136 1 0 0
node 142 1 0 0
node 150 1 0 0
node 160 1 0 0
node 165 1 0 0
node 169 1 0 0
node 182 1 0 0
node 187 1 0 0
node 192 1 0 0
node 209 1 0 0
node 211 1 0 0
node 220 1 0 0
node 226 1 0 0
node 238 1 0 0
node 262 1 0 0
node 263 1 0 0
node 282 1 0 0
node 284 1 0 0
node 307 1 0 0
node 314 1 0 0
node 326 1 0 0
node 328 1 0 0
node 332 1 0 0
node 338 1 0 0
node 345 1 0 0
node 347 1 0 0
node 349 1 0 0
node 351 1 0 0
node 358 1 0 0
node 377 1 0 0
node 397 1 0 0
node 409 1 0 0
node 416 1 0 0
node 419 1 0 0
node 426 1 0 0
node 431 1 0 0
node 437 1 0 0
node 438 1 0 0
node 449 1 0 0
node 450 1 0 0
node 452 1 0 0
node 459 1 0 0
node 478 1 0 0
node 481 1 0 0
node 482 1 0 0
node 483 1 0 0
node 484 1 0 0
gene 1 1 17 -1.21656 0 1 -1.21656 1
gene 1 2 17 -1.74363 0 2 -1.74363 1
gene 1 3 17 -3.06213 0 3 -3.06213 1
gene 1 4 17 -8 0 4 -8 1
gene 1 5 17 1.07466 0 5 1.07466 1
gene 1 6 17 0.0408892 0 6 0.0408892 1
gene 1 7 17 -7.33573 0 7 -7.33573 1
gene 1 8 17 -6.90275 0 8 -6.90275 1
gene 1 9 17 6.4265 0 9 6.4265 1
gene 1 10 17 6.25822 0 10 6.25822 1
gene 1 11 17 0.744089 0 11 0.744089 1
gene 1 12 17 -0.616373 0 12 -0.616373 1
gene 1 13 17 -4.85091 0 13 -4.85091 1
gene 1 14 17 -0.303895 0 14 -0.303895 1
gene 1 15 17 2.43124 0 15 2.43124 1
gene 1 16 17 -0.710844 0 16 -0.710844 1
gene 1 1 18 -8 0 17 -8 1
gene 1 2 18 -3.77768 0 18 -3.77768 1
gene 1 3 18 -5.02173 0 19 -5.02173 1
gene 1 4 18 5.95155 0 20 5.95155 1
gene 1 5 18 -4.01516 0 21 -4.01516 1
gene 1 6 18 -5.62577 0 22 -5.62577 1
gene 1 7 18 1.6638 0 23 1.6638 1
gene 1 8 18 1.508 0 24 1.508 1
gene 1 9 18 1.97177 0 25 1.97177 1
gene 1 10 18 2.45754 0 26 2.45754 1
gene 1 11 18 1.09138 0 27 1.09138 1
gene 1 12 18 1.95159 0 28 1.95159 1
gene 1 13 18 -2.7196 0 29 -2.7196 1
gene 1 14 18 -0.236556 0 30 -0.236556 1
gene 1 15 18 -8 0 31 -8 1
gene 1 16 18 -0.936166 0 32 -0.936166 1
gene 1 1 19 1.43139 0 33 1.43139 1
gene 1 2 19 0.441682 0 34 0.441682 1
gene 1 3 19 -2.62247 0 35 -2.62247 1
gene 1 4 19 -2.03588 0 36 -2.03588 1
gene 1 5 19 2.6501 0 37 2.6501 1
gene 1 6 19 1.40733 0 38 1.40733 1
gene 1 7 19 1.7475 0 39 1.7475 1
gene 1 8 19 3.43814 0 40 3.43814 1
gene 1 9 19 -1.72171 0 41 -1.72171 1
gene 1 10 19 -4.80666 0 42 -4.80666 1
gene 1 11 19 0.931897 0 43 0.931897 1
gene 1 12 19 -1.94634 0 44 -1.94634 1
gene 1 13 19 0.0229368 0 45 0.0229368 1
gene 1 14 19 0.551589 0 46 0.551589 1
gene 1 15 19 5.31657 0 47 5.31657 1
gene 1 16 19 6.21734 0 48 6.21734 1
gene 1 1 20 1.42372 0 49 1.42372 1
gene 1 2 20 -4.37467 0 50 -4.37467 1
gene 1 3 20 -1.66872 0 51 -1.66872 1
gene 1 4 20 -7.21822 0 52 -7.21822 1
gene 1 5 20 -1.0961 0 53 -1.0961 1
gene 1 6 20 5.25552 0 54 5.25552 1
gene 1 7 20 6.91874 0 55 6.91874 1
gene 1 8 20 1.71034 0 56 1.71034 1
gene 1 9 20 5.1334 0 57 5.1334 1
gene 1 10 20 8 0 58 8 1
gene 1 11 20 1.79194 0 59 1.79194 1
gene 1 12 20 1.60976 0 60 1.60976 1
gene 1 13 20 8 0 61 8 1
gene 1 14 20 -2.47655 0 62 -2.47655 1
gene 1 15 20 -1.82767 0 63 -1.82767 1
gene 1 16 20 1.4101 0 64 1.4101 1
gene 1 20 18 -2.83551 0 75 -2.83551 1
gene 1 16 27 -0.808411 0 92 -0.808411 1
gene 1 27 17 1.47924 0 93 1.47924 1
gene 1 6 30 -2.3846 0 100 -2.3846 1
gene 1 30 20 -7.11479 0 101 -7.11479 1
gene 1 6 35 -2.34813 0 117 -2.34813 1
gene 1 35 17 0.69375 0 118 0.69375 1
gene 1 17 30 2.62243 0 135 2.62243 1
gene 1 15 49 -2.28616 0 154 -2.28616 1
gene 1 49 20 0.847095 0 155 0.847095 1
gene 1 49 18 6.55016 0 225 6.55016 1
gene 1 35 19 6.78489 0 234 6.78489 1
gene 1 12 35 1.38329 0 250 1.38329 1
gene 1 49 19 0.105096 0 270 0.105096 1
gene 1 14 30 0.658509 0 272 0.658509 1
gene 1 35 18 -2.59248 0 298 -2.59248 1
gene 1 19 30 1.05642 0 312 1.05642 1
gene 1 2 49 -6.41285 0 326 -6.41285 1
gene 1 6 49 -0.267913 0 350 -0.267913 1
gene 1 7 30 -0.0148923 0 373 -0.0148923 1
gene 1 1 108 2.35347 0 377 2.35347 1
gene 1 108 18 0.419346 0 378 0.419346 1
gene 1 14 49 -3.44445 0 398 -3.44445 1
gene 1 16 117 4.17261 0 417 4.17261 1
gene 1 117 17 2.34239 0 418 2.34239 1
gene 1 19 117 -3.58954 0 419 -3.58954 1
gene 1 15 118 -1.48955 0 423 -1.48955 1
gene 1 118 18 6.60777 0 424 6.60777 1
gene 1 13 27 -0.540756 0 428 -0.540756 1
gene 1 11 30 -4.08381 0 438 -4.08381 1
gene 1 19 123 -2.0088 0 441 -2.0088 1
gene 1 123 30 -1.5805 0 442 -1.5805 1
gene 1 1 124 3.45673 0 445 3.45673 1
gene 1 124 19 2.66343 0 446 2.66343 1
gene 1 11 126 1.74189 0 451 1.74189 1
gene 1 126 20 5.3802 0 452 5.3802 1
gene 1 13 136 -1.95175 0 486 -1.95175 1
gene 1 136 18 -1.3593 0 487 -1.3593 1
gene 1 27 49 1.45373 0 488 1.45373 1
gene 1 16 142 2.49546 0 500 2.49546 1
gene 1 142 20 4.62296 0 501 4.62296 1
gene 1 123 150 1.48152 0 526 1.48152 1
gene 1 150 30 2.03846 0 527 2.03846 1
gene 1 16 160 4.38481 0 551 4.38481 1
gene 1 160 18 -2.46472 0 552 -2.46472 1
gene 1 6 165 5.93299 0 570 5.93299 1
gene 1 165 30 -2.37623 0 571 -2.37623 1
gene 1 6 169 0.619859 0 579 0.619859 1
gene 1 169 18 4.29405 0 580 4.29405 1
gene 1 165 136 0.391607 0 588 0.391607 0
gene 1 3 49 -1.71134 0 622 -1.71134 1
gene 1 118 182 0.998377 0 629 0.998377 1
gene 1 182 18 -0.859548 0 630 -0.859548 1
gene 1 117 187 3.27197 0 650 3.27197 1
gene 1 187 17 4.46675 0 651 4.46675 1
gene 1 12 192 5.04062 0 669 5.04062 1
gene 1 192 19 8 0 670 8 1
gene 1 30 209 -5.92098 0 724 -5.92098 1
gene 1 209 20 -1.97483 0 725 -1.97483 1
gene 1 1 211 0.0536679 0 731 0.0536679 1
gene 1 211 19 -1.36975 0 732 -1.36975 1
gene 1 150 160 4.08698 0 735 4.08698 1
gene 1 9 187 -0.277573 0 747 -0.277573 1
gene 1 35 220 2.12438 0 761 2.12438 1
gene 1 220 19 -8 0 762 -8 1
gene 1 14 27 -6.34183 0 770 -6.34183 1
gene 1 150 226 5.88545 0 784 5.88545 1
gene 1 226 30 1.84041 0 785 1.84041 1
gene 1 226 169 -2.53074 0 796 -2.53074 0
gene 1 7 238 -1.01687 0 830 -1.01687 1
gene 1 238 30 -2.73103 0 831 -2.73103 1
gene 1 226 238 -1.34208 0 872 -1.34208 1
gene 1 209 262 -0.010976 0 912 -0.010976 1
gene 1 262 20 -1.33692 0 913 -1.33692 1
gene 1 11 263 1.17943 0 921 1.17943 1
gene 1 263 126 1.92275 0 922 1.92275 1
gene 1 263 118 0.250749 0 932 0.250749 1
gene 1 192 30 -0.920015 0 989 -0.920015 1
gene 1 35 282 -1.33909 0 992 -1.33909 1
gene 1 282 18 7.35426 0 993 7.35426 1
gene 1 12 209 0.375412 0 999 0.375412 1
gene 1 238 284 1.01266 0 1002 1.01266 1
gene 1 284 30 8 0 1003 8 1
gene 1 8 282 -0.349053 0 1033 -0.349053 1
gene 1 17 142 -2.03184 0 1084 -2.03184 1
gene 1 16 30 -2.81897 0 1087 -2.81897 1
gene 1 1 307 -2.00096 0 1088 -2.00096 1
gene 1 307 17 -1.23008 0 1089 -1.23008 1
gene 1 117 142 -1.21037 0 1101 -1.21037 1
gene 1 16 314 2.34709 0 1108 2.34709 1
gene 1 314 27 -3.03453 0 1109 -3.03453 1
gene 1 1 314 -2.27157 0 1142 -2.27157 1
gene 1 3 326 -6.83061 0 1157 -6.83061 1
gene 1 326 19 -3.47068 0 1158 -3.47068 1
gene 1 187 328 3.31972 0 1163 3.31972 1
gene 1 328 17 0.403176 0 1164 0.403176 1
gene 1 1 332 6.44843 0 1175 6.44843 1
gene 1 332 124 -6.64556 0 1176 -6.64556 1
gene 1 16 338 -2.05403 0 1210 -2.05403 1
gene 1 338 30 4.12594 0 1211 4.12594 1
gene 1 9 192 -8 0 1220 -8 1
gene 1 118 142 4.65471 0 1243 4.65471 1
gene 1 150 345 2.8107 0 1245 2.8107 1
gene 1 345 226 1.2078 0 1246 1.2078 1
gene 1 9 347 -8 0 1256 -8 1
gene 1 347 17 0.537644 0 1257 0.537644 1
gene 1 263 19 -2.70345 0 1266 -2.70345 1
gene 1 118 49 -1.26681 0 1271 -1.26681 1
gene 1 13 349 8 0 1274 8 1
gene 1 349 19 0.777952 0 1275 0.777952 1
gene 1 10 30 -2.16328 0 1278 -2.16328 1
gene 1 165 314 1.06093 0 1280 1.06093 1
gene 1 12 351 1.20623 0 1284 1.20623 1
gene 1 351 17 -4.28998 0 1285 -4.28998 1
gene 1 5 358 0.886144 0 1305 0.886144 1
gene 1 358 17 -3.13579 0 1306 -3.13579 1
gene 1 238 136 0.854112 0 1311 0.854112 1
gene 1 282 187 -3.16046 0 1330 -3.16046 1
gene 1 351 160 0.89893 0 1332 0.89893 1
gene 1 263 182 -0.345722 0 1352 -0.345722 1
gene 1 5 377 2.63139 0 1376 2.63139 1
gene 1 377 17 2.51794 0 1377 2.51794 1
gene 1 124 377 6.7154 0 1379 6.7154 1
gene 1 326 20 -8 0 1423 -8 1
gene 1 338 326 -6.70778 0 1447 -6.70778 1
gene 1 349 30 0.26222 0 1458 0.26222 1
gene 1 117 397 0.411431 0 1464 0.411431 1
gene 1 397 187 0.371033 0 1465 0.371033 1
gene 1 2 409 -0.983817 0 1511 -0.983817 1
gene 1 409 18 -0.398034 0 1512 -0.398034 1
gene 1 187 262 3.54058 0 1561 3.54058 1
gene 1 6 416 -0.481913 0 1563 -0.481913 1
gene 1 416 35 -0.141264 0 1564 -0.141264 1
gene 1 416 326 -1.46614 0 1575 -1.46614 1
gene 1 118 419 0.886371 0 1578 0.886371 1
gene 1 419 18 2.46588 0 1579 2.46588 1
gene 1 165 263 -1.18584 0 1587 -1.18584 1
gene 1 263 220 0.410882 0 1598 0.410882 1
gene 1 409 160 -0.54779 0 1603 -0.54779 1
gene 1 30 426 0.934724 0 1610 0.934724 1
gene 1 426 20 -0.263117 0 1611 -0.263117 1
gene 1 12 136 4.87051 0 1618 4.87051 1
gene 1 49 431 -2.02796 0 1629 -2.02796 1
gene 1 431 19 -3.04502 0 1630 -3.04502 1
gene 1 5 437 -2.30418 0 1645 -2.30418 1
gene 1 437 358 0.0280555 0 1646 0.0280555 1
gene 1 220 438 2.53454 0 1650 2.53454 1
gene 1 438 19 -0.770506 0 1651 -0.770506 1
gene 1 349 160 0.824898 0 1678 0.824898 1
gene 1 6 449 -3.72504 0 1707 -3.72504 1
gene 1 449 416 -0.306813 0 1708 -0.306813 1
gene 1 16 450 0.291237 0 1709 0.291237 1
gene 1 450 117 0.56134 0 1710 0.56134 1
gene 1 7 452 -1.11353 0 1716 -1.11353 1
gene 1 452 238 1.07641 0 1717 1.07641 1
gene 1 211 226 -1.22708 0 1726 -1.22708 1
gene 1 108 126 -1.69306 0 1729 -1.69306 1
gene 1 8 426 1.42602 0 1733 1.42602 1
gene 1 226 459 -2.99822 0 1751 -2.99822 1
gene 1 459 30 5.2882 0 1752 5.2882 1
gene 1 30 160 1.26317 0 1769 1.26317 1
gene 1 150 282 -3.02439 0 1774 -3.02439 1
gene 1 49 136 0.360179 0 1806 0.360179 1
gene 1 27 118 0.144093 0 1814 0.144093 1
gene 1 35 478 1.19734 0 1829 1.19734 1
gene 1 478 282 -4.53211 0 1830 -4.53211 1
gene 1 19 481 0.66719 0 1839 0.66719 1
gene 1 481 117 -1.52388 0 1840 -1.52388 1
gene 1 12 314 -0.199544 0 1843 -0.199544 1
gene 1 150 482 -3.2486 0 1844 -3.2486 1
gene 1 482 160 -0.38515 0 1845 -0.38515 1
gene 1 349 314 6.98323 0 1848 6.98323 1
gene 1 226 483 4.92819 0 1851 4.92819 1
gene 1 483 169 3.62005 0 1852 3.62005 1
gene 1 416 437 2.44524 0 1856 2.44524 1
gene 1 165 484 0.981235 0 1858 0.981235 1
gene 1 484 136 2.97309 0 1859 2.97309 1
gene 1 124 437 -1.34395 0 1878 -1.34395 1
genomeend 5

/* Organism #6 Fitness: 2313 Error: 245 */
genomestart 6
trait 1 0.230766 0.357832 0.645577 1 0.871032 0.126694 0.384071 0.528621 
node 1 1 1 1
node 2 1 1 1
node 3 1 1 1
node 4 1 1 1
node 5 1 1 1
node 6 1 1 1
node 7 1 1 1
node 8 1 1 1
node 9 1 1 1
node 10 1 1 1
node 11 1 1 1
node 12 1 1 1
node 13 1 1 1
node 14 1 1 1
node 15 1 1 1
node 16 1 1 1
node 17 1 0 2
node 18 1 0 2
node 19 1 0 2
node 20 1 0 2
node 27 1 0 0
node 30 1 0 0
node 35 1 0 0
node 49 1 0 0
node 108 1 0 0
node 117 1 0 0
node 118 1 0 0
node 123 1 0 0
node 124 1 0 0
node 126 1 0 0
node 136 1 0 0
node 142 1 0 0
node 150 1 0 0
node 160 1 0 0
node 165 1 0 0
node 169 1 0 0
node 182 1 0 0
node 187 1 0 0
node 192 1 0 0
node 209 1 0 0
node 211 1 0 0
node 220 1 0 0
node 226 1 0 0
node 238 1 0 0
node 262 1 0 0
node 263 1 0 0
node 282 1 0 0
node 284 1 0 0
node 307 1 0 0
node 314 1 0 0
node 326 1 0 0
node 328 1 0 0
node 332 1 0 0
node 338 1 0 0
node 345 1 0 0
node 347 1 0 0
node 349 1 0 0
node 351 1 0 0
node 358 1 0 0
node 377 1 0 0
node 397 1 0 0
node 409 1 0 0
node 416 1 0 0
node 419 1 0 0
node 426 1 0 0
node 431 1 0 0
node 437 1 0 0
node 438 1 0 0
node 449 1 0 0
node 450 1 0 0
node 452 1 0 0
node 459 1 0 0
node 478 1 0 0
node 481 1 0 0
node 482 1 0 0
node 483 1 0 0
node 484 1 0 0
node 489 1 0 0
gene 1 1 17 -0.236757 0 1 -0.236757 1
gene 1 2 17 5.74049 0 2 5.74049 1
gene 1 3 17 -2.01941 0 3 -2.01941 1
gene 1 4 17 -7.38205 0 4 -7.38205 1
gene 1 5 17 1.07466 0 5 1.07466 1
gene 1 6 17 -0.472006 0 6 -0.472006 1
gene 1 7 17 -5.66226 0 7 -5.66226 1
gene 1 8 17 -4.6514 0 8 -4.6514 1
gene 1 9 17 6.4265 0 9 6.4265 1
gene 1 10 17 5.6707 0 10 5.6707 1
gene 1 11 17 -0.780032 0 11 -0.780032 1
gene 1 12 17 0.051775 0 12 0.051775 1
gene 1 13 17 -3.45578 0 13 -3.45578 1
gene 1 14 17 3.72973 0 14 3.72973 1
gene 1 15 17 2.55332 0 15 2.55332 1
gene 1 16 17 -1.53122 0 16 -1.53122 1
gene 1 1 18 -6.83636 0 17 -6.83636 1
gene 1 2 18 -2.45418 0 18 -2.45418 1
gene 1 3 18 -1.23002 0 19 -1.23002 1
gene 1 4 18 5.95155 0 20 5.95155 1
gene 1 5 18 -1.68802 0 21 -1.68802 1
gene 1 6 18 -3.16075 0 22 -3.16075 1
gene 1 7 18 1.42503 0 23 1.42503 1
gene 1 8 18 6.74484 0 24 6.74484 1
gene 1 9 18 1.72332 0 25 1.72332 1
gene 1 10 18 -0.793424 0 26 -0.793424 1
gene 1 11 18 -0.102616 0 27 -0.102616 1
gene 1 12 18 0.517298 0 28 0.517298 1
gene 1 13 18 -2.9276 0 29 -2.9276 1
gene 1 14 18 -1.9052 0 30 -1.9052 1
gene 1 15 18 -6.93349 0 31 -6.93349 1
gene 1 16 18 -1.80957 0 32 -1.80957 1
gene 1 1 19 0.56491 0 33 0.56491 1
gene 1 2 19 0.720674 0 34 0.720674 1
gene 1 3 19 -0.75785 0 35 -0.75785 1
gene 1 4 19 -1.83326 0 36 -1.83326 1
gene 1 5 19 3.82641 0 37 3.82641 1
gene 1 6 19 6.40478 0 38 6.40478 1
gene 1 7 19 2.03943 0 39 2.03943 1
gene 1 8 19 2.25682 0 40 2.25682 1
gene 1 9 19 7.75898 0 41 7.75898 1
gene 1 10 19 -5.45951 0 42 -5.45951 1
gene 1 11 19 1.57038 0 43 1.57038 1
gene 1 12 19 -0.492376 0 44 -0.492376 1
gene 1 13 19 -3.18545 0 45 -3.18545 1
gene 1 14 19 -1.20933 0 46 -1.20933 1
gene 1 15 19 3.59389 0 47 3.59389 1
gene 1 16 19 4.21489 0 48 4.21489 1
gene 1 1 20 -7.50733 0 49 -7.50733 1
gene 1 2 20 -5.89866 0 50 -5.89866 1
gene 1 3 20 -1.5883 0 51 -1.5883 1
gene 1 4 20 -4.7577 0 52 -4.7577 1
gene 1 5 20 -1.11967 0 53 -1.11967 1
gene 1 6 20 5.54131 0 54 5.54131 1
gene 1 7 20 7.82868 0 55 7.82868 1
gene 1 8 20 -0.184814 0 56 -0.184814 1
gene 1 9 20 3.94638 0 57 3.94638 1
gene 1 10 20 6.77478 0 58 6.77478 1
gene 1 11 20 2.74165 0 59 2.74165 1
gene 1 12 20 5.54041 0 60 5.54041 1
gene 1 13 20 8 0 61 8 1
gene 1 14 20 -3.20493 0 62 -3.20493 1
gene 1 15 20 -3.69978 0 63 -3.69978 1
gene 1 16 20 0.00372884 0 64 0.00372884 1
gene 1 20 18 -0.762798 0 75 -0.762798 1
gene 1 16 27 -2.69329 0 92 -2.69329 1
gene 1 27 17 0.446646 0 93 0.446646 1
gene 1 6 30 -1.70986 0 100 -1.70986 1
gene 1 30 20 -6.22088 0 101 -6.22088 1
gene 1 6 35 4.38853 0 117 4.38853 1
gene 1 35 17 -2.21432 0 118 -2.21432 1
gene 1 17 30 0.765459 0 135 0.765459 1
gene 1 15 49 -0.954225 0 154 -0.954225 1
gene 1 49 20 0.995128 0 155 0.995128 1
gene 1 49 18 7.60558 0 225 7.60558 1
gene 1 35 19 7.63047 0 234 7.63047 1
gene 1 12 35 -5.50178 0 250 -5.50178 1
gene 1 49 19 -0.0706885 0 270 -0.0706885 1
gene 1 14 30 -0.0640235 0 272 -0.0640235 1
gene 1 35 18 -0.433157 0 298 -0.433157 1
gene 1 19 30 -0.724332 0 312 -0.724332 1
gene 1 2 49 -7.20647 0 326 -7.20647 1
gene 1 6 49 -3.06825 0 350 -3.06825 1
gene 1 7 30 2.18065 0 373 2.18065 1
gene 1 1 108 -3.69151 0 377 -3.69151 1
gene 1 108 18 6.98125 0 378 6.98125 1
gene 1 14 49 -3.43062 0 398 -3.43062 1
gene 1 16 117 3.66931 0 417 3.66931 1
gene 1 117 17 2.34239 0 418 2.34239 1
gene 1 19 117 -2.307 0 419 -2.307 1
gene 1 15 118 -1.061 0 423 -1.061 1
gene 1 118 18 4.37169 0 424 4.37169 1
gene 1 13 27 1.69992 0 428 1.69992 1
gene 1 11 30 -3.81444 0 438 -3.81444 1
gene 1 19 123 1.33114 0 441 1.33114 1
gene 1 123 30 0.340835 0 442 0.340835 1
gene 1 1 124 1.66165 0 445 1.66165 1
gene 1 124 19 3.31572 0 446 3.31572 1
gene 1 11 126 2.28052 0 451 2.28052 1
gene 1 126 20 7.37279 0 452 7.37279 1
gene 1 13 136 2.0828 0 486 2.0828 1
gene 1 136 18 -1.3593 0 487 -1.3593 1
gene 1 27 49 0.705583 0 488 0.705583 1
gene 1 16 142 3.93793 0 500 3.93793 0
gene 1 142 20 3.61914 0 501 3.61914 1
gene 1 123 150 -0.952669 0 526 -0.952669 1
gene 1 150 30 2.02955 0 527 2.02955 1
gene 1 16 160 3.54576 0 551 3.54576 1
gene 1 160 18 -3.90579 0 552 -3.90579 1
gene 1 6 165 8 0 570 8 1
gene 1 165 30 -2.3895 0 571 -2.3895 1
gene 1 6 169 1.52098 0 579 1.52098 1
gene 1 169 18 4.29405 0 580 4.29405 1
gene 1 165 136 0.959299 0 588 0.959299 0
gene 1 3 49 -1.47286 0 622 -1.47286 1
gene 1 118 182 1.60894 0 629 1.60894 1
gene 1 182 18 1.30406 0 630 1.30406 1
gene 1 117 187 4.66369 0 650 4.66369 1
gene 1 187 17 5.45383 0 651 5.45383 1
gene 1 12 192 8 0 669 8 1
gene 1 192 19 8 0 670 8 1
gene 1 30 209 -5.92098 0 724 -5.92098 1
gene 1 209 20 2.03957 0 725 2.03957 1
gene 1 1 211 -0.930062 0 731 -0.930062 1
gene 1 211 19 0.331388 0 732 0.331388 1
gene 1 150 160 3.67384 0 735 3.67384 1
gene 1 9 187 -2.75313 0 747 -2.75313 1
gene 1 35 220 -3.11838 0 761 -3.11838 1
gene 1 220 19 -8 0 762 -8 1
gene 1 14 27 -5.57993 0 770 -5.57993 1
gene 1 150 226 5.61803 0 784 5.61803 1
gene 1 226 30 3.77435 0 785 3.77435 1
gene 1 226 169 -0.195158 0 796 -0.195158 0
gene 1 7 238 1.35495 0 830 1.35495 1
gene 1 238 30 -0.81871 0 831 -0.81871 1
gene 1 226 238 3.05859 0 872 3.05859 1
gene 1 209 262 -0.896089 0 912 -0.896089 1
gene 1 262 20 -3.07559 0 913 -3.07559 1
gene 1 11 263 0.605819 0 921 0.605819 1
gene 1 263 126 0.867451 0 922 0.867451 1
gene 1 263 118 -0.280483 0 932 -0.280483 1
gene 1 192 30 -0.920015 0 989 -0.920015 1
gene 1 35 282 -1.8503 0 992 -1.8503 1
gene 1 282 18 5.14968 0 993 5.14968 1
gene 1 12 209 -3.23523 0 999 -3.23523 1
gene 1 238 284 4.41954 0 1002 4.41954 1
gene 1 284 30 8 0 1003 8 1
gene 1 8 282 -0.349053 0 1033 -0.349053 1
gene 1 17 142 -8 0 1084 -8 1
gene 1 16 30 -5.06117 0 1087 -5.06117 1
gene 1 1 307 -1.98648 0 1088 -1.98648 1
gene 1 307 17 -0.229807 0 1089 -0.229807 1
gene 1 117 142 -3.2372 0 1101 -3.2372 1
gene 1 16 314 2.74518 0 1108 2.74518 1
gene 1 314 27 -2.50517 0 1109 -2.50517 1
gene 1 1 314 -2.4195 0 1142 -2.4195 1
gene 1 3 326 -5.13358 0 1157 -5.13358 1
gene 1 326 19 -1.6545 0 1158 -1.6545 1
gene 1 187 328 2.32724 0 1163 2.32724 1
gene 1 328 17 -1.68494 0 1164 -1.68494 1
gene 1 1 332 5.55682 0 1175 5.55682 1
gene 1 332 124 -6.91443 0 1176 -6.91443 1
gene 1 16 338 -3.29913 0 1210 -3.29913 1
gene 1 338 30 2.20422 0 1211 2.20422 1
gene 1 9 192 -8 0 1220 -8 1
gene 1 118 142 5.97875 0 1243 5.97875 1
gene 1 150 345 2.00184 0 1245 2.00184 1
gene 1 345 226 -1.74527 0 1246 -1.74527 1
gene 1 9 347 -6.13623 0 1256 -6.13623 1
gene 1 347 17 0.319672 0 1257 0.319672 1
gene 1 263 19 -2.84817 0 1266 -2.84817 1
gene 1 118 49 -0.0512548 0 1271 -0.0512548 1
gene 1 13 349 7.16723 0 1274 7.16723 1
gene 1 349 19 2.04798 0 1275 2.04798 1
gene 1 10 30 2.38385 0 1278 2.38385 1
gene 1 165 314 -0.851141 0 1280 -0.851141 1
gene 1 12 351 0.890457 0 1284 0.890457 1
gene 1 351 17 -3.43568 0 1285 -3.43568 1
gene 1 5 358 -4.64668 0 1305 -4.64668 1
gene 1 358 17 -2.39205 0 1306 -2.39205 1
gene 1 238 136 2.15244 0 1311 2.15244 1
gene 1 282 187 -1.00031 0 1330 -1.00031 1
gene 1 351 160 -1.17132 0 1332 -1.17132 1
gene 1 263 182 1.13634 0 1352 1.13634 1
gene 1 5 377 2.30934 0 1376 2.30934 1
gene 1 377 17 1.30704 0 1377 1.30704 1
gene 1 124 377 6.22391 0 1379 6.22391 1
gene 1 326 20 -7.642 0 1423 -7.642 1
gene 1 338 326 -6.40177 0 1447 -6.40177 1
gene 1 349 30 2.90299 0 1458 2.90299 1
gene 1 117 397 0.864611 0 1464 0.864611 1
gene 1 397 187 0.907279 0 1465 0.907279 1
gene 1 2 409 -2.87096 0 1511 -2.87096 1
gene 1 409 18 -0.266852 0 1512 -0.266852 1
gene 1 187 262 3.54058 0 1561 3.54058 1
gene 1 6 416 2.21685 0 1563 2.21685 1
gene 1 416 35 -1.27457 0 1564 -1.27457 1
gene 1 416 326 -1.53921 0 1575 -1.53921 1
gene 1 118 419 0.872928 0 1578 0.872928 1
gene 1 419 18 0.0264351 0 1579 0.0264351 1
gene 1 165 263 -1.25619 0 1587 -1.25619 1
gene 1 263 220 2.78743 0 1598 2.78743 1
gene 1 409 160 4.54002 0 1603 4.54002 1
gene 1 30 426 1.92228 0 1610 1.92228 1
gene 1 426 20 -1.4477 0 1611 -1.4477 1
gene 1 12 136 3.90985 0 1618 3.90985 1
gene 1 49 431 0.464282 0 1629 0.464282 1
gene 1 431 19 -3.11654 0 1630 -3.11654 1
gene 1 5 437 -5.54997 0 1645 -5.54997 1
gene 1 437 358 0.494042 0 1646 0.494042 1
gene 1 220 438 1.32931 0 1650 1.32931 1
gene 1 438 19 -1.50327 0 1651 -1.50327 1
gene 1 349 160 0.824898 0 1678 0.824898 1
gene 1 6 449 -2.33585 0 1707 -2.33585 1
gene 1 449 416 0.42563 0 1708 0.42563 1
gene 1 16 450 -1.16347 0 1709 -1.16347 1
gene 1 450 117 1.22851 0 1710 1.22851 1
gene 1 7 452 0.600904 0 1716 0.600904 1
gene 1 452 238 2.84093 0 1717 2.84093 1
gene 1 211 226 -0.956473 0 1726 -0.956473 1
gene 1 108 126 -1.9672 0 1729 -1.9672 1
gene 1 8 426 0.768134 0 1733 0.768134 1
gene 1 226 459 -4.04559 0 1751 -4.04559 1
gene 1 459 30 4.20106 0 1752 4.20106 1
gene 1 30 160 1.96259 0 1769 1.96259 1
gene 1 150 282 -3.02439 0 1774 -3.02439 1
gene 1 49 136 0.804742 0 1806 0.804742 1
gene 1 27 118 -0.88775 0 1814 -0.88775 1
gene 1 35 478 1.61596 0 1829 1.61596 1
gene 1 478 282 -2.32629 0 1830 -2.32629 1
gene 1 19 481 1.70115 0 1839 1.70115 1
gene 1 481 117 -0.795345 0 1840 -0.795345 1
gene 1 12 314 -2.54124 0 1843 -2.54124 1
gene 1 150 482 -4.20994 0 1844 -4.20994 1
gene 1 482 160 0.0196892 0 1845 0.0196892 1
gene 1 349 314 5.81174 0 1848 5.81174 1
gene 1 226 483 3.24715 0 1851 3.24715 1
gene 1 483 169 5.47234 0 1852 5.47234 1
gene 1 416 437 0.219405 0 1856 0.219405 1
gene 1 165 484 0.981235 0 1858 0.981235 1
gene 1 484 136 0.773988 0 1859 0.773988 1
gene 1 124 437 -1.69537 0 1878 -1.69537 1
gene 1 16 489 1 0 1884 0 1
gene 1 489 142 3.93793 0 1885 0 1
genomeend 6

/* Species #134 : (Size 8) (AF 2425.75) (Age 12)  */


/* Organism #7 Fitness: 3126 Error: 303 */
genomestart 7
trait 1 0.779011 0.424967 0.645577 0.0384971 0.868632 0.126694 0.813165 0.50423 
node 1 1 1 1
node 2 1 1 1
node 3 1 1 1
node 4 1 1 1
node 5 1 1 1
node 6 1 1 1
node 7 1 1 1
node 8 1 1 1
node 9 1 1 1
node 10 1 1 1
node 11 1 1 1
node 12 1 1 1
node 13 1 1 1
node 14 1 1 1
node 15 1 1 1
node 16 1 1 1
node 17 1 0 2
node 18 1 0 2
node 19 1 0 2
node 20 1 0 2
node 27 1 0 0
node 30 1 0 0
node 35 1 0 0
node 49 1 0 0
node 108 1 0 0
node 117 1 0 0
node 118 1 0 0
node 123 1 0 0
node 124 1 0 0
node 126 1 0 0
node 136 1 0 0
node 142 1 0 0
node 150 1 0 0
node 160 1 0 0
node 165 1 0 0
node 169 1 0 0
node 182 1 0 0
node 187 1 0 0
node 192 1 0 0
node 209 1 0 0
node 211 1 0 0
node 220 1 0 0
node 226 1 0 0
node 238 1 0 0
node 262 1 0 0
node 263 1 0 0
node 282 1 0 0
node 284 1 0 0
node 307 1 0 0
node 314 1 0 0
node 326 1 0 0
node 328 1 0 0
node 332 1 0 0
node 338 1 0 0
node 345 1 0 0
node 347 1 0 0
node 349 1 0 0
node 351 1 0 0
node 358 1 0 0
node 377 1 0 0
node 397 1 0 0
node 409 1 0 0
node 416 1 0 0
node 419 1 0 0
node 426 1 0 0
node 431 1 0 0
node 437 1 0 0
node 438 1 0 0
node 449 1 0 0
node 450 1 0 0
node 452 1 0 0
node 459 1 0 0
node 478 1 0 0
node 481 1 0 0
node 482 1 0 0
node 483 1 0 0
gene 1 1 17 5.5265 0 1 5.5265 1
gene 1 2 17 -3.41588 0 2 -3.41588 1
gene 1 3 17 5.1311 0 3 5.1311 1
gene 1 4 17 3.27011 0 4 3.27011 1
gene 1 5 17 4.18883 0 5 4.18883 1
gene 1 6 17 0.0755126 0 6 0.0755126 1
gene 1 7 17 5.57578 0 7 5.57578 1
gene 1 8 17 -5.65398 0 8 -5.65398 1
gene 1 9 17 -0.584764 0 9 -0.584764 1
gene 1 10 17 5.60948 0 10 5.60948 1
gene 1 11 17 -1.20684 0 11 -1.20684 1
gene 1 12 17 -2.20647 0 12 -2.20647 1
gene 1 13 17 -1.48149 0 13 -1.48149 1
gene 1 14 17 3.92297 0 14 3.92297 1
gene 1 15 17 3.42957 0 15 3.42957 1
gene 1 16 17 0.622423 0 16 0.622423 1
gene 1 1 18 -7.30483 0 17 -7.30483 1
gene 1 2 18 1.28492 0 18 1.28492 1
gene 1 3 18 -6.24781 0 19 -6.24781 1
gene 1 4 18 1.31243 0 20 1.31243 1
gene 1 5 18 -2.55306 0 21 -2.55306 1
gene 1 6 18 0.459538 0 22 0.459538 1
gene 1 7 18 0.233158 0 23 0.233158 1
gene 1 8 18 -4.98114 0 24 -4.98114 1
gene 1 9 18 -3.71661 0 25 -3.71661 1
gene 1 10 18 -3.81101 0 26 -3.81101 1
gene 1 11 18 -1.04436 0 27 -1.04436 1
gene 1 12 18 3.82036 0 28 3.82036 1
gene 1 13 18 -5.5316 0 29 -5.5316 1
gene 1 14 18 -1.82064 0 30 -1.82064 1
gene 1 15 18 -0.876045 0 31 -0.876045 1
gene 1 16 18 -0.802794 0 32 -0.802794 1
gene 1 1 19 2.71055 0 33 2.71055 1
gene 1 2 19 0.34742 0 34 0.34742 1
gene 1 3 19 -0.343525 0 35 -0.343525 1
gene 1 4 19 0.167253 0 36 0.167253 1
gene 1 5 19 1.85258 0 37 1.85258 1
gene 1 6 19 -7.94106 0 38 -7.94106 1
gene 1 7 19 6.51439 0 39 6.51439 1
gene 1 8 19 4.59263 0 40 4.59263 1
gene 1 9 19 1.15161 0 41 1.15161 1
gene 1 10 19 2.41244 0 42 2.41244 1
gene 1 11 19 7.46992 0 43 7.46992 1
gene 1 12 19 -4.14935 0 44 -4.14935 1
gene 1 13 19 5.02519 0 45 5.02519 1
gene 1 14 19 -3.7593 0 46 -3.7593 1
gene 1 15 19 -0.339447 0 47 -0.339447 1
gene 1 16 19 4.62729 0 48 4.62729 1
gene 1 1 20 -7.76286 0 49 -7.76286 1
gene 1 2 20 -4.57046 0 50 -4.57046 1
gene 1 3 20 0.468259 0 51 0.468259 1
gene 1 4 20 -0.362883 0 52 -0.362883 1
gene 1 5 20 -1.43885 0 53 -1.43885 1
gene 1 6 20 1.84958 0 54 1.84958 1
gene 1 7 20 6.95246 0 55 6.95246 1
gene 1 8 20 -1.64184 0 56 -1.64184 1
gene 1 9 20 -4.0494 0 57 -4.0494 1
gene 1 10 20 -0.9184 0 58 -0.9184 1
gene 1 11 20 -5.71047 0 59 -5.71047 1
gene 1 12 20 -3.54496 0 60 -3.54496 1
gene 1 13 20 0.116387 0 61 0.116387 1
gene 1 14 20 1.07867 0 62 1.07867 1
gene 1 15 20 -0.414911 0 63 -0.414911 1
gene 1 16 20 3.55625 0 64 3.55625 1
gene 1 20 18 0.0232494 0 75 0.0232494 1
gene 1 16 27 0.211796 0 92 0.211796 1
gene 1 27 17 -2.39594 0 93 -2.39594 1
gene 1 6 30 5.19361 0 100 5.19361 1
gene 1 30 20 -8 0 101 -8 1
gene 1 6 35 -2.96368 0 117 -2.96368 1
gene 1 35 17 -0.0357402 0 118 -0.0357402 1
gene 1 17 30 -1.94994 0 135 -1.94994 1
gene 1 15 49 -6.66052 0 154 -6.66052 1
gene 1 49 20 -0.0383734 0 155 -0.0383734 1
gene 1 49 18 5.28349 0 225 5.28349 1
gene 1 35 19 1.85847 0 234 1.85847 1
gene 1 12 35 2.18198 0 250 2.18198 1
gene 1 49 19 3.44294 0 270 3.44294 1
gene 1 14 30 -5.7103 0 272 -5.7103 1
gene 1 35 18 2.28555 0 298 2.28555 1
gene 1 19 30 1.68922 0 312 1.68922 1
gene 1 2 49 5.51149 0 326 5.51149 1
gene 1 6 49 -5.57411 0 350 -5.57411 1
gene 1 7 30 2.8253 0 373 2.8253 1
gene 1 1 108 1.44581 0 377 1.44581 1
gene 1 108 18 -1.05724 0 378 -1.05724 1
gene 1 14 49 0.754228 0 398 0.754228 1
gene 1 16 117 1.67531 0 417 1.67531 1
gene 1 117 17 4.70584 0 418 4.70584 1
gene 1 19 117 -1.57538 0 419 -1.57538 1
gene 1 15 118 3.55624 0 423 3.55624 1
gene 1 118 18 3.58569 0 424 3.58569 1
gene 1 13 27 0.653526 0 428 0.653526 1
gene 1 11 30 -4.23043 0 438 -4.23043 1
gene 1 19 123 -0.284373 0 441 -0.284373 1
gene 1 123 30 0.665503 0 442 0.665503 1
gene 1 1 124 -1.7606 0 445 -1.7606 1
gene 1 124 19 3.7805 0 446 3.7805 1
gene 1 11 126 -1.84002 0 451 -1.84002 1
gene 1 126 20 2.00598 0 452 2.00598 1
gene 1 13 136 -7.99392 0 486 -7.99392 1
gene 1 136 18 0.434969 0 487 0.434969 1
gene 1 27 49 1.18384 0 488 1.18384 1
gene 1 16 142 -0.990558 0 500 -0.990558 1
gene 1 142 20 8 0 501 8 1
gene 1 123 150 -4.53217 0 526 -4.53217 1
gene 1 150 30 -0.0362429 0 527 -0.0362429 1
gene 1 16 160 1.20271 0 551 1.20271 1
gene 1 160 18 -1.26711 0 552 -1.26711 1
gene 1 6 165 5.97539 0 570 5.97539 1
gene 1 165 30 -0.461961 0 571 -0.461961 1
gene 1 6 169 7.85531 0 579 7.85531 1
gene 1 169 18 0.870801 0 580 0.870801 1
gene 1 165 136 -3.8313 0 588 -3.8313 1
gene 1 3 49 -8 0 622 -8 1
gene 1 118 182 -0.244979 0 629 -0.244979 1
gene 1 182 18 1.95306 0 630 1.95306 1
gene 1 117 187 1.26352 0 650 1.26352 1
gene 1 187 17 -0.637222 0 651 -0.637222 1
gene 1 12 192 -2.53395 0 669 -2.53395 1
gene 1 192 19 0.347858 0 670 0.347858 1
gene 1 30 209 -4.40352 0 724 -4.40352 1
gene 1 209 20 7.57514 0 725 7.57514 1
gene 1 1 211 1.07731 0 731 1.07731 1
gene 1 211 19 2.36101 0 732 2.36101 1
gene 1 150 160 -1.51598 0 735 -1.51598 0
gene 1 9 187 3.86932 0 747 3.86932 1
gene 1 35 220 -7.6005 0 761 -7.6005 1
gene 1 220 19 -7.53231 0 762 -7.53231 1
gene 1 14 27 4.17582 0 770 4.17582 1
gene 1 150 226 0.675268 0 784 0.675268 1
gene 1 226 30 -0.518985 0 785 -0.518985 1
gene 1 226 169 -1.99346 0 796 -1.99346 0
gene 1 7 238 -1.35418 0 830 -1.35418 1
gene 1 238 30 2.30791 0 831 2.30791 1
gene 1 226 238 5.55736 0 872 5.55736 1
gene 1 209 262 1.22659 0 912 1.22659 1
gene 1 262 20 -2.15281 0 913 -2.15281 1
gene 1 11 263 -2.43745 0 921 -2.43745 1
gene 1 263 126 2.39942 0 922 2.39942 1
gene 1 263 118 1.78457 0 932 1.78457 1
gene 1 192 30 -3.96982 0 989 -3.96982 1
gene 1 35 282 0.146354 0 992 0.146354 1
gene 1 282 18 -0.767603 0 993 -0.767603 1
gene 1 12 209 -3.02715 0 999 -3.02715 1
gene 1 238 284 4.67782 0 1002 4.67782 1
gene 1 284 30 -2.2643 0 1003 -2.2643 1
gene 1 8 282 -1.88539 0 1033 -1.88539 1
gene 1 17 142 2.13965 0 1084 2.13965 1
gene 1 16 30 -1.96055 0 1087 -1.96055 1
gene 1 1 307 4.68526 0 1088 4.68526 1
gene 1 307 17 -1.77935 0 1089 -1.77935 1
gene 1 117 142 6.93 0 1101 6.93 1
gene 1 16 314 2.05169 0 1108 2.05169 1
gene 1 314 27 -5.61064 0 1109 -5.61064 1
gene 1 1 314 6.51253 0 1142 6.51253 1
gene 1 3 326 3.69871 0 1157 3.69871 1
gene 1 326 19 -2.31779 0 1158 -2.31779 1
gene 1 187 328 -0.037512 0 1163 -0.037512 1
gene 1 328 17 0.7992 0 1164 0.7992 1
gene 1 1 332 2.85169 0 1175 2.85169 1
gene 1 332 124 2.01535 0 1176 2.01535 1
gene 1 16 338 5.46205 0 1210 5.46205 1
gene 1 338 30 -5.7401 0 1211 -5.7401 1
gene 1 9 192 -1.18818 0 1220 -1.18818 1
gene 1 118 142 -5.94448 0 1243 -5.94448 1
gene 1 150 345 -0.739412 0 1245 -0.739412 1
gene 1 345 226 -0.723003 0 1246 -0.723003 1
gene 1 9 347 -6.83002 0 1256 -6.83002 1
gene 1 347 17 2.22222 0 1257 2.22222 1
gene 1 263 19 2.91721 0 1266 2.91721 1
gene 1 118 49 1.65129 0 1271 1.65129 1
gene 1 13 349 1.92503 0 1274 1.92503 1
gene 1 349 19 -4.06773 0 1275 -4.06773 1
gene 1 10 30 -1.36519 0 1278 -1.36519 1
gene 1 165 314 1.89449 0 1280 1.89449 1
gene 1 12 351 -4.11189 0 1284 -4.11189 1
gene 1 351 17 -1.03125 0 1285 -1.03125 1
gene 1 5 358 -1.08176 0 1305 -1.08176 1
gene 1 358 17 -0.780179 0 1306 -0.780179 1
gene 1 238 136 2.06287 0 1311 2.06287 1
gene 1 282 187 1.89196 0 1330 1.89196 1
gene 1 351 160 5.37661 0 1332 5.37661 1
gene 1 263 182 7.17244 0 1352 7.17244 1
gene 1 5 377 -7.07915 0 1376 -7.07915 1
gene 1 377 17 -4.02942 0 1377 -4.02942 1
gene 1 124 377 -2.2643 0 1379 -2.2643 1
gene 1 326 20 -2.23279 0 1423 -2.23279 1
gene 1 338 326 -8 0 1447 -8 1
gene 1 349 30 1.66146 0 1458 1.66146 1
gene 1 117 397 1.61911 0 1464 1.61911 1
gene 1 397 187 2.67905 0 1465 2.67905 1
gene 1 2 409 8 0 1511 8 1
gene 1 409 18 2.09394 0 1512 2.09394 1
gene 1 187 262 -1.2577 0 1561 -1.2577 1
gene 1 6 416 2.60721 0 1563 2.60721 1
gene 1 416 35 1.43592 0 1564 1.43592 1
gene 1 416 326 -2.48416 0 1575 -2.48416 1
gene 1 118 419 3.13006 0 1578 3.13006 1
gene 1 419 18 -2.53287 0 1579 -2.53287 1
gene 1 165 263 4.95735 0 1587 4.95735 1
gene 1 263 220 -5.95579 0 1598 -5.95579 1
gene 1 409 160 -6.1109 0 1603 -6.1109 1
gene 1 30 426 -0.730891 0 1610 -0.730891 1
gene 1 426 20 -2.60774 0 1611 -2.60774 1
gene 1 12 136 2.12539 0 1618 2.12539 1
gene 1 49 431 2.28298 0 1629 2.28298 1
gene 1 431 19 2.49542 0 1630 2.49542 1
gene 1 5 437 4.91036 0 1645 4.91036 1
gene 1 437 358 2.71866 0 1646 2.71866 1
gene 1 220 438 -1.29478 0 1650 -1.29478 1
gene 1 438 19 -2.33034 0 1651 -2.33034 1
gene 1 349 160 5.404 0 1678 5.404 1
gene 1 6 449 0.55915 0 1707 0.55915 1
gene 1 449 416 -0.683996 0 1708 -0.683996 1
gene 1 16 450 -2.13865 0 1709 -2.13865 1
gene 1 450 117 -2.86584 0 1710 -2.86584 1
gene 1 7 452 4.43701 0 1716 4.43701 1
gene 1 452 238 -0.101728 0 1717 -0.101728 1
gene 1 211 226 2.24648 0 1726 2.24648 1
gene 1 108 126 -0.906306 0 1729 -0.906306 1
gene 1 8 426 -5.5666 0 1733 -5.5666 1
gene 1 226 459 -1.29222 0 1751 -1.29222 1
gene 1 459 30 -2.45448 0 1752 -2.45448 1
gene 1 30 160 3.28973 0 1769 3.28973 1
gene 1 150 282 -0.685244 0 1774 -0.685244 1
gene 1 49 136 5.10231 0 1806 5.10231 1
gene 1 27 118 -0.264886 0 1814 -0.264886 1
gene 1 35 478 5.91421 0 1829 5.91421 1
gene 1 478 282 1.63987 0 1830 1.63987 1
gene 1 19 481 1.20706 0 1839 1.20706 1
gene 1 481 117 -1.46265 0 1840 -1.46265 1
gene 1 12 314 -0.22069 0 1843 -0.22069 1
gene 1 150 482 2.55876 0 1844 2.55876 1
gene 1 482 160 2.12768 0 1845 2.12768 1
gene 1 349 314 0.279834 0 1848 0.279834 1
gene 1 226 483 2.23365 0 1851 2.23365 1
gene 1 483 169 2.09984 0 1852 2.09984 1
gene 1 416 437 2.66803 0 1856 2.66803 1
gene 1 437 220 4.18966 0 1860 4.18966 1
gene 1 11 377 -4.03055 0 1875 -4.03055 1
genomeend 7

/* Organism #8 Fitness: 2418 Error: 230 */
genomestart 8
trait 1 0.779011 0.424967 0.645577 0.0384971 0.868632 0.126694 0.813165 0.50423 
node 1 1 1 1
node 2 1 1 1
node 3 1 1 1
node 4 1 1 1
node 5 1 1 1
node 6 1 1 1
node 7 1 1 1
node 8 1 1 1
node 9 1 1 1
node 10 1 1 1
node 11 1 1 1
node 12 1 1 1
node 13 1 1 1
node 14 1 1 1
node 15 1 1 1
node 16 1 1 1
node 17 1 0 2
node 18 1 0 2
node 19 1 0 2
node 20 1 0 2
node 27 1 0 0
node 30 1 0 0
node 35 1 0 0
node 49 1 0 0
node 108 1 0 0
node 117 1 0 0
node 118 1 0 0
node 123 1 0 0
node 124 1 0 0
node 126 1 0 0
node 136 1 0 0
node 142 1 0 0
node 150 1 0 0
node 160 1 0 0
node 165 1 0 0
node 169 1 0 0
node 182 1 0 0
node 187 1 0 0
node 192 1 0 0
node 209 1 0 0
node 211 1 0 0
node 220 1 0 0
node 226 1 0 0
node 238 1 0 0
node 262 1 0 0
node 263 1 0 0
node 282 1 0 0
node 284 1 0 0
node 307 1 0 0
node 314 1 0 0
node 326 1 0 0
node 328 1 0 0
node 332 1 0 0
node 338 1 0 0
node 345 1 0 0
node 347 1 0 0
node 349 1 0 0
node 351 1 0 0
node 358 1 0 0
node 377 1 0 0
node 397 1 0 0
node 409 1 0 0
node 416 1 0 0
node 419 1 0 0
node 426 1 0 0
node 431 1 0 0
node 437 1 0 0
node 438 1 0 0
node 449 1 0 0
node 450 1 0 0
node 452 1 0 0
node 459 1 0 0
node 478 1 0 0
node 481 1 0 0
node 482 1 0 0
node 483 1 0 0
gene 1 1 17 3.77358 0 1 3.77358 1
gene 1 2 17 1.62252 0 2 1.62252 1
gene 1 3 17 1.75706 0 3 1.75706 1
gene 1 4 17 -0.0183505 0 4 -0.0183505 1
gene 1 5 17 4.75437 0 5 4.75437 1
gene 1 6 17 0.647744 0 6 0.647744 1
gene 1 7 17 6.22896 0 7 6.22896 1
gene 1 8 17 0.604297 0 8 0.604297 1
gene 1 9 17 0.853864 0 9 0.853864 1
gene 1 10 17 -0.231757 0 10 -0.231757 1
gene 1 11 17 -1.82189 0 11 -1.82189 1
gene 1 12 17 -2.49163 0 12 -2.49163 1
gene 1 13 17 -3.79181 0 13 -3.79181 1
gene 1 14 17 0.570739 0 14 0.570739 1
gene 1 15 17 -0.484307 0 15 -0.484307 1
gene 1 16 17 0.77283 0 16 0.77283 1
gene 1 1 18 -8 0 17 -8 1
gene 1 2 18 -1.7057 0 18 -1.7057 1
gene 1 3 18 -4.6428 0 19 -4.6428 1
gene 1 4 18 -0.515923 0 20 -0.515923 1
gene 1 5 18 -0.185664 0 21 -0.185664 1
gene 1 6 18 -0.274394 0 22 -0.274394 1
gene 1 7 18 -1.74236 0 23 -1.74236 1
gene 1 8 18 1.38385 0 24 1.38385 1
gene 1 9 18 -0.603864 0 25 -0.603864 1
gene 1 10 18 -6.19654 0 26 -6.19654 1
gene 1 11 18 -1.66301 0 27 -1.66301 1
gene 1 12 18 2.73838 0 28 2.73838 1
gene 1 13 18 0.161629 0 29 0.161629 1
gene 1 14 18 0.832372 0 30 0.832372 1
gene 1 15 18 0.444131 0 31 0.444131 1
gene 1 16 18 -0.420102 0 32 -0.420102 1
gene 1 1 19 5.10009 0 33 5.10009 1
gene 1 2 19 -1.88042 0 34 -1.88042 1
gene 1 3 19 0.493778 0 35 0.493778 1
gene 1 4 19 -2.48397 0 36 -2.48397 1
gene 1 5 19 1.86399 0 37 1.86399 1
gene 1 6 19 -3.3298 0 38 -3.3298 1
gene 1 7 19 5.46611 0 39 5.46611 1
gene 1 8 19 8 0 40 8 1
gene 1 9 19 -2.76616 0 41 -2.76616 1
gene 1 10 19 0.370772 0 42 0.370772 1
gene 1 11 19 7.73496 0 43 7.73496 1
gene 1 12 19 -7.08724 0 44 -7.08724 1
gene 1 13 19 -1.03199 0 45 -1.03199 1
gene 1 14 19 -3.28397 0 46 -3.28397 1
gene 1 15 19 2.49784 0 47 2.49784 1
gene 1 16 19 5.39562 0 48 5.39562 1
gene 1 1 20 -6.55005 0 49 -6.55005 1
gene 1 2 20 -6.62961 0 50 -6.62961 1
gene 1 3 20 1.89319 0 51 1.89319 1
gene 1 4 20 -3.07655 0 52 -3.07655 1
gene 1 5 20 0.31422 0 53 0.31422 1
gene 1 6 20 0.183544 0 54 0.183544 1
gene 1 7 20 5.51405 0 55 5.51405 1
gene 1 8 20 -1.68784 0 56 -1.68784 1
gene 1 9 20 -2.01309 0 57 -2.01309 1
gene 1 10 20 -3.11075 0 58 -3.11075 1
gene 1 11 20 -6.99721 0 59 -6.99721 1
gene 1 12 20 -3.33465 0 60 -3.33465 1
gene 1 13 20 -3.4119 0 61 -3.4119 1
gene 1 14 20 -1.93309 0 62 -1.93309 1
gene 1 15 20 -0.772207 0 63 -0.772207 1
gene 1 16 20 1.31021 0 64 1.31021 1
gene 1 20 18 0.290336 0 75 0.290336 1
gene 1 16 27 0.313647 0 92 0.313647 1
gene 1 27 17 -1.55739 0 93 -1.55739 1
gene 1 6 30 5.47959 0 100 5.47959 1
gene 1 30 20 0.743835 0 101 0.743835 1
gene 1 6 35 -0.312823 0 117 -0.312823 1
gene 1 35 17 0.911328 0 118 0.911328 1
gene 1 17 30 -2.33846 0 135 -2.33846 1
gene 1 15 49 -1.40892 0 154 -1.40892 1
gene 1 49 20 -2.22366 0 155 -2.22366 1
gene 1 49 18 4.74344 0 225 4.74344 1
gene 1 35 19 0.703154 0 234 0.703154 1
gene 1 12 35 -0.540114 0 250 -0.540114 1
gene 1 49 19 3.91134 0 270 3.91134 1
gene 1 14 30 -5.10484 0 272 -5.10484 1
gene 1 35 18 3.93241 0 298 3.93241 1
gene 1 19 30 2.84449 0 312 2.84449 1
gene 1 2 49 7.10968 0 326 7.10968 1
gene 1 6 49 -2.68007 0 350 -2.68007 1
gene 1 7 30 6.40297 0 373 6.40297 1
gene 1 1 108 0.432862 0 377 0.432862 1
gene 1 108 18 -2.9346 0 378 -2.9346 1
gene 1 14 49 0.265287 0 398 0.265287 1
gene 1 16 117 -1.94257 0 417 -1.94257 1
gene 1 117 17 1.30566 0 418 1.30566 1
gene 1 19 117 1.4436 0 419 1.4436 0
gene 1 15 118 1.7229 0 423 1.7229 1
gene 1 118 18 0.301635 0 424 0.301635 1
gene 1 13 27 1.30463 0 428 1.30463 1
gene 1 11 30 -0.799706 0 438 -0.799706 1
gene 1 19 123 1.98582 0 441 1.98582 1
gene 1 123 30 1.66853 0 442 1.66853 1
gene 1 1 124 -0.574691 0 445 -0.574691 1
gene 1 124 19 2.07321 0 446 2.07321 1
gene 1 11 126 1.94989 0 451 1.94989 1
gene 1 126 20 3.21203 0 452 3.21203 1
gene 1 13 136 -0.628898 0 486 -0.628898 1
gene 1 136 18 1.89549 0 487 1.89549 1
gene 1 27 49 0.459822 0 488 0.459822 1
gene 1 16 142 -1.32052 0 500 -1.32052 1
gene 1 142 20 8 0 501 8 1
gene 1 123 150 -5.16061 0 526 -5.16061 1
gene 1 150 30 -0.212641 0 527 -0.212641 1
gene 1 16 160 0.448051 0 551 0.448051 1
gene 1 160 18 0.259905 0 552 0.259905 1
gene 1 6 165 6.54553 0 570 6.54553 1
gene 1 165 30 -1.23906 0 571 -1.23906 1
gene 1 6 169 7.28113 0 579 7.28113 1
gene 1 169 18 -1.06667 0 580 -1.06667 1
gene 1 165 136 -2.18265 0 588 -2.18265 1
gene 1 3 49 -3.76599 0 622 -3.76599 1
gene 1 118 182 -0.397512 0 629 -0.397512 1
gene 1 182 18 0.817901 0 630 0.817901 1
gene 1 117 187 0.657545 0 650 0.657545 1
gene 1 187 17 -2.13483 0 651 -2.13483 1
gene 1 12 192 1.47739 0 669 1.47739 1
gene 1 192 19 -1.39347 0 670 -1.39347 1
gene 1 30 209 -2.85223 0 724 -2.85223 1
gene 1 209 20 3.72707 0 725 3.72707 1
gene 1 1 211 1.96621 0 731 1.96621 1
gene 1 211 19 1.75218 0 732 1.75218 1
gene 1 150 160 -2.34535 0 735 -2.34535 0
gene 1 9 187 4.65649 0 747 4.65649 1
gene 1 35 220 -0.184794 0 761 -0.184794 1
gene 1 220 19 -7.84782 0 762 -7.84782 1
gene 1 14 27 3.7583 0 770 3.7583 1
gene 1 150 226 -1.17963 0 784 -1.17963 1
gene 1 226 30 -1.05355 0 785 -1.05355 1
gene 1 226 169 0.0220642 0 796 0.0220642 0
gene 1 7 238 0.641239 0 830 0.641239 1
gene 1 238 30 5.57678 0 831 5.57678 1
gene 1 226 238 3.53143 0 872 3.53143 1
gene 1 209 262 2.2347 0 912 2.2347 1
gene 1 262 20 -0.531976 0 913 -0.531976 1
gene 1 11 263 0.17436 0 921 0.17436 1
gene 1 263 126 2.37103 0 922 2.37103 1
gene 1 263 118 2.56623 0 932 2.56623 1
gene 1 192 30 -5.16728 0 989 -5.16728 1
gene 1 35 282 0.795351 0 992 0.795351 1
gene 1 282 18 -1.91717 0 993 -1.91717 1
gene 1 12 209 -1.44937 0 999 -1.44937 1
gene 1 238 284 4.10272 0 1002 4.10272 1
gene 1 284 30 -0.195338 0 1003 -0.195338 1
gene 1 8 282 -3.12313 0 1033 -3.12313 1
gene 1 17 142 0.226124 0 1084 0.226124 1
gene 1 16 30 1.31014 0 1087 1.31014 1
gene 1 1 307 4.82159 0 1088 4.82159 1
gene 1 307 17 -3.59177 0 1089 -3.59177 1
gene 1 117 142 -2.07594 0 1101 -2.07594 1
gene 1 16 314 1.08918 0 1108 1.08918 1
gene 1 314 27 -3.8959 0 1109 -3.8959 1
gene 1 1 314 8 0 1142 8 1
gene 1 3 326 5.38617 0 1157 5.38617 1
gene 1 326 19 0.553065 0 1158 0.553065 1
gene 1 187 328 -1.99909 0 1163 -1.99909 1
gene 1 328 17 -0.509815 0 1164 -0.509815 1
gene 1 1 332 0.107553 0 1175 0.107553 1
gene 1 332 124 2.56654 0 1176 2.56654 1
gene 1 16 338 5.77939 0 1210 5.77939 1
gene 1 338 30 -3.9875 0 1211 -3.9875 1
gene 1 9 192 0.352962 0 1220 0.352962 1
gene 1 118 142 -5.00487 0 1243 -5.00487 1
gene 1 150 345 -0.00344569 0 1245 -0.00344569 1
gene 1 345 226 -2.8132 0 1246 -2.8132 1
gene 1 9 347 -4.52415 0 1256 -4.52415 1
gene 1 347 17 -1.40466 0 1257 -1.40466 1
gene 1 263 19 2.67533 0 1266 2.67533 1
gene 1 118 49 -1.8593 0 1271 -1.8593 1
gene 1 13 349 2.85235 0 1274 2.85235 1
gene 1 349 19 -2.3876 0 1275 -2.3876 1
gene 1 10 30 -2.19303 0 1278 -2.19303 1
gene 1 165 314 4.46819 0 1280 4.46819 1
gene 1 12 351 -0.851226 0 1284 -0.851226 1
gene 1 351 17 -0.214257 0 1285 -0.214257 1
gene 1 5 358 -2.17435 0 1305 -2.17435 1
gene 1 358 17 1.52075 0 1306 1.52075 1
gene 1 238 136 1.33879 0 1311 1.33879 1
gene 1 282 187 6.14617 0 1330 6.14617 1
gene 1 351 160 3.37955 0 1332 3.37955 1
gene 1 263 182 8 0 1352 8 1
gene 1 5 377 -7.45629 0 1376 -7.45629 1
gene 1 377 17 -3.35711 0 1377 -3.35711 1
gene 1 124 377 2.19332 0 1379 2.19332 1
gene 1 326 20 0.977135 0 1423 0.977135 1
gene 1 338 326 -6.29337 0 1447 -6.29337 1
gene 1 349 30 -1.73449 0 1458 -1.73449 1
gene 1 117 397 -0.923157 0 1464 -0.923157 1
gene 1 397 187 2.16264 0 1465 2.16264 1
gene 1 2 409 -1.32473 0 1511 -1.32473 1
gene 1 409 18 2.09694 0 1512 2.09694 1
gene 1 187 262 3.20139 0 1561 3.20139 1
gene 1 6 416 1.07726 0 1563 1.07726 1
gene 1 416 35 1.37614 0 1564 1.37614 1
gene 1 416 326 0.960122 0 1575 0.960122 1
gene 1 118 419 -1.89261 0 1578 -1.89261 1
gene 1 419 18 2.18985 0 1579 2.18985 1
gene 1 165 263 1.53372 0 1587 1.53372 1
gene 1 263 220 -5.59365 0 1598 -5.59365 1
gene 1 409 160 0.152984 0 1603 0.152984 1
gene 1 30 426 0.668892 0 1610 0.668892 1
gene 1 426 20 -3.71335 0 1611 -3.71335 1
gene 1 12 136 1.94218 0 1618 1.94218 1
gene 1 49 431 -2.12327 0 1629 -2.12327 1
gene 1 431 19 4.31491 0 1630 4.31491 1
gene 1 5 437 4.48945 0 1645 4.48945 1
gene 1 437 358 2.1889 0 1646 2.1889 1
gene 1 220 438 -4.03288 0 1650 -4.03288 1
gene 1 438 19 -2.38663 0 1651 -2.38663 1
gene 1 349 160 7.59221 0 1678 7.59221 1
gene 1 6 449 0.0667258 0 1707 0.0667258 1
gene 1 449 416 -2.16226 0 1708 -2.16226 1
gene 1 16 450 -0.00178452 0 1709 -0.00178452 1
gene 1 450 117 0.0405891 0 1710 0.0405891 1
gene 1 7 452 1.33804 0 1716 1.33804 1
gene 1 452 238 1.64285 0 1717 1.64285 1
gene 1 211 226 -1.26986 0 1726 -1.26986 1
gene 1 108 126 2.24352 0 1729 2.24352 1
gene 1 8 426 1.78671 0 1733 1.78671 1
gene 1 226 459 -0.848635 0 1751 -0.848635 1
gene 1 459 30 -0.971047 0 1752 -0.971047 1
gene 1 30 160 2.17119 0 1769 2.17119 1
gene 1 150 282 -1.54862 0 1774 -1.54862 1
gene 1 49 136 7.77982 0 1806 7.77982 1
gene 1 27 118 -0.626222 0 1814 -0.626222 1
gene 1 35 478 8 0 1829 8 1
gene 1 478 282 2.04189 0 1830 2.04189 1
gene 1 19 481 -2.97136 0 1839 -2.97136 1
gene 1 481 117 -0.829839 0 1840 -0.829839 1
gene 1 12 314 2.16711 0 1843 2.16711 1
gene 1 150 482 6.20573 0 1844 6.20573 1
gene 1 482 160 -0.106908 0 1845 -0.106908 1
gene 1 349 314 0.883196 0 1848 0.883196 1
gene 1 226 483 2.65008 0 1851 2.65008 1
gene 1 483 169 -1.58653 0 1852 -1.58653 1
gene 1 416 437 0.378973 0 1856 0.378973 1
gene 1 437 220 2.4729 0 1860 2.4729 1
gene 1 11 377 -3.22691 0 1875 -3.22691 1
genomeend 8

/* Organism #9 Fitness: 2124 Error: 224 */
genomestart 9
trait 1 0.779011 0.424967 0.645577 0.0384971 0.868632 0.126694 0.813165 0.50423 
node 1 1 1 1
node 2 1 1 1
node 3 1 1 1
node 4 1 1 1
node 5 1 1 1
node 6 1 1 1
node 7 1 1 1
node 8 1 1 1
node 9 1 1 1
node 10 1 1 1
node 11 1 1 1
node 12 1 1 1
node 13 1 1 1
node 14 1 1 1
node 15 1 1 1
node 16 1 1 1
node 17 1 0 2
node 18 1 0 2
node 19 1 0 2
node 20 1 0 2
node 27 1 0 0
node 30 1 0 0
node 35 1 0 0
node 49 1 0 0
node 108 1 0 0
node 117 1 0 0
node 118 1 0 0
node 123 1 0 0
node 124 1 0 0
node 126 1 0 0
node 136 1 0 0
node 142 1 0 0
node 150 1 0 0
node 160 1 0 0
node 165 1 0 0
node 169 1 0 0
node 182 1 0 0
node 187 1 0 0
node 192 1 0 0
node 209 1 0 0
node 211 1 0 0
node 220 1 0 0
node 226 1 0 0
node 238 1 0 0
node 262 1 0 0
node 263 1 0 0
node 282 1 0 0
node 284 1 0 0
node 307 1 0 0
node 314 1 0 0
node 326 1 0 0
node 328 1 0 0
node 332 1 0 0
node 338 1 0 0
node 345 1 0 0
node 347 1 0 0
node 349 1 0 0
node 351 1 0 0
node 358 1 0 0
node 377 1 0 0
node 397 1 0 0
node 409 1 0 0
node 416 1 0 0
node 419 1 0 0
node 426 1 0 0
node 431 1 0 0
node 437 1 0 0
node 438 1 0 0
node 449 1 0 0
node 450 1 0 0
node 452 1 0 0
node 459 1 0 0
node 478 1 0 0
node 481 1 0 0
node 482 1 0 0
node 483 1 0 0
node 490 1 0 0
gene 1 1 17 1.22898 0 1 1.22898 1
gene 1 2 17 2.3379 0 2 2.3379 1
gene 1 3 17 -0.741372 0 3 -0.741372 1
gene 1 4 17 1.2375 0 4 1.2375 1
gene 1 5 17 5.01917 0 5 5.01917 1
gene 1 6 17 3.65599 0 6 3.65599 1
gene 1 7 17 3.8654 0 7 3.8654 1
gene 1 8 17 -7.1551 0 8 -7.1551 1
gene 1 9 17 -1.65212 0 9 -1.65212 1
gene 1 10 17 -2.46431 0 10 -2.46431 1
gene 1 11 17 -0.215609 0 11 -0.215609 1
gene 1 12 17 0.19274 0 12 0.19274 1
gene 1 13 17 -2.77241 0 13 -2.77241 1
gene 1 14 17 3.01701 0 14 3.01701 1
gene 1 15 17 1.24613 0 15 1.24613 1
gene 1 16 17 -0.477698 0 16 -0.477698 1
gene 1 1 18 -8 0 17 -8 1
gene 1 2 18 -1.14374 0 18 -1.14374 1
gene 1 3 18 -0.878822 0 19 -0.878822 1
gene 1 4 18 -0.154666 0 20 -0.154666 1
gene 1 5 18 -1.19094 0 21 -1.19094 1
gene 1 6 18 2.23083 0 22 2.23083 0
gene 1 7 18 -0.491415 0 23 -0.491415 1
gene 1 8 18 -0.42943 0 24 -0.42943 1
gene 1 9 18 -2.41251 0 25 -2.41251 1
gene 1 10 18 -4.93467 0 26 -4.93467 1
gene 1 11 18 -2.28165 0 27 -2.28165 1
gene 1 12 18 1.51023 0 28 1.51023 1
gene 1 13 18 -2.82623 0 29 -2.82623 1
gene 1 14 18 -1.37622 0 30 -1.37622 1
gene 1 15 18 1.75168 0 31 1.75168 1
gene 1 16 18 1.53061 0 32 1.53061 1
gene 1 1 19 3.63882 0 33 3.63882 1
gene 1 2 19 -4.10825 0 34 -4.10825 1
gene 1 3 19 1.33108 0 35 1.33108 1
gene 1 4 19 -0.884448 0 36 -0.884448 1
gene 1 5 19 -2.7405 0 37 -2.7405 1
gene 1 6 19 -0.600399 0 38 -0.600399 1
gene 1 7 19 4.41783 0 39 4.41783 1
gene 1 8 19 6.75858 0 40 6.75858 1
gene 1 9 19 -2.05054 0 41 -2.05054 1
gene 1 10 19 2.03997 0 42 2.03997 1
gene 1 11 19 8 0 43 8 1
gene 1 12 19 -5.30389 0 44 -5.30389 1
gene 1 13 19 2.00015 0 45 2.00015 1
gene 1 14 19 -2.80864 0 46 -2.80864 1
gene 1 15 19 2.43164 0 47 2.43164 1
gene 1 16 19 6.39524 0 48 6.39524 1
gene 1 1 20 -6.86434 0 49 -6.86434 1
gene 1 2 20 -4.7389 0 50 -4.7389 1
gene 1 3 20 -1.37107 0 51 -1.37107 1
gene 1 4 20 -1.67381 0 52 -1.67381 1
gene 1 5 20 -0.713039 0 53 -0.713039 1
gene 1 6 20 2.4249 0 54 2.4249 1
gene 1 7 20 4.34094 0 55 4.34094 1
gene 1 8 20 0.0415931 0 56 0.0415931 1
gene 1 9 20 -2.06196 0 57 -2.06196 1
gene 1 10 20 -3.36607 0 58 -3.36607 1
gene 1 11 20 -6.80685 0 59 -6.80685 1
gene 1 12 20 -2.09564 0 60 -2.09564 1
gene 1 13 20 -7.39358 0 61 -7.39358 1
gene 1 14 20 -0.18103 0 62 -0.18103 1
gene 1 15 20 -1.65753 0 63 -1.65753 1
gene 1 16 20 0.660964 0 64 0.660964 1
gene 1 20 18 -0.149239 0 75 -0.149239 1
gene 1 16 27 1.30155 0 92 1.30155 1
gene 1 27 17 -1.32825 0 93 -1.32825 1
gene 1 6 30 6.03449 0 100 6.03449 1
gene 1 30 20 -8 0 101 -8 1
gene 1 6 35 0.815173 0 117 0.815173 1
gene 1 35 17 1.79736 0 118 1.79736 1
gene 1 17 30 -0.991394 0 135 -0.991394 1
gene 1 15 49 1.55461 0 154 1.55461 1
gene 1 49 20 0.303787 0 155 0.303787 1
gene 1 49 18 4.20339 0 225 4.20339 1
gene 1 35 19 -0.0908692 0 234 -0.0908692 1
gene 1 12 35 0.468077 0 250 0.468077 1
gene 1 49 19 0.773506 0 270 0.773506 1
gene 1 14 30 -3.23393 0 272 -3.23393 1
gene 1 35 18 2.34421 0 298 2.34421 1
gene 1 19 30 0.534848 0 312 0.534848 1
gene 1 2 49 7.06368 0 326 7.06368 1
gene 1 6 49 -1.67534 0 350 -1.67534 1
gene 1 7 30 8 0 373 8 1
gene 1 1 108 0.245461 0 377 0.245461 1
gene 1 108 18 -1.12262 0 378 -1.12262 1
