
/* Species #62 : (Size 13) (AF 2689.77) (Age 32)  */


/* Organism #0 Fitness: 2346 Error: 167 */
genomestart 0
trait 1 0.706492 0 0.715918 0.0360923 0.498156 0.279615 0.113282 0.292696 
node 1 1 1 1
node 2 1 1 1
node 3 1 1 1
node 4 1 1 1
node 5 1 1 1
node 6 1 1 1
node 7 1 1 1
node 8 1 1 1
node 9 1 1 1
node 10 1 1 1
node 11 1 1 1
node 12 1 1 1
node 13 1 1 1
node 14 1 1 1
node 15 1 1 1
node 16 1 1 1
node 17 1 0 2
node 18 1 0 2
node 19 1 0 2
node 20 1 0 2
node 29 1 0 0
node 31 1 0 0
node 33 1 0 0
node 35 1 0 0
node 40 1 0 0
node 51 1 0 0
node 61 1 0 0
node 65 1 0 0
node 69 1 0 0
node 75 1 0 0
node 78 1 0 0
node 81 1 0 0
node 82 1 0 0
node 87 1 0 0
node 105 1 0 0
node 107 1 0 0
node 119 1 0 0
node 125 1 0 0
node 139 1 0 0
node 142 1 0 0
node 151 1 0 0
node 153 1 0 0
node 159 1 0 0
node 182 1 0 0
node 196 1 0 0
node 199 1 0 0
node 203 1 0 0
node 206 1 0 0
node 209 1 0 0
node 224 1 0 0
gene 1 1 17 2.27871 0 1 2.27871 1
gene 1 2 17 -3.69902 0 2 -3.69902 1
gene 1 3 17 0.412876 0 3 0.412876 1
gene 1 4 17 1.95518 0 4 1.95518 1
gene 1 5 17 -3.70418 0 5 -3.70418 1
gene 1 6 17 2.83192 0 6 2.83192 1
gene 1 7 17 -1.95741 0 7 -1.95741 1
gene 1 8 17 -1.49869 0 8 -1.49869 1
gene 1 9 17 -5.44156 0 9 -5.44156 1
gene 1 10 17 4.00842 0 10 4.00842 1
gene 1 11 17 -1.08031 0 11 -1.08031 1
gene 1 12 17 -2.55896 0 12 -2.55896 1
gene 1 13 17 -0.728808 0 13 -0.728808 1
gene 1 14 17 0.102775 0 14 0.102775 1
gene 1 15 17 -3.75675 0 15 -3.75675 1
gene 1 16 17 -4.07637 0 16 -4.07637 1
gene 1 1 18 -4.18094 0 17 -4.18094 1
gene 1 2 18 0.273751 0 18 0.273751 1
gene 1 3 18 -6.03488 0 19 -6.03488 1
gene 1 4 18 1.02887 0 20 1.02887 1
gene 1 5 18 -2.40777 0 21 -2.40777 1
gene 1 6 18 1.57063 0 22 1.57063 1
gene 1 7 18 0.0966708 0 23 0.0966708 1
gene 1 8 18 -1.86882 0 24 -1.86882 1
gene 1 9 18 -0.0478582 0 25 -0.0478582 1
gene 1 10 18 2.06791 0 26 2.06791 1
gene 1 11 18 -4.03005 0 27 -4.03005 1
gene 1 12 18 -5.30263 0 28 -5.30263 1
gene 1 13 18 -5.30421 0 29 -5.30421 1
gene 1 14 18 -2.14001 0 30 -2.14001 1
gene 1 15 18 1.41614 0 31 1.41614 1
gene 1 16 18 3.74727 0 32 3.74727 1
gene 1 1 19 4.09379 0 33 4.09379 1
gene 1 2 19 0.242806 0 34 0.242806 1
gene 1 3 19 -8 0 35 -8 1
gene 1 4 19 0.50427 0 36 0.50427 1
gene 1 5 19 0.477593 0 37 0.477593 1
gene 1 6 19 3.38682 0 38 3.38682 1
gene 1 7 19 4.96921 0 39 4.96921 1
gene 1 8 19 -0.652067 0 40 -0.652067 1
gene 1 9 19 -0.26687 0 41 -0.26687 1
gene 1 10 19 1.19216 0 42 1.19216 1
gene 1 11 19 8 0 43 8 1
gene 1 12 19 -1.21223 0 44 -1.21223 1
gene 1 13 19 0.271568 0 45 0.271568 1
gene 1 14 19 1.82735 0 46 1.82735 1
gene 1 15 19 3.33094 0 47 3.33094 1
gene 1 16 19 7.07632 0 48 7.07632 1
gene 1 1 20 -3.53775 0 49 -3.53775 1
gene 1 2 20 -1.33399 0 50 -1.33399 0
gene 1 3 20 0.886988 0 51 0.886988 1
gene 1 4 20 8 0 52 8 1
gene 1 5 20 -5.33498 0 53 -5.33498 1
gene 1 6 20 -1.93782 0 54 -1.93782 1
gene 1 7 20 -3.54331 0 55 -3.54331 1
gene 1 8 20 5.91891 0 56 5.91891 1
gene 1 9 20 -5.12725 0 57 -5.12725 1
gene 1 10 20 2.99825 0 58 2.99825 1
gene 1 11 20 -4.91045 0 59 -4.91045 1
gene 1 12 20 -3.03708 0 60 -3.03708 1
gene 1 13 20 -2.98145 0 61 -2.98145 1
gene 1 14 20 0.462605 0 62 0.462605 1
gene 1 15 20 4.11264 0 63 4.11264 1
gene 1 16 20 -5.21987 0 64 -5.21987 1
gene 1 19 18 -2.24084 0 65 -2.24084 1
gene 1 6 29 2.74845 0 84 2.74845 1
gene 1 29 18 -3.73985 0 85 -3.73985 1
gene 1 10 31 7.11341 0 89 7.11341 1
gene 1 31 20 8 0 90 8 1
gene 1 3 29 -3.7311 0 95 -3.7311 1
gene 1 12 33 5.16171 0 96 5.16171 1
gene 1 33 19 2.11546 0 97 2.11546 1
gene 1 19 35 -1.34463 0 106 -1.34463 1
gene 1 35 18 -0.996339 0 107 -0.996339 1
gene 1 6 40 0.725023 0 121 0.725023 1
gene 1 40 29 6.08357 0 122 6.08357 1
gene 1 15 33 5.27156 0 149 5.27156 1
gene 1 6 51 -8 0 167 -8 1
gene 1 51 29 1.68043 0 168 1.68043 1
gene 1 17 35 -0.291395 0 188 -0.291395 1
gene 1 33 61 -4.77491 0 205 -4.77491 1
gene 1 61 19 6.86099 0 206 6.86099 1
gene 1 5 65 -2.48186 0 219 -2.48186 1
gene 1 65 19 8 0 220 8 1
gene 1 1 31 -5.70269 0 224 -5.70269 1
gene 1 13 69 -0.948605 0 232 -0.948605 1
gene 1 69 19 -3.97199 0 233 -3.97199 1
gene 1 7 75 1.38473 0 258 1.38473 1
gene 1 75 20 -3.95816 0 259 -3.95816 1
gene 1 6 61 -4.25314 0 263 -4.25314 1
gene 1 5 78 2.03486 0 270 2.03486 1
gene 1 78 65 0.689043 0 271 0.689043 1
gene 1 14 81 -3.875 0 287 -3.875 1
gene 1 81 17 1.56227 0 288 1.56227 1
gene 1 65 82 -5.85584 0 291 -5.85584 1
gene 1 82 19 0.0891293 0 292 0.0891293 1
gene 1 7 87 -8 0 317 -8 1
gene 1 87 18 1.75004 0 318 1.75004 1
gene 1 11 82 -5.73074 0 353 -5.73074 1
gene 1 16 105 -4.37296 0 390 -4.37296 1
gene 1 105 20 7.29865 0 391 7.29865 1
gene 1 9 107 1.10395 0 396 1.10395 0
gene 1 107 20 0.931009 0 397 0.931009 1
gene 1 35 29 -2.00152 0 427 -2.00152 1
gene 1 11 119 1.71309 0 435 1.71309 1
gene 1 119 20 1.56901 0 436 1.56901 1
gene 1 6 125 4.3349 0 465 4.3349 1
gene 1 125 18 4.96931 0 466 4.96931 1
gene 1 69 139 -3.56882 0 530 -3.56882 1
gene 1 139 19 -1.57926 0 531 -1.57926 1
gene 1 9 142 -1.96491 0 539 -1.96491 1
gene 1 142 107 -4.97264 0 540 -4.97264 1
gene 1 65 40 5.98214 0 575 5.98214 1
gene 1 15 151 0.717518 0 586 0.717518 1
gene 1 151 19 1.53788 0 587 1.53788 1
gene 1 2 125 5.0876 0 589 5.0876 1
gene 1 11 153 0.467441 0 593 0.467441 1
gene 1 153 82 -3.06463 0 594 -3.06463 1
gene 1 12 159 0.966413 0 619 0.966413 1
gene 1 159 33 -3.59435 0 620 -3.59435 1
gene 1 6 75 8 0 622 8 1
gene 1 3 61 -2.54164 0 651 -2.54164 1
gene 1 10 153 0.337072 0 677 0.337072 1
gene 1 7 182 -2.35885 0 704 -2.35885 1
gene 1 182 18 4.50261 0 705 4.50261 1
gene 1 13 139 0.760348 0 733 0.760348 1
gene 1 10 61 0.116014 0 750 0.116014 0
gene 1 16 196 -8 0 771 -8 1
gene 1 196 18 5.20373 0 772 5.20373 1
gene 1 11 199 3.23299 0 788 3.23299 1
gene 1 199 119 -0.998086 0 789 -0.998086 1
gene 1 87 17 -0.0898679 0 791 -0.0898679 1
gene 1 14 203 -1.65909 0 799 -1.65909 1
gene 1 203 81 -2.13329 0 800 -2.13329 1
gene 1 8 206 6.10523 0 808 6.10523 1
gene 1 206 18 -0.96355 0 809 -0.96355 1
gene 1 11 151 -0.0650669 0 814 -0.0650669 1
gene 1 10 209 -2.01125 0 820 -2.01125 1
gene 1 209 61 -2.79884 0 821 -2.79884 1
gene 1 12 209 -8 0 826 -8 1
gene 1 51 203 2.71456 0 867 2.71456 1
gene 1 2 224 1.84232 0 870 1.84232 1
gene 1 224 20 -2.4299 0 871 -2.4299 1
genomeend 0

/* Organism #1 Fitness: 3277 Error: 257 */
genomestart 1
trait 1 0.706492 0 0.715918 0.0360923 0.498156 0.279615 0.113282 0.292696 
node 1 1 1 1
node 2 1 1 1
node 3 1 1 1
node 4 1 1 1
node 5 1 1 1
node 6 1 1 1
node 7 1 1 1
node 8 1 1 1
node 9 1 1 1
node 10 1 1 1
node 11 1 1 1
node 12 1 1 1
node 13 1 1 1
node 14 1 1 1
node 15 1 1 1
node 16 1 1 1
node 17 1 0 2
node 18 1 0 2
node 19 1 0 2
node 20 1 0 2
node 29 1 0 0
node 31 1 0 0
node 33 1 0 0
node 35 1 0 0
node 40 1 0 0
node 51 1 0 0
node 61 1 0 0
node 65 1 0 0
node 69 1 0 0
node 75 1 0 0
node 78 1 0 0
node 81 1 0 0
node 82 1 0 0
node 87 1 0 0
node 105 1 0 0
node 107 1 0 0
node 119 1 0 0
node 125 1 0 0
node 139 1 0 0
node 142 1 0 0
node 151 1 0 0
node 153 1 0 0
node 159 1 0 0
node 182 1 0 0
node 196 1 0 0
node 199 1 0 0
node 203 1 0 0
node 206 1 0 0
node 209 1 0 0
node 224 1 0 0
gene 1 1 17 5.50247 0 1 5.50247 1
gene 1 2 17 -1.4902 0 2 -1.4902 1
gene 1 3 17 -0.148248 0 3 -0.148248 1
gene 1 4 17 -2.23181 0 4 -2.23181 1
gene 1 5 17 -0.477822 0 5 -0.477822 1
gene 1 6 17 4.80118 0 6 4.80118 1
gene 1 7 17 -0.885921 0 7 -0.885921 1
gene 1 8 17 -0.116063 0 8 -0.116063 1
gene 1 9 17 -7.76223 0 9 -7.76223 1
gene 1 10 17 6.60136 0 10 6.60136 1
gene 1 11 17 1.55138 0 11 1.55138 1
gene 1 12 17 -2.34897 0 12 -2.34897 1
gene 1 13 17 -4.45736 0 13 -4.45736 1
gene 1 14 17 -0.934054 0 14 -0.934054 1
gene 1 15 17 -6.00677 0 15 -6.00677 1
gene 1 16 17 -3.871 0 16 -3.871 1
gene 1 1 18 -0.790527 0 17 -0.790527 1
gene 1 2 18 1.09566 0 18 1.09566 1
gene 1 3 18 -7.76035 0 19 -7.76035 1
gene 1 4 18 3.36547 0 20 3.36547 1
gene 1 5 18 -0.0502236 0 21 -0.0502236 1
gene 1 6 18 1.9808 0 22 1.9808 1
gene 1 7 18 -0.635585 0 23 -0.635585 1
gene 1 8 18 0.15081 0 24 0.15081 1
gene 1 9 18 0.117122 0 25 0.117122 1
gene 1 10 18 -1.22642 0 26 -1.22642 1
gene 1 11 18 -1.60634 0 27 -1.60634 1
gene 1 12 18 -5.91732 0 28 -5.91732 1
gene 1 13 18 -4.91198 0 29 -4.91198 1
gene 1 14 18 -3.37825 0 30 -3.37825 1
gene 1 15 18 0.417384 0 31 0.417384 1
gene 1 16 18 2.87209 0 32 2.87209 1
gene 1 1 19 3.45885 0 33 3.45885 1
gene 1 2 19 -0.744801 0 34 -0.744801 1
gene 1 3 19 -8 0 35 -8 1
gene 1 4 19 1.48116 0 36 1.48116 1
gene 1 5 19 1.01035 0 37 1.01035 1
gene 1 6 19 3.48739 0 38 3.48739 1
gene 1 7 19 8 0 39 8 1
gene 1 8 19 2.10142 0 40 2.10142 1
gene 1 9 19 3.07268 0 41 3.07268 1
gene 1 10 19 -0.248604 0 42 -0.248604 1
gene 1 11 19 8 0 43 8 1
gene 1 12 19 -1.56311 0 44 -1.56311 1
gene 1 13 19 1.40719 0 45 1.40719 1
gene 1 14 19 2.58402 0 46 2.58402 1
gene 1 15 19 3.79701 0 47 3.79701 1
gene 1 16 19 5.17714 0 48 5.17714 1
gene 1 1 20 -1.83305 0 49 -1.83305 1
gene 1 2 20 -0.963339 0 50 -0.963339 0
gene 1 3 20 -1.39936 0 51 -1.39936 1
gene 1 4 20 8 0 52 8 1
gene 1 5 20 -4.24393 0 53 -4.24393 1
gene 1 6 20 -2.80657 0 54 -2.80657 1
gene 1 7 20 -3.73804 0 55 -3.73804 1
gene 1 8 20 3.86626 0 56 3.86626 1
gene 1 9 20 -5.54377 0 57 -5.54377 1
gene 1 10 20 3.29215 0 58 3.29215 1
gene 1 11 20 -3.24017 0 59 -3.24017 1
gene 1 12 20 -4.57193 0 60 -4.57193 1
gene 1 13 20 0.900572 0 61 0.900572 1
gene 1 14 20 0.326319 0 62 0.326319 1
gene 1 15 20 0.574471 0 63 0.574471 1
gene 1 16 20 -4.38848 0 64 -4.38848 1
gene 1 19 18 -2.31099 0 65 -2.31099 1
gene 1 6 29 1.77318 0 84 1.77318 1
gene 1 29 18 -2.64597 0 85 -2.64597 1
gene 1 10 31 8 0 89 8 1
gene 1 31 20 8 0 90 8 1
gene 1 3 29 -3.75346 0 95 -3.75346 1
gene 1 12 33 1.86611 0 96 1.86611 1
gene 1 33 19 -1.96892 0 97 -1.96892 1
gene 1 19 35 -2.05556 0 106 -2.05556 1
gene 1 35 18 -1.39083 0 107 -1.39083 1
gene 1 6 40 2.83708 0 121 2.83708 1
gene 1 40 29 6.92368 0 122 6.92368 1
gene 1 15 33 5.54119 0 149 5.54119 1
gene 1 6 51 -7.97135 0 167 -7.97135 1
gene 1 51 29 1.40402 0 168 1.40402 1
gene 1 17 35 -2.03389 0 188 -2.03389 1
gene 1 33 61 -3.77016 0 205 -3.77016 1
gene 1 61 19 6.71788 0 206 6.71788 1
gene 1 5 65 -1.69624 0 219 -1.69624 1
gene 1 65 19 6.8333 0 220 6.8333 1
gene 1 1 31 -4.12974 0 224 -4.12974 1
gene 1 13 69 0.795293 0 232 0.795293 1
gene 1 69 19 -4.77779 0 233 -4.77779 1
gene 1 7 75 0.509671 0 258 0.509671 1
gene 1 75 20 -5.48764 0 259 -5.48764 1
gene 1 6 61 -3.96452 0 263 -3.96452 1
gene 1 5 78 5.7352 0 270 5.7352 1
gene 1 78 65 1.86914 0 271 1.86914 1
gene 1 14 81 -2.76863 0 287 -2.76863 1
gene 1 81 17 1.36628 0 288 1.36628 1
gene 1 65 82 -4.10606 0 291 -4.10606 1
gene 1 82 19 2.04637 0 292 2.04637 1
gene 1 7 87 -7.11775 0 317 -7.11775 1
gene 1 87 18 -0.172581 0 318 -0.172581 1
gene 1 11 82 -6.32446 0 353 -6.32446 1
gene 1 16 105 -4.80316 0 390 -4.80316 1
gene 1 105 20 5.72358 0 391 5.72358 1
gene 1 9 107 -2.61174 0 396 -2.61174 0
gene 1 107 20 0.905437 0 397 0.905437 1
gene 1 35 29 -0.327014 0 427 -0.327014 1
gene 1 11 119 3.99397 0 435 3.99397 1
gene 1 119 20 2.42239 0 436 2.42239 1
gene 1 6 125 2.39572 0 465 2.39572 1
gene 1 125 18 4.69356 0 466 4.69356 1
gene 1 69 139 -3.79423 0 530 -3.79423 1
gene 1 139 19 -4.77183 0 531 -4.77183 1
gene 1 9 142 -1.65306 0 539 -1.65306 1
gene 1 142 107 -3.12871 0 540 -3.12871 1
gene 1 65 40 5.33619 0 575 5.33619 1
gene 1 15 151 3.23583 0 586 3.23583 1
gene 1 151 19 3.89723 0 587 3.89723 1
gene 1 2 125 5.0876 0 589 5.0876 1
gene 1 11 153 2.45686 0 593 2.45686 1
gene 1 153 82 -2.39044 0 594 -2.39044 1
gene 1 12 159 8 0 619 8 1
gene 1 159 33 -2.24174 0 620 -2.24174 1
gene 1 6 75 -0.950791 0 622 -0.950791 1
gene 1 3 61 -1.78304 0 651 -1.78304 1
gene 1 10 153 -2.26643 0 677 -2.26643 1
gene 1 7 182 -2.48067 0 704 -2.48067 1
gene 1 182 18 2.78604 0 705 2.78604 1
gene 1 13 139 0.438953 0 733 0.438953 1
gene 1 10 61 2.28882 0 750 2.28882 0
gene 1 16 196 -8 0 771 -8 1
gene 1 196 18 6.62446 0 772 6.62446 1
gene 1 11 199 -0.735714 0 788 -0.735714 1
gene 1 199 119 -1.39773 0 789 -1.39773 1
gene 1 87 17 1.86225 0 791 1.86225 1
gene 1 14 203 -2.80518 0 799 -2.80518 1
gene 1 203 81 1.74342 0 800 1.74342 1
gene 1 8 206 8 0 808 8 1
gene 1 206 18 1.37281 0 809 1.37281 1
gene 1 11 151 -0.0773176 0 814 -0.0773176 1
gene 1 10 209 -2.55967 0 820 -2.55967 1
gene 1 209 61 -0.924246 0 821 -0.924246 1
gene 1 12 209 -5.84463 0 826 -5.84463 1
gene 1 51 203 -0.769492 0 867 -0.769492 1
gene 1 2 224 -0.38885 0 870 -0.38885 1
gene 1 224 20 0.758845 0 871 0.758845 1
genomeend 1

/* Organism #2 Fitness: 2617 Error: 150 */
genomestart 2
trait 1 0.706492 0 0.715918 0.0360923 0.498156 0.279615 0.113282 0.292696 
node 1 1 1 1
node 2 1 1 1
node 3 1 1 1
node 4 1 1 1
node 5 1 1 1
node 6 1 1 1
node 7 1 1 1
node 8 1 1 1
node 9 1 1 1
node 10 1 1 1
node 11 1 1 1
node 12 1 1 1
node 13 1 1 1
node 14 1 1 1
node 15 1 1 1
node 16 1 1 1
node 17 1 0 2
node 18 1 0 2
node 19 1 0 2
node 20 1 0 2
node 29 1 0 0
node 31 1 0 0
node 33 1 0 0
node 35 1 0 0
node 40 1 0 0
node 51 1 0 0
node 61 1 0 0
node 65 1 0 0
node 69 1 0 0
node 75 1 0 0
node 78 1 0 0
node 81 1 0 0
node 82 1 0 0
node 87 1 0 0
node 105 1 0 0
node 107 1 0 0
node 119 1 0 0
node 125 1 0 0
node 139 1 0 0
node 142 1 0 0
node 151 1 0 0
node 153 1 0 0
node 159 1 0 0
node 182 1 0 0
node 196 1 0 0
node 199 1 0 0
node 203 1 0 0
node 206 1 0 0
node 209 1 0 0
node 224 1 0 0
gene 1 1 17 -2.15362 0 1 -2.15362 1
gene 1 2 17 1.45494 0 2 1.45494 1
gene 1 3 17 -2.2051 0 3 -2.2051 1
gene 1 4 17 -1.42355 0 4 -1.42355 1
gene 1 5 17 -2.56938 0 5 -2.56938 1
gene 1 6 17 4.58881 0 6 4.58881 1
gene 1 7 17 -2.32568 0 7 -2.32568 1
gene 1 8 17 -0.458464 0 8 -0.458464 1
gene 1 9 17 -0.610911 0 9 -0.610911 1
gene 1 10 17 6.31725 0 10 6.31725 1
gene 1 11 17 2.93096 0 11 2.93096 1
gene 1 12 17 -1.88112 0 12 -1.88112 1
gene 1 13 17 -2.39336 0 13 -2.39336 1
gene 1 14 17 -1.23268 0 14 -1.23268 1
gene 1 15 17 -2.35065 0 15 -2.35065 1
gene 1 16 17 -2.016 0 16 -2.016 1
gene 1 1 18 -1.67662 0 17 -1.67662 1
gene 1 2 18 -0.659005 0 18 -0.659005 1
gene 1 3 18 -8 0 19 -8 1
gene 1 4 18 -1.63223 0 20 -1.63223 1
gene 1 5 18 -0.595092 0 21 -0.595092 1
gene 1 6 18 0.313789 0 22 0.313789 1
gene 1 7 18 -1.52027 0 23 -1.52027 1
gene 1 8 18 -0.0891518 0 24 -0.0891518 1
gene 1 9 18 -3.53488 0 25 -3.53488 1
gene 1 10 18 -1.06419 0 26 -1.06419 1
gene 1 11 18 0.853085 0 27 0.853085 1
gene 1 12 18 -2.51011 0 28 -2.51011 1
gene 1 13 18 -4.34808 0 29 -4.34808 1
gene 1 14 18 -0.312752 0 30 -0.312752 1
gene 1 15 18 -2.08748 0 31 -2.08748 1
gene 1 16 18 2.28458 0 32 2.28458 1
gene 1 1 19 1.05108 0 33 1.05108 1
gene 1 2 19 1.34069 0 34 1.34069 1
gene 1 3 19 -6.40636 0 35 -6.40636 1
gene 1 4 19 1.43934 0 36 1.43934 1
gene 1 5 19 -1.71442 0 37 -1.71442 1
gene 1 6 19 2.21563 0 38 2.21563 1
gene 1 7 19 5.25785 0 39 5.25785 1
gene 1 8 19 -1.51956 0 40 -1.51956 1
gene 1 9 19 2.68096 0 41 2.68096 1
gene 1 10 19 -1.82951 0 42 -1.82951 1
gene 1 11 19 8 0 43 8 1
gene 1 12 19 -2.29441 0 44 -2.29441 1
gene 1 13 19 2.90593 0 45 2.90593 1
gene 1 14 19 0.140304 0 46 0.140304 1
gene 1 15 19 1.90348 0 47 1.90348 1
gene 1 16 19 3.81098 0 48 3.81098 1
gene 1 1 20 -4.01708 0 49 -4.01708 1
gene 1 2 20 -0.68318 0 50 -0.68318 0
gene 1 3 20 0.495086 0 51 0.495086 1
gene 1 4 20 1.6717 0 52 1.6717 1
gene 1 5 20 -1.89618 0 53 -1.89618 1
gene 1 6 20 -3.38144 0 54 -3.38144 1
gene 1 7 20 -0.692574 0 55 -0.692574 1
gene 1 8 20 1.55174 0 56 1.55174 1
gene 1 9 20 -4.82095 0 57 -4.82095 1
gene 1 10 20 2.03234 0 58 2.03234 1
gene 1 11 20 -4.136 0 59 -4.136 1
gene 1 12 20 -0.333592 0 60 -0.333592 1
gene 1 13 20 1.38453 0 61 1.38453 1
gene 1 14 20 -1.42127 0 62 -1.42127 1
gene 1 15 20 1.89605 0 63 1.89605 1
gene 1 16 20 -1.78134 0 64 -1.78134 1
gene 1 19 18 -0.27883 0 65 -0.27883 1
gene 1 6 29 1.87542 0 84 1.87542 1
gene 1 29 18 -3.63661 0 85 -3.63661 1
gene 1 10 31 8 0 89 8 1
gene 1 31 20 6.95288 0 90 6.95288 1
gene 1 3 29 -2.6292 0 95 -2.6292 1
gene 1 12 33 2.04657 0 96 2.04657 1
gene 1 33 19 0.992683 0 97 0.992683 1
gene 1 19 35 -4.88164 0 106 -4.88164 1
gene 1 35 18 -1.83864 0 107 -1.83864 1
gene 1 6 40 0.371772 0 121 0.371772 1
gene 1 40 29 7.9387 0 122 7.9387 1
gene 1 15 33 0.280205 0 149 0.280205 1
gene 1 6 51 1.317 0 167 1.317 1
gene 1 51 29 -0.100013 0 168 -0.100013 1
gene 1 17 35 1.57171 0 188 1.57171 1
gene 1 33 61 -2.34068 0 205 -2.34068 1
gene 1 61 19 8 0 206 8 1
gene 1 5 65 -1.41794 0 219 -1.41794 1
gene 1 65 19 7.60766 0 220 7.60766 1
gene 1 1 31 -6.37696 0 224 -6.37696 1
gene 1 13 69 -0.32968 0 232 -0.32968 1
gene 1 69 19 2.27483 0 233 2.27483 1
gene 1 7 75 -0.557744 0 258 -0.557744 1
gene 1 75 20 -1.71676 0 259 -1.71676 1
gene 1 6 61 -2.9489 0 263 -2.9489 1
gene 1 5 78 3.67801 0 270 3.67801 1
gene 1 78 65 -0.576724 0 271 -0.576724 1
gene 1 14 81 -2.02215 0 287 -2.02215 1
gene 1 81 17 -2.36805 0 288 -2.36805 1
gene 1 65 82 -7.16762 0 291 -7.16762 1
gene 1 82 19 -1.36841 0 292 -1.36841 1
gene 1 7 87 -6.41099 0 317 -6.41099 1
gene 1 87 18 -2.39612 0 318 -2.39612 1
gene 1 11 82 -5.73979 0 353 -5.73979 1
gene 1 16 105 -4.80654 0 390 -4.80654 1
gene 1 105 20 -1.87421 0 391 -1.87421 1
gene 1 9 107 -0.582052 0 396 -0.582052 0
gene 1 107 20 2.46867 0 397 2.46867 1
gene 1 35 29 -0.47918 0 427 -0.47918 1
gene 1 11 119 1.3099 0 435 1.3099 1
gene 1 119 20 1.13899 0 436 1.13899 1
gene 1 6 125 1.28513 0 465 1.28513 1
gene 1 125 18 3.1583 0 466 3.1583 1
gene 1 69 139 -3.18272 0 530 -3.18272 1
gene 1 139 19 -0.991 0 531 -0.991 1
gene 1 9 142 1.09246 0 539 1.09246 1
gene 1 142 107 -5.37297 0 540 -5.37297 1
gene 1 65 40 3.5047 0 575 3.5047 1
gene 1 15 151 1.11804 0 586 1.11804 1
gene 1 151 19 2.27555 0 587 2.27555 1
gene 1 2 125 2.63972 0 589 2.63972 1
gene 1 11 153 2.83325 0 593 2.83325 1
gene 1 153 82 -3.7647 0 594 -3.7647 1
gene 1 12 159 7.33258 0 619 7.33258 1
gene 1 159 33 -3.68184 0 620 -3.68184 1
gene 1 6 75 8 0 622 8 1
gene 1 3 61 -1.51521 0 651 -1.51521 1
gene 1 10 153 -2.50036 0 677 -2.50036 1
gene 1 7 182 -1.08569 0 704 -1.08569 1
gene 1 182 18 3.97382 0 705 3.97382 1
gene 1 13 139 2.08625 0 733 2.08625 1
gene 1 10 61 2.31871 0 750 2.31871 0
gene 1 16 196 -7.85693 0 771 -7.85693 1
gene 1 196 18 1.46017 0 772 1.46017 1
gene 1 11 199 1.25301 0 788 1.25301 1
gene 1 199 119 -0.852052 0 789 -0.852052 1
gene 1 87 17 -0.284174 0 791 -0.284174 1
gene 1 14 203 -1.62335 0 799 -1.62335 1
gene 1 203 81 0.847449 0 800 0.847449 1
gene 1 8 206 4.82563 0 808 4.82563 1
gene 1 206 18 -1.65815 0 809 -1.65815 1
gene 1 11 151 1.59733 0 814 1.59733 1
gene 1 10 209 -2.58384 0 820 -2.58384 1
gene 1 209 61 -0.178428 0 821 -0.178428 1
gene 1 12 209 -3.76515 0 826 -3.76515 1
gene 1 51 203 0.946764 0 867 0.946764 1
gene 1 2 224 -1.05504 0 870 -1.05504 1
gene 1 224 20 0.698644 0 871 0.698644 1
genomeend 2

/* Organism #3 Fitness: 2538 Error: 239 */
genomestart 3
trait 1 0.706492 0 0.715918 0.0360923 0.498156 0.279615 0.113282 0.292696 
node 1 1 1 1
node 2 1 1 1
node 3 1 1 1
node 4 1 1 1
node 5 1 1 1
node 6 1 1 1
node 7 1 1 1
node 8 1 1 1
node 9 1 1 1
node 10 1 1 1
node 11 1 1 1
node 12 1 1 1
node 13 1 1 1
node 14 1 1 1
node 15 1 1 1
node 16 1 1 1
node 17 1 0 2
node 18 1 0 2
node 19 1 0 2
node 20 1 0 2
node 29 1 0 0
node 31 1 0 0
node 33 1 0 0
node 35 1 0 0
node 40 1 0 0
node 51 1 0 0
node 61 1 0 0
node 65 1 0 0
node 69 1 0 0
node 75 1 0 0
node 78 1 0 0
node 81 1 0 0
node 82 1 0 0
node 87 1 0 0
node 105 1 0 0
node 107 1 0 0
node 119 1 0 0
node 125 1 0 0
node 139 1 0 0
node 142 1 0 0
node 151 1 0 0
node 153 1 0 0
node 159 1 0 0
node 182 1 0 0
node 196 1 0 0
node 199 1 0 0
node 203 1 0 0
node 206 1 0 0
node 209 1 0 0
node 224 1 0 0
gene 1 1 17 1.12971 0 1 1.12971 1
gene 1 2 17 -5.34933 0 2 -5.34933 1
gene 1 3 17 0.454373 0 3 0.454373 1
gene 1 4 17 -0.649147 0 4 -0.649147 1
gene 1 5 17 2.49748 0 5 2.49748 1
gene 1 6 17 5.78279 0 6 5.78279 1
gene 1 7 17 -1.45525 0 7 -1.45525 1
gene 1 8 17 -0.621884 0 8 -0.621884 1
gene 1 9 17 1.78175 0 9 1.78175 1
gene 1 10 17 2.99695 0 10 2.99695 1
gene 1 11 17 1.46363 0 11 1.46363 1
gene 1 12 17 -3.81247 0 12 -3.81247 1
gene 1 13 17 -0.99852 0 13 -0.99852 1
gene 1 14 17 -0.234353 0 14 -0.234353 1
gene 1 15 17 -3.46385 0 15 -3.46385 1
gene 1 16 17 -2.41309 0 16 -2.41309 1
gene 1 1 18 -3.82905 0 17 -3.82905 1
gene 1 2 18 1.18649 0 18 1.18649 1
gene 1 3 18 -8 0 19 -8 1
gene 1 4 18 3.56191 0 20 3.56191 1
gene 1 5 18 -2.25252 0 21 -2.25252 1
gene 1 6 18 -0.109069 0 22 -0.109069 1
gene 1 7 18 -4.66354 0 23 -4.66354 1
gene 1 8 18 -1.06848 0 24 -1.06848 1
gene 1 9 18 0.333646 0 25 0.333646 1
gene 1 10 18 0.799174 0 26 0.799174 1
gene 1 11 18 -3.376 0 27 -3.376 1
gene 1 12 18 -2.95277 0 28 -2.95277 1
gene 1 13 18 2.06435 0 29 2.06435 1
gene 1 14 18 -2.37203 0 30 -2.37203 1
gene 1 15 18 1.53283 0 31 1.53283 1
gene 1 16 18 0.545551 0 32 0.545551 1
gene 1 1 19 4.63354 0 33 4.63354 1
gene 1 2 19 -0.746565 0 34 -0.746565 1
gene 1 3 19 -7.85572 0 35 -7.85572 1
gene 1 4 19 3.23193 0 36 3.23193 1
gene 1 5 19 -1.87414 0 37 -1.87414 1
gene 1 6 19 3.60126 0 38 3.60126 1
gene 1 7 19 7.83478 0 39 7.83478 1
gene 1 8 19 2.20709 0 40 2.20709 1
gene 1 9 19 2.59081 0 41 2.59081 1
gene 1 10 19 -2.68128 0 42 -2.68128 1
gene 1 11 19 -0.315415 0 43 -0.315415 1
gene 1 12 19 -1.11161 0 44 -1.11161 1
gene 1 13 19 0.541475 0 45 0.541475 1
gene 1 14 19 -1.23573 0 46 -1.23573 1
gene 1 15 19 0.00285934 0 47 0.00285934 1
gene 1 16 19 4.54136 0 48 4.54136 1
gene 1 1 20 -4.23064 0 49 -4.23064 1
gene 1 2 20 -0.0925325 0 50 -0.0925325 0
gene 1 3 20 -2.27868 0 51 -2.27868 1
gene 1 4 20 5.97817 0 52 5.97817 1
gene 1 5 20 -1.95599 0 53 -1.95599 1
gene 1 6 20 -3.46799 0 54 -3.46799 1
gene 1 7 20 -1.6662 0 55 -1.6662 1
gene 1 8 20 6.22896 0 56 6.22896 1
gene 1 9 20 -4.55068 0 57 -4.55068 1
gene 1 10 20 3.76797 0 58 3.76797 1
gene 1 11 20 -4.44278 0 59 -4.44278 1
gene 1 12 20 -5.82282 0 60 -5.82282 1
gene 1 13 20 -0.131226 0 61 -0.131226 1
gene 1 14 20 1.96175 0 62 1.96175 1
gene 1 15 20 1.66013 0 63 1.66013 1
gene 1 16 20 -1.81236 0 64 -1.81236 1
gene 1 19 18 -1.63142 0 65 -1.63142 1
gene 1 6 29 3.95114 0 84 3.95114 1
gene 1 29 18 -4.2374 0 85 -4.2374 1
gene 1 10 31 6.31428 0 89 6.31428 1
gene 1 31 20 8 0 90 8 1
gene 1 3 29 -2.0838 0 95 -2.0838 1
gene 1 12 33 2.70961 0 96 2.70961 1
gene 1 33 19 -2.09883 0 97 -2.09883 1
gene 1 19 35 -0.64574 0 106 -0.64574 1
gene 1 35 18 1.68918 0 107 1.68918 1
gene 1 6 40 -0.204204 0 121 -0.204204 1
gene 1 40 29 8 0 122 8 1
gene 1 15 33 5.82881 0 149 5.82881 1
gene 1 6 51 -7.43965 0 167 -7.43965 1
gene 1 51 29 -2.23884 0 168 -2.23884 1
gene 1 17 35 -0.551762 0 188 -0.551762 1
gene 1 33 61 -1.87366 0 205 -1.87366 1
gene 1 61 19 6.64176 0 206 6.64176 1
gene 1 5 65 -2.26469 0 219 -2.26469 1
gene 1 65 19 0.493393 0 220 0.493393 1
gene 1 1 31 -5.87286 0 224 -5.87286 1
gene 1 13 69 -1.76179 0 232 -1.76179 1
gene 1 69 19 -0.106509 0 233 -0.106509 1
gene 1 7 75 3.46963 0 258 3.46963 1
gene 1 75 20 -4.30902 0 259 -4.30902 1
gene 1 6 61 -6.2066 0 263 -6.2066 1
gene 1 5 78 2.83761 0 270 2.83761 1
gene 1 78 65 -1.90716 0 271 -1.90716 1
gene 1 14 81 -0.48181 0 287 -0.48181 1
gene 1 81 17 -0.770421 0 288 -0.770421 1
gene 1 65 82 -4.22455 0 291 -4.22455 1
gene 1 82 19 1.79686 0 292 1.79686 1
gene 1 7 87 -1.49503 0 317 -1.49503 1
gene 1 87 18 0.961843 0 318 0.961843 1
gene 1 11 82 -4.36259 0 353 -4.36259 1
gene 1 16 105 -3.30448 0 390 -3.30448 1
gene 1 105 20 8 0 391 8 1
gene 1 9 107 -2.12919 0 396 -2.12919 0
gene 1 107 20 0.395067 0 397 0.395067 1
gene 1 35 29 -2.28545 0 427 -2.28545 1
gene 1 11 119 3.03669 0 435 3.03669 1
gene 1 119 20 2.39506 0 436 2.39506 1
gene 1 6 125 2.69148 0 465 2.69148 1
gene 1 125 18 6.59844 0 466 6.59844 1
gene 1 69 139 -5.4672 0 530 -5.4672 1
gene 1 139 19 -3.03606 0 531 -3.03606 1
gene 1 9 142 -1.94828 0 539 -1.94828 1
gene 1 142 107 -5.0206 0 540 -5.0206 1
gene 1 65 40 1.23718 0 575 1.23718 1
gene 1 15 151 1.51884 0 586 1.51884 1
gene 1 151 19 2.27555 0 587 2.27555 1
gene 1 2 125 6.90313 0 589 6.90313 1
gene 1 11 153 4.47967 0 593 4.47967 1
gene 1 153 82 2.16056 0 594 2.16056 1
gene 1 12 159 -0.365209 0 619 -0.365209 1
gene 1 159 33 -3.87668 0 620 -3.87668 1
gene 1 6 75 0.558465 0 622 0.558465 1
gene 1 3 61 -2.45997 0 651 -2.45997 1
gene 1 10 153 -3.53316 0 677 -3.53316 1
gene 1 7 182 1.89719 0 704 1.89719 1
gene 1 182 18 2.64536 0 705 2.64536 1
gene 1 13 139 1.09154 0 733 1.09154 1
gene 1 10 61 2.40366 0 750 2.40366 0
gene 1 16 196 -6.24591 0 771 -6.24591 1
gene 1 196 18 2.96087 0 772 2.96087 1
gene 1 11 199 -0.722134 0 788 -0.722134 1
gene 1 199 119 -1.42893 0 789 -1.42893 1
gene 1 87 17 -1.63385 0 791 -1.63385 1
gene 1 14 203 -1.23019 0 799 -1.23019 1
gene 1 203 81 1.05382 0 800 1.05382 1
gene 1 8 206 6.18544 0 808 6.18544 1
gene 1 206 18 -1.66055 0 809 -1.66055 1
gene 1 11 151 -1.79523 0 814 -1.79523 1
gene 1 10 209 0.682496 0 820 0.682496 1
gene 1 209 61 0.185266 0 821 0.185266 1
gene 1 12 209 -5.84463 0 826 -5.84463 1
gene 1 51 203 1.61369 0 867 1.61369 1
gene 1 2 224 1.85655 0 870 1.85655 1
gene 1 224 20 -0.0925325 0 871 -0.0925325 1
genomeend 3

/* Organism #4 Fitness: 2906 Error: 218 */
genomestart 4
trait 1 0.706492 0 0.715918 0.0360923 0.498156 0.279615 0.113282 0.292696 
node 1 1 1 1
node 2 1 1 1
node 3 1 1 1
node 4 1 1 1
node 5 1 1 1
node 6 1 1 1
node 7 1 1 1
node 8 1 1 1
node 9 1 1 1
node 10 1 1 1
node 11 1 1 1
node 12 1 1 1
node 13 1 1 1
node 14 1 1 1
node 15 1 1 1
node 16 1 1 1
node 17 1 0 2
node 18 1 0 2
node 19 1 0 2
node 20 1 0 2
node 29 1 0 0
node 31 1 0 0
node 33 1 0 0
node 35 1 0 0
node 40 1 0 0
node 51 1 0 0
node 61 1 0 0
node 65 1 0 0
node 69 1 0 0
node 75 1 0 0
node 78 1 0 0
node 81 1 0 0
node 82 1 0 0
node 87 1 0 0
node 105 1 0 0
node 107 1 0 0
node 119 1 0 0
node 125 1 0 0
node 139 1 0 0
node 142 1 0 0
node 151 1 0 0
node 153 1 0 0
node 159 1 0 0
node 182 1 0 0
node 196 1 0 0
node 199 1 0 0
node 203 1 0 0
node 206 1 0 0
node 209 1 0 0
node 224 1 0 0
gene 1 1 17 3.28411 0 1 3.28411 1
gene 1 2 17 -3.40651 0 2 -3.40651 1
gene 1 3 17 -0.796262 0 3 -0.796262 1
gene 1 4 17 -0.387997 0 4 -0.387997 1
gene 1 5 17 -2.04379 0 5 -2.04379 1
gene 1 6 17 4.58881 0 6 4.58881 1
gene 1 7 17 -0.311753 0 7 -0.311753 1
gene 1 8 17 -1.94767 0 8 -1.94767 1
gene 1 9 17 -6.4991 0 9 -6.4991 1
gene 1 10 17 4.35803 0 10 4.35803 1
gene 1 11 17 0.704199 0 11 0.704199 1
gene 1 12 17 -3.81247 0 12 -3.81247 1
gene 1 13 17 -2.38659 0 13 -2.38659 1
gene 1 14 17 -1.82711 0 14 -1.82711 1
gene 1 15 17 -3.95402 0 15 -3.95402 1
gene 1 16 17 -2.04712 0 16 -2.04712 1
gene 1 1 18 -2.41355 0 17 -2.41355 1
gene 1 2 18 -1.18098 0 18 -1.18098 1
gene 1 3 18 -7.06598 0 19 -7.06598 1
gene 1 4 18 2.43216 0 20 2.43216 1
gene 1 5 18 -0.595092 0 21 -0.595092 1
gene 1 6 18 -0.109069 0 22 -0.109069 1
gene 1 7 18 -2.31401 0 23 -2.31401 1
gene 1 8 18 -0.0891518 0 24 -0.0891518 1
gene 1 9 18 -1.60411 0 25 -1.60411 1
gene 1 10 18 0.224862 0 26 0.224862 1
gene 1 11 18 -3.376 0 27 -3.376 1
gene 1 12 18 -4.77757 0 28 -4.77757 1
gene 1 13 18 -3.87056 0 29 -3.87056 1
gene 1 14 18 -2.21906 0 30 -2.21906 1
gene 1 15 18 1.80922 0 31 1.80922 1
gene 1 16 18 1.60991 0 32 1.60991 1
gene 1 1 19 2.67387 0 33 2.67387 1
gene 1 2 19 0.966415 0 34 0.966415 1
gene 1 3 19 -7.2703 0 35 -7.2703 1
gene 1 4 19 2.15745 0 36 2.15745 1
gene 1 5 19 0.625154 0 37 0.625154 1
gene 1 6 19 1.97336 0 38 1.97336 1
gene 1 7 19 6.17325 0 39 6.17325 1
gene 1 8 19 0.950305 0 40 0.950305 1
gene 1 9 19 0.816068 0 41 0.816068 1
gene 1 10 19 -0.502258 0 42 -0.502258 1
gene 1 11 19 8 0 43 8 1
gene 1 12 19 -1.03963 0 44 -1.03963 1
gene 1 13 19 0.584786 0 45 0.584786 1
gene 1 14 19 0.978343 0 46 0.978343 1
gene 1 15 19 3.74006 0 47 3.74006 1
gene 1 16 19 4.86469 0 48 4.86469 1
gene 1 1 20 -2.36866 0 49 -2.36866 1
gene 1 2 20 -0.0925325 0 50 -0.0925325 0
gene 1 3 20 -1.51752 0 51 -1.51752 1
gene 1 4 20 6.88703 0 52 6.88703 1
gene 1 5 20 -4.38695 0 53 -4.38695 1
gene 1 6 20 -3.645 0 54 -3.645 1
gene 1 7 20 -1.6662 0 55 -1.6662 1
gene 1 8 20 4.24486 0 56 4.24486 1
gene 1 9 20 -5.60789 0 57 -5.60789 1
gene 1 10 20 3.76797 0 58 3.76797 1
gene 1 11 20 -4.08062 0 59 -4.08062 1
gene 1 12 20 -3.83968 0 60 -3.83968 1
gene 1 13 20 -0.888763 0 61 -0.888763 1
gene 1 14 20 -0.959308 0 62 -0.959308 1
gene 1 15 20 2.47031 0 63 2.47031 1
gene 1 16 20 -3.51432 0 64 -3.51432 1
gene 1 19 18 -4.49631 0 65 -4.49631 1
gene 1 6 29 3.95114 0 84 3.95114 1
gene 1 29 18 -3.63661 0 85 -3.63661 1
gene 1 10 31 6.51399 0 89 6.51399 1
gene 1 31 20 7.99524 0 90 7.99524 1
gene 1 3 29 -2.6292 0 95 -2.6292 1
gene 1 12 33 2.70961 0 96 2.70961 1
gene 1 33 19 0.298568 0 97 0.298568 1
gene 1 19 35 -2.93089 0 106 -2.93089 1
gene 1 35 18 -1.83864 0 107 -1.83864 1
gene 1 6 40 0.477242 0 121 0.477242 1
gene 1 40 29 7.9387 0 122 7.9387 1
gene 1 15 33 4.55959 0 149 4.55959 1
gene 1 6 51 -7.358 0 167 -7.358 1
gene 1 51 29 -0.674779 0 168 -0.674779 1
gene 1 17 35 -0.630197 0 188 -0.630197 1
gene 1 33 61 -4.12977 0 205 -4.12977 1
gene 1 61 19 8 0 206 8 1
gene 1 5 65 -1.47101 0 219 -1.47101 1
gene 1 65 19 8 0 220 8 1
gene 1 1 31 -6.50725 0 224 -6.50725 1
gene 1 13 69 -0.32968 0 232 -0.32968 1
gene 1 69 19 -2.47718 0 233 -2.47718 1
gene 1 7 75 1.46235 0 258 1.46235 1
gene 1 75 20 -3.22546 0 259 -3.22546 1
gene 1 6 61 -3.7449 0 263 -3.7449 1
gene 1 5 78 3.46241 0 270 3.46241 1
gene 1 78 65 -0.576724 0 271 -0.576724 1
gene 1 14 81 -2.02215 0 287 -2.02215 1
gene 1 81 17 -0.355786 0 288 -0.355786 1
gene 1 65 82 -6.49023 0 291 -6.49023 1
gene 1 82 19 0.571953 0 292 0.571953 1
gene 1 7 87 -7.14367 0 317 -7.14367 1
gene 1 87 18 0.961843 0 318 0.961843 1
gene 1 11 82 -3.89254 0 353 -3.89254 1
gene 1 16 105 -4.80654 0 390 -4.80654 1
gene 1 105 20 8 0 391 8 1
gene 1 9 107 -0.334402 0 396 -0.334402 0
gene 1 107 20 1.22725 0 397 1.22725 1
gene 1 35 29 -2.28545 0 427 -2.28545 1
gene 1 11 119 2.07762 0 435 2.07762 1
gene 1 119 20 0.141468 0 436 0.141468 1
gene 1 6 125 2.69148 0 465 2.69148 1
gene 1 125 18 5.43271 0 466 5.43271 1
gene 1 69 139 -5.60141 0 530 -5.60141 1
gene 1 139 19 -3.40498 0 531 -3.40498 1
gene 1 9 142 -0.86971 0 539 -0.86971 1
gene 1 142 107 -5.0206 0 540 -5.0206 1
gene 1 65 40 3.5047 0 575 3.5047 1
gene 1 15 151 0.859515 0 586 0.859515 1
gene 1 151 19 2.27555 0 587 2.27555 1
gene 1 2 125 5.0876 0 589 5.0876 1
gene 1 11 153 2.83325 0 593 2.83325 1
gene 1 153 82 -3.06463 0 594 -3.06463 1
gene 1 12 159 6.81337 0 619 6.81337 1
gene 1 159 33 -1.53274 0 620 -1.53274 1
gene 1 6 75 8 0 622 8 1
gene 1 3 61 -2.45997 0 651 -2.45997 1
gene 1 10 153 -2.13346 0 677 -2.13346 1
gene 1 7 182 -2.47137 0 704 -2.47137 1
gene 1 182 18 2.60467 0 705 2.60467 1
gene 1 13 139 1.09154 0 733 1.09154 1
gene 1 10 61 0.116014 0 750 0.116014 0
gene 1 16 196 -7.85693 0 771 -7.85693 1
gene 1 196 18 5.20373 0 772 5.20373 1
gene 1 11 199 1.43106 0 788 1.43106 1
gene 1 199 119 -1.08483 0 789 -1.08483 1
gene 1 87 17 -0.284174 0 791 -0.284174 1
gene 1 14 203 -0.57857 0 799 -0.57857 1
gene 1 203 81 0.324213 0 800 0.324213 1
gene 1 8 206 6.10523 0 808 6.10523 1
gene 1 206 18 0.501993 0 809 0.501993 1
gene 1 11 151 -0.0650669 0 814 -0.0650669 1
gene 1 10 209 -1.39112 0 820 -1.39112 1
gene 1 209 61 -0.703942 0 821 -0.703942 1
gene 1 12 209 -5.84463 0 826 -5.84463 1
gene 1 51 203 0.946764 0 867 0.946764 1
gene 1 2 224 1 0 870 0 1
gene 1 224 20 -0.0925325 0 871 0 1
gene 1 4 209 0.785442 0 874 0.785442 1
genomeend 4

/* Organism #5 Fitness: 1186 Error: 134 */
genomestart 5
trait 1 0.706492 0 0.715918 0.0360923 0.498156 0.279615 0.113282 0.292696 
node 1 1 1 1
node 2 1 1 1
node 3 1 1 1
node 4 1 1 1
node 5 1 1 1
node 6 1 1 1
node 7 1 1 1
node 8 1 1 1
node 9 1 1 1
node 10 1 1 1
node 11 1 1 1
node 12 1 1 1
node 13 1 1 1
node 14 1 1 1
node 15 1 1 1
node 16 1 1 1
node 17 1 0 2
node 18 1 0 2
node 19 1 0 2
node 20 1 0 2
node 29 1 0 0
node 31 1 0 0
node 33 1 0 0
node 35 1 0 0
node 40 1 0 0
node 51 1 0 0
node 61 1 0 0
node 65 1 0 0
node 69 1 0 0
node 75 1 0 0
node 78 1 0 0
node 81 1 0 0
node 82 1 0 0
node 87 1 0 0
node 105 1 0 0
node 107 1 0 0
node 119 1 0 0
node 125 1 0 0
node 139 1 0 0
node 142 1 0 0
node 151 1 0 0
node 153 1 0 0
node 159 1 0 0
node 182 1 0 0
node 196 1 0 0
node 199 1 0 0
node 203 1 0 0
node 206 1 0 0
node 209 1 0 0
node 224 1 0 0
gene 1 1 17 5.72237 0 1 5.72237 1
gene 1 2 17 -4.49075 0 2 -4.49075 1
gene 1 3 17 -1.9597 0 3 -1.9597 1
gene 1 4 17 -0.680404 0 4 -0.680404 1
gene 1 5 17 -0.366039 0 5 -0.366039 1
gene 1 6 17 3.46618 0 6 3.46618 1
gene 1 7 17 -0.104106 0 7 -0.104106 1
gene 1 8 17 -4.08015 0 8 -4.08015 1
gene 1 9 17 -6.01565 0 9 -6.01565 1
gene 1 10 17 6.64682 0 10 6.64682 1
gene 1 11 17 -1.47204 0 11 -1.47204 1
gene 1 12 17 -5.65437 0 12 -5.65437 1
gene 1 13 17 -2.29437 0 13 -2.29437 1
gene 1 14 17 -0.951767 0 14 -0.951767 1
gene 1 15 17 -6.19035 0 15 -6.19035 1
gene 1 16 17 -0.0180069 0 16 -0.0180069 1
gene 1 1 18 -4.40874 0 17 -4.40874 1
gene 1 2 18 -1.0524 0 18 -1.0524 1
gene 1 3 18 -8 0 19 -8 1
gene 1 4 18 3.49987 0 20 3.49987 1
gene 1 5 18 -1.48236 0 21 -1.48236 1
gene 1 6 18 -1.1491 0 22 -1.1491 1
gene 1 7 18 0.0661057 0 23 0.0661057 1
gene 1 8 18 1.44057 0 24 1.44057 1
gene 1 9 18 -2.31989 0 25 -2.31989 1
gene 1 10 18 0.912056 0 26 0.912056 1
gene 1 11 18 -2.80592 0 27 -2.80592 1
gene 1 12 18 -6.09126 0 28 -6.09126 1
gene 1 13 18 -2.45161 0 29 -2.45161 1
gene 1 14 18 -1.58622 0 30 -1.58622 1
gene 1 15 18 0.853047 0 31 0.853047 1
gene 1 16 18 -0.85534 0 32 -0.85534 1
gene 1 1 19 2.32786 0 33 2.32786 1
gene 1 2 19 -0.898427 0 34 -0.898427 1
gene 1 3 19 -7.17312 0 35 -7.17312 1
gene 1 4 19 3.39804 0 36 3.39804 1
gene 1 5 19 2.66814 0 37 2.66814 1
gene 1 6 19 3.8579 0 38 3.8579 1
gene 1 7 19 4.43889 0 39 4.43889 1
gene 1 8 19 -1.50461 0 40 -1.50461 1
gene 1 9 19 0.658913 0 41 0.658913 1
gene 1 10 19 0.578335 0 42 0.578335 1
gene 1 11 19 7.96234 0 43 7.96234 1
gene 1 12 19 -1.43974 0 44 -1.43974 1
gene 1 13 19 1.86062 0 45 1.86062 1
gene 1 14 19 -1.43178 0 46 -1.43178 1
gene 1 15 19 5.15871 0 47 5.15871 1
gene 1 16 19 5.02982 0 48 5.02982 1
gene 1 1 20 -4.49945 0 49 -4.49945 1
gene 1 2 20 0.404039 0 50 0.404039 0
gene 1 3 20 -1.84838 0 51 -1.84838 1
gene 1 4 20 7.56529 0 52 7.56529 1
gene 1 5 20 -2.0804 0 53 -2.0804 1
gene 1 6 20 -2.04433 0 54 -2.04433 1
gene 1 7 20 -4.10944 0 55 -4.10944 1
gene 1 8 20 3.81484 0 56 3.81484 1
gene 1 9 20 -7.18391 0 57 -7.18391 1
gene 1 10 20 5.84411 0 58 5.84411 1
gene 1 11 20 -6.21976 0 59 -6.21976 1
gene 1 12 20 -4.00926 0 60 -4.00926 1
gene 1 13 20 -2.99375 0 61 -2.99375 1
gene 1 14 20 -1.96081 0 62 -1.96081 1
gene 1 15 20 1.71109 0 63 1.71109 1
gene 1 16 20 -1.32907 0 64 -1.32907 1
gene 1 19 18 -6.255 0 65 -6.255 1
gene 1 6 29 1.76756 0 84 1.76756 1
gene 1 29 18 -3.9966 0 85 -3.9966 1
gene 1 10 31 5.8222 0 89 5.8222 1
gene 1 31 20 8 0 90 8 1
gene 1 3 29 -3.88163 0 95 -3.88163 1
gene 1 12 33 4.55489 0 96 4.55489 1
gene 1 33 19 1.57926 0 97 1.57926 1
gene 1 19 35 -1.45772 0 106 -1.45772 1
gene 1 35 18 -3.90498 0 107 -3.90498 1
gene 1 6 40 -2.01858 0 121 -2.01858 1
gene 1 40 29 5.90746 0 122 5.90746 1
gene 1 15 33 3.39954 0 149 3.39954 1
gene 1 6 51 -8 0 167 -8 1
gene 1 51 29 -0.506089 0 168 -0.506089 1
gene 1 17 35 -2.70615 0 188 -2.70615 1
gene 1 33 61 -3.62224 0 205 -3.62224 1
gene 1 61 19 8 0 206 8 1
gene 1 5 65 -1.16605 0 219 -1.16605 1
gene 1 65 19 6.58234 0 220 6.58234 1
gene 1 1 31 -5.37355 0 224 -5.37355 1
gene 1 13 69 0.335023 0 232 0.335023 1
gene 1 69 19 -0.43782 0 233 -0.43782 1
gene 1 7 75 1.84176 0 258 1.84176 1
gene 1 75 20 -2.59092 0 259 -2.59092 1
gene 1 6 61 -3.80057 0 263 -3.80057 1
gene 1 5 78 4.87949 0 270 4.87949 1
gene 1 78 65 0.321021 0 271 0.321021 1
gene 1 14 81 -3.67696 0 287 -3.67696 1
gene 1 81 17 1.96122 0 288 1.96122 1
gene 1 65 82 -8 0 291 -8 1
gene 1 82 19 -1.63528 0 292 -1.63528 1
gene 1 7 87 -8 0 317 -8 1
gene 1 87 18 -1.5107 0 318 -1.5107 1
gene 1 11 82 -1.59789 0 353 -1.59789 1
gene 1 16 105 -5.28797 0 390 -5.28797 1
gene 1 105 20 7.9605 0 391 7.9605 1
gene 1 9 107 -2.72447 0 396 -2.72447 0
gene 1 107 20 0.682918 0 397 0.682918 1
gene 1 35 29 -3.60614 0 427 -3.60614 1
gene 1 11 119 1.17704 0 435 1.17704 1
gene 1 119 20 -0.950983 0 436 -0.950983 1
gene 1 6 125 4.12304 0 465 4.12304 1
gene 1 125 18 4.30875 0 466 4.30875 1
gene 1 69 139 -4.69487 0 530 -4.69487 1
gene 1 139 19 -2.29136 0 531 -2.29136 1
gene 1 9 142 -1.28709 0 539 -1.28709 1
gene 1 142 107 -5.719 0 540 -5.719 1
gene 1 65 40 4.55625 0 575 4.55625 1
gene 1 15 151 -1.40692 0 586 -1.40692 1
gene 1 151 19 1.05357 0 587 1.05357 1
gene 1 2 125 2.74167 0 589 2.74167 1
gene 1 11 153 3.84263 0 593 3.84263 1
gene 1 153 82 -3.06463 0 594 -3.06463 1
gene 1 12 159 6.81337 0 619 6.81337 1
gene 1 159 33 -1.35319 0 620 -1.35319 1
gene 1 6 75 8 0 622 8 1
gene 1 3 61 -3.44279 0 651 -3.44279 1
gene 1 10 153 -1.19619 0 677 -1.19619 1
gene 1 7 182 -1.76767 0 704 -1.76767 1
gene 1 182 18 2.60467 0 705 2.60467 1
gene 1 13 139 1.07884 0 733 1.07884 1
gene 1 10 61 2.17292 0 750 2.17292 0
gene 1 16 196 -7.85693 0 771 -7.85693 1
gene 1 196 18 5.20373 0 772 5.20373 1
gene 1 11 199 1.43106 0 788 1.43106 1
gene 1 199 119 -1.98487 0 789 -1.98487 1
gene 1 87 17 -1.24921 0 791 -1.24921 1
gene 1 14 203 -0.728501 0 799 -0.728501 1
gene 1 203 81 -0.870443 0 800 -0.870443 1
gene 1 8 206 5.83474 0 808 5.83474 1
gene 1 206 18 -0.954913 0 809 -0.954913 1
gene 1 11 151 -1.62232 0 814 -1.62232 1
gene 1 10 209 -2.86918 0 820 -2.86918 1
gene 1 209 61 -2.71989 0 821 -2.71989 1
gene 1 12 209 -5.20264 0 826 -5.20264 1
gene 1 51 203 0.946764 0 867 0.946764 1
gene 1 2 224 2.78507 0 870 2.78507 1
gene 1 224 20 -1.69202 0 871 -1.69202 1
genomeend 5

/* Organism #6 Fitness: 5957 Error: 449 */
/* ##------$ WINNER 6 SPECIES #62 $------## */
genomestart 6
trait 1 0.706492 0 0.715918 0.0360923 0.498156 0.279615 0.113282 0.292696 
node 1 1 1 1
node 2 1 1 1
node 3 1 1 1
node 4 1 1 1
node 5 1 1 1
node 6 1 1 1
node 7 1 1 1
node 8 1 1 1
node 9 1 1 1
node 10 1 1 1
node 11 1 1 1
node 12 1 1 1
node 13 1 1 1
node 14 1 1 1
node 15 1 1 1
node 16 1 1 1
node 17 1 0 2
node 18 1 0 2
node 19 1 0 2
node 20 1 0 2
node 29 1 0 0
node 31 1 0 0
node 33 1 0 0
node 35 1 0 0
node 40 1 0 0
node 51 1 0 0
node 61 1 0 0
node 65 1 0 0
node 69 1 0 0
node 75 1 0 0
node 78 1 0 0
node 81 1 0 0
node 82 1 0 0
node 87 1 0 0
node 105 1 0 0
node 107 1 0 0
node 119 1 0 0
node 125 1 0 0
node 139 1 0 0
node 142 1 0 0
node 151 1 0 0
node 153 1 0 0
node 159 1 0 0
node 182 1 0 0
node 196 1 0 0
node 199 1 0 0
node 203 1 0 0
node 206 1 0 0
node 209 1 0 0
node 224 1 0 0
gene 1 1 17 4.2483 0 1 4.2483 1
gene 1 2 17 -5.71546 0 2 -5.71546 1
gene 1 3 17 -0.234651 0 3 -0.234651 1
gene 1 4 17 -0.019225 0 4 -0.019225 1
gene 1 5 17 -1.54159 0 5 -1.54159 1
gene 1 6 17 6.17701 0 6 6.17701 1
gene 1 7 17 -1.55809 0 7 -1.55809 1
gene 1 8 17 -1.31444 0 8 -1.31444 1
gene 1 9 17 -4.85339 0 9 -4.85339 1
gene 1 10 17 4.1773 0 10 4.1773 1
gene 1 11 17 1.6254 0 11 1.6254 1
gene 1 12 17 -4.33783 0 12 -4.33783 1
gene 1 13 17 -1.55247 0 13 -1.55247 1
gene 1 14 17 -3.85285 0 14 -3.85285 1
gene 1 15 17 -2.75353 0 15 -2.75353 1
gene 1 16 17 -0.293877 0 16 -0.293877 1
gene 1 1 18 -2.38396 0 17 -2.38396 1
gene 1 2 18 0.335861 0 18 0.335861 1
gene 1 3 18 -7.90562 0 19 -7.90562 1
gene 1 4 18 3.83953 0 20 3.83953 1
gene 1 5 18 1.21008 0 21 1.21008 1
gene 1 6 18 -1.3451 0 22 -1.3451 1
gene 1 7 18 -3.6849 0 23 -3.6849 1
gene 1 8 18 0.555508 0 24 0.555508 1
gene 1 9 18 0.0971448 0 25 0.0971448 1
gene 1 10 18 1.77607 0 26 1.77607 1
gene 1 11 18 -2.36509 0 27 -2.36509 1
gene 1 12 18 -2.77148 0 28 -2.77148 1
gene 1 13 18 -5.10682 0 29 -5.10682 1
gene 1 14 18 -4.45397 0 30 -4.45397 1
gene 1 15 18 3.3675 0 31 3.3675 1
gene 1 16 18 -0.270509 0 32 -0.270509 1
gene 1 1 19 4.80359 0 33 4.80359 1
gene 1 2 19 1.56542 0 34 1.56542 1
gene 1 3 19 -8 0 35 -8 1
gene 1 4 19 1.18144 0 36 1.18144 1
gene 1 5 19 1.13674 0 37 1.13674 1
gene 1 6 19 2.01809 0 38 2.01809 1
gene 1 7 19 4.90081 0 39 4.90081 1
gene 1 8 19 2.28553 0 40 2.28553 1
gene 1 9 19 1.26098 0 41 1.26098 1
gene 1 10 19 0.48795 0 42 0.48795 1
gene 1 11 19 8 0 43 8 1
gene 1 12 19 -0.669579 0 44 -0.669579 1
gene 1 13 19 -1.54859 0 45 -1.54859 1
gene 1 14 19 1.48991 0 46 1.48991 1
gene 1 15 19 4.30269 0 47 4.30269 1
gene 1 16 19 3.09449 0 48 3.09449 1
gene 1 1 20 -2.57437 0 49 -2.57437 1
gene 1 2 20 0.633851 0 50 0.633851 0
gene 1 3 20 -1.61246 0 51 -1.61246 1
gene 1 4 20 6.85064 0 52 6.85064 1
gene 1 5 20 -6.8317 0 53 -6.8317 1
gene 1 6 20 -1.18982 0 54 -1.18982 1
gene 1 7 20 -0.950161 0 55 -0.950161 1
gene 1 8 20 2.89626 0 56 2.89626 1
gene 1 9 20 -5.3207 0 57 -5.3207 1
gene 1 10 20 5.14124 0 58 5.14124 1
gene 1 11 20 -6.55963 0 59 -6.55963 1
gene 1 12 20 -5.44452 0 60 -5.44452 1
gene 1 13 20 -1.64332 0 61 -1.64332 1
gene 1 14 20 -3.12131 0 62 -3.12131 1
gene 1 15 20 3.89374 0 63 3.89374 1
gene 1 16 20 -2.09263 0 64 -2.09263 1
gene 1 19 18 -5.02234 0 65 -5.02234 1
gene 1 6 29 2.59812 0 84 2.59812 1
gene 1 29 18 -3.72259 0 85 -3.72259 1
gene 1 10 31 5.43351 0 89 5.43351 1
gene 1 31 20 8 0 90 8 1
gene 1 3 29 -0.636664 0 95 -0.636664 1
gene 1 12 33 0.294089 0 96 0.294089 1
gene 1 33 19 -0.237034 0 97 -0.237034 1
gene 1 19 35 -3.02185 0 106 -3.02185 1
gene 1 35 18 -2.61493 0 107 -2.61493 1
gene 1 6 40 2.10635 0 121 2.10635 1
gene 1 40 29 8 0 122 8 1
gene 1 15 33 5.59937 0 149 5.59937 1
gene 1 6 51 -6.49628 0 167 -6.49628 1
gene 1 51 29 -0.149841 0 168 -0.149841 1
gene 1 17 35 -1.28084 0 188 -1.28084 1
gene 1 33 61 -3.20064 0 205 -3.20064 1
gene 1 61 19 8 0 206 8 1
gene 1 5 65 -3.05607 0 219 -3.05607 1
gene 1 65 19 8 0 220 8 1
gene 1 1 31 -4.12296 0 224 -4.12296 1
gene 1 13 69 1.63741 0 232 1.63741 1
gene 1 69 19 -0.906259 0 233 -0.906259 1
gene 1 7 75 0.164088 0 258 0.164088 1
gene 1 75 20 -3.98331 0 259 -3.98331 1
gene 1 6 61 -3.63455 0 263 -3.63455 1
gene 1 5 78 1.84115 0 270 1.84115 1
gene 1 78 65 -1.83192 0 271 -1.83192 1
gene 1 14 81 0.289291 0 287 0.289291 1
gene 1 81 17 0.55472 0 288 0.55472 1
gene 1 65 82 -8 0 291 -8 1
gene 1 82 19 1.56982 0 292 1.56982 1
gene 1 7 87 -7.45859 0 317 -7.45859 1
gene 1 87 18 -0.0435756 0 318 -0.0435756 1
gene 1 11 82 -3.79703 0 353 -3.79703 1
gene 1 16 105 -5.7631 0 390 -5.7631 1
gene 1 105 20 6.3724 0 391 6.3724 1
gene 1 9 107 -0.0500105 0 396 -0.0500105 0
gene 1 107 20 3.36746 0 397 3.36746 1
gene 1 35 29 -4.67415 0 427 -4.67415 1
gene 1 11 119 1.32508 0 435 1.32508 1
gene 1 119 20 -0.312646 0 436 -0.312646 1
gene 1 6 125 1.88467 0 465 1.88467 1
gene 1 125 18 7.13127 0 466 7.13127 1
gene 1 69 139 -6.86758 0 530 -6.86758 1
gene 1 139 19 -1.51 0 531 -1.51 1
gene 1 9 142 -0.263394 0 539 -0.263394 1
gene 1 142 107 -4.21607 0 540 -4.21607 1
gene 1 65 40 2.61873 0 575 2.61873 1
gene 1 15 151 -0.7176 0 586 -0.7176 1
gene 1 151 19 4.52206 0 587 4.52206 1
gene 1 2 125 5.0876 0 589 5.0876 1
gene 1 11 153 5.10449 0 593 5.10449 1
gene 1 153 82 -0.635491 0 594 -0.635491 1
gene 1 12 159 8 0 619 8 1
gene 1 159 33 -3.65833 0 620 -3.65833 1
gene 1 6 75 8 0 622 8 1
gene 1 3 61 -1.64073 0 651 -1.64073 1
gene 1 10 153 -2.13346 0 677 -2.13346 1
gene 1 7 182 -2.47137 0 704 -2.47137 1
gene 1 182 18 2.60467 0 705 2.60467 1
gene 1 13 139 1.34665 0 733 1.34665 1
gene 1 10 61 -1.81776 0 750 -1.81776 0
gene 1 16 196 -6.66659 0 771 -6.66659 1
gene 1 196 18 -2.34189 0 772 -2.34189 1
gene 1 11 199 1.43106 0 788 1.43106 1
gene 1 199 119 -1.08483 0 789 -1.08483 1
gene 1 87 17 1.5315 0 791 1.5315 1
gene 1 14 203 -2.1287 0 799 -2.1287 1
gene 1 203 81 1.60603 0 800 1.60603 1
gene 1 8 206 -2.32464 0 808 -2.32464 1
gene 1 206 18 -2.15749 0 809 -2.15749 1
gene 1 11 151 -0.0650669 0 814 -0.0650669 1
gene 1 10 209 -1.26019 0 820 -1.26019 1
gene 1 209 61 -1.79218 0 821 -1.79218 1
gene 1 12 209 -3.92047 0 826 -3.92047 1
gene 1 51 203 3.14237 0 867 3.14237 1
gene 1 2 224 0.207121 0 870 0.207121 1
gene 1 224 20 -0.0925325 0 871 -0.0925325 1
genomeend 6

/* Organism #7 Fitness: 3380 Error: 265 */
genomestart 7
trait 1 0.706492 0 0.715918 0.0360923 0.498156 0.279615 0.113282 0.292696 
node 1 1 1 1
node 2 1 1 1
node 3 1 1 1
node 4 1 1 1
node 5 1 1 1
node 6 1 1 1
node 7 1 1 1
node 8 1 1 1
node 9 1 1 1
node 10 1 1 1
node 11 1 1 1
node 12 1 1 1
node 13 1 1 1
node 14 1 1 1
node 15 1 1 1
node 16 1 1 1
node 17 1 0 2
node 18 1 0 2
node 19 1 0 2
node 20 1 0 2
node 29 1 0 0
node 31 1 0 0
node 33 1 0 0
node 35 1 0 0
node 40 1 0 0
node 51 1 0 0
node 61 1 0 0
node 65 1 0 0
node 69 1 0 0
node 75 1 0 0
node 78 1 0 0
node 81 1 0 0
node 82 1 0 0
node 87 1 0 0
node 105 1 0 0
node 107 1 0 0
node 119 1 0 0
node 125 1 0 0
node 139 1 0 0
node 142 1 0 0
node 151 1 0 0
node 153 1 0 0
node 159 1 0 0
node 182 1 0 0
node 196 1 0 0
node 199 1 0 0
node 203 1 0 0
node 206 1 0 0
node 209 1 0 0
node 224 1 0 0
gene 1 1 17 3.28411 0 1 3.28411 1
gene 1 2 17 -3.40651 0 2 -3.40651 1
gene 1 3 17 -0.796262 0 3 -0.796262 1
gene 1 4 17 -0.387997 0 4 -0.387997 1
gene 1 5 17 -2.04379 0 5 -2.04379 1
gene 1 6 17 4.58881 0 6 4.58881 1
gene 1 7 17 -0.311753 0 7 -0.311753 1
gene 1 8 17 -1.94767 0 8 -1.94767 1
gene 1 9 17 -6.4991 0 9 -6.4991 1
gene 1 10 17 4.35803 0 10 4.35803 1
gene 1 11 17 0.704199 0 11 0.704199 1
gene 1 12 17 -3.81247 0 12 -3.81247 1
gene 1 13 17 -2.38659 0 13 -2.38659 1
gene 1 14 17 -1.82711 0 14 -1.82711 1
gene 1 15 17 -3.95402 0 15 -3.95402 1
gene 1 16 17 -2.04712 0 16 -2.04712 1
gene 1 1 18 -2.41355 0 17 -2.41355 1
gene 1 2 18 -1.18098 0 18 -1.18098 1
gene 1 3 18 -7.06598 0 19 -7.06598 1
gene 1 4 18 2.43216 0 20 2.43216 1
gene 1 5 18 -0.595092 0 21 -0.595092 1
gene 1 6 18 -0.109069 0 22 -0.109069 1
gene 1 7 18 -2.31401 0 23 -2.31401 1
gene 1 8 18 -0.0891518 0 24 -0.0891518 1
gene 1 9 18 -1.60411 0 25 -1.60411 1
gene 1 10 18 0.224862 0 26 0.224862 1
gene 1 11 18 -3.376 0 27 -3.376 1
gene 1 12 18 -4.77757 0 28 -4.77757 1
gene 1 13 18 -3.87056 0 29 -3.87056 1
gene 1 14 18 -2.21906 0 30 -2.21906 1
gene 1 15 18 1.80922 0 31 1.80922 1
gene 1 16 18 1.60991 0 32 1.60991 1
gene 1 1 19 2.67387 0 33 2.67387 1
gene 1 2 19 0.966415 0 34 0.966415 1
gene 1 3 19 -7.2703 0 35 -7.2703 1
gene 1 4 19 2.15745 0 36 2.15745 1
gene 1 5 19 0.625154 0 37 0.625154 1
gene 1 6 19 1.97336 0 38 1.97336 1
gene 1 7 19 6.17325 0 39 6.17325 1
gene 1 8 19 0.950305 0 40 0.950305 1
gene 1 9 19 0.816068 0 41 0.816068 1
gene 1 10 19 -0.502258 0 42 -0.502258 1
gene 1 11 19 8 0 43 8 1
gene 1 12 19 -1.03963 0 44 -1.03963 1
gene 1 13 19 0.584786 0 45 0.584786 1
gene 1 14 19 0.978343 0 46 0.978343 1
gene 1 15 19 3.74006 0 47 3.74006 1
gene 1 16 19 4.86469 0 48 4.86469 1
gene 1 1 20 -2.36866 0 49 -2.36866 1
gene 1 2 20 -0.0925325 0 50 -0.0925325 0
gene 1 3 20 -1.51752 0 51 -1.51752 1
gene 1 4 20 6.88703 0 52 6.88703 1
gene 1 5 20 -4.38695 0 53 -4.38695 1
gene 1 6 20 -3.645 0 54 -3.645 1
gene 1 7 20 -1.6662 0 55 -1.6662 1
gene 1 8 20 4.24486 0 56 4.24486 1
gene 1 9 20 -5.60789 0 57 -5.60789 1
gene 1 10 20 3.76797 0 58 3.76797 1
gene 1 11 20 -4.08062 0 59 -4.08062 1
gene 1 12 20 -3.83968 0 60 -3.83968 1
gene 1 13 20 -0.888763 0 61 -0.888763 1
gene 1 14 20 -0.959308 0 62 -0.959308 1
gene 1 15 20 2.47031 0 63 2.47031 1
gene 1 16 20 -3.51432 0 64 -3.51432 1
gene 1 19 18 -4.49631 0 65 -4.49631 1
gene 1 6 29 3.95114 0 84 3.95114 1
gene 1 29 18 -3.63661 0 85 -3.63661 1
gene 1 10 31 6.51399 0 89 6.51399 1
gene 1 31 20 7.99524 0 90 7.99524 1
gene 1 3 29 -2.6292 0 95 -2.6292 1
gene 1 12 33 2.70961 0 96 2.70961 1
gene 1 33 19 0.298568 0 97 0.298568 1
gene 1 19 35 -2.93089 0 106 -2.93089 1
gene 1 35 18 -1.83864 0 107 -1.83864 1
gene 1 6 40 0.477242 0 121 0.477242 1
gene 1 40 29 7.9387 0 122 7.9387 1
gene 1 15 33 4.55959 0 149 4.55959 1
gene 1 6 51 -7.358 0 167 -7.358 1
gene 1 51 29 -0.674779 0 168 -0.674779 1
gene 1 17 35 -0.630197 0 188 -0.630197 1
gene 1 33 61 -4.12977 0 205 -4.12977 1
gene 1 61 19 8 0 206 8 1
gene 1 5 65 -1.47101 0 219 -1.47101 1
gene 1 65 19 8 0 220 8 1
gene 1 1 31 -6.50725 0 224 -6.50725 1
gene 1 13 69 -0.32968 0 232 -0.32968 1
gene 1 69 19 -2.47718 0 233 -2.47718 1
gene 1 7 75 1.46235 0 258 1.46235 1
gene 1 75 20 -3.22546 0 259 -3.22546 1
gene 1 6 61 -3.7449 0 263 -3.7449 1
gene 1 5 78 3.46241 0 270 3.46241 1
gene 1 78 65 -0.576724 0 271 -0.576724 1
gene 1 14 81 -2.02215 0 287 -2.02215 1
gene 1 81 17 -0.355786 0 288 -0.355786 1
gene 1 65 82 -6.49023 0 291 -6.49023 1
gene 1 82 19 0.571953 0 292 0.571953 1
gene 1 7 87 -7.14367 0 317 -7.14367 1
gene 1 87 18 0.961843 0 318 0.961843 1
gene 1 11 82 -3.89254 0 353 -3.89254 1
gene 1 16 105 -4.80654 0 390 -4.80654 1
gene 1 105 20 8 0 391 8 1
gene 1 9 107 -0.334402 0 396 -0.334402 0
gene 1 107 20 1.22725 0 397 1.22725 1
gene 1 35 29 -2.28545 0 427 -2.28545 1
gene 1 11 119 2.07762 0 435 2.07762 1
gene 1 119 20 0.141468 0 436 0.141468 1
gene 1 6 125 2.69148 0 465 2.69148 1
gene 1 125 18 5.43271 0 466 5.43271 1
gene 1 69 139 -5.60141 0 530 -5.60141 1
gene 1 139 19 -3.40498 0 531 -3.40498 1
gene 1 9 142 -0.86971 0 539 -0.86971 1
gene 1 142 107 -5.0206 0 540 -5.0206 1
gene 1 65 40 3.5047 0 575 3.5047 1
gene 1 15 151 0.859515 0 586 0.859515 1
gene 1 151 19 2.27555 0 587 2.27555 1
gene 1 2 125 5.0876 0 589 5.0876 1
gene 1 11 153 2.83325 0 593 2.83325 1
gene 1 153 82 -3.06463 0 594 -3.06463 1
gene 1 12 159 6.81337 0 619 6.81337 1
gene 1 159 33 -1.53274 0 620 -1.53274 1
gene 1 6 75 8 0 622 8 1
gene 1 3 61 -2.45997 0 651 -2.45997 1
gene 1 10 153 -2.13346 0 677 -2.13346 1
gene 1 7 182 -2.47137 0 704 -2.47137 1
gene 1 182 18 2.60467 0 705 2.60467 1
gene 1 13 139 1.09154 0 733 1.09154 1
gene 1 10 61 0.116014 0 750 0.116014 0
gene 1 16 196 -7.85693 0 771 -7.85693 1
gene 1 196 18 5.20373 0 772 5.20373 1
gene 1 11 199 1.43106 0 788 1.43106 1
gene 1 199 119 -1.08483 0 789 -1.08483 1
gene 1 87 17 -0.284174 0 791 -0.284174 1
gene 1 14 203 -0.57857 0 799 -0.57857 1
gene 1 203 81 0.324213 0 800 0.324213 1
gene 1 8 206 6.10523 0 808 6.10523 1
gene 1 206 18 0.501993 0 809 0.501993 1
gene 1 11 151 -0.0650669 0 814 -0.0650669 1
gene 1 10 209 -1.39112 0 820 -1.39112 1
gene 1 209 61 -0.703942 0 821 -0.703942 1
gene 1 12 209 -5.84463 0 826 -5.84463 1
gene 1 51 203 0.946764 0 867 0.946764 1
gene 1 2 224 1 0 870 0 1
gene 1 224 20 -0.0925325 0 871 0 1
gene 1 119 151 -0.245909 0 875 -0.245909 1
genomeend 7

/* Organism #8 Fitness: 2300 Error: 174 */
genomestart 8
trait 1 0.706492 0 0.715918 0.0360923 0.498156 0.279615 0.113282 0.292696 
node 1 1 1 1
node 2 1 1 1
node 3 1 1 1
node 4 1 1 1
node 5 1 1 1
node 6 1 1 1
node 7 1 1 1
node 8 1 1 1
node 9 1 1 1
node 10 1 1 1
node 11 1 1 1
node 12 1 1 1
node 13 1 1 1
node 14 1 1 1
node 15 1 1 1
node 16 1 1 1
node 17 1 0 2
node 18 1 0 2
node 19 1 0 2
node 20 1 0 2
node 29 1 0 0
node 31 1 0 0
node 33 1 0 0
node 35 1 0 0
node 40 1 0 0
node 51 1 0 0
node 61 1 0 0
node 65 1 0 0
node 69 1 0 0
node 75 1 0 0
node 78 1 0 0
node 81 1 0 0
node 82 1 0 0
node 87 1 0 0
node 105 1 0 0
node 107 1 0 0
node 119 1 0 0
node 125 1 0 0
node 139 1 0 0
node 142 1 0 0
node 151 1 0 0
node 153 1 0 0
node 159 1 0 0
node 182 1 0 0
node 196 1 0 0
node 199 1 0 0
node 203 1 0 0
node 206 1 0 0
node 209 1 0 0
node 224 1 0 0
gene 1 1 17 1.02945 0 1 1.02945 1
gene 1 2 17 -3.08275 0 2 -3.08275 1
gene 1 3 17 -0.796262 0 3 -0.796262 1
gene 1 4 17 0.82371 0 4 0.82371 1
gene 1 5 17 -2.21922 0 5 -2.21922 1
gene 1 6 17 6.90361 0 6 6.90361 1
gene 1 7 17 0.637288 0 7 0.637288 1
gene 1 8 17 -1.22273 0 8 -1.22273 1
gene 1 9 17 -6.86546 0 9 -6.86546 1
gene 1 10 17 4.35803 0 10 4.35803 1
gene 1 11 17 0.379841 0 11 0.379841 1
gene 1 12 17 -3.81247 0 12 -3.81247 1
gene 1 13 17 2.18783 0 13 2.18783 1
gene 1 14 17 -1.0868 0 14 -1.0868 1
gene 1 15 17 -4.9699 0 15 -4.9699 1
gene 1 16 17 -1.64396 0 16 -1.64396 1
gene 1 1 18 -2.41355 0 17 -2.41355 1
gene 1 2 18 -2.76958 0 18 -2.76958 1
gene 1 3 18 -5.26869 0 19 -5.26869 1
gene 1 4 18 3.60069 0 20 3.60069 1
gene 1 5 18 -0.595092 0 21 -0.595092 1
gene 1 6 18 1.542 0 22 1.542 1
gene 1 7 18 -2.31401 0 23 -2.31401 1
gene 1 8 18 1.771 0 24 1.771 1
gene 1 9 18 -1.09561 0 25 -1.09561 1
gene 1 10 18 1.21156 0 26 1.21156 1
gene 1 11 18 -1.00187 0 27 -1.00187 1
gene 1 12 18 -4.20781 0 28 -4.20781 1
gene 1 13 18 -1.74359 0 29 -1.74359 1
gene 1 14 18 -1.37637 0 30 -1.37637 1
gene 1 15 18 3.98638 0 31 3.98638 1
gene 1 16 18 2.49491 0 32 2.49491 1
gene 1 1 19 4.96386 0 33 4.96386 1
gene 1 2 19 -1.69515 0 34 -1.69515 1
gene 1 3 19 -6.95814 0 35 -6.95814 1
gene 1 4 19 1.34098 0 36 1.34098 1
gene 1 5 19 -0.522867 0 37 -0.522867 1
gene 1 6 19 1.59296 0 38 1.59296 1
gene 1 7 19 5.05926 0 39 5.05926 1
gene 1 8 19 1.54032 0 40 1.54032 1
gene 1 9 19 -1.47354 0 41 -1.47354 1
gene 1 10 19 1.03485 0 42 1.03485 1
gene 1 11 19 6.83766 0 43 6.83766 1
gene 1 12 19 -1.89277 0 44 -1.89277 1
gene 1 13 19 -0.765029 0 45 -0.765029 1
gene 1 14 19 -0.189906 0 46 -0.189906 1
gene 1 15 19 -0.711605 0 47 -0.711605 1
gene 1 16 19 0.69772 0 48 0.69772 1
gene 1 1 20 -2.15346 0 49 -2.15346 1
gene 1 2 20 0.968803 0 50 0.968803 0
gene 1 3 20 -3.42218 0 51 -3.42218 1
gene 1 4 20 8 0 52 8 1
gene 1 5 20 -3.68268 0 53 -3.68268 1
gene 1 6 20 -3.09639 0 54 -3.09639 1
gene 1 7 20 -2.66435 0 55 -2.66435 1
gene 1 8 20 4.30623 0 56 4.30623 1
gene 1 9 20 -4.38293 0 57 -4.38293 1
gene 1 10 20 3.27715 0 58 3.27715 1
gene 1 11 20 -5.00931 0 59 -5.00931 1
gene 1 12 20 -1.67413 0 60 -1.67413 1
gene 1 13 20 -0.0440789 0 61 -0.0440789 1
gene 1 14 20 0.782131 0 62 0.782131 1
gene 1 15 20 0.642632 0 63 0.642632 1
gene 1 16 20 -5.05198 0 64 -5.05198 1
gene 1 19 18 -3.37465 0 65 -3.37465 1
gene 1 6 29 6.15795 0 84 6.15795 1
gene 1 29 18 -4.24617 0 85 -4.24617 1
gene 1 10 31 8 0 89 8 1
gene 1 31 20 8 0 90 8 1
gene 1 3 29 -2.74509 0 95 -2.74509 1
gene 1 12 33 4.04937 0 96 4.04937 1
gene 1 33 19 -1.97955 0 97 -1.97955 1
gene 1 19 35 -4.89898 0 106 -4.89898 1
gene 1 35 18 -0.266645 0 107 -0.266645 1
gene 1 6 40 2.42024 0 121 2.42024 1
gene 1 40 29 8 0 122 8 1
gene 1 15 33 4.55959 0 149 4.55959 1
gene 1 6 51 -4.88426 0 167 -4.88426 1
gene 1 51 29 -1.93801 0 168 -1.93801 1
gene 1 17 35 0.681761 0 188 0.681761 1
gene 1 33 61 -5.78668 0 205 -5.78668 1
gene 1 61 19 8 0 206 8 1
gene 1 5 65 -2.04979 0 219 -2.04979 1
gene 1 65 19 1.96492 0 220 1.96492 1
gene 1 1 31 -4.42268 0 224 -4.42268 1
gene 1 13 69 -2.26555 0 232 -2.26555 1
gene 1 69 19 -4.05736 0 233 -4.05736 1
gene 1 7 75 3.70481 0 258 3.70481 1
gene 1 75 20 -1.31191 0 259 -1.31191 1
gene 1 6 61 1.52212 0 263 1.52212 1
gene 1 5 78 2.72868 0 270 2.72868 1
gene 1 78 65 1.51573 0 271 1.51573 1
gene 1 14 81 0.31759 0 287 0.31759 1
gene 1 81 17 1.76242 0 288 1.76242 1
gene 1 65 82 -6.02471 0 291 -6.02471 1
gene 1 82 19 1.57529 0 292 1.57529 1
gene 1 7 87 -6.20522 0 317 -6.20522 1
gene 1 87 18 1.84229 0 318 1.84229 1
gene 1 11 82 -4.07462 0 353 -4.07462 1
gene 1 16 105 -0.1603 0 390 -0.1603 1
gene 1 105 20 8 0 391 8 1
gene 1 9 107 0.999436 0 396 0.999436 0
gene 1 107 20 0.0802089 0 397 0.0802089 1
gene 1 35 29 -2.33866 0 427 -2.33866 1
gene 1 11 119 3.55832 0 435 3.55832 1
gene 1 119 20 -0.374679 0 436 -0.374679 1
gene 1 6 125 -1.3759 0 465 -1.3759 1
gene 1 125 18 3.66882 0 466 3.66882 1
gene 1 69 139 -3.94756 0 530 -3.94756 1
gene 1 139 19 -2.92117 0 531 -2.92117 1
gene 1 9 142 1.19601 0 539 1.19601 1
gene 1 142 107 -5.57709 0 540 -5.57709 1
gene 1 65 40 2.67104 0 575 2.67104 1
gene 1 15 151 1.83553 0 586 1.83553 1
gene 1 151 19 2.72402 0 587 2.72402 1
gene 1 2 125 6.42321 0 589 6.42321 1
gene 1 11 153 0.573287 0 593 0.573287 1
gene 1 153 82 -0.82295 0 594 -0.82295 1
gene 1 12 159 5.73013 0 619 5.73013 1
gene 1 159 33 -3.04426 0 620 -3.04426 1
gene 1 6 75 8 0 622 8 1
gene 1 3 61 -0.0316415 0 651 -0.0316415 1
gene 1 10 153 -0.74305 0 677 -0.74305 1
gene 1 7 182 -4.80391 0 704 -4.80391 1
gene 1 182 18 0.789673 0 705 0.789673 1
gene 1 13 139 3.2475 0 733 3.2475 1
gene 1 10 61 -1.74274 0 750 -1.74274 0
gene 1 16 196 -8 0 771 -8 1
gene 1 196 18 4.65807 0 772 4.65807 1
gene 1 11 199 0.838758 0 788 0.838758 1
gene 1 199 119 1.07724 0 789 1.07724 1
gene 1 87 17 0.90175 0 791 0.90175 1
gene 1 14 203 0.91913 0 799 0.91913 1
gene 1 203 81 2.06865 0 800 2.06865 1
gene 1 8 206 7.87003 0 808 7.87003 1
gene 1 206 18 -0.539505 0 809 -0.539505 1
gene 1 11 151 -0.0650669 0 814 -0.0650669 1
gene 1 10 209 -3.66734 0 820 -3.66734 1
gene 1 209 61 0.174074 0 821 0.174074 1
gene 1 12 209 -1.04393 0 826 -1.04393 1
gene 1 51 203 0.946764 0 867 0.946764 1
gene 1 2 224 3.08524 0 870 3.08524 1
gene 1 224 20 0.582851 0 871 0.582851 1
genomeend 8

/* Organism #9 Fitness: 1854 Error: 172 */
genomestart 9
trait 1 0.706492 0 0.715918 0.0360923 0.498156 0.279615 0.113282 0.292696 
node 1 1 1 1
node 2 1 1 1
node 3 1 1 1
node 4 1 1 1
node 5 1 1 1
node 6 1 1 1
node 7 1 1 1
node 8 1 1 1
node 9 1 1 1
node 10 1 1 1
node 11 1 1 1
node 12 1 1 1
node 13 1 1 1
node 14 1 1 1
node 15 1 1 1
node 16 1 1 1
node 17 1 0 2
node 18 1 0 2
node 19 1 0 2
node 20 1 0 2
node 29 1 0 0
node 31 1 0 0
node 33 1 0 0
node 35 1 0 0
node 40 1 0 0
node 51 1 0 0
node 61 1 0 0
node 65 1 0 0
node 69 1 0 0
node 75 1 0 0
node 78 1 0 0
node 81 1 0 0
node 82 1 0 0
node 87 1 0 0
node 105 1 0 0
node 107 1 0 0
node 119 1 0 0
node 125 1 0 0
node 139 1 0 0
node 142 1 0 0
node 151 1 0 0
node 153 1 0 0
node 159 1 0 0
node 182 1 0 0
node 196 1 0 0
node 199 1 0 0
node 203 1 0 0
node 206 1 0 0
node 209 1 0 0
node 224 1 0 0
gene 1 1 17 3.28411 0 1 3.28411 1
gene 1 2 17 -4.36545 0 2 -4.36545 1
gene 1 3 17 1.65607 0 3 1.65607 1
gene 1 4 17 -0.387997 0 4 -0.387997 1
gene 1 5 17 -1.12968 0 5 -1.12968 1
gene 1 6 17 5.68187 0 6 5.68187 1
gene 1 7 17 -1.9605 0 7 -1.9605 1
gene 1 8 17 -1.94767 0 8 -1.94767 1
gene 1 9 17 -7.26929 0 9 -7.26929 1
gene 1 10 17 5.5296 0 10 5.5296 1
gene 1 11 17 1.5216 0 11 1.5216 1
gene 1 12 17 2.22804 0 12 2.22804 1
gene 1 13 17 -4.06477 0 13 -4.06477 1
gene 1 14 17 0.385887 0 14 0.385887 1
gene 1 15 17 -3.97805 0 15 -3.97805 1
gene 1 16 17 -3.2602 0 16 -3.2602 1
gene 1 1 18 -2.41355 0 17 -2.41355 1
gene 1 2 18 0.255825 0 18 0.255825 1
gene 1 3 18 1.51278 0 19 1.51278 1
gene 1 4 18 4.60378 0 20 4.60378 1
gene 1 5 18 -3.00979 0 21 -3.00979 1
gene 1 6 18 0.11417 0 22 0.11417 1
gene 1 7 18 -2.82072 0 23 -2.82072 1
gene 1 8 18 -1.52765 0 24 -1.52765 1
gene 1 9 18 -1.57497 0 25 -1.57497 1
gene 1 10 18 2.0929 0 26 2.0929 1
gene 1 11 18 2.2067 0 27 2.2067 1
gene 1 12 18 -2.30733 0 28 -2.30733 1
gene 1 13 18 -3.56454 0 29 -3.56454 1
gene 1 14 18 2.01199 0 30 2.01199 1
gene 1 15 18 -0.779762 0 31 -0.779762 1
gene 1 16 18 3.13702 0 32 3.13702 1
gene 1 1 19 2.46088 0 33 2.46088 1
gene 1 2 19 -0.99345 0 34 -0.99345 1
gene 1 3 19 -0.580466 0 35 -0.580466 1
gene 1 4 19 2.05374 0 36 2.05374 1
gene 1 5 19 1.28138 0 37 1.28138 1
gene 1 6 19 0.586579 0 38 0.586579 1
gene 1 7 19 7.83512 0 39 7.83512 1
gene 1 8 19 3.20199 0 40 3.20199 1
gene 1 9 19 2.64388 0 41 2.64388 1
gene 1 10 19 -1.70991 0 42 -1.70991 1
gene 1 11 19 8 0 43 8 1
gene 1 12 19 -1.03963 0 44 -1.03963 1
gene 1 13 19 -0.700454 0 45 -0.700454 1
gene 1 14 19 0.201671 0 46 0.201671 1
gene 1 15 19 1.31191 0 47 1.31191 1
gene 1 16 19 2.18576 0 48 2.18576 1
gene 1 1 20 -3.85493 0 49 -3.85493 1
gene 1 2 20 1.74995 0 50 1.74995 0
gene 1 3 20 -1.09151 0 51 -1.09151 1
gene 1 4 20 4.73546 0 52 4.73546 1
gene 1 5 20 -4.38695 0 53 -4.38695 1
gene 1 6 20 -1.20515 0 54 -1.20515 1
gene 1 7 20 -2.1446 0 55 -2.1446 1
gene 1 8 20 4.33611 0 56 4.33611 1
gene 1 9 20 -7.51964 0 57 -7.51964 1
gene 1 10 20 3.12137 0 58 3.12137 1
gene 1 11 20 -5.34667 0 59 -5.34667 1
gene 1 12 20 1.57609 0 60 1.57609 1
gene 1 13 20 -1.08873 0 61 -1.08873 1
gene 1 14 20 0.583716 0 62 0.583716 1
gene 1 15 20 2.47031 0 63 2.47031 1
gene 1 16 20 -1.69926 0 64 -1.69926 1
gene 1 19 18 -2.23845 0 65 -2.23845 1
gene 1 6 29 4.94817 0 84 4.94817 1
gene 1 29 18 -4.27287 0 85 -4.27287 1
gene 1 10 31 4.6822 0 89 4.6822 1
gene 1 31 20 0.970411 0 90 0.970411 1
gene 1 3 29 -4.84319 0 95 -4.84319 1
gene 1 12 33 2.39542 0 96 2.39542 1
gene 1 33 19 2.39743 0 97 2.39743 1
gene 1 19 35 1.27564 0 106 1.27564 1
gene 1 35 18 -1.37488 0 107 -1.37488 1
gene 1 6 40 -1.92677 0 121 -1.92677 1
gene 1 40 29 -0.881635 0 122 -0.881635 1
gene 1 15 33 2.8863 0 149 2.8863 1
gene 1 6 51 -2.20715 0 167 -2.20715 1
gene 1 51 29 -2.84374 0 168 -2.84374 1
gene 1 17 35 -0.0852128 0 188 -0.0852128 1
gene 1 33 61 -2.45205 0 205 -2.45205 1
gene 1 61 19 8 0 206 8 1
gene 1 5 65 -0.828095 0 219 -0.828095 1
gene 1 65 19 0.369319 0 220 0.369319 1
gene 1 1 31 -1.37753 0 224 -1.37753 1
gene 1 13 69 -1.97564 0 232 -1.97564 1
gene 1 69 19 -1.26584 0 233 -1.26584 1
gene 1 7 75 1.46235 0 258 1.46235 1
gene 1 75 20 -0.783638 0 259 -0.783638 1
gene 1 6 61 0.910576 0 263 0.910576 1
gene 1 5 78 5.0937 0 270 5.0937 1
gene 1 78 65 -0.692676 0 271 -0.692676 1
gene 1 14 81 -3.20062 0 287 -3.20062 1
gene 1 81 17 -2.5326 0 288 -2.5326 1
gene 1 65 82 -0.5028 0 291 -0.5028 1
gene 1 82 19 -0.342318 0 292 -0.342318 1
gene 1 7 87 1.90826 0 317 1.90826 1
gene 1 87 18 -1.62101 0 318 -1.62101 1
gene 1 11 82 1.88433 0 353 1.88433 1
gene 1 16 105 -3.63792 0 390 -3.63792 1
gene 1 105 20 1.68787 0 391 1.68787 1
gene 1 9 107 -1.59068 0 396 -1.59068 0
gene 1 107 20 3.19995 0 397 3.19995 1
gene 1 35 29 -2.17268 0 427 -2.17268 1
gene 1 11 119 3.21787 0 435 3.21787 1
gene 1 119 20 2.60063 0 436 2.60063 1
gene 1 6 125 2.69148 0 465 2.69148 1
gene 1 125 18 5.72219 0 466 5.72219 1
gene 1 69 139 -6.28274 0 530 -6.28274 1
gene 1 139 19 -4.20061 0 531 -4.20061 1
gene 1 9 142 -2.04709 0 539 -2.04709 1
gene 1 142 107 -1.00431 0 540 -1.00431 1
gene 1 65 40 2.23513 0 575 2.23513 1
gene 1 15 151 0.9756 0 586 0.9756 1
gene 1 151 19 1.86237 0 587 1.86237 1
gene 1 2 125 6.12598 0 589 6.12598 1
gene 1 11 153 1.69562 0 593 1.69562 1
gene 1 153 82 -1.08783 0 594 -1.08783 1
gene 1 12 159 6.10858 0 619 6.10858 1
gene 1 159 33 -2.26341 0 620 -2.26341 1
gene 1 6 75 8 0 622 8 1
gene 1 3 61 -1.72438 0 651 -1.72438 1
gene 1 10 153 -4.60658 0 677 -4.60658 1
gene 1 7 182 -3.92566 0 704 -3.92566 1
gene 1 182 18 0.248753 0 705 0.248753 1
gene 1 13 139 -0.680806 0 733 -0.680806 1
gene 1 10 61 2.45924 0 750 2.45924 0
gene 1 16 196 -6.10549 0 771 -6.10549 1
gene 1 196 18 4.67728 0 772 4.67728 1
gene 1 11 199 1.98366 0 788 1.98366 1
gene 1 199 119 -1.58332 0 789 -1.58332 1
gene 1 87 17 -2.3362 0 791 -2.3362 1
gene 1 14 203 -2.04803 0 799 -2.04803 1
gene 1 203 81 1.04771 0 800 1.04771 1
gene 1 8 206 3.67832 0 808 3.67832 1
gene 1 206 18 0.721929 0 809 0.721929 1
gene 1 11 151 -1.62682 0 814 -1.62682 1
gene 1 10 209 1.40351 0 820 1.40351 1
gene 1 209 61 -0.738625 0 821 -0.738625 1
gene 1 12 209 -5.20804 0 826 -5.20804 1
gene 1 51 203 2.45162 0 867 2.45162 1
gene 1 2 224 2.31686 0 870 2.31686 1
gene 1 224 20 0.984396 0 871 0.984396 1
genomeend 9

/* Organism #10 Fitness: 1580 Error: 158 */
genomestart 10
trait 1 0.706492 0 0.715918 0.0360923 0.498156 0.279615 0.113282 0.292696 
node 1 1 1 1
node 2 1 1 1
node 3 1 1 1
node 4 1 1 1
node 5 1 1 1
node 6 1 1 1
node 7 1 1 1
node 8 1 1 1
node 9 1 1 1
node 10 1 1 1
node 11 1 1 1
node 12 1 1 1
node 13 1 1 1
node 14 1 1 1
node 15 1 1 1
node 16 1 1 1
node 17 1 0 2
node 18 1 0 2
node 19 1 0 2
node 20 1 0 2
node 29 1 0 0
node 31 1 0 0
node 33 1 0 0
node 35 1 0 0
node 40 1 0 0
node 51 1 0 0
node 61 1 0 0
node 65 1 0 0
node 69 1 0 0
node 75 1 0 0
node 78 1 0 0
node 81 1 0 0
node 82 1 0 0
node 87 1 0 0
node 105 1 0 0
node 107 1 0 0
node 119 1 0 0
node 125 1 0 0
node 139 1 0 0
node 142 1 0 0
node 151 1 0 0
node 153 1 0 0
node 159 1 0 0
node 182 1 0 0
node 196 1 0 0
node 199 1 0 0
node 203 1 0 0
node 206 1 0 0
node 209 1 0 0
node 224 1 0 0
gene 1 1 17 1.81378 0 1 1.81378 1
gene 1 2 17 -0.986122 0 2 -0.986122 1
gene 1 3 17 -1.55125 0 3 -1.55125 1
gene 1 4 17 -0.913338 0 4 -0.913338 1
gene 1 5 17 -2.04379 0 5 -2.04379 1
gene 1 6 17 4.58596 0 6 4.58596 1
gene 1 7 17 1.80743 0 7 1.80743 1
gene 1 8 17 -0.337169 0 8 -0.337169 1
gene 1 9 17 -7.46469 0 9 -7.46469 1
gene 1 10 17 -1.79015 0 10 -1.79015 1
gene 1 11 17 1.5424 0 11 1.5424 1
gene 1 12 17 -6.12562 0 12 -6.12562 1
gene 1 13 17 1.50804 0 13 1.50804 1
gene 1 14 17 0.437583 0 14 0.437583 1
gene 1 15 17 -3.95402 0 15 -3.95402 1
gene 1 16 17 -2.04712 0 16 -2.04712 1
gene 1 1 18 -4.36469 0 17 -4.36469 1
gene 1 2 18 0.106443 0 18 0.106443 1
gene 1 3 18 -5.12541 0 19 -5.12541 1
gene 1 4 18 1.26151 0 20 1.26151 1
gene 1 5 18 -3.05043 0 21 -3.05043 1
gene 1 6 18 0.496959 0 22 0.496959 1
gene 1 7 18 -0.133016 0 23 -0.133016 1
gene 1 8 18 1.52374 0 24 1.52374 1
gene 1 9 18 -1.60411 0 25 -1.60411 1
gene 1 10 18 -2.25312 0 26 -2.25312 1
gene 1 11 18 -4.90216 0 27 -4.90216 1
gene 1 12 18 -3.59389 0 28 -3.59389 1
gene 1 13 18 -3.8504 0 29 -3.8504 1
gene 1 14 18 -1.27192 0 30 -1.27192 1
gene 1 15 18 0.315145 0 31 0.315145 1
gene 1 16 18 2.73007 0 32 2.73007 1
gene 1 1 19 1.10735 0 33 1.10735 1
gene 1 2 19 -0.861556 0 34 -0.861556 1
gene 1 3 19 -8 0 35 -8 1
gene 1 4 19 2.95382 0 36 2.95382 1
gene 1 5 19 0.297882 0 37 0.297882 1
gene 1 6 19 3.59267 0 38 3.59267 1
gene 1 7 19 7.54441 0 39 7.54441 1
gene 1 8 19 -0.519015 0 40 -0.519015 1
gene 1 9 19 -0.0369635 0 41 -0.0369635 1
gene 1 10 19 -1.21366 0 42 -1.21366 1
gene 1 11 19 -2.40728 0 43 -2.40728 1
gene 1 12 19 -1.03963 0 44 -1.03963 1
gene 1 13 19 1.18519 0 45 1.18519 1
gene 1 14 19 2.26553 0 46 2.26553 1
gene 1 15 19 4.86885 0 47 4.86885 1
gene 1 16 19 2.78837 0 48 2.78837 1
gene 1 1 20 0.417226 0 49 0.417226 1
gene 1 2 20 -0.684597 0 50 -0.684597 0
gene 1 3 20 -0.24604 0 51 -0.24604 1
gene 1 4 20 8 0 52 8 1
gene 1 5 20 -6.50305 0 53 -6.50305 1
gene 1 6 20 -3.57668 0 54 -3.57668 1
gene 1 7 20 0.291213 0 55 0.291213 1
gene 1 8 20 2.05937 0 56 2.05937 1
gene 1 9 20 -0.729144 0 57 -0.729144 1
gene 1 10 20 6.21629 0 58 6.21629 1
gene 1 11 20 -1.02671 0 59 -1.02671 1
gene 1 12 20 -5.32415 0 60 -5.32415 1
gene 1 13 20 -0.795253 0 61 -0.795253 1
gene 1 14 20 -3.1283 0 62 -3.1283 1
gene 1 15 20 1.13924 0 63 1.13924 1
gene 1 16 20 -4.70142 0 64 -4.70142 1
gene 1 19 18 -5.56134 0 65 -5.56134 1
gene 1 6 29 6.2234 0 84 6.2234 1
gene 1 29 18 -3.63661 0 85 -3.63661 1
gene 1 10 31 7.8755 0 89 7.8755 1
gene 1 31 20 6.83449 0 90 6.83449 1
gene 1 3 29 -1.25523 0 95 -1.25523 1
gene 1 12 33 2.70961 0 96 2.70961 1
gene 1 33 19 0.751062 0 97 0.751062 1
gene 1 19 35 -3.81312 0 106 -3.81312 1
gene 1 35 18 -3.05533 0 107 -3.05533 1
gene 1 6 40 1.88183 0 121 1.88183 1
gene 1 40 29 -2.04634 0 122 -2.04634 1
gene 1 15 33 6.48873 0 149 6.48873 1
gene 1 6 51 -7.358 0 167 -7.358 1
gene 1 51 29 1.70572 0 168 1.70572 1
gene 1 17 35 -0.630197 0 188 -0.630197 1
gene 1 33 61 -4.12977 0 205 -4.12977 1
gene 1 61 19 0.704626 0 206 0.704626 1
gene 1 5 65 -3.05784 0 219 -3.05784 1
gene 1 65 19 8 0 220 8 1
gene 1 1 31 -7.68831 0 224 -7.68831 1
gene 1 13 69 -0.0770421 0 232 -0.0770421 1
gene 1 69 19 1.12307 0 233 1.12307 1
gene 1 7 75 1.46235 0 258 1.46235 1
gene 1 75 20 -3.22546 0 259 -3.22546 1
gene 1 6 61 -2.27411 0 263 -2.27411 1
gene 1 5 78 3.46241 0 270 3.46241 1
gene 1 78 65 -1.08576 0 271 -1.08576 1
gene 1 14 81 -1.74006 0 287 -1.74006 1
gene 1 81 17 0.203711 0 288 0.203711 1
gene 1 65 82 -6.49023 0 291 -6.49023 1
gene 1 82 19 1.48383 0 292 1.48383 1
gene 1 7 87 -7.61172 0 317 -7.61172 1
gene 1 87 18 0.298991 0 318 0.298991 1
gene 1 11 82 -4.82228 0 353 -4.82228 1
gene 1 16 105 -7.23601 0 390 -7.23601 1
gene 1 105 20 -1.53601 0 391 -1.53601 1
gene 1 9 107 -1.10397 0 396 -1.10397 0
gene 1 107 20 1.8099 0 397 1.8099 1
gene 1 35 29 -4.14291 0 427 -4.14291 1
gene 1 11 119 0.81069 0 435 0.81069 1
gene 1 119 20 -1.20546 0 436 -1.20546 1
gene 1 6 125 2.17895 0 465 2.17895 1
gene 1 125 18 -0.236617 0 466 -0.236617 1
gene 1 69 139 -5.80236 0 530 -5.80236 1
gene 1 139 19 -3.11898 0 531 -3.11898 1
gene 1 9 142 -0.934401 0 539 -0.934401 1
gene 1 142 107 -3.41429 0 540 -3.41429 1
gene 1 65 40 4.01106 0 575 4.01106 1
gene 1 15 151 2.58087 0 586 2.58087 1
gene 1 151 19 4.24974 0 587 4.24974 1
gene 1 2 125 7.53352 0 589 7.53352 1
gene 1 11 153 3.72244 0 593 3.72244 1
gene 1 153 82 -2.13757 0 594 -2.13757 1
gene 1 12 159 4.73231 0 619 4.73231 1
gene 1 159 33 -3.78021 0 620 -3.78021 1
gene 1 6 75 1.20044 0 622 1.20044 1
gene 1 3 61 -3.03933 0 651 -3.03933 1
gene 1 10 153 -2.13346 0 677 -2.13346 1
gene 1 7 182 -4.12583 0 704 -4.12583 1
gene 1 182 18 4.29689 0 705 4.29689 1
gene 1 13 139 -1.09682 0 733 -1.09682 1
gene 1 10 61 -2.01068 0 750 -2.01068 0
gene 1 16 196 -1.97528 0 771 -1.97528 1
gene 1 196 18 5.20373 0 772 5.20373 1
gene 1 11 199 3.25258 0 788 3.25258 1
gene 1 199 119 -1.26321 0 789 -1.26321 1
gene 1 87 17 1.2194 0 791 1.2194 1
gene 1 14 203 -1.56668 0 799 -1.56668 1
gene 1 203 81 -0.62612 0 800 -0.62612 1
gene 1 8 206 7.61722 0 808 7.61722 1
gene 1 206 18 2.06435 0 809 2.06435 1
gene 1 11 151 2.38328 0 814 2.38328 1
gene 1 10 209 -2.1825 0 820 -2.1825 1
gene 1 209 61 -0.703942 0 821 -0.703942 1
gene 1 12 209 -4.23856 0 826 -4.23856 1
gene 1 51 203 -0.835662 0 867 -0.835662 1
gene 1 2 224 3.46491 0 870 3.46491 1
gene 1 224 20 0.259813 0 871 0.259813 1
genomeend 10

/* Organism #11 Fitness: 1938 Error: 149 */
genomestart 11
trait 1 0.706492 0 0.715918 0.0360923 0.498156 0.279615 0.113282 0.292696 
node 1 1 1 1
node 2 1 1 1
node 3 1 1 1
node 4 1 1 1
node 5 1 1 1
node 6 1 1 1
node 7 1 1 1
node 8 1 1 1
node 9 1 1 1
node 10 1 1 1
node 11 1 1 1
node 12 1 1 1
node 13 1 1 1
node 14 1 1 1
node 15 1 1 1
node 16 1 1 1
node 17 1 0 2
node 18 1 0 2
node 19 1 0 2
node 20 1 0 2
node 29 1 0 0
node 31 1 0 0
node 33 1 0 0
node 35 1 0 0
node 40 1 0 0
node 51 1 0 0
node 61 1 0 0
node 65 1 0 0
node 69 1 0 0
node 75 1 0 0
node 78 1 0 0
node 81 1 0 0
node 82 1 0 0
node 87 1 0 0
node 105 1 0 0
node 107 1 0 0
node 119 1 0 0
node 125 1 0 0
node 139 1 0 0
node 142 1 0 0
node 151 1 0 0
node 153 1 0 0
node 159 1 0 0
node 182 1 0 0
node 196 1 0 0
node 199 1 0 0
node 203 1 0 0
node 206 1 0 0
node 209 1 0 0
node 224 1 0 0
gene 1 1 17 2.85677 0 1 2.85677 1
gene 1 2 17 -5.19015 0 2 -5.19015 1
gene 1 3 17 -2.67554 0 3 -2.67554 1
gene 1 4 17 -1.24418 0 4 -1.24418 1
gene 1 5 17 -0.521813 0 5 -0.521813 1
gene 1 6 17 3.02983 0 6 3.02983 1
gene 1 7 17 -0.626466 0 7 -0.626466 1
gene 1 8 17 -0.245045 0 8 -0.245045 1
gene 1 9 17 -8 0 9 -8 1
gene 1 10 17 5.04173 0 10 5.04173 1
gene 1 11 17 1.45542 0 11 1.45542 1
gene 1 12 17 -2.02561 0 12 -2.02561 1
gene 1 13 17 -0.922285 0 13 -0.922285 1
gene 1 14 17 -0.559079 0 14 -0.559079 1
gene 1 15 17 -3.04236 0 15 -3.04236 1
gene 1 16 17 -1.54281 0 16 -1.54281 1
gene 1 1 18 -4.74219 0 17 -4.74219 1
gene 1 2 18 -0.361843 0 18 -0.361843 1
gene 1 3 18 -6.06896 0 19 -6.06896 1
gene 1 4 18 4.83561 0 20 4.83561 1
gene 1 5 18 -2.80892 0 21 -2.80892 1
gene 1 6 18 -0.0205726 0 22 -0.0205726 1
gene 1 7 18 -0.863623 0 23 -0.863623 1
gene 1 8 18 -0.82094 0 24 -0.82094 1
gene 1 9 18 -3.33252 0 25 -3.33252 1
gene 1 10 18 2.42037 0 26 2.42037 1
gene 1 11 18 -5.33351 0 27 -5.33351 1
gene 1 12 18 -4.12864 0 28 -4.12864 1
gene 1 13 18 -6.14563 0 29 -6.14563 1
gene 1 14 18 -2.50441 0 30 -2.50441 1
gene 1 15 18 -0.124131 0 31 -0.124131 1
gene 1 16 18 1.94677 0 32 1.94677 1
gene 1 1 19 3.83356 0 33 3.83356 1
gene 1 2 19 1.91284 0 34 1.91284 1
gene 1 3 19 -8 0 35 -8 1
gene 1 4 19 4.25071 0 36 4.25071 1
gene 1 5 19 0.0118089 0 37 0.0118089 1
gene 1 6 19 -0.318554 0 38 -0.318554 1
gene 1 7 19 8 0 39 8 1
gene 1 8 19 2.86541 0 40 2.86541 1
gene 1 9 19 2.73039 0 41 2.73039 1
gene 1 10 19 -0.182767 0 42 -0.182767 1
gene 1 11 19 7.49813 0 43 7.49813 1
gene 1 12 19 -2.06279 0 44 -2.06279 1
gene 1 13 19 1.52674 0 45 1.52674 1
gene 1 14 19 -0.312658 0 46 -0.312658 1
gene 1 15 19 2.24559 0 47 2.24559 1
gene 1 16 19 2.89915 0 48 2.89915 1
gene 1 1 20 -0.528456 0 49 -0.528456 1
gene 1 2 20 -0.984665 0 50 -0.984665 0
gene 1 3 20 -2.05239 0 51 -2.05239 1
gene 1 4 20 8 0 52 8 1
gene 1 5 20 -6.53489 0 53 -6.53489 1
gene 1 6 20 -4.54437 0 54 -4.54437 1
gene 1 7 20 -1.59565 0 55 -1.59565 1
gene 1 8 20 4.57554 0 56 4.57554 1
gene 1 9 20 -5.40569 0 57 -5.40569 1
gene 1 10 20 3.92985 0 58 3.92985 1
gene 1 11 20 -2.21771 0 59 -2.21771 1
gene 1 12 20 -6.26973 0 60 -6.26973 1
gene 1 13 20 -2.06783 0 61 -2.06783 1
gene 1 14 20 1.50046 0 62 1.50046 1
gene 1 15 20 4.87025 0 63 4.87025 1
gene 1 16 20 -3.57784 0 64 -3.57784 1
gene 1 19 18 -3.85735 0 65 -3.85735 1
gene 1 6 29 1.88293 0 84 1.88293 1
gene 1 29 18 -3.96248 0 85 -3.96248 1
gene 1 10 31 8 0 89 8 1
gene 1 31 20 8 0 90 8 1
gene 1 3 29 -2.80075 0 95 -2.80075 1
gene 1 12 33 0.50243 0 96 0.50243 1
gene 1 33 19 0.433215 0 97 0.433215 1
gene 1 19 35 -4.86656 0 106 -4.86656 1
gene 1 35 18 -1.59377 0 107 -1.59377 1
gene 1 6 40 -1.34716 0 121 -1.34716 1
gene 1 40 29 6.76667 0 122 6.76667 1
gene 1 15 33 5.571 0 149 5.571 1
gene 1 6 51 -6.56045 0 167 -6.56045 1
gene 1 51 29 0.386612 0 168 0.386612 1
gene 1 17 35 -2.39034 0 188 -2.39034 1
gene 1 33 61 -5.83808 0 205 -5.83808 1
gene 1 61 19 8 0 206 8 1
gene 1 5 65 -2.42076 0 219 -2.42076 1
gene 1 65 19 8 0 220 8 1
gene 1 1 31 -8 0 224 -8 1
gene 1 13 69 0.792267 0 232 0.792267 1
gene 1 69 19 -0.960682 0 233 -0.960682 1
gene 1 7 75 -0.166772 0 258 -0.166772 1
gene 1 75 20 -1.83235 0 259 -1.83235 1
gene 1 6 61 -3.43807 0 263 -3.43807 1
gene 1 5 78 2.29729 0 270 2.29729 1
gene 1 78 65 -2.36664 0 271 -2.36664 1
gene 1 14 81 -0.541444 0 287 -0.541444 1
gene 1 81 17 1.0085 0 288 1.0085 1
gene 1 65 82 -4.56446 0 291 -4.56446 1
gene 1 82 19 -0.442432 0 292 -0.442432 1
gene 1 7 87 -7.44569 0 317 -7.44569 1
gene 1 87 18 -1.53565 0 318 -1.53565 1
gene 1 11 82 -3.60961 0 353 -3.60961 1
gene 1 16 105 -2.79488 0 390 -2.79488 1
gene 1 105 20 8 0 391 8 1
gene 1 9 107 -1.61184 0 396 -1.61184 0
gene 1 107 20 2.77363 0 397 2.77363 1
gene 1 35 29 -3.75985 0 427 -3.75985 1
gene 1 11 119 2.91102 0 435 2.91102 1
gene 1 119 20 2.39298 0 436 2.39298 1
gene 1 6 125 4.68596 0 465 4.68596 1
gene 1 125 18 3.06263 0 466 3.06263 1
gene 1 69 139 -6.97999 0 530 -6.97999 1
gene 1 139 19 -5.37953 0 531 -5.37953 1
gene 1 9 142 -1.01974 0 539 -1.01974 1
gene 1 142 107 -3.75281 0 540 -3.75281 1
gene 1 65 40 4.93966 0 575 4.93966 1
gene 1 15 151 0.82267 0 586 0.82267 1
gene 1 151 19 1.51755 0 587 1.51755 1
gene 1 2 125 4.45953 0 589 4.45953 1
gene 1 11 153 2.83325 0 593 2.83325 1
gene 1 153 82 -3.06463 0 594 -3.06463 1
gene 1 12 159 8 0 619 8 1
gene 1 159 33 -1.51861 0 620 -1.51861 1
gene 1 6 75 8 0 622 8 1
gene 1 3 61 -2.4994 0 651 -2.4994 1
gene 1 10 153 -2.13346 0 677 -2.13346 1
gene 1 7 182 -2.47137 0 704 -2.47137 1
gene 1 182 18 0.39374 0 705 0.39374 1
gene 1 13 139 -0.339677 0 733 -0.339677 1
gene 1 10 61 0.116014 0 750 0.116014 0
gene 1 16 196 -7.85693 0 771 -7.85693 1
gene 1 196 18 5.20373 0 772 5.20373 1
gene 1 11 199 1.43106 0 788 1.43106 1
gene 1 199 119 -1.11738 0 789 -1.11738 1
gene 1 87 17 2.00504 0 791 2.00504 1
gene 1 14 203 -0.57857 0 799 -0.57857 1
gene 1 203 81 1.18313 0 800 1.18313 1
gene 1 8 206 8 0 808 8 1
gene 1 206 18 0.501993 0 809 0.501993 1
gene 1 11 151 -0.0650669 0 814 -0.0650669 1
gene 1 10 209 -1.39112 0 820 -1.39112 1
gene 1 209 61 -0.0187572 0 821 -0.0187572 1
gene 1 12 209 -5.84463 0 826 -5.84463 1
gene 1 51 203 0.946764 0 867 0.946764 1
gene 1 2 224 1 0 870 1 1
gene 1 224 20 -1.92502 0 871 -1.92502 1
genomeend 11

/* Organism #12 Fitness: 3088 Error: 240 */
genomestart 12
trait 1 0.706492 0 0.715918 0.0360923 0.498156 0.279615 0.113282 0.292696 
node 1 1 1 1
node 2 1 1 1
node 3 1 1 1
node 4 1 1 1
node 5 1 1 1
node 6 1 1 1
node 7 1 1 1
node 8 1 1 1
node 9 1 1 1
node 10 1 1 1
node 11 1 1 1
node 12 1 1 1
node 13 1 1 1
node 14 1 1 1
node 15 1 1 1
node 16 1 1 1
node 17 1 0 2
node 18 1 0 2
node 19 1 0 2
node 20 1 0 2
node 29 1 0 0
node 31 1 0 0
node 33 1 0 0
node 35 1 0 0
node 40 1 0 0
node 51 1 0 0
node 61 1 0 0
node 65 1 0 0
node 69 1 0 0
node 75 1 0 0
node 78 1 0 0
node 81 1 0 0
node 82 1 0 0
node 87 1 0 0
node 105 1 0 0
node 107 1 0 0
node 119 1 0 0
node 125 1 0 0
node 139 1 0 0
node 142 1 0 0
node 151 1 0 0
node 153 1 0 0
node 159 1 0 0
node 182 1 0 0
node 196 1 0 0
node 199 1 0 0
node 203 1 0 0
node 206 1 0 0
node 209 1 0 0
node 224 1 0 0
gene 1 1 17 3.28411 0 1 3.28411 1
gene 1 2 17 -3.40651 0 2 -3.40651 1
gene 1 3 17 -0.796262 0 3 -0.796262 1
gene 1 4 17 -0.387997 0 4 -0.387997 1
gene 1 5 17 -2.04379 0 5 -2.04379 1
gene 1 6 17 4.58881 0 6 4.58881 1
gene 1 7 17 -0.311753 0 7 -0.311753 1
gene 1 8 17 -1.94767 0 8 -1.94767 1
gene 1 9 17 -6.4991 0 9 -6.4991 1
gene 1 10 17 4.35803 0 10 4.35803 1
gene 1 11 17 0.704199 0 11 0.704199 1
gene 1 12 17 -3.81247 0 12 -3.81247 1
gene 1 13 17 -2.38659 0 13 -2.38659 1
gene 1 14 17 -1.82711 0 14 -1.82711 1
gene 1 15 17 -3.95402 0 15 -3.95402 1
gene 1 16 17 -2.04712 0 16 -2.04712 1
gene 1 1 18 -2.41355 0 17 -2.41355 1
gene 1 2 18 -1.18098 0 18 -1.18098 1
gene 1 3 18 -7.06598 0 19 -7.06598 1
gene 1 4 18 2.43216 0 20 2.43216 1
gene 1 5 18 -0.595092 0 21 -0.595092 1
gene 1 6 18 -0.109069 0 22 -0.109069 1
gene 1 7 18 -2.31401 0 23 -2.31401 1
gene 1 8 18 -0.0891518 0 24 -0.0891518 1
gene 1 9 18 -1.60411 0 25 -1.60411 1
gene 1 10 18 0.224862 0 26 0.224862 1
gene 1 11 18 -3.376 0 27 -3.376 1
gene 1 12 18 -4.77757 0 28 -4.77757 1
gene 1 13 18 -3.87056 0 29 -3.87056 1
gene 1 14 18 -2.21906 0 30 -2.21906 1
gene 1 15 18 1.80922 0 31 1.80922 1
gene 1 16 18 1.60991 0 32 1.60991 1
gene 1 1 19 2.67387 0 33 2.67387 1
gene 1 2 19 0.966415 0 34 0.966415 1
gene 1 3 19 -7.2703 0 35 -7.2703 1
gene 1 4 19 2.15745 0 36 2.15745 1
gene 1 5 19 0.625154 0 37 0.625154 1
gene 1 6 19 1.97336 0 38 1.97336 1
gene 1 7 19 6.17325 0 39 6.17325 1
gene 1 8 19 0.950305 0 40 0.950305 1
gene 1 9 19 0.816068 0 41 0.816068 1
gene 1 10 19 -0.502258 0 42 -0.502258 1
gene 1 11 19 8 0 43 8 1
gene 1 12 19 -1.03963 0 44 -1.03963 1
gene 1 13 19 0.584786 0 45 0.584786 1
gene 1 14 19 0.978343 0 46 0.978343 1
gene 1 15 19 3.74006 0 47 3.74006 1
gene 1 16 19 4.86469 0 48 4.86469 1
gene 1 1 20 -2.36866 0 49 -2.36866 1
gene 1 2 20 -0.0925325 0 50 -0.0925325 0
gene 1 3 20 -1.51752 0 51 -1.51752 1
gene 1 4 20 6.88703 0 52 6.88703 1
gene 1 5 20 -4.38695 0 53 -4.38695 1
gene 1 6 20 -3.645 0 54 -3.645 1
gene 1 7 20 -1.6662 0 55 -1.6662 1
gene 1 8 20 4.24486 0 56 4.24486 1
gene 1 9 20 -5.60789 0 57 -5.60789 1
gene 1 10 20 3.76797 0 58 3.76797 1
gene 1 11 20 -4.08062 0 59 -4.08062 1
gene 1 12 20 -3.83968 0 60 -3.83968 1
gene 1 13 20 -0.888763 0 61 -0.888763 1
gene 1 14 20 -0.959308 0 62 -0.959308 1
gene 1 15 20 2.47031 0 63 2.47031 1
gene 1 16 20 -3.51432 0 64 -3.51432 1
gene 1 19 18 -4.49631 0 65 -4.49631 1
gene 1 6 29 3.95114 0 84 3.95114 1
gene 1 29 18 -3.63661 0 85 -3.63661 1
gene 1 10 31 6.51399 0 89 6.51399 1
gene 1 31 20 7.99524 0 90 7.99524 1
gene 1 3 29 -2.6292 0 95 -2.6292 1
gene 1 12 33 2.70961 0 96 2.70961 1
gene 1 33 19 0.298568 0 97 0.298568 1
gene 1 19 35 -2.93089 0 106 -2.93089 1
gene 1 35 18 -1.83864 0 107 -1.83864 1
gene 1 6 40 0.477242 0 121 0.477242 1
gene 1 40 29 7.9387 0 122 7.9387 1
gene 1 15 33 4.55959 0 149 4.55959 1
gene 1 6 51 -7.358 0 167 -7.358 1
gene 1 51 29 -0.674779 0 168 -0.674779 1
gene 1 17 35 -0.630197 0 188 -0.630197 1
gene 1 33 61 -4.12977 0 205 -4.12977 1
gene 1 61 19 8 0 206 8 1
gene 1 5 65 -1.47101 0 219 -1.47101 1
gene 1 65 19 8 0 220 8 1
gene 1 1 31 -6.50725 0 224 -6.50725 1
gene 1 13 69 -0.32968 0 232 -0.32968 1
gene 1 69 19 -2.47718 0 233 -2.47718 1
gene 1 7 75 1.46235 0 258 1.46235 1
gene 1 75 20 -3.22546 0 259 -3.22546 1
gene 1 6 61 -3.7449 0 263 -3.7449 1
gene 1 5 78 3.46241 0 270 3.46241 1
gene 1 78 65 -0.576724 0 271 -0.576724 1
gene 1 14 81 -2.02215 0 287 -2.02215 1
gene 1 81 17 -0.355786 0 288 -0.355786 1
gene 1 65 82 -6.49023 0 291 -6.49023 1
gene 1 82 19 0.571953 0 292 0.571953 1
gene 1 7 87 -7.14367 0 317 -7.14367 1
gene 1 87 18 0.961843 0 318 0.961843 1
gene 1 11 82 -3.89254 0 353 -3.89254 1
gene 1 16 105 -4.80654 0 390 -4.80654 1
gene 1 105 20 8 0 391 8 1
gene 1 9 107 -0.334402 0 396 -0.334402 0
gene 1 107 20 1.22725 0 397 1.22725 1
gene 1 35 29 -2.28545 0 427 -2.28545 1
gene 1 11 119 2.07762 0 435 2.07762 1
gene 1 119 20 0.141468 0 436 0.141468 1
gene 1 6 125 2.69148 0 465 2.69148 1
gene 1 125 18 5.43271 0 466 5.43271 1
gene 1 69 139 -5.60141 0 530 -5.60141 1
gene 1 139 19 -3.40498 0 531 -3.40498 1
gene 1 9 142 -0.86971 0 539 -0.86971 1
gene 1 142 107 -5.0206 0 540 -5.0206 1
gene 1 65 40 3.5047 0 575 3.5047 1
gene 1 15 151 0.859515 0 586 0.859515 1
gene 1 151 19 2.27555 0 587 2.27555 1
gene 1 2 125 5.0876 0 589 5.0876 1
gene 1 11 153 2.83325 0 593 2.83325 1
gene 1 153 82 -3.06463 0 594 -3.06463 1
gene 1 12 159 6.81337 0 619 6.81337 1
gene 1 159 33 -1.53274 0 620 -1.53274 1
gene 1 6 75 8 0 622 8 1
gene 1 3 61 -2.45997 0 651 -2.45997 1
gene 1 10 153 -2.13346 0 677 -2.13346 1
gene 1 7 182 -2.47137 0 704 -2.47137 1
gene 1 182 18 2.60467 0 705 2.60467 1
gene 1 13 139 1.09154 0 733 1.09154 1
gene 1 10 61 0.116014 0 750 0.116014 0
gene 1 16 196 -7.85693 0 771 -7.85693 1
gene 1 196 18 5.20373 0 772 5.20373 1
gene 1 11 199 1.43106 0 788 1.43106 1
gene 1 199 119 -1.08483 0 789 -1.08483 1
gene 1 87 17 -0.284174 0 791 -0.284174 1
gene 1 14 203 -0.57857 0 799 -0.57857 1
gene 1 203 81 0.324213 0 800 0.324213 1
gene 1 8 206 6.10523 0 808 6.10523 1
gene 1 206 18 0.501993 0 809 0.501993 1
gene 1 11 151 -0.0650669 0 814 -0.0650669 1
gene 1 10 209 -1.39112 0 820 -1.39112 1
gene 1 209 61 -0.703942 0 821 -0.703942 1
gene 1 12 209 -5.84463 0 826 -5.84463 1
gene 1 51 203 0.946764 0 867 0.946764 1
gene 1 2 224 1 0 870 0 1
gene 1 224 20 -0.0925325 0 871 0 1
genomeend 12

/* Species #65 : (Size 13) (AF 2044.23) (Age 12)  */


/* Organism #13 Fitness: 2956 Error: 304 */
genomestart 13
trait 1 1 0 0.683034 0.0360923 0.439205 0.274301 0.226564 0 
node 1 1 1 1
node 2 1 1 1
node 3 1 1 1
node 4 1 1 1
node 5 1 1 1
node 6 1 1 1
node 7 1 1 1
node 8 1 1 1
node 9 1 1 1
node 10 1 1 1
node 11 1 1 1
node 12 1 1 1
node 13 1 1 1
node 14 1 1 1
node 15 1 1 1
node 16 1 1 1
node 17 1 0 2
node 18 1 0 2
node 19 1 0 2
node 20 1 0 2
node 29 1 0 0
node 31 1 0 0
node 33 1 0 0
node 35 1 0 0
node 40 1 0 0
node 51 1 0 0
node 61 1 0 0
node 65 1 0 0
node 69 1 0 0
node 75 1 0 0
node 78 1 0 0
node 81 1 0 0
node 82 1 0 0
node 87 1 0 0
node 105 1 0 0
node 107 1 0 0
node 119 1 0 0
node 125 1 0 0
node 139 1 0 0
node 142 1 0 0
node 151 1 0 0
node 153 1 0 0
node 159 1 0 0
node 182 1 0 0
node 196 1 0 0
node 199 1 0 0
node 203 1 0 0
node 206 1 0 0
node 209 1 0 0
node 218 1 0 0
gene 1 1 17 -1.65658 0 1 -1.65658 1
gene 1 2 17 -1.00086 0 2 -1.00086 1
gene 1 3 17 -5.0158 0 3 -5.0158 1
gene 1 4 17 3.38741 0 4 3.38741 1
gene 1 5 17 -3.85716 0 5 -3.85716 1
gene 1 6 17 3.88273 0 6 3.88273 1
gene 1 7 17 2.74921 0 7 2.74921 1
gene 1 8 17 5.21343 0 8 5.21343 1
gene 1 9 17 -3.92745 0 9 -3.92745 1
gene 1 10 17 -6.27229 0 10 -6.27229 1
gene 1 11 17 0.589057 0 11 0.589057 1
gene 1 12 17 -2.05198 0 12 -2.05198 1
gene 1 13 17 2.3535 0 13 2.3535 1
gene 1 14 17 -0.0283502 0 14 -0.0283502 1
gene 1 15 17 2.49685 0 15 2.49685 1
gene 1 16 17 6.9739 0 16 6.9739 1
gene 1 1 18 2.49968 0 17 2.49968 1
gene 1 2 18 0.281116 0 18 0.281116 1
gene 1 3 18 -6.22207 0 19 -6.22207 1
gene 1 4 18 -0.625851 0 20 -0.625851 1
gene 1 5 18 2.68582 0 21 2.68582 1
gene 1 6 18 -1.44875 0 22 -1.44875 1
gene 1 7 18 1.04685 0 23 1.04685 1
gene 1 8 18 -1.70227 0 24 -1.70227 1
gene 1 9 18 0.734681 0 25 0.734681 1
gene 1 10 18 -1.21343 0 26 -1.21343 1
gene 1 11 18 4.57121 0 27 4.57121 1
gene 1 12 18 -2.30954 0 28 -2.30954 1
gene 1 13 18 6.58795 0 29 6.58795 1
gene 1 14 18 1.39412 0 30 1.39412 1
gene 1 15 18 -6.93184 0 31 -6.93184 1
gene 1 16 18 1.54156 0 32 1.54156 1
gene 1 1 19 3.82068 0 33 3.82068 1
gene 1 2 19 -3.49478 0 34 -3.49478 1
gene 1 3 19 0.696586 0 35 0.696586 1
gene 1 4 19 -8 0 36 -8 1
gene 1 5 19 1.37328 0 37 1.37328 1
gene 1 6 19 7.60921 0 38 7.60921 1
gene 1 7 19 6.83549 0 39 6.83549 1
gene 1 8 19 0.436548 0 40 0.436548 1
gene 1 9 19 2.19483 0 41 2.19483 1
gene 1 10 19 1.64634 0 42 1.64634 1
gene 1 11 19 2.22566 0 43 2.22566 1
gene 1 12 19 -7.37062 0 44 -7.37062 1
gene 1 13 19 1.57502 0 45 1.57502 1
gene 1 14 19 5.88542 0 46 5.88542 1
gene 1 15 19 0.145021 0 47 0.145021 1
gene 1 16 19 2.75084 0 48 2.75084 1
gene 1 1 20 8 0 49 8 1
gene 1 2 20 -1.38691 0 50 -1.38691 1
gene 1 3 20 -1.02031 0 51 -1.02031 1
gene 1 4 20 4.881 0 52 4.881 1
gene 1 5 20 -1.77482 0 53 -1.77482 1
gene 1 6 20 0.634641 0 54 0.634641 1
gene 1 7 20 1.22944 0 55 1.22944 1
gene 1 8 20 5.70637 0 56 5.70637 1
gene 1 9 20 8 0 57 8 1
gene 1 10 20 -3.19577 0 58 -3.19577 1
gene 1 11 20 0.716477 0 59 0.716477 1
gene 1 12 20 1.45447 0 60 1.45447 1
gene 1 13 20 3.07269 0 61 3.07269 1
gene 1 14 20 1.49829 0 62 1.49829 1
gene 1 15 20 0.786149 0 63 0.786149 1
gene 1 16 20 -0.498696 0 64 -0.498696 1
gene 1 19 18 -1.48517 0 65 -1.48517 1
gene 1 6 29 0.760027 0 84 0.760027 1
gene 1 29 18 3.36398 0 85 3.36398 1
gene 1 10 31 2.30805 0 89 2.30805 1
gene 1 31 20 6.90644 0 90 6.90644 1
gene 1 3 29 -3.92486 0 95 -3.92486 1
gene 1 12 33 2.12095 0 96 2.12095 1
gene 1 33 19 -6.09225 0 97 -6.09225 1
gene 1 19 35 -0.379441 0 106 -0.379441 1
gene 1 35 18 3.55619 0 107 3.55619 1
gene 1 6 40 1.79861 0 121 1.79861 1
gene 1 40 29 2.61905 0 122 2.61905 1
gene 1 15 33 -4.83832 0 149 -4.83832 1
gene 1 6 51 8 0 167 8 1
gene 1 51 29 2.8291 0 168 2.8291 1
gene 1 17 35 0.534243 0 188 0.534243 1
gene 1 33 61 -5.58085 0 205 -5.58085 1
gene 1 61 19 6.1811 0 206 6.1811 1
gene 1 5 65 2.19576 0 219 2.19576 1
gene 1 65 19 0.301321 0 220 0.301321 1
gene 1 1 31 -1.09645 0 224 -1.09645 1
gene 1 13 69 -3.23136 0 232 -3.23136 1
gene 1 69 19 0.119472 0 233 0.119472 1
gene 1 7 75 5.40241 0 258 5.40241 1
gene 1 75 20 -3.15466 0 259 -3.15466 1
gene 1 6 61 -1.65257 0 263 -1.65257 1
gene 1 5 78 -0.768079 0 270 -0.768079 1
gene 1 78 65 1.73574 0 271 1.73574 1
gene 1 14 81 -2.2635 0 287 -2.2635 0
gene 1 81 17 -2.18426 0 288 -2.18426 1
gene 1 65 82 0.406673 0 291 0.406673 1
gene 1 82 19 -3.80869 0 292 -3.80869 1
gene 1 7 87 -0.00881683 0 317 -0.00881683 1
gene 1 87 18 6.68507 0 318 6.68507 1
gene 1 11 82 -2.83587 0 353 -2.83587 1
gene 1 16 105 2.71585 0 390 2.71585 1
gene 1 105 20 -3.78371 0 391 -3.78371 1
gene 1 9 107 -1.89076 0 396 -1.89076 1
gene 1 107 20 -4.40722 0 397 -4.40722 1
gene 1 35 29 -7.43434 0 427 -7.43434 1
gene 1 11 119 -1.45538 0 435 -1.45538 1
gene 1 119 20 1.76916 0 436 1.76916 1
gene 1 6 125 0.692158 0 465 0.692158 1
gene 1 125 18 -0.503207 0 466 -0.503207 1
gene 1 69 139 -8 0 530 -8 1
gene 1 139 19 -0.0540616 0 531 -0.0540616 1
gene 1 9 142 -4.04523 0 539 -4.04523 1
gene 1 142 107 2.27299 0 540 2.27299 1
gene 1 65 40 0.769158 0 575 0.769158 1
gene 1 15 151 2.22305 0 586 2.22305 1
gene 1 151 19 0.346295 0 587 0.346295 1
gene 1 2 125 3.17318 0 589 3.17318 1
gene 1 11 153 -0.581107 0 593 -0.581107 1
gene 1 153 82 0.892624 0 594 0.892624 1
gene 1 12 159 2.32302 0 619 2.32302 1
gene 1 159 33 3.0589 0 620 3.0589 1
gene 1 6 75 0.947463 0 622 0.947463 1
gene 1 3 61 -2.3067 0 651 -2.3067 1
gene 1 10 153 -3.4357 0 677 -3.4357 1
gene 1 7 182 0.480043 0 704 0.480043 1
gene 1 182 18 2.27385 0 705 2.27385 1
gene 1 13 139 2.87181 0 733 2.87181 1
gene 1 10 61 -2.86949 0 750 -2.86949 0
gene 1 16 196 2.36049 0 771 2.36049 1
gene 1 196 18 1.85027 0 772 1.85027 1
gene 1 11 199 -2.67168 0 788 -2.67168 1
gene 1 199 119 2.60189 0 789 2.60189 1
gene 1 87 17 -1.66594 0 791 -1.66594 1
gene 1 14 203 -0.58044 0 799 -0.58044 1
gene 1 203 81 -1.28704 0 800 -1.28704 1
gene 1 8 206 2.41741 0 808 2.41741 1
gene 1 206 18 1.15935 0 809 1.15935 1
gene 1 11 151 2.36388 0 814 2.36388 1
gene 1 10 209 2.04856 0 820 2.04856 1
gene 1 209 61 -0.45154 0 821 -0.45154 1
gene 1 12 209 2.26492 0 826 2.26492 1
gene 1 12 218 -2.70618 0 848 -2.70618 1
gene 1 218 20 -0.0223399 0 849 -0.0223399 1
genomeend 13

/* Organism #14 Fitness: 2489 Error: 289 */
genomestart 14
trait 1 1 0 0.683034 0.0360923 0.439205 0.274301 0.226564 0 
node 1 1 1 1
node 2 1 1 1
node 3 1 1 1
node 4 1 1 1
node 5 1 1 1
node 6 1 1 1
node 7 1 1 1
node 8 1 1 1
node 9 1 1 1
node 10 1 1 1
node 11 1 1 1
node 12 1 1 1
node 13 1 1 1
node 14 1 1 1
node 15 1 1 1
node 16 1 1 1
node 17 1 0 2
node 18 1 0 2
node 19 1 0 2
node 20 1 0 2
node 29 1 0 0
node 31 1 0 0
node 33 1 0 0
node 35 1 0 0
node 40 1 0 0
node 51 1 0 0
node 61 1 0 0
node 65 1 0 0
node 69 1 0 0
node 75 1 0 0
node 78 1 0 0
node 81 1 0 0
node 82 1 0 0
node 87 1 0 0
node 105 1 0 0
node 107 1 0 0
node 119 1 0 0
node 125 1 0 0
node 139 1 0 0
node 142 1 0 0
node 151 1 0 0
node 153 1 0 0
node 159 1 0 0
node 182 1 0 0
node 196 1 0 0
node 199 1 0 0
node 203 1 0 0
node 206 1 0 0
node 209 1 0 0
node 218 1 0 0
gene 1 1 17 -0.316705 0 1 -0.316705 1
gene 1 2 17 0.159977 0 2 0.159977 1
gene 1 3 17 -3.16632 0 3 -3.16632 1
gene 1 4 17 5.56627 0 4 5.56627 1
gene 1 5 17 -5.38581 0 5 -5.38581 1
gene 1 6 17 7.52209 0 6 7.52209 1
gene 1 7 17 0.513074 0 7 0.513074 1
gene 1 8 17 7.80413 0 8 7.80413 1
gene 1 9 17 0.402948 0 9 0.402948 1
gene 1 10 17 -8 0 10 -8 1
gene 1 11 17 2.98617 0 11 2.98617 1
gene 1 12 17 -4.48764 0 12 -4.48764 1
gene 1 13 17 -0.967425 0 13 -0.967425 1
gene 1 14 17 3.94702 0 14 3.94702 1
gene 1 15 17 0.808442 0 15 0.808442 1
gene 1 16 17 6.22006 0 16 6.22006 1
gene 1 1 18 -0.236612 0 17 -0.236612 1
gene 1 2 18 -3.55218 0 18 -3.55218 1
gene 1 3 18 -6.02631 0 19 -6.02631 1
gene 1 4 18 -1.46277 0 20 -1.46277 1
gene 1 5 18 2.95519 0 21 2.95519 1
gene 1 6 18 3.23305 0 22 3.23305 1
gene 1 7 18 -2.99541 0 23 -2.99541 1
gene 1 8 18 5.68996 0 24 5.68996 1
gene 1 9 18 -1.90779 0 25 -1.90779 1
gene 1 10 18 4.95141 0 26 4.95141 1
gene 1 11 18 2.07696 0 27 2.07696 1
gene 1 12 18 -2.44174 0 28 -2.44174 1
gene 1 13 18 6.84359 0 29 6.84359 1
gene 1 14 18 4.25188 0 30 4.25188 1
gene 1 15 18 -2.21071 0 31 -2.21071 1
gene 1 16 18 -1.70636 0 32 -1.70636 1
gene 1 1 19 5.62465 0 33 5.62465 1
gene 1 2 19 -2.14301 0 34 -2.14301 1
gene 1 3 19 -7.44333 0 35 -7.44333 1
gene 1 4 19 -8 0 36 -8 1
gene 1 5 19 -7.1118 0 37 -7.1118 1
gene 1 6 19 8 0 38 8 1
gene 1 7 19 5.12757 0 39 5.12757 1
gene 1 8 19 0.672601 0 40 0.672601 1
gene 1 9 19 -1.13795 0 41 -1.13795 1
gene 1 10 19 2.91116 0 42 2.91116 1
gene 1 11 19 5.82106 0 43 5.82106 1
gene 1 12 19 -8 0 44 -8 1
gene 1 13 19 -0.349947 0 45 -0.349947 1
gene 1 14 19 8 0 46 8 1
gene 1 15 19 -3.53033 0 47 -3.53033 1
gene 1 16 19 2.33484 0 48 2.33484 1
gene 1 1 20 7.04651 0 49 7.04651 1
gene 1 2 20 7.48207 0 50 7.48207 1
gene 1 3 20 3.52516 0 51 3.52516 1
gene 1 4 20 2.0007 0 52 2.0007 1
gene 1 5 20 -3.44243 0 53 -3.44243 1
gene 1 6 20 2.31272 0 54 2.31272 1
gene 1 7 20 2.062 0 55 2.062 1
gene 1 8 20 6.14801 0 56 6.14801 1
gene 1 9 20 8 0 57 8 1
gene 1 10 20 -6.43847 0 58 -6.43847 1
gene 1 11 20 -0.409512 0 59 -0.409512 1
gene 1 12 20 2.29734 0 60 2.29734 1
gene 1 13 20 -0.612621 0 61 -0.612621 1
gene 1 14 20 2.3668 0 62 2.3668 1
gene 1 15 20 6.13456 0 63 6.13456 1
gene 1 16 20 -0.953591 0 64 -0.953591 1
gene 1 19 18 -4.49936 0 65 -4.49936 1
gene 1 6 29 -2.76783 0 84 -2.76783 1
gene 1 29 18 2.55473 0 85 2.55473 1
gene 1 10 31 -0.760998 0 89 -0.760998 1
gene 1 31 20 1.95842 0 90 1.95842 1
gene 1 3 29 -1.79137 0 95 -1.79137 1
gene 1 12 33 -3.83166 0 96 -3.83166 1
gene 1 33 19 -4.18275 0 97 -4.18275 1
gene 1 19 35 -5.0437 0 106 -5.0437 1
gene 1 35 18 3.53528 0 107 3.53528 1
gene 1 6 40 4.27805 0 121 4.27805 1
gene 1 40 29 0.758836 0 122 0.758836 1
gene 1 15 33 -3.94826 0 149 -3.94826 1
gene 1 6 51 5.59592 0 167 5.59592 1
gene 1 51 29 2.26413 0 168 2.26413 1
gene 1 17 35 2.38056 0 188 2.38056 1
gene 1 33 61 -3.50859 0 205 -3.50859 1
gene 1 61 19 6.95965 0 206 6.95965 1
gene 1 5 65 -5.74221 0 219 -5.74221 1
gene 1 65 19 1.28574 0 220 1.28574 1
gene 1 1 31 -1.05894 0 224 -1.05894 1
gene 1 13 69 -0.247242 0 232 -0.247242 1
gene 1 69 19 -1.58521 0 233 -1.58521 1
gene 1 7 75 4.9146 0 258 4.9146 1
gene 1 75 20 -2.9368 0 259 -2.9368 1
gene 1 6 61 -3.41475 0 263 -3.41475 1
gene 1 5 78 3.49387 0 270 3.49387 1
gene 1 78 65 -0.66555 0 271 -0.66555 1
gene 1 14 81 3.87895 0 287 3.87895 0
gene 1 81 17 -4.81944 0 288 -4.81944 1
gene 1 65 82 1.15347 0 291 1.15347 1
gene 1 82 19 -3.10769 0 292 -3.10769 1
gene 1 7 87 0.839694 0 317 0.839694 1
gene 1 87 18 8 0 318 8 1
gene 1 11 82 -5.48948 0 353 -5.48948 1
gene 1 16 105 3.66232 0 390 3.66232 1
gene 1 105 20 -0.55604 0 391 -0.55604 1
gene 1 9 107 1.50416 0 396 1.50416 1
gene 1 107 20 -6.70287 0 397 -6.70287 1
gene 1 35 29 -4.22879 0 427 -4.22879 1
gene 1 11 119 -3.33036 0 435 -3.33036 1
gene 1 119 20 3.66743 0 436 3.66743 1
gene 1 6 125 2.16389 0 465 2.16389 1
gene 1 125 18 0.140012 0 466 0.140012 1
gene 1 69 139 -8 0 530 -8 1
gene 1 139 19 4.11584 0 531 4.11584 1
gene 1 9 142 -5.14989 0 539 -5.14989 1
gene 1 142 107 -0.0881478 0 540 -0.0881478 1
gene 1 65 40 0.911364 0 575 0.911364 1
gene 1 15 151 -0.895855 0 586 -0.895855 1
gene 1 151 19 -0.318944 0 587 -0.318944 1
gene 1 2 125 1.24665 0 589 1.24665 1
gene 1 11 153 -1.26825 0 593 -1.26825 1
gene 1 153 82 1.98064 0 594 1.98064 1
gene 1 12 159 1.73296 0 619 1.73296 1
gene 1 159 33 5.33464 0 620 5.33464 1
gene 1 6 75 -2.34295 0 622 -2.34295 1
gene 1 3 61 4.00101 0 651 4.00101 1
gene 1 10 153 -2.38565 0 677 -2.38565 1
gene 1 7 182 2.41883 0 704 2.41883 1
gene 1 182 18 0.960008 0 705 0.960008 1
gene 1 13 139 5.20513 0 733 5.20513 1
gene 1 10 61 -4.6643 0 750 -4.6643 0
gene 1 16 196 2.36049 0 771 2.36049 1
gene 1 196 18 -1.0876 0 772 -1.0876 1
gene 1 11 199 -0.969375 0 788 -0.969375 1
gene 1 199 119 1.28991 0 789 1.28991 1
gene 1 87 17 -3.8443 0 791 -3.8443 1
gene 1 14 203 -0.589875 0 799 -0.589875 1
gene 1 203 81 1.4491 0 800 1.4491 1
gene 1 8 206 2.12389 0 808 2.12389 1
gene 1 206 18 -1.14807 0 809 -1.14807 1
gene 1 11 151 -0.00305972 0 814 -0.00305972 1
gene 1 10 209 2.13545 0 820 2.13545 1
gene 1 209 61 -1.76237 0 821 -1.76237 1
gene 1 12 209 -1.87014 0 826 -1.87014 1
gene 1 12 218 0.127537 0 848 0.127537 1
gene 1 218 20 0.12654 0 849 0.12654 1
genomeend 14

/* Organism #15 Fitness: 2372 Error: 265 */
genomestart 15
trait 1 1 0 0.683034 0.0360923 0.439205 0.274301 0.226564 0 
node 1 1 1 1
node 2 1 1 1
node 3 1 1 1
node 4 1 1 1
node 5 1 1 1
node 6 1 1 1
node 7 1 1 1
node 8 1 1 1
node 9 1 1 1
node 10 1 1 1
node 11 1 1 1
node 12 1 1 1
node 13 1 1 1
node 14 1 1 1
node 15 1 1 1
node 16 1 1 1
node 17 1 0 2
node 18 1 0 2
node 19 1 0 2
node 20 1 0 2
node 29 1 0 0
node 31 1 0 0
node 33 1 0 0
node 35 1 0 0
node 40 1 0 0
node 51 1 0 0
node 61 1 0 0
node 65 1 0 0
node 69 1 0 0
node 75 1 0 0
node 78 1 0 0
node 81 1 0 0
node 82 1 0 0
node 87 1 0 0
node 105 1 0 0
node 107 1 0 0
node 119 1 0 0
node 125 1 0 0
node 139 1 0 0
node 142 1 0 0
node 151 1 0 0
node 153 1 0 0
node 159 1 0 0
node 182 1 0 0
node 196 1 0 0
node 199 1 0 0
node 203 1 0 0
node 206 1 0 0
node 209 1 0 0
node 218 1 0 0
gene 1 1 17 0.878346 0 1 0.878346 1
gene 1 2 17 0.0958878 0 2 0.0958878 1
gene 1 3 17 -2.41602 0 3 -2.41602 1
gene 1 4 17 3.73094 0 4 3.73094 1
gene 1 5 17 -4.69091 0 5 -4.69091 1
gene 1 6 17 3.88573 0 6 3.88573 1
gene 1 7 17 0.621621 0 7 0.621621 1
gene 1 8 17 8 0 8 8 1
gene 1 9 17 -0.0694695 0 9 -0.0694695 1
gene 1 10 17 -8 0 10 -8 1
gene 1 11 17 3.94354 0 11 3.94354 1
gene 1 12 17 -6.36591 0 12 -6.36591 1
gene 1 13 17 -1.6503 0 13 -1.6503 1
gene 1 14 17 4.2245 0 14 4.2245 1
gene 1 15 17 0.979139 0 15 0.979139 1
gene 1 16 17 5.66747 0 16 5.66747 1
gene 1 1 18 1.60823 0 17 1.60823 1
gene 1 2 18 -3.57591 0 18 -3.57591 1
gene 1 3 18 -5.91953 0 19 -5.91953 1
gene 1 4 18 -2.18644 0 20 -2.18644 1
gene 1 5 18 5.55053 0 21 5.55053 1
gene 1 6 18 5.19698 0 22 5.19698 1
gene 1 7 18 -2.46885 0 23 -2.46885 1
gene 1 8 18 2.05121 0 24 2.05121 1
gene 1 9 18 -2.19663 0 25 -2.19663 1
gene 1 10 18 4.75658 0 26 4.75658 1
gene 1 11 18 6.19979 0 27 6.19979 1
gene 1 12 18 -5.18021 0 28 -5.18021 1
gene 1 13 18 3.68994 0 29 3.68994 1
gene 1 14 18 1.90306 0 30 1.90306 1
gene 1 15 18 -4.77889 0 31 -4.77889 1
gene 1 16 18 -2.73148 0 32 -2.73148 1
gene 1 1 19 4.41661 0 33 4.41661 1
gene 1 2 19 -5.77279 0 34 -5.77279 1
gene 1 3 19 -3.63715 0 35 -3.63715 1
gene 1 4 19 -8 0 36 -8 1
gene 1 5 19 -8 0 37 -8 1
gene 1 6 19 5.93252 0 38 5.93252 1
gene 1 7 19 4.36286 0 39 4.36286 1
gene 1 8 19 -2.87324 0 40 -2.87324 1
gene 1 9 19 0.605932 0 41 0.605932 1
gene 1 10 19 5.79949 0 42 5.79949 1
gene 1 11 19 5.12082 0 43 5.12082 1
gene 1 12 19 -7.35888 0 44 -7.35888 1
gene 1 13 19 -0.789267 0 45 -0.789267 1
gene 1 14 19 6.53406 0 46 6.53406 1
gene 1 15 19 -0.983726 0 47 -0.983726 1
gene 1 16 19 3.82908 0 48 3.82908 1
gene 1 1 20 8 0 49 8 1
gene 1 2 20 8 0 50 8 1
gene 1 3 20 3.53963 0 51 3.53963 1
gene 1 4 20 4.05559 0 52 4.05559 1
gene 1 5 20 -3.18435 0 53 -3.18435 1
gene 1 6 20 4.7114 0 54 4.7114 1
gene 1 7 20 1.70505 0 55 1.70505 1
gene 1 8 20 6.16674 0 56 6.16674 1
gene 1 9 20 6.2067 0 57 6.2067 1
gene 1 10 20 -7.40478 0 58 -7.40478 1
gene 1 11 20 -0.126278 0 59 -0.126278 1
gene 1 12 20 3.41728 0 60 3.41728 1
gene 1 13 20 -0.580932 0 61 -0.580932 1
gene 1 14 20 0.903767 0 62 0.903767 1
gene 1 15 20 4.46241 0 63 4.46241 1
gene 1 16 20 -3.71033 0 64 -3.71033 1
gene 1 19 18 -0.8108 0 65 -0.8108 1
gene 1 6 29 -2.40793 0 84 -2.40793 1
gene 1 29 18 3.48539 0 85 3.48539 1
gene 1 10 31 0.114039 0 89 0.114039 1
gene 1 31 20 4.32409 0 90 4.32409 1
gene 1 3 29 -1.54323 0 95 -1.54323 1
gene 1 12 33 -1.01786 0 96 -1.01786 1
gene 1 33 19 -5.16796 0 97 -5.16796 1
gene 1 19 35 -5.53607 0 106 -5.53607 1
gene 1 35 18 -0.297981 0 107 -0.297981 1
gene 1 6 40 2.87677 0 121 2.87677 1
gene 1 40 29 -0.217244 0 122 -0.217244 1
gene 1 15 33 -1.71053 0 149 -1.71053 1
gene 1 6 51 8 0 167 8 1
gene 1 51 29 -1.59846 0 168 -1.59846 1
gene 1 17 35 -0.0714552 0 188 -0.0714552 1
gene 1 33 61 -4.6992 0 205 -4.6992 1
gene 1 61 19 7.42921 0 206 7.42921 1
gene 1 5 65 -4.41564 0 219 -4.41564 1
gene 1 65 19 0.907346 0 220 0.907346 1
gene 1 1 31 -0.384802 0 224 -0.384802 1
gene 1 13 69 -1.2152 0 232 -1.2152 1
gene 1 69 19 -1.78682 0 233 -1.78682 1
gene 1 7 75 4.86115 0 258 4.86115 1
gene 1 75 20 -2.5736 0 259 -2.5736 1
gene 1 6 61 -3.44852 0 263 -3.44852 1
gene 1 5 78 0.706846 0 270 0.706846 1
gene 1 78 65 0.676915 0 271 0.676915 1
gene 1 14 81 5.46801 0 287 5.46801 0
gene 1 81 17 -6.14956 0 288 -6.14956 1
gene 1 65 82 0.668968 0 291 0.668968 1
gene 1 82 19 -3.31765 0 292 -3.31765 1
gene 1 7 87 2.40157 0 317 2.40157 1
gene 1 87 18 7.17719 0 318 7.17719 1
gene 1 11 82 -5.3066 0 353 -5.3066 1
gene 1 16 105 2.46728 0 390 2.46728 1
gene 1 105 20 -0.861429 0 391 -0.861429 1
gene 1 9 107 -0.912775 0 396 -0.912775 1
gene 1 107 20 -5.99321 0 397 -5.99321 1
gene 1 35 29 -8 0 427 -8 1
gene 1 11 119 -0.868581 0 435 -0.868581 1
gene 1 119 20 1.31499 0 436 1.31499 1
gene 1 6 125 0.982359 0 465 0.982359 1
gene 1 125 18 -0.0901855 0 466 -0.0901855 1
gene 1 69 139 -8 0 530 -8 1
gene 1 139 19 3.38185 0 531 3.38185 1
gene 1 9 142 -4.91475 0 539 -4.91475 1
gene 1 142 107 0.993187 0 540 0.993187 1
gene 1 65 40 3.00136 0 575 3.00136 1
gene 1 15 151 3.01767 0 586 3.01767 1
gene 1 151 19 -1.69153 0 587 -1.69153 1
gene 1 2 125 3.31188 0 589 3.31188 1
gene 1 11 153 -0.37999 0 593 -0.37999 1
gene 1 153 82 0.0283636 0 594 0.0283636 1
gene 1 12 159 0.404914 0 619 0.404914 1
gene 1 159 33 1.43473 0 620 1.43473 1
gene 1 6 75 -0.29161 0 622 -0.29161 1
gene 1 3 61 3.03564 0 651 3.03564 1
gene 1 10 153 -2.25646 0 677 -2.25646 1
gene 1 7 182 -1.5797 0 704 -1.5797 1
gene 1 182 18 -0.676089 0 705 -0.676089 1
gene 1 13 139 1.98719 0 733 1.98719 1
gene 1 10 61 2.35826 0 750 2.35826 0
gene 1 16 196 1.4633 0 771 1.4633 1
gene 1 196 18 -3.30988 0 772 -3.30988 1
gene 1 11 199 0.374492 0 788 0.374492 1
gene 1 199 119 1.28991 0 789 1.28991 1
gene 1 87 17 -3.40061 0 791 -3.40061 1
gene 1 14 203 -0.589875 0 799 -0.589875 1
gene 1 203 81 -0.358504 0 800 -0.358504 1
gene 1 8 206 4.95944 0 808 4.95944 1
gene 1 206 18 2.09927 0 809 2.09927 1
gene 1 11 151 0.3549 0 814 0.3549 1
gene 1 10 209 2.98907 0 820 2.98907 1
gene 1 209 61 -3.02195 0 821 -3.02195 1
gene 1 12 209 3.90575 0 826 3.90575 1
gene 1 12 218 -1.37421 0 848 -1.37421 1
gene 1 218 20 -0.0223399 0 849 -0.0223399 1
genomeend 15

/* Organism #16 Fitness: 1114 Error: 190 */
genomestart 16
trait 1 1 0 0.683034 0.0360923 0.439205 0.274301 0.226564 0 
node 1 1 1 1
node 2 1 1 1
node 3 1 1 1
node 4 1 1 1
node 5 1 1 1
node 6 1 1 1
node 7 1 1 1
node 8 1 1 1
node 9 1 1 1
node 10 1 1 1
node 11 1 1 1
node 12 1 1 1
node 13 1 1 1
node 14 1 1 1
node 15 1 1 1
node 16 1 1 1
node 17 1 0 2
node 18 1 0 2
node 19 1 0 2
node 20 1 0 2
node 29 1 0 0
node 31 1 0 0
node 33 1 0 0
node 35 1 0 0
node 40 1 0 0
node 51 1 0 0
node 61 1 0 0
node 65 1 0 0
node 69 1 0 0
node 75 1 0 0
node 78 1 0 0
node 81 1 0 0
node 82 1 0 0
node 87 1 0 0
node 105 1 0 0
node 107 1 0 0
node 119 1 0 0
node 125 1 0 0
node 139 1 0 0
node 142 1 0 0
node 151 1 0 0
node 153 1 0 0
node 159 1 0 0
node 182 1 0 0
node 196 1 0 0
node 199 1 0 0
node 203 1 0 0
node 206 1 0 0
node 209 1 0 0
node 218 1 0 0
gene 1 1 17 -2.40803 0 1 -2.40803 1
gene 1 2 17 -0.992359 0 2 -0.992359 1
gene 1 3 17 1.74507 0 3 1.74507 1
gene 1 4 17 5.52012 0 4 5.52012 1
gene 1 5 17 -4.79282 0 5 -4.79282 1
gene 1 6 17 0.935918 0 6 0.935918 1
gene 1 7 17 -1.65103 0 7 -1.65103 1
gene 1 8 17 7.55589 0 8 7.55589 1
gene 1 9 17 -1.44299 0 9 -1.44299 1
gene 1 10 17 -8 0 10 -8 1
gene 1 11 17 3.33381 0 11 3.33381 1
gene 1 12 17 -4.25256 0 12 -4.25256 1
gene 1 13 17 -0.665086 0 13 -0.665086 1
gene 1 14 17 1.95899 0 14 1.95899 1
gene 1 15 17 -1.40842 0 15 -1.40842 1
gene 1 16 17 2.48617 0 16 2.48617 1
