
/* Species #21 : (Size 14) (AF 2051.79) (Age 55)  */


/* Organism #0 Fitness: 3226 Error: 561 */
genomestart 0
trait 1 0.529001 0.402786 0.422872 0.211204 0.902788 0.941464 0.987347 1 
node 1 1 1 1
node 2 1 1 1
node 3 1 1 1
node 4 1 1 1
node 5 1 1 1
node 6 1 1 1
node 7 1 1 1
node 8 1 1 1
node 9 1 1 1
node 10 1 1 1
node 11 1 1 1
node 12 1 1 1
node 13 1 1 1
node 14 1 1 1
node 15 1 1 1
node 16 1 1 1
node 17 1 0 2
node 18 1 0 2
node 19 1 0 2
node 20 1 0 2
node 22 1 0 0
node 49 1 0 0
node 58 1 0 0
node 66 1 0 0
node 85 1 0 0
node 90 1 0 0
node 94 1 0 0
node 98 1 0 0
node 105 1 0 0
gene 1 1 17 3.06441 0 1 3.06441 1
gene 1 2 17 6.13192 0 2 6.13192 1
gene 1 3 17 -0.574661 0 3 -0.574661 1
gene 1 4 17 -3.90325 0 4 -3.90325 1
gene 1 5 17 2.53242 0 5 2.53242 1
gene 1 6 17 2.20277 0 6 2.20277 1
gene 1 7 17 2.73654 0 7 2.73654 1
gene 1 8 17 -8 0 8 -8 1
gene 1 9 17 1.0661 0 9 1.0661 1
gene 1 10 17 3.41772 0 10 3.41772 1
gene 1 11 17 0.622616 0 11 0.622616 1
gene 1 12 17 0.582733 0 12 0.582733 1
gene 1 13 17 1.72941 0 13 1.72941 1
gene 1 14 17 1.85833 0 14 1.85833 1
gene 1 15 17 3.59033 0 15 3.59033 1
gene 1 16 17 -1.34419 0 16 -1.34419 1
gene 1 1 18 -2.17729 0 17 -2.17729 1
gene 1 2 18 -1.53416 0 18 -1.53416 1
gene 1 3 18 -3.56445 0 19 -3.56445 1
gene 1 4 18 -0.455449 0 20 -0.455449 1
gene 1 5 18 -2.375 0 21 -2.375 1
gene 1 6 18 -0.372468 0 22 -0.372468 1
gene 1 7 18 2.03582 0 23 2.03582 1
gene 1 8 18 -6.46711 0 24 -6.46711 1
gene 1 9 18 0.459861 0 25 0.459861 1
gene 1 10 18 2.41076 0 26 2.41076 1
gene 1 11 18 -7.14701 0 27 -7.14701 1
gene 1 12 18 0.514399 0 28 0.514399 1
gene 1 13 18 -6.09981 0 29 -6.09981 1
gene 1 14 18 3.36916 0 30 3.36916 1
gene 1 15 18 3.52615 0 31 3.52615 1
gene 1 16 18 7.15761 0 32 7.15761 1
gene 1 1 19 -0.454315 0 33 -0.454315 0
gene 1 2 19 3.78454 0 34 3.78454 1
gene 1 3 19 4.62888 0 35 4.62888 1
gene 1 4 19 2.63566 0 36 2.63566 1
gene 1 5 19 -5.92038 0 37 -5.92038 1
gene 1 6 19 -0.142211 0 38 -0.142211 1
gene 1 7 19 5.01876 0 39 5.01876 1
gene 1 8 19 8 0 40 8 1
gene 1 9 19 0.265453 0 41 0.265453 1
gene 1 10 19 -1.3114 0 42 -1.3114 1
gene 1 11 19 -3.00733 0 43 -3.00733 1
gene 1 12 19 2.57546 0 44 2.57546 1
gene 1 13 19 -1.45795 0 45 -1.45795 1
gene 1 14 19 1.76854 0 46 1.76854 1
gene 1 15 19 5.68769 0 47 5.68769 1
gene 1 16 19 -5.44269 0 48 -5.44269 1
gene 1 1 20 -0.163748 0 49 -0.163748 1
gene 1 2 20 7.39044 0 50 7.39044 1
gene 1 3 20 8 0 51 8 1
gene 1 4 20 -3.24908 0 52 -3.24908 1
gene 1 5 20 5.26497 0 53 5.26497 1
gene 1 6 20 2.95777 0 54 2.95777 1
gene 1 7 20 1.13729 0 55 1.13729 1
gene 1 8 20 2.96093 0 56 2.96093 1
gene 1 9 20 -1.52909 0 57 -1.52909 1
gene 1 10 20 5.3345 0 58 5.3345 1
gene 1 11 20 2.86838 0 59 2.86838 1
gene 1 12 20 2.59397 0 60 2.59397 1
gene 1 13 20 6.60667 0 61 6.60667 1
gene 1 14 20 4.72937 0 62 4.72937 1
gene 1 15 20 0.484173 0 63 0.484173 1
gene 1 16 20 3.83366 0 64 3.83366 1
gene 1 3 22 0.750398 0 69 0.750398 0
gene 1 22 20 5.60203 0 70 5.60203 1
gene 1 17 19 1.58588 0 130 1.58588 1
gene 1 13 49 0.915308 0 149 0.915308 1
gene 1 49 18 2.12099 0 150 2.12099 1
gene 1 20 18 3.21926 0 162 3.21926 1
gene 1 20 58 3.74064 0 177 3.74064 1
gene 1 58 18 0.218755 0 178 0.218755 1
gene 1 2 58 -5.88017 0 182 -5.88017 1
gene 1 2 66 -0.302704 0 202 -0.302704 1
gene 1 66 19 0.220006 0 203 0.220006 1
gene 1 17 58 1.52029 0 224 1.52029 1
gene 1 17 20 1.98495 0 228 1.98495 1
gene 1 15 22 1.27219 0 267 1.27219 1
gene 1 6 58 0.33801 0 269 0.33801 1
gene 1 49 17 -1.82121 0 283 -1.82121 1
gene 1 9 85 2.91845 0 288 2.91845 1
gene 1 85 19 3.60913 0 289 3.60913 1
gene 1 9 90 -2.0169 0 314 -2.0169 1
gene 1 90 20 -6.17882 0 315 -6.17882 1
gene 1 13 94 -0.561188 0 326 -0.561188 1
gene 1 94 17 6.5223 0 327 6.5223 1
gene 1 11 22 1.25772 0 347 1.25772 1
gene 1 1 98 0.0547353 0 351 0.0547353 1
gene 1 98 19 4.12598 0 352 4.12598 1
gene 1 3 105 0.808985 0 378 0.808985 1
gene 1 105 22 -5.0308 0 379 -5.0308 1
gene 1 5 49 -2.10963 0 427 -2.10963 1
genomeend 0

/* Organism #1 Fitness: 3885 Error: 570 */
genomestart 1
trait 1 0.529001 0.402786 0.422872 0.211204 0.902788 0.941464 0.987347 1 
node 1 1 1 1
node 2 1 1 1
node 3 1 1 1
node 4 1 1 1
node 5 1 1 1
node 6 1 1 1
node 7 1 1 1
node 8 1 1 1
node 9 1 1 1
node 10 1 1 1
node 11 1 1 1
node 12 1 1 1
node 13 1 1 1
node 14 1 1 1
node 15 1 1 1
node 16 1 1 1
node 17 1 0 2
node 18 1 0 2
node 19 1 0 2
node 20 1 0 2
node 22 1 0 0
node 49 1 0 0
node 58 1 0 0
node 66 1 0 0
node 85 1 0 0
node 90 1 0 0
node 94 1 0 0
node 98 1 0 0
node 105 1 0 0
node 118 1 0 0
gene 1 1 17 -0.344099 0 1 -0.344099 1
gene 1 2 17 7.30577 0 2 7.30577 1
gene 1 3 17 0.0912012 0 3 0.0912012 1
gene 1 4 17 -2.83877 0 4 -2.83877 1
gene 1 5 17 -1.37002 0 5 -1.37002 1
gene 1 6 17 3.04991 0 6 3.04991 1
gene 1 7 17 2.15269 0 7 2.15269 1
gene 1 8 17 -6.51928 0 8 -6.51928 1
gene 1 9 17 1.80674 0 9 1.80674 1
gene 1 10 17 4.51803 0 10 4.51803 1
gene 1 11 17 -0.432188 0 11 -0.432188 1
gene 1 12 17 -0.125242 0 12 -0.125242 1
gene 1 13 17 3.11944 0 13 3.11944 1
gene 1 14 17 2.98673 0 14 2.98673 1
gene 1 15 17 4.92564 0 15 4.92564 1
gene 1 16 17 -3.50555 0 16 -3.50555 1
gene 1 1 18 -2.38271 0 17 -2.38271 1
gene 1 2 18 0.0302712 0 18 0.0302712 1
gene 1 3 18 -2.25049 0 19 -2.25049 1
gene 1 4 18 -2.76651 0 20 -2.76651 1
gene 1 5 18 -2.35052 0 21 -2.35052 1
gene 1 6 18 0.446413 0 22 0.446413 1
gene 1 7 18 0.682985 0 23 0.682985 1
gene 1 8 18 -8 0 24 -8 1
gene 1 9 18 1.34621 0 25 1.34621 1
gene 1 10 18 1.81037 0 26 1.81037 1
gene 1 11 18 -5.41286 0 27 -5.41286 1
gene 1 12 18 -0.0886171 0 28 -0.0886171 1
gene 1 13 18 -4.07628 0 29 -4.07628 1
gene 1 14 18 0.27825 0 30 0.27825 1
gene 1 15 18 5.44251 0 31 5.44251 1
gene 1 16 18 8 0 32 8 1
gene 1 1 19 2.28313 0 33 2.28313 0
gene 1 2 19 3.18859 0 34 3.18859 1
gene 1 3 19 5.23396 0 35 5.23396 1
gene 1 4 19 1.26794 0 36 1.26794 1
gene 1 5 19 -7.80078 0 37 -7.80078 1
gene 1 6 19 -2.61347 0 38 -2.61347 1
gene 1 7 19 4.95653 0 39 4.95653 1
gene 1 8 19 8 0 40 8 1
gene 1 9 19 -1.36047 0 41 -1.36047 1
gene 1 10 19 1.56408 0 42 1.56408 1
gene 1 11 19 -1.74582 0 43 -1.74582 1
gene 1 12 19 2.42407 0 44 2.42407 1
gene 1 13 19 -2.6073 0 45 -2.6073 1
gene 1 14 19 -2.03098 0 46 -2.03098 1
gene 1 15 19 8 0 47 8 1
gene 1 16 19 -4.04234 0 48 -4.04234 1
gene 1 1 20 -1.1265 0 49 -1.1265 1
gene 1 2 20 3.0828 0 50 3.0828 1
gene 1 3 20 6.91055 0 51 6.91055 1
gene 1 4 20 -4.77318 0 52 -4.77318 1
gene 1 5 20 3.3526 0 53 3.3526 1
gene 1 6 20 1.37603 0 54 1.37603 1
gene 1 7 20 -2.39925 0 55 -2.39925 1
gene 1 8 20 6.46693 0 56 6.46693 1
gene 1 9 20 -2.7156 0 57 -2.7156 1
gene 1 10 20 4.95248 0 58 4.95248 1
gene 1 11 20 2.16237 0 59 2.16237 1
gene 1 12 20 2.01715 0 60 2.01715 1
gene 1 13 20 8 0 61 8 1
gene 1 14 20 6.71487 0 62 6.71487 1
gene 1 15 20 1.12916 0 63 1.12916 1
gene 1 16 20 5.50139 0 64 5.50139 1
gene 1 3 22 0.618817 0 69 0.618817 0
gene 1 22 20 1.07369 0 70 1.07369 1
gene 1 17 19 2.59834 0 130 2.59834 1
gene 1 13 49 1.86358 0 149 1.86358 1
gene 1 49 18 1.54208 0 150 1.54208 1
gene 1 20 18 1.90707 0 162 1.90707 1
gene 1 20 58 3.67586 0 177 3.67586 0
gene 1 58 18 3.67376 0 178 3.67376 1
gene 1 2 58 -3.59193 0 182 -3.59193 1
gene 1 2 66 -0.424371 0 202 -0.424371 1
gene 1 66 19 -1.23965 0 203 -1.23965 1
gene 1 17 58 3.45497 0 224 3.45497 1
gene 1 17 20 3.77856 0 228 3.77856 1
gene 1 15 22 1.80794 0 267 1.80794 1
gene 1 6 58 -1.19414 0 269 -1.19414 1
gene 1 49 17 0.684336 0 283 0.684336 1
gene 1 9 85 2.35186 0 288 2.35186 1
gene 1 85 19 -2.27661 0 289 -2.27661 1
gene 1 9 90 2.31522 0 314 2.31522 1
gene 1 90 20 1.02257 0 315 1.02257 1
gene 1 13 94 0.0875081 0 326 0.0875081 1
gene 1 94 17 3.25596 0 327 3.25596 1
gene 1 11 22 -0.266097 0 347 -0.266097 1
gene 1 1 98 1.29874 0 351 1.29874 1
gene 1 98 19 -1.10884 0 352 -1.10884 1
gene 1 3 105 1.66368 0 378 1.66368 1
gene 1 105 22 -1.38185 0 379 -1.38185 1
gene 1 5 49 1.12611 0 427 1.12611 1
gene 1 20 118 1 0 439 0 1
gene 1 118 58 3.67586 0 440 0 1
genomeend 1

/* Organism #2 Fitness: 320 Error: 169 */
genomestart 2
trait 1 0.529001 0.402786 0.422872 0.211204 0.902788 0.941464 0.987347 1 
node 1 1 1 1
node 2 1 1 1
node 3 1 1 1
node 4 1 1 1
node 5 1 1 1
node 6 1 1 1
node 7 1 1 1
node 8 1 1 1
node 9 1 1 1
node 10 1 1 1
node 11 1 1 1
node 12 1 1 1
node 13 1 1 1
node 14 1 1 1
node 15 1 1 1
node 16 1 1 1
node 17 1 0 2
node 18 1 0 2
node 19 1 0 2
node 20 1 0 2
node 22 1 0 0
node 49 1 0 0
node 58 1 0 0
node 66 1 0 0
node 85 1 0 0
node 90 1 0 0
node 94 1 0 0
node 98 1 0 0
node 105 1 0 0
gene 1 1 17 0.655199 0 1 0.655199 1
gene 1 2 17 8 0 2 8 1
gene 1 3 17 -0.457347 0 3 -0.457347 1
gene 1 4 17 0.136321 0 4 0.136321 1
gene 1 5 17 -2.69613 0 5 -2.69613 1
gene 1 6 17 2.29691 0 6 2.29691 1
gene 1 7 17 3.05639 0 7 3.05639 1
gene 1 8 17 1.69308 0 8 1.69308 1
gene 1 9 17 2.01817 0 9 2.01817 1
gene 1 10 17 0.652237 0 10 0.652237 1
gene 1 11 17 2.93039 0 11 2.93039 1
gene 1 12 17 0.818591 0 12 0.818591 1
gene 1 13 17 -0.145389 0 13 -0.145389 1
gene 1 14 17 7.54922 0 14 7.54922 1
gene 1 15 17 -2.33442 0 15 -2.33442 1
gene 1 16 17 1.33202 0 16 1.33202 1
gene 1 1 18 -1.69729 0 17 -1.69729 1
gene 1 2 18 2.08647 0 18 2.08647 1
gene 1 3 18 1.41504 0 19 1.41504 1
gene 1 4 18 -0.0292077 0 20 -0.0292077 1
gene 1 5 18 2.12444 0 21 2.12444 1
gene 1 6 18 0.266621 0 22 0.266621 1
gene 1 7 18 5.07009 0 23 5.07009 1
gene 1 8 18 -1.17136 0 24 -1.17136 1
gene 1 9 18 3.85717 0 25 3.85717 1
gene 1 10 18 -2.52598 0 26 -2.52598 1
gene 1 11 18 -3.16406 0 27 -3.16406 1
gene 1 12 18 -0.391184 0 28 -0.391184 1
gene 1 13 18 -1.94156 0 29 -1.94156 1
gene 1 14 18 1.89854 0 30 1.89854 1
gene 1 15 18 0.515233 0 31 0.515233 1
gene 1 16 18 8 0 32 8 1
gene 1 1 19 2.86934 0 33 2.86934 0
gene 1 2 19 1.2948 0 34 1.2948 1
gene 1 3 19 -0.984275 0 35 -0.984275 1
gene 1 4 19 2.22969 0 36 2.22969 1
gene 1 5 19 -8 0 37 -8 1
gene 1 6 19 -0.238792 0 38 -0.238792 1
gene 1 7 19 5.41619 0 39 5.41619 1
gene 1 8 19 8 0 40 8 1
gene 1 9 19 1.93601 0 41 1.93601 1
gene 1 10 19 0.808562 0 42 0.808562 1
gene 1 11 19 -3.47567 0 43 -3.47567 1
gene 1 12 19 0.214487 0 44 0.214487 1
gene 1 13 19 -2.36794 0 45 -2.36794 1
gene 1 14 19 0.13399 0 46 0.13399 1
gene 1 15 19 7.30158 0 47 7.30158 1
gene 1 16 19 1.56224 0 48 1.56224 1
gene 1 1 20 -3.54934 0 49 -3.54934 1
gene 1 2 20 3.8965 0 50 3.8965 1
gene 1 3 20 6.90035 0 51 6.90035 1
gene 1 4 20 -0.637258 0 52 -0.637258 1
gene 1 5 20 6.38364 0 53 6.38364 1
gene 1 6 20 3.2141 0 54 3.2141 1
gene 1 7 20 1.2489 0 55 1.2489 1
gene 1 8 20 5.57511 0 56 5.57511 1
gene 1 9 20 -3.96836 0 57 -3.96836 1
gene 1 10 20 2.25896 0 58 2.25896 1
gene 1 11 20 1.9239 0 59 1.9239 1
gene 1 12 20 -0.356988 0 60 -0.356988 1
gene 1 13 20 -3.07217 0 61 -3.07217 1
gene 1 14 20 6.44712 0 62 6.44712 1
gene 1 15 20 1.02629 0 63 1.02629 1
gene 1 16 20 -1.31649 0 64 -1.31649 1
gene 1 3 22 2.63347 0 69 2.63347 0
gene 1 22 20 2.05294 0 70 2.05294 1
gene 1 17 19 3.96616 0 130 3.96616 1
gene 1 13 49 3.3863 0 149 3.3863 1
gene 1 49 18 -2.37537 0 150 -2.37537 1
gene 1 20 18 1.20477 0 162 1.20477 1
gene 1 20 58 3.54887 0 177 3.54887 1
gene 1 58 18 1.77569 0 178 1.77569 1
gene 1 2 58 -7.95151 0 182 -7.95151 1
gene 1 2 66 0.761716 0 202 0.761716 1
gene 1 66 19 0.705026 0 203 0.705026 1
gene 1 17 58 -1.34674 0 224 -1.34674 1
gene 1 17 20 6.82531 0 228 6.82531 1
gene 1 15 22 1.89554 0 267 1.89554 1
gene 1 6 58 -0.916094 0 269 -0.916094 1
gene 1 49 17 -1.32378 0 283 -1.32378 1
gene 1 9 85 -2.09934 0 288 -2.09934 1
gene 1 85 19 3.27605 0 289 3.27605 1
gene 1 9 90 2.8147 0 314 2.8147 1
gene 1 90 20 -4.76353 0 315 -4.76353 1
gene 1 13 94 0.939599 0 326 0.939599 1
gene 1 94 17 3.57495 0 327 3.57495 1
gene 1 11 22 1.20901 0 347 1.20901 1
gene 1 1 98 4.64804 0 351 4.64804 1
gene 1 98 19 1.41558 0 352 1.41558 1
gene 1 3 105 0.497315 0 378 0.497315 1
gene 1 105 22 2.39439 0 379 2.39439 1
gene 1 5 49 1.16278 0 427 1.16278 1
genomeend 2

/* Organism #3 Fitness: 1116 Error: 225 */
genomestart 3
trait 1 0.529001 0.402786 0.422872 0.211204 0.902788 0.941464 0.987347 1 
node 1 1 1 1
node 2 1 1 1
node 3 1 1 1
node 4 1 1 1
node 5 1 1 1
node 6 1 1 1
node 7 1 1 1
node 8 1 1 1
node 9 1 1 1
node 10 1 1 1
node 11 1 1 1
node 12 1 1 1
node 13 1 1 1
node 14 1 1 1
node 15 1 1 1
node 16 1 1 1
node 17 1 0 2
node 18 1 0 2
node 19 1 0 2
node 20 1 0 2
node 22 1 0 0
node 49 1 0 0
node 58 1 0 0
node 66 1 0 0
node 85 1 0 0
node 90 1 0 0
node 94 1 0 0
node 98 1 0 0
node 105 1 0 0
gene 1 1 17 -0.344099 0 1 -0.344099 1
gene 1 2 17 7.30577 0 2 7.30577 1
gene 1 3 17 0.0912012 0 3 0.0912012 1
gene 1 4 17 -2.83877 0 4 -2.83877 1
gene 1 5 17 -1.37002 0 5 -1.37002 1
gene 1 6 17 3.04991 0 6 3.04991 1
gene 1 7 17 2.15269 0 7 2.15269 1
gene 1 8 17 -6.51928 0 8 -6.51928 1
gene 1 9 17 1.80674 0 9 1.80674 1
gene 1 10 17 4.51803 0 10 4.51803 1
gene 1 11 17 -0.432188 0 11 -0.432188 1
gene 1 12 17 -0.125242 0 12 -0.125242 1
gene 1 13 17 3.11944 0 13 3.11944 1
gene 1 14 17 2.98673 0 14 2.98673 1
gene 1 15 17 4.92564 0 15 4.92564 1
gene 1 16 17 -3.50555 0 16 -3.50555 1
gene 1 1 18 -2.38271 0 17 -2.38271 1
gene 1 2 18 0.0302712 0 18 0.0302712 1
gene 1 3 18 -2.25049 0 19 -2.25049 1
gene 1 4 18 -2.76651 0 20 -2.76651 1
gene 1 5 18 -2.35052 0 21 -2.35052 1
gene 1 6 18 0.446413 0 22 0.446413 1
gene 1 7 18 0.682985 0 23 0.682985 1
gene 1 8 18 -8 0 24 -8 1
gene 1 9 18 1.34621 0 25 1.34621 1
gene 1 10 18 1.81037 0 26 1.81037 1
gene 1 11 18 -5.41286 0 27 -5.41286 1
gene 1 12 18 -0.0886171 0 28 -0.0886171 1
gene 1 13 18 -4.07628 0 29 -4.07628 1
gene 1 14 18 0.27825 0 30 0.27825 1
gene 1 15 18 5.44251 0 31 5.44251 1
gene 1 16 18 8 0 32 8 1
gene 1 1 19 2.28313 0 33 2.28313 0
gene 1 2 19 3.18859 0 34 3.18859 1
gene 1 3 19 5.23396 0 35 5.23396 1
gene 1 4 19 1.26794 0 36 1.26794 1
gene 1 5 19 -7.80078 0 37 -7.80078 1
gene 1 6 19 -2.61347 0 38 -2.61347 1
gene 1 7 19 4.95653 0 39 4.95653 1
gene 1 8 19 8 0 40 8 1
gene 1 9 19 -1.36047 0 41 -1.36047 1
gene 1 10 19 1.56408 0 42 1.56408 1
gene 1 11 19 -1.74582 0 43 -1.74582 1
gene 1 12 19 2.42407 0 44 2.42407 1
gene 1 13 19 -2.6073 0 45 -2.6073 1
gene 1 14 19 -2.03098 0 46 -2.03098 1
gene 1 15 19 8 0 47 8 1
gene 1 16 19 -4.04234 0 48 -4.04234 1
gene 1 1 20 -1.1265 0 49 -1.1265 1
gene 1 2 20 3.0828 0 50 3.0828 1
gene 1 3 20 6.91055 0 51 6.91055 1
gene 1 4 20 -4.77318 0 52 -4.77318 1
gene 1 5 20 3.3526 0 53 3.3526 1
gene 1 6 20 1.37603 0 54 1.37603 1
gene 1 7 20 -2.39925 0 55 -2.39925 1
gene 1 8 20 6.46693 0 56 6.46693 1
gene 1 9 20 -2.7156 0 57 -2.7156 1
gene 1 10 20 4.95248 0 58 4.95248 1
gene 1 11 20 2.16237 0 59 2.16237 1
gene 1 12 20 2.01715 0 60 2.01715 1
gene 1 13 20 8 0 61 8 1
gene 1 14 20 6.71487 0 62 6.71487 1
gene 1 15 20 1.12916 0 63 1.12916 1
gene 1 16 20 5.50139 0 64 5.50139 1
gene 1 3 22 0.618817 0 69 0.618817 0
gene 1 22 20 1.07369 0 70 1.07369 1
gene 1 17 19 2.59834 0 130 2.59834 1
gene 1 13 49 1.86358 0 149 1.86358 1
gene 1 49 18 1.54208 0 150 1.54208 1
gene 1 20 18 1.90707 0 162 1.90707 1
gene 1 20 58 3.67586 0 177 3.67586 1
gene 1 58 18 3.67376 0 178 3.67376 1
gene 1 2 58 -3.59193 0 182 -3.59193 1
gene 1 2 66 -0.424371 0 202 -0.424371 1
gene 1 66 19 -1.23965 0 203 -1.23965 1
gene 1 17 58 3.45497 0 224 3.45497 1
gene 1 17 20 3.77856 0 228 3.77856 1
gene 1 15 22 1.80794 0 267 1.80794 1
gene 1 6 58 -1.19414 0 269 -1.19414 1
gene 1 49 17 0.684336 0 283 0.684336 1
gene 1 9 85 2.35186 0 288 2.35186 1
gene 1 85 19 -2.27661 0 289 -2.27661 1
gene 1 9 90 2.31522 0 314 2.31522 1
gene 1 90 20 1.02257 0 315 1.02257 1
gene 1 13 94 0.0875081 0 326 0.0875081 1
gene 1 94 17 3.25596 0 327 3.25596 1
gene 1 11 22 -0.266097 0 347 -0.266097 1
gene 1 1 98 1.29874 0 351 1.29874 1
gene 1 98 19 -1.10884 0 352 -1.10884 1
gene 1 3 105 1.66368 0 378 1.66368 1
gene 1 105 22 -1.38185 0 379 -1.38185 1
gene 1 5 49 1.12611 0 427 1.12611 1
genomeend 3

/* Organism #4 Fitness: 2153 Error: 330 */
genomestart 4
trait 1 0.529001 0.402786 0.422872 0.211204 0.902788 0.941464 0.987347 1 
node 1 1 1 1
node 2 1 1 1
node 3 1 1 1
node 4 1 1 1
node 5 1 1 1
node 6 1 1 1
node 7 1 1 1
node 8 1 1 1
node 9 1 1 1
node 10 1 1 1
node 11 1 1 1
node 12 1 1 1
node 13 1 1 1
node 14 1 1 1
node 15 1 1 1
node 16 1 1 1
node 17 1 0 2
node 18 1 0 2
node 19 1 0 2
node 20 1 0 2
node 22 1 0 0
node 49 1 0 0
node 58 1 0 0
node 66 1 0 0
node 85 1 0 0
node 90 1 0 0
node 94 1 0 0
node 98 1 0 0
node 105 1 0 0
gene 1 1 17 -0.686752 0 1 -0.686752 1
gene 1 2 17 6.02035 0 2 6.02035 1
gene 1 3 17 -0.0521131 0 3 -0.0521131 1
gene 1 4 17 -1.57701 0 4 -1.57701 1
gene 1 5 17 0.0912486 0 5 0.0912486 1
gene 1 6 17 0.466708 0 6 0.466708 1
gene 1 7 17 1.83803 0 7 1.83803 1
gene 1 8 17 -4.88054 0 8 -4.88054 1
gene 1 9 17 -0.713032 0 9 -0.713032 1
gene 1 10 17 2.55578 0 10 2.55578 1
gene 1 11 17 -0.351607 0 11 -0.351607 1
gene 1 12 17 -0.687392 0 12 -0.687392 1
gene 1 13 17 3.98012 0 13 3.98012 1
gene 1 14 17 1.63291 0 14 1.63291 1
gene 1 15 17 2.98515 0 15 2.98515 1
gene 1 16 17 -2.61021 0 16 -2.61021 1
gene 1 1 18 -4.24588 0 17 -4.24588 1
gene 1 2 18 -0.407402 0 18 -0.407402 1
gene 1 3 18 -2.40326 0 19 -2.40326 1
gene 1 4 18 0.509005 0 20 0.509005 1
gene 1 5 18 -1.63691 0 21 -1.63691 1
gene 1 6 18 -1.08249 0 22 -1.08249 1
gene 1 7 18 1.78223 0 23 1.78223 1
gene 1 8 18 -5.7941 0 24 -5.7941 1
gene 1 9 18 1.89469 0 25 1.89469 1
gene 1 10 18 -0.38455 0 26 -0.38455 1
gene 1 11 18 -5.17913 0 27 -5.17913 1
gene 1 12 18 2.24012 0 28 2.24012 1
gene 1 13 18 -3.41788 0 29 -3.41788 1
gene 1 14 18 1.1083 0 30 1.1083 1
gene 1 15 18 4.35938 0 31 4.35938 1
gene 1 16 18 7.92716 0 32 7.92716 1
gene 1 1 19 1.22942 0 33 1.22942 1
gene 1 2 19 2.47045 0 34 2.47045 1
gene 1 3 19 2.46794 0 35 2.46794 1
gene 1 4 19 -0.523455 0 36 -0.523455 1
gene 1 5 19 -8 0 37 -8 1
gene 1 6 19 -2.57037 0 38 -2.57037 1
gene 1 7 19 5.83078 0 39 5.83078 1
gene 1 8 19 5.68897 0 40 5.68897 1
gene 1 9 19 1.55723 0 41 1.55723 1
gene 1 10 19 0.137778 0 42 0.137778 1
gene 1 11 19 -3.85134 0 43 -3.85134 1
gene 1 12 19 2.80942 0 44 2.80942 1
gene 1 13 19 -1.31091 0 45 -1.31091 1
gene 1 14 19 -2.27867 0 46 -2.27867 1
gene 1 15 19 6.77848 0 47 6.77848 1
gene 1 16 19 -6.20779 0 48 -6.20779 1
gene 1 1 20 1.27615 0 49 1.27615 1
gene 1 2 20 3.55238 0 50 3.55238 1
gene 1 3 20 7.45938 0 51 7.45938 1
gene 1 4 20 -3.42847 0 52 -3.42847 1
gene 1 5 20 4.54373 0 53 4.54373 1
gene 1 6 20 1.00977 0 54 1.00977 1
gene 1 7 20 -0.567008 0 55 -0.567008 1
gene 1 8 20 3.44529 0 56 3.44529 1
gene 1 9 20 -0.582396 0 57 -0.582396 1
gene 1 10 20 6.36225 0 58 6.36225 1
gene 1 11 20 3.4189 0 59 3.4189 1
gene 1 12 20 3.50222 0 60 3.50222 1
gene 1 13 20 8 0 61 8 1
gene 1 14 20 3.2626 0 62 3.2626 1
gene 1 15 20 -0.43537 0 63 -0.43537 1
gene 1 16 20 6.64254 0 64 6.64254 1
gene 1 3 22 -0.25753 0 69 -0.25753 0
gene 1 22 20 3.69135 0 70 3.69135 1
gene 1 17 19 3.70665 0 130 3.70665 1
gene 1 13 49 0.28734 0 149 0.28734 1
gene 1 49 18 0.288618 0 150 0.288618 1
gene 1 20 18 4.80691 0 162 4.80691 1
gene 1 20 58 3.51023 0 177 3.51023 1
gene 1 58 18 4.17693 0 178 4.17693 1
gene 1 2 58 -4.71577 0 182 -4.71577 1
gene 1 2 66 0.185967 0 202 0.185967 1
gene 1 66 19 -2.16404 0 203 -2.16404 1
gene 1 17 58 4.96287 0 224 4.96287 1
gene 1 17 20 2.88175 0 228 2.88175 1
gene 1 15 22 1.54006 0 267 1.54006 1
gene 1 6 58 1.5905 0 269 1.5905 1
gene 1 49 17 -0.0640933 0 283 -0.0640933 1
gene 1 9 85 1.13435 0 288 1.13435 1
gene 1 85 19 0.666259 0 289 0.666259 1
gene 1 9 90 0.149161 0 314 0.149161 1
gene 1 90 20 -2.57813 0 315 -2.57813 1
gene 1 13 94 -0.23684 0 326 -0.23684 1
gene 1 94 17 4.88913 0 327 4.88913 1
gene 1 11 22 2.50021 0 347 2.50021 1
gene 1 1 98 -0.278293 0 351 -0.278293 1
gene 1 98 19 0.100462 0 352 0.100462 1
gene 1 3 105 0.349222 0 378 0.349222 1
gene 1 105 22 -0.944777 0 379 -0.944777 1
gene 1 5 49 0.24136 0 427 0.24136 1
genomeend 4

/* Organism #5 Fitness: 752 Error: 235 */
genomestart 5
trait 1 0.529001 0.402786 0.422872 0.211204 0.902788 0.941464 0.987347 1 
node 1 1 1 1
node 2 1 1 1
node 3 1 1 1
node 4 1 1 1
node 5 1 1 1
node 6 1 1 1
node 7 1 1 1
node 8 1 1 1
node 9 1 1 1
node 10 1 1 1
node 11 1 1 1
node 12 1 1 1
node 13 1 1 1
node 14 1 1 1
node 15 1 1 1
node 16 1 1 1
node 17 1 0 2
node 18 1 0 2
node 19 1 0 2
node 20 1 0 2
node 22 1 0 0
node 49 1 0 0
node 58 1 0 0
node 66 1 0 0
node 85 1 0 0
node 90 1 0 0
node 94 1 0 0
node 98 1 0 0
node 105 1 0 0
gene 1 1 17 4.25159 0 1 4.25159 1
gene 1 2 17 -1.21702 0 2 -1.21702 1
gene 1 3 17 0.98311 0 3 0.98311 1
gene 1 4 17 -0.690933 0 4 -0.690933 1
gene 1 5 17 -2.49645 0 5 -2.49645 1
gene 1 6 17 1.68365 0 6 1.68365 1
gene 1 7 17 5.48447 0 7 5.48447 1
gene 1 8 17 2.17658 0 8 2.17658 1
gene 1 9 17 -1.5067 0 9 -1.5067 1
gene 1 10 17 2.00895 0 10 2.00895 1
gene 1 11 17 3.19683 0 11 3.19683 1
gene 1 12 17 -1.15682 0 12 -1.15682 1
gene 1 13 17 -1.1004 0 13 -1.1004 1
gene 1 14 17 8 0 14 8 1
gene 1 15 17 -2.26577 0 15 -2.26577 1
gene 1 16 17 -1.31486 0 16 -1.31486 1
gene 1 1 18 -0.400027 0 17 -0.400027 1
gene 1 2 18 -1.11781 0 18 -1.11781 1
gene 1 3 18 0.656686 0 19 0.656686 1
gene 1 4 18 -1.91046 0 20 -1.91046 1
gene 1 5 18 1.19803 0 21 1.19803 1
gene 1 6 18 1.32732 0 22 1.32732 1
gene 1 7 18 2.14939 0 23 2.14939 1
gene 1 8 18 1.91729 0 24 1.91729 1
gene 1 9 18 -1.3522 0 25 -1.3522 1
gene 1 10 18 -1.87169 0 26 -1.87169 1
gene 1 11 18 -2.45641 0 27 -2.45641 1
gene 1 12 18 2.47504 0 28 2.47504 1
gene 1 13 18 -4.15228 0 29 -4.15228 1
gene 1 14 18 2.88438 0 30 2.88438 1
gene 1 15 18 0.179941 0 31 0.179941 1
gene 1 16 18 8 0 32 8 1
gene 1 1 19 1.43704 0 33 1.43704 0
gene 1 2 19 -0.106607 0 34 -0.106607 1
gene 1 3 19 -0.026101 0 35 -0.026101 1
gene 1 4 19 0.328745 0 36 0.328745 1
gene 1 5 19 -4.69404 0 37 -4.69404 1
gene 1 6 19 -0.461724 0 38 -0.461724 1
gene 1 7 19 0.416255 0 39 0.416255 1
gene 1 8 19 6.50395 0 40 6.50395 1
gene 1 9 19 0.69305 0 41 0.69305 1
gene 1 10 19 -2.26892 0 42 -2.26892 1
gene 1 11 19 -0.31502 0 43 -0.31502 1
gene 1 12 19 -1.73213 0 44 -1.73213 1
gene 1 13 19 -2.38261 0 45 -2.38261 1
gene 1 14 19 -0.338665 0 46 -0.338665 1
gene 1 15 19 7.56545 0 47 7.56545 1
gene 1 16 19 2.03221 0 48 2.03221 1
gene 1 1 20 0.36376 0 49 0.36376 1
gene 1 2 20 2.58578 0 50 2.58578 1
gene 1 3 20 -0.429506 0 51 -0.429506 1
gene 1 4 20 0.453236 0 52 0.453236 1
gene 1 5 20 -1.40048 0 53 -1.40048 1
gene 1 6 20 -0.452031 0 54 -0.452031 1
gene 1 7 20 1.83499 0 55 1.83499 1
gene 1 8 20 4.98325 0 56 4.98325 1
gene 1 9 20 -0.92901 0 57 -0.92901 1
gene 1 10 20 -0.712426 0 58 -0.712426 1
gene 1 11 20 1.50465 0 59 1.50465 1
gene 1 12 20 0.872965 0 60 0.872965 1
gene 1 13 20 0.844663 0 61 0.844663 1
gene 1 14 20 6.70393 0 62 6.70393 1
gene 1 15 20 1.38595 0 63 1.38595 1
gene 1 16 20 -4.56979 0 64 -4.56979 1
gene 1 3 22 -0.0186149 0 69 -0.0186149 0
gene 1 22 20 3.49249 0 70 3.49249 1
gene 1 17 19 4.11347 0 130 4.11347 1
gene 1 13 49 -1.95374 0 149 -1.95374 1
gene 1 49 18 0.385859 0 150 0.385859 1
gene 1 20 18 -2.45542 0 162 -2.45542 1
gene 1 20 58 2.64414 0 177 2.64414 1
gene 1 58 18 1.25044 0 178 1.25044 1
gene 1 2 58 -6.69542 0 182 -6.69542 1
gene 1 2 66 1.29395 0 202 1.29395 1
gene 1 66 19 2.33769 0 203 2.33769 1
gene 1 17 58 0.750436 0 224 0.750436 1
gene 1 17 20 4.78664 0 228 4.78664 1
gene 1 15 22 4.63869 0 267 4.63869 1
gene 1 6 58 0.265255 0 269 0.265255 1
gene 1 49 17 -3.74095 0 283 -3.74095 1
gene 1 9 85 -0.250443 0 288 -0.250443 1
gene 1 85 19 0.885539 0 289 0.885539 1
gene 1 9 90 1.25188 0 314 1.25188 1
gene 1 90 20 -4.689 0 315 -4.689 1
gene 1 13 94 2.66875 0 326 2.66875 1
gene 1 94 17 5.90734 0 327 5.90734 1
gene 1 11 22 -0.377845 0 347 -0.377845 1
gene 1 1 98 1.17783 0 351 1.17783 1
gene 1 98 19 0.483941 0 352 0.483941 1
gene 1 3 105 0.657012 0 378 0.657012 1
gene 1 105 22 -0.498848 0 379 -0.498848 1
gene 1 5 49 1.39247 0 427 1.39247 1
genomeend 5

/* Organism #6 Fitness: 1353 Error: 323 */
genomestart 6
trait 1 0.529001 0.402786 0.422872 0.211204 0.902788 0.941464 0.987347 1 
node 1 1 1 1
node 2 1 1 1
node 3 1 1 1
node 4 1 1 1
node 5 1 1 1
node 6 1 1 1
node 7 1 1 1
node 8 1 1 1
node 9 1 1 1
node 10 1 1 1
node 11 1 1 1
node 12 1 1 1
node 13 1 1 1
node 14 1 1 1
node 15 1 1 1
node 16 1 1 1
node 17 1 0 2
node 18 1 0 2
node 19 1 0 2
node 20 1 0 2
node 22 1 0 0
node 49 1 0 0
node 58 1 0 0
node 66 1 0 0
node 85 1 0 0
node 90 1 0 0
node 94 1 0 0
node 98 1 0 0
node 105 1 0 0
gene 1 1 17 -0.672951 0 1 -0.672951 1
gene 1 2 17 5.38994 0 2 5.38994 1
gene 1 3 17 2.04534 0 3 2.04534 1
gene 1 4 17 -2.64515 0 4 -2.64515 1
gene 1 5 17 -3.67261 0 5 -3.67261 1
gene 1 6 17 1.84252 0 6 1.84252 1
gene 1 7 17 5.7555 0 7 5.7555 1
gene 1 8 17 -5.1327 0 8 -5.1327 1
gene 1 9 17 2.23716 0 9 2.23716 1
gene 1 10 17 3.86693 0 10 3.86693 1
gene 1 11 17 -0.647675 0 11 -0.647675 1
gene 1 12 17 0.569793 0 12 0.569793 1
gene 1 13 17 1.63299 0 13 1.63299 1
gene 1 14 17 3.75517 0 14 3.75517 1
gene 1 15 17 6.22042 0 15 6.22042 1
gene 1 16 17 -4.46048 0 16 -4.46048 1
gene 1 1 18 1.6108 0 17 1.6108 1
gene 1 2 18 1.08746 0 18 1.08746 1
gene 1 3 18 -0.0713431 0 19 -0.0713431 1
gene 1 4 18 -4.00573 0 20 -4.00573 1
gene 1 5 18 -0.655826 0 21 -0.655826 1
gene 1 6 18 -0.570555 0 22 -0.570555 1
gene 1 7 18 2.96321 0 23 2.96321 1
gene 1 8 18 -2.6408 0 24 -2.6408 1
gene 1 9 18 2.48192 0 25 2.48192 1
gene 1 10 18 -0.122311 0 26 -0.122311 1
gene 1 11 18 -3.84755 0 27 -3.84755 1
gene 1 12 18 2.52672 0 28 2.52672 1
gene 1 13 18 -3.7335 0 29 -3.7335 1
gene 1 14 18 1.28585 0 30 1.28585 1
gene 1 15 18 4.2275 0 31 4.2275 1
gene 1 16 18 8 0 32 8 1
gene 1 1 19 2.99896 0 33 2.99896 0
gene 1 2 19 4.80335 0 34 4.80335 1
gene 1 3 19 6.34378 0 35 6.34378 1
gene 1 4 19 1.67006 0 36 1.67006 1
gene 1 5 19 -7.0911 0 37 -7.0911 1
gene 1 6 19 -2.67953 0 38 -2.67953 1
gene 1 7 19 4.30664 0 39 4.30664 1
gene 1 8 19 8 0 40 8 1
gene 1 9 19 -3.06663 0 41 -3.06663 1
gene 1 10 19 2.58345 0 42 2.58345 1
gene 1 11 19 -4.12184 0 43 -4.12184 1
gene 1 12 19 1.40336 0 44 1.40336 1
gene 1 13 19 -5.02907 0 45 -5.02907 1
gene 1 14 19 -1.54072 0 46 -1.54072 1
gene 1 15 19 6.68504 0 47 6.68504 1
gene 1 16 19 0.711888 0 48 0.711888 1
gene 1 1 20 -4.11199 0 49 -4.11199 1
gene 1 2 20 2.63032 0 50 2.63032 1
gene 1 3 20 8 0 51 8 1
gene 1 4 20 -1.30576 0 52 -1.30576 1
gene 1 5 20 5.02121 0 53 5.02121 1
gene 1 6 20 1.72173 0 54 1.72173 1
gene 1 7 20 -2.60876 0 55 -2.60876 1
gene 1 8 20 7.18899 0 56 7.18899 1
gene 1 9 20 -3.24854 0 57 -3.24854 1
gene 1 10 20 3.8524 0 58 3.8524 1
gene 1 11 20 1.45718 0 59 1.45718 1
gene 1 12 20 3.44112 0 60 3.44112 1
gene 1 13 20 -3.89217 0 61 -3.89217 1
gene 1 14 20 4.35682 0 62 4.35682 1
gene 1 15 20 -0.404362 0 63 -0.404362 1
gene 1 16 20 -2.02654 0 64 -2.02654 1
gene 1 3 22 2.41653 0 69 2.41653 0
gene 1 22 20 0.907153 0 70 0.907153 1
gene 1 17 19 3.36077 0 130 3.36077 1
gene 1 13 49 2.41024 0 149 2.41024 1
gene 1 49 18 0.567327 0 150 0.567327 1
gene 1 20 18 3.95673 0 162 3.95673 1
gene 1 20 58 1.65018 0 177 1.65018 1
gene 1 58 18 1.55736 0 178 1.55736 1
gene 1 2 58 -1.47902 0 182 -1.47902 1
gene 1 2 66 0.947557 0 202 0.947557 1
gene 1 66 19 0.223531 0 203 0.223531 1
gene 1 17 58 -1.82075 0 224 -1.82075 1
gene 1 17 20 2.09972 0 228 2.09972 1
gene 1 15 22 3.21819 0 267 3.21819 1
gene 1 6 58 -1.19414 0 269 -1.19414 1
gene 1 49 17 -0.0786549 0 283 -0.0786549 1
gene 1 9 85 2.66535 0 288 2.66535 1
gene 1 85 19 -2.27661 0 289 -2.27661 1
gene 1 9 90 0.486373 0 314 0.486373 1
gene 1 90 20 -2.90432 0 315 -2.90432 1
gene 1 13 94 2.06145 0 326 2.06145 1
gene 1 94 17 3.25596 0 327 3.25596 1
gene 1 11 22 1.20901 0 347 1.20901 1
gene 1 1 98 2.82395 0 351 2.82395 1
gene 1 98 19 1.89249 0 352 1.89249 1
gene 1 3 105 -2.188 0 378 -2.188 1
gene 1 105 22 0.870634 0 379 0.870634 1
gene 1 5 49 1.66966 0 427 1.66966 1
genomeend 6

/* Organism #7 Fitness: 1761 Error: 360 */
genomestart 7
trait 1 0.529001 0.402786 0.422872 0.211204 0.902788 0.941464 0.987347 1 
node 1 1 1 1
node 2 1 1 1
node 3 1 1 1
node 4 1 1 1
node 5 1 1 1
node 6 1 1 1
node 7 1 1 1
node 8 1 1 1
node 9 1 1 1
node 10 1 1 1
node 11 1 1 1
node 12 1 1 1
node 13 1 1 1
node 14 1 1 1
node 15 1 1 1
node 16 1 1 1
node 17 1 0 2
node 18 1 0 2
node 19 1 0 2
node 20 1 0 2
node 22 1 0 0
node 49 1 0 0
node 58 1 0 0
node 66 1 0 0
node 85 1 0 0
node 90 1 0 0
node 94 1 0 0
node 98 1 0 0
node 105 1 0 0
gene 1 1 17 3.06441 0 1 3.06441 1
gene 1 2 17 7.30577 0 2 7.30577 1
gene 1 3 17 -0.574661 0 3 -0.574661 1
gene 1 4 17 -2.83877 0 4 -2.83877 1
gene 1 5 17 2.53242 0 5 2.53242 1
gene 1 6 17 3.04991 0 6 3.04991 1
gene 1 7 17 2.15269 0 7 2.15269 1
gene 1 8 17 -8 0 8 -8 1
gene 1 9 17 1.80674 0 9 1.80674 1
gene 1 10 17 3.41772 0 10 3.41772 1
gene 1 11 17 0.622616 0 11 0.622616 1
gene 1 12 17 -0.125242 0 12 -0.125242 1
gene 1 13 17 3.11944 0 13 3.11944 1
gene 1 14 17 1.85833 0 14 1.85833 1
gene 1 15 17 4.92564 0 15 4.92564 1
gene 1 16 17 -1.34419 0 16 -1.34419 1
gene 1 1 18 -2.38271 0 17 -2.38271 1
gene 1 2 18 -1.53416 0 18 -1.53416 1
gene 1 3 18 -2.25049 0 19 -2.25049 1
gene 1 4 18 -0.455449 0 20 -0.455449 1
gene 1 5 18 -2.35052 0 21 -2.35052 1
gene 1 6 18 0.446413 0 22 0.446413 1
gene 1 7 18 0.682985 0 23 0.682985 1
gene 1 8 18 -6.46711 0 24 -6.46711 1
gene 1 9 18 1.34621 0 25 1.34621 1
gene 1 10 18 1.81037 0 26 1.81037 1
gene 1 11 18 -7.14701 0 27 -7.14701 1
gene 1 12 18 0.514399 0 28 0.514399 1
gene 1 13 18 -4.07628 0 29 -4.07628 1
gene 1 14 18 3.36916 0 30 3.36916 1
gene 1 15 18 5.44251 0 31 5.44251 1
gene 1 16 18 7.15761 0 32 7.15761 1
gene 1 1 19 -0.454315 0 33 -0.454315 0
gene 1 2 19 3.18859 0 34 3.18859 1
gene 1 3 19 5.23396 0 35 5.23396 1
gene 1 4 19 1.26794 0 36 1.26794 1
gene 1 5 19 -5.92038 0 37 -5.92038 1
gene 1 6 19 -2.61347 0 38 -2.61347 1
gene 1 7 19 4.95653 0 39 4.95653 1
gene 1 8 19 8 0 40 8 1
gene 1 9 19 0.265453 0 41 0.265453 1
gene 1 10 19 -1.3114 0 42 -1.3114 1
gene 1 11 19 -3.00733 0 43 -3.00733 1
gene 1 12 19 2.57546 0 44 2.57546 1
gene 1 13 19 -2.6073 0 45 -2.6073 1
gene 1 14 19 -2.03098 0 46 -2.03098 1
gene 1 15 19 8 0 47 8 1
gene 1 16 19 -5.44269 0 48 -5.44269 1
gene 1 1 20 -1.1265 0 49 -1.1265 1
gene 1 2 20 7.39044 0 50 7.39044 1
gene 1 3 20 6.91055 0 51 6.91055 1
gene 1 4 20 -3.24908 0 52 -3.24908 1
gene 1 5 20 3.3526 0 53 3.3526 1
gene 1 6 20 2.95777 0 54 2.95777 1
gene 1 7 20 1.13729 0 55 1.13729 1
gene 1 8 20 6.46693 0 56 6.46693 1
gene 1 9 20 -2.7156 0 57 -2.7156 1
gene 1 10 20 5.3345 0 58 5.3345 1
gene 1 11 20 2.86838 0 59 2.86838 1
gene 1 12 20 2.01715 0 60 2.01715 1
gene 1 13 20 6.60667 0 61 6.60667 1
gene 1 14 20 6.71487 0 62 6.71487 1
gene 1 15 20 1.12916 0 63 1.12916 1
gene 1 16 20 3.83366 0 64 3.83366 1
gene 1 3 22 0.750398 0 69 0.750398 0
gene 1 22 20 1.07369 0 70 1.07369 1
gene 1 17 19 2.59834 0 130 2.59834 1
gene 1 13 49 0.915308 0 149 0.915308 1
gene 1 49 18 2.12099 0 150 2.12099 1
gene 1 20 18 3.21926 0 162 3.21926 1
gene 1 20 58 3.74064 0 177 3.74064 1
gene 1 58 18 3.67376 0 178 3.67376 1
gene 1 2 58 -3.59193 0 182 -3.59193 1
gene 1 2 66 -0.424371 0 202 -0.424371 1
gene 1 66 19 0.220006 0 203 0.220006 1
gene 1 17 58 3.45497 0 224 3.45497 1
gene 1 17 20 3.77856 0 228 3.77856 1
gene 1 15 22 1.27219 0 267 1.27219 1
gene 1 6 58 0.33801 0 269 0.33801 1
gene 1 49 17 0.684336 0 283 0.684336 1
gene 1 9 85 2.91845 0 288 2.91845 1
gene 1 85 19 -2.27661 0 289 -2.27661 1
gene 1 9 90 2.31522 0 314 2.31522 1
gene 1 90 20 1.02257 0 315 1.02257 1
gene 1 13 94 0.0875081 0 326 0.0875081 1
gene 1 94 17 6.5223 0 327 6.5223 1
gene 1 11 22 1.25772 0 347 1.25772 1
gene 1 1 98 0.0547353 0 351 0.0547353 1
gene 1 98 19 -1.10884 0 352 -1.10884 1
gene 1 3 105 0.808985 0 378 0.808985 1
gene 1 105 22 -5.0308 0 379 -5.0308 1
gene 1 5 49 -2.10963 0 427 -2.10963 1
genomeend 7

/* Organism #8 Fitness: 1529 Error: 309 */
genomestart 8
trait 1 0.529001 0.402786 0.422872 0.211204 0.902788 0.941464 0.987347 1 
node 1 1 1 1
node 2 1 1 1
node 3 1 1 1
node 4 1 1 1
node 5 1 1 1
node 6 1 1 1
node 7 1 1 1
node 8 1 1 1
node 9 1 1 1
node 10 1 1 1
node 11 1 1 1
node 12 1 1 1
node 13 1 1 1
node 14 1 1 1
node 15 1 1 1
node 16 1 1 1
node 17 1 0 2
node 18 1 0 2
node 19 1 0 2
node 20 1 0 2
node 22 1 0 0
node 49 1 0 0
node 58 1 0 0
node 66 1 0 0
node 85 1 0 0
node 90 1 0 0
node 94 1 0 0
node 98 1 0 0
node 105 1 0 0
gene 1 1 17 5.48275 0 1 5.48275 1
gene 1 2 17 5.15637 0 2 5.15637 1
gene 1 3 17 0.799361 0 3 0.799361 1
gene 1 4 17 -5.52351 0 4 -5.52351 1
gene 1 5 17 -1.77717 0 5 -1.77717 1
gene 1 6 17 3.97112 0 6 3.97112 1
gene 1 7 17 1.4988 0 7 1.4988 1
gene 1 8 17 -8 0 8 -8 1
gene 1 9 17 0.802169 0 9 0.802169 1
gene 1 10 17 0.475846 0 10 0.475846 1
gene 1 11 17 -0.291887 0 11 -0.291887 1
gene 1 12 17 -0.0873095 0 12 -0.0873095 1
gene 1 13 17 -1.1004 0 13 -1.1004 1
gene 1 14 17 4.79074 0 14 4.79074 1
gene 1 15 17 3.71306 0 15 3.71306 1
gene 1 16 17 -0.520593 0 16 -0.520593 1
gene 1 1 18 -2.72185 0 17 -2.72185 1
gene 1 2 18 -3.03099 0 18 -3.03099 1
gene 1 3 18 -0.577098 0 19 -0.577098 1
gene 1 4 18 -1.76047 0 20 -1.76047 1
gene 1 5 18 -2.375 0 21 -2.375 1
gene 1 6 18 0.441963 0 22 0.441963 1
gene 1 7 18 1.02802 0 23 1.02802 1
gene 1 8 18 -4.2662 0 24 -4.2662 1
gene 1 9 18 2.46536 0 25 2.46536 1
gene 1 10 18 1.331 0 26 1.331 1
gene 1 11 18 0.769552 0 27 0.769552 1
gene 1 12 18 1.54477 0 28 1.54477 1
gene 1 13 18 -7.96618 0 29 -7.96618 1
gene 1 14 18 5.6177 0 30 5.6177 1
gene 1 15 18 5.29615 0 31 5.29615 1
gene 1 16 18 8 0 32 8 1
gene 1 1 19 3.90796 0 33 3.90796 0
gene 1 2 19 0.343373 0 34 0.343373 1
gene 1 3 19 5.58573 0 35 5.58573 1
gene 1 4 19 -0.237542 0 36 -0.237542 1
gene 1 5 19 -5.247 0 37 -5.247 1
gene 1 6 19 -0.219587 0 38 -0.219587 1
gene 1 7 19 2.76888 0 39 2.76888 1
gene 1 8 19 8 0 40 8 1
gene 1 9 19 1.25418 0 41 1.25418 1
gene 1 10 19 0.346506 0 42 0.346506 1
gene 1 11 19 -3.00733 0 43 -3.00733 1
gene 1 12 19 -2.33126 0 44 -2.33126 1
gene 1 13 19 -2.91086 0 45 -2.91086 1
gene 1 14 19 0.286309 0 46 0.286309 1
gene 1 15 19 4.98498 0 47 4.98498 1
gene 1 16 19 0.920719 0 48 0.920719 1
gene 1 1 20 0.164807 0 49 0.164807 1
gene 1 2 20 7.4075 0 50 7.4075 1
gene 1 3 20 8 0 51 8 1
gene 1 4 20 0.305278 0 52 0.305278 1
gene 1 5 20 3.94742 0 53 3.94742 1
gene 1 6 20 4.70154 0 54 4.70154 1
gene 1 7 20 0.310292 0 55 0.310292 1
gene 1 8 20 4.89715 0 56 4.89715 1
gene 1 9 20 -1.5345 0 57 -1.5345 1
gene 1 10 20 -1.0047 0 58 -1.0047 1
gene 1 11 20 1.72905 0 59 1.72905 1
gene 1 12 20 0.516243 0 60 0.516243 1
gene 1 13 20 -0.185618 0 61 -0.185618 1
gene 1 14 20 6.28496 0 62 6.28496 1
gene 1 15 20 2.13686 0 63 2.13686 1
gene 1 16 20 -1.06052 0 64 -1.06052 1
gene 1 3 22 -0.761648 0 69 -0.761648 0
gene 1 22 20 0.783095 0 70 0.783095 1
gene 1 17 19 4.57263 0 130 4.57263 1
gene 1 13 49 -0.289642 0 149 -0.289642 1
gene 1 49 18 2.65097 0 150 2.65097 1
gene 1 20 18 3.45773 0 162 3.45773 1
gene 1 20 58 2.6183 0 177 2.6183 1
gene 1 58 18 -0.834557 0 178 -0.834557 1
gene 1 2 58 -5.88017 0 182 -5.88017 1
gene 1 2 66 1.68202 0 202 1.68202 1
gene 1 66 19 1.77087 0 203 1.77087 1
gene 1 17 58 3.20095 0 224 3.20095 1
gene 1 17 20 6.73407 0 228 6.73407 1
gene 1 15 22 5.10867 0 267 5.10867 1
gene 1 6 58 -2.22215 0 269 -2.22215 1
gene 1 49 17 0.0573949 0 283 0.0573949 1
gene 1 9 85 4.99383 0 288 4.99383 1
gene 1 85 19 3.74517 0 289 3.74517 1
gene 1 9 90 -1.14845 0 314 -1.14845 1
gene 1 90 20 0.590143 0 315 0.590143 1
gene 1 13 94 3.11675 0 326 3.11675 1
gene 1 94 17 7.56093 0 327 7.56093 1
gene 1 11 22 1.26524 0 347 1.26524 1
gene 1 1 98 1.2523 0 351 1.2523 1
gene 1 98 19 0.613454 0 352 0.613454 1
gene 1 3 105 2.7035 0 378 2.7035 1
gene 1 105 22 -5.58778 0 379 -5.58778 1
gene 1 5 49 -0.601586 0 427 -0.601586 1
genomeend 8

/* Organism #9 Fitness: 6138 Error: 815 */
/* ##------$ WINNER 9 SPECIES #21 $------## */
genomestart 9
trait 1 0.529001 0.402786 0.422872 0.211204 0.902788 0.941464 0.987347 1 
node 1 1 1 1
node 2 1 1 1
node 3 1 1 1
node 4 1 1 1
node 5 1 1 1
node 6 1 1 1
node 7 1 1 1
node 8 1 1 1
node 9 1 1 1
node 10 1 1 1
node 11 1 1 1
node 12 1 1 1
node 13 1 1 1
node 14 1 1 1
node 15 1 1 1
node 16 1 1 1
node 17 1 0 2
node 18 1 0 2
node 19 1 0 2
node 20 1 0 2
node 22 1 0 0
node 49 1 0 0
node 58 1 0 0
node 66 1 0 0
node 85 1 0 0
node 90 1 0 0
node 94 1 0 0
node 98 1 0 0
node 105 1 0 0
gene 1 1 17 1.82271 0 1 1.82271 1
gene 1 2 17 -1.10773 0 2 -1.10773 1
gene 1 3 17 -0.494387 0 3 -0.494387 1
gene 1 4 17 -1.1871 0 4 -1.1871 1
gene 1 5 17 2.53242 0 5 2.53242 1
gene 1 6 17 2.41026 0 6 2.41026 1
gene 1 7 17 1.69557 0 7 1.69557 1
gene 1 8 17 -6.15066 0 8 -6.15066 1
gene 1 9 17 1.15935 0 9 1.15935 1
gene 1 10 17 5.29979 0 10 5.29979 1
gene 1 11 17 -1.58688 0 11 -1.58688 1
gene 1 12 17 0.538276 0 12 0.538276 1
gene 1 13 17 3.30639 0 13 3.30639 1
gene 1 14 17 -1.22296 0 14 -1.22296 1
gene 1 15 17 3.32688 0 15 3.32688 1
gene 1 16 17 -3.70511 0 16 -3.70511 1
gene 1 1 18 -2.17729 0 17 -2.17729 1
gene 1 2 18 -3.75026 0 18 -3.75026 1
gene 1 3 18 -2.65038 0 19 -2.65038 1
gene 1 4 18 -1.8164 0 20 -1.8164 1
gene 1 5 18 -0.673308 0 21 -0.673308 1
gene 1 6 18 1.25157 0 22 1.25157 1
gene 1 7 18 2.1261 0 23 2.1261 1
gene 1 8 18 -5.66113 0 24 -5.66113 1
gene 1 9 18 2.85165 0 25 2.85165 1
gene 1 10 18 0.930649 0 26 0.930649 1
gene 1 11 18 -8 0 27 -8 1
gene 1 12 18 -1.04344 0 28 -1.04344 1
gene 1 13 18 -7.64343 0 29 -7.64343 1
gene 1 14 18 2.67049 0 30 2.67049 1
gene 1 15 18 1.09502 0 31 1.09502 1
gene 1 16 18 5.68323 0 32 5.68323 1
gene 1 1 19 -0.898783 0 33 -0.898783 0
gene 1 2 19 4.78422 0 34 4.78422 1
gene 1 3 19 6.456 0 35 6.456 1
gene 1 4 19 3.82341 0 36 3.82341 1
gene 1 5 19 -7.41225 0 37 -7.41225 1
gene 1 6 19 -2.07723 0 38 -2.07723 1
gene 1 7 19 -1.86656 0 39 -1.86656 1
gene 1 8 19 6.62026 0 40 6.62026 1
gene 1 9 19 -2.09117 0 41 -2.09117 1
gene 1 10 19 -3.31811 0 42 -3.31811 1
gene 1 11 19 -2.63286 0 43 -2.63286 1
gene 1 12 19 2.57546 0 44 2.57546 1
gene 1 13 19 0.258924 0 45 0.258924 1
gene 1 14 19 -1.17794 0 46 -1.17794 1
gene 1 15 19 3.40671 0 47 3.40671 1
gene 1 16 19 -7.91192 0 48 -7.91192 1
gene 1 1 20 -1.62253 0 49 -1.62253 1
gene 1 2 20 7.22673 0 50 7.22673 1
gene 1 3 20 5.55504 0 51 5.55504 1
gene 1 4 20 -3.2533 0 52 -3.2533 1
gene 1 5 20 7.23052 0 53 7.23052 1
gene 1 6 20 3.41279 0 54 3.41279 1
gene 1 7 20 1.27863 0 55 1.27863 1
gene 1 8 20 4.78909 0 56 4.78909 1
gene 1 9 20 -0.445376 0 57 -0.445376 1
gene 1 10 20 5.13089 0 58 5.13089 1
gene 1 11 20 2.86838 0 59 2.86838 1
gene 1 12 20 1.7535 0 60 1.7535 1
gene 1 13 20 -1.4258 0 61 -1.4258 1
gene 1 14 20 -0.857571 0 62 -0.857571 1
gene 1 15 20 -1.03903 0 63 -1.03903 1
gene 1 16 20 -1.36716 0 64 -1.36716 1
gene 1 3 22 -0.638725 0 69 -0.638725 0
gene 1 22 20 6.51824 0 70 6.51824 1
gene 1 17 19 2.72203 0 130 2.72203 1
gene 1 13 49 -0.125523 0 149 -0.125523 1
gene 1 49 18 0.0652657 0 150 0.0652657 1
gene 1 20 18 3.29526 0 162 3.29526 1
gene 1 20 58 1.28785 0 177 1.28785 1
gene 1 58 18 -1.83349 0 178 -1.83349 1
gene 1 2 58 -4.9991 0 182 -4.9991 1
gene 1 2 66 -2.11645 0 202 -2.11645 1
gene 1 66 19 -1.16714 0 203 -1.16714 1
gene 1 17 58 2.83842 0 224 2.83842 1
gene 1 17 20 2.26963 0 228 2.26963 1
gene 1 15 22 0.704445 0 267 0.704445 1
gene 1 6 58 2.47457 0 269 2.47457 1
gene 1 49 17 -3.27112 0 283 -3.27112 1
gene 1 9 85 4.08995 0 288 4.08995 1
gene 1 85 19 2.36284 0 289 2.36284 1
gene 1 9 90 -0.338398 0 314 -0.338398 1
gene 1 90 20 -4.24513 0 315 -4.24513 1
gene 1 13 94 2.46685 0 326 2.46685 1
gene 1 94 17 8 0 327 8 1
gene 1 11 22 1.28892 0 347 1.28892 1
gene 1 1 98 0.0547353 0 351 0.0547353 1
gene 1 98 19 2.0366 0 352 2.0366 1
gene 1 3 105 2.93127 0 378 2.93127 1
gene 1 105 22 -6.85723 0 379 -6.85723 1
gene 1 5 49 -2.23726 0 427 -2.23726 1
genomeend 9

/* Organism #10 Fitness: 668 Error: 223 */
genomestart 10
trait 1 0.529001 0.402786 0.422872 0.211204 0.902788 0.941464 0.987347 1 
node 1 1 1 1
node 2 1 1 1
node 3 1 1 1
node 4 1 1 1
node 5 1 1 1
node 6 1 1 1
node 7 1 1 1
node 8 1 1 1
node 9 1 1 1
node 10 1 1 1
node 11 1 1 1
node 12 1 1 1
node 13 1 1 1
node 14 1 1 1
node 15 1 1 1
node 16 1 1 1
node 17 1 0 2
node 18 1 0 2
node 19 1 0 2
node 20 1 0 2
node 22 1 0 0
node 49 1 0 0
node 58 1 0 0
node 66 1 0 0
node 85 1 0 0
node 90 1 0 0
node 94 1 0 0
node 98 1 0 0
node 105 1 0 0
gene 1 1 17 4.03928 0 1 4.03928 1
gene 1 2 17 5.88047 0 2 5.88047 1
gene 1 3 17 0.215881 0 3 0.215881 1
gene 1 4 17 1.70515 0 4 1.70515 1
gene 1 5 17 -2.06443 0 5 -2.06443 1
gene 1 6 17 0.286348 0 6 0.286348 1
gene 1 7 17 4.96897 0 7 4.96897 1
gene 1 8 17 1.59257 0 8 1.59257 1
gene 1 9 17 1.16173 0 9 1.16173 1
gene 1 10 17 3.37099 0 10 3.37099 1
gene 1 11 17 -0.731869 0 11 -0.731869 1
gene 1 12 17 2.16359 0 12 2.16359 1
gene 1 13 17 -1.3837 0 13 -1.3837 1
gene 1 14 17 4.00705 0 14 4.00705 1
gene 1 15 17 1.57898 0 15 1.57898 1
gene 1 16 17 2.41895 0 16 2.41895 1
gene 1 1 18 0.485069 0 17 0.485069 1
gene 1 2 18 1.66948 0 18 1.66948 1
gene 1 3 18 1.24048 0 19 1.24048 1
gene 1 4 18 -1.90257 0 20 -1.90257 1
gene 1 5 18 1.81571 0 21 1.81571 1
gene 1 6 18 -1.06604 0 22 -1.06604 1
gene 1 7 18 2.73035 0 23 2.73035 1
gene 1 8 18 -3.60067 0 24 -3.60067 1
gene 1 9 18 1.70017 0 25 1.70017 1
gene 1 10 18 -0.5112 0 26 -0.5112 1
gene 1 11 18 -0.249821 0 27 -0.249821 1
gene 1 12 18 2.50032 0 28 2.50032 1
gene 1 13 18 -4.61983 0 29 -4.61983 1
gene 1 14 18 1.38359 0 30 1.38359 1
gene 1 15 18 -3.86294 0 31 -3.86294 1
gene 1 16 18 8 0 32 8 1
gene 1 1 19 2.44664 0 33 2.44664 0
gene 1 2 19 0.398048 0 34 0.398048 1
gene 1 3 19 0.453936 0 35 0.453936 1
gene 1 4 19 0.646248 0 36 0.646248 1
gene 1 5 19 -6.51522 0 37 -6.51522 1
gene 1 6 19 -1.76332 0 38 -1.76332 1
gene 1 7 19 4.13536 0 39 4.13536 1
gene 1 8 19 -0.137857 0 40 -0.137857 1
gene 1 9 19 1.62591 0 41 1.62591 1
gene 1 10 19 -2.14676 0 42 -2.14676 1
gene 1 11 19 -2.37034 0 43 -2.37034 1
gene 1 12 19 -0.492064 0 44 -0.492064 1
gene 1 13 19 -3.5438 0 45 -3.5438 1
gene 1 14 19 1.02762 0 46 1.02762 1
gene 1 15 19 7.96616 0 47 7.96616 1
gene 1 16 19 0.576091 0 48 0.576091 1
gene 1 1 20 -2.70957 0 49 -2.70957 1
gene 1 2 20 4.95832 0 50 4.95832 1
gene 1 3 20 7.53057 0 51 7.53057 1
gene 1 4 20 0.999417 0 52 0.999417 1
gene 1 5 20 4.99173 0 53 4.99173 1
gene 1 6 20 1.06624 0 54 1.06624 1
gene 1 7 20 2.46639 0 55 2.46639 1
gene 1 8 20 6.47606 0 56 6.47606 1
gene 1 9 20 -1.57757 0 57 -1.57757 1
gene 1 10 20 -1.70061 0 58 -1.70061 1
gene 1 11 20 -1.33497 0 59 -1.33497 1
gene 1 12 20 -0.840936 0 60 -0.840936 1
gene 1 13 20 -2.40981 0 61 -2.40981 1
gene 1 14 20 8 0 62 8 1
gene 1 15 20 -0.0627415 0 63 -0.0627415 1
gene 1 16 20 -2.39689 0 64 -2.39689 1
gene 1 3 22 -0.952257 0 69 -0.952257 0
gene 1 22 20 3.09447 0 70 3.09447 1
gene 1 17 19 3.36556 0 130 3.36556 1
gene 1 13 49 1.12029 0 149 1.12029 1
gene 1 49 18 2.37995 0 150 2.37995 1
gene 1 20 18 0.437345 0 162 0.437345 1
gene 1 20 58 0.750168 0 177 0.750168 1
gene 1 58 18 0.0124953 0 178 0.0124953 1
gene 1 2 58 -7.92583 0 182 -7.92583 1
gene 1 2 66 -0.885901 0 202 -0.885901 1
gene 1 66 19 1.04237 0 203 1.04237 1
gene 1 17 58 1.52029 0 224 1.52029 1
gene 1 17 20 7.29016 0 228 7.29016 1
gene 1 15 22 1.48315 0 267 1.48315 1
gene 1 6 58 0.885735 0 269 0.885735 1
gene 1 49 17 -1.1812 0 283 -1.1812 1
gene 1 9 85 1.05124 0 288 1.05124 1
gene 1 85 19 3.05107 0 289 3.05107 1
gene 1 9 90 -1.12621 0 314 -1.12621 1
gene 1 90 20 -4.76353 0 315 -4.76353 1
gene 1 13 94 2.48531 0 326 2.48531 1
gene 1 94 17 3.59725 0 327 3.59725 1
gene 1 11 22 0.898608 0 347 0.898608 1
gene 1 1 98 2.94126 0 351 2.94126 1
gene 1 98 19 0.881571 0 352 0.881571 1
gene 1 3 105 2.71268 0 378 2.71268 1
gene 1 105 22 -1.11371 0 379 -1.11371 1
gene 1 5 49 -0.460268 0 427 -0.460268 1
genomeend 10

/* Organism #11 Fitness: 2384 Error: 320 */
genomestart 11
trait 1 0.529001 0.402786 0 0.211204 0.902788 1 0.987347 1 
node 1 1 1 1
node 2 1 1 1
node 3 1 1 1
node 4 1 1 1
node 5 1 1 1
node 6 1 1 1
node 7 1 1 1
node 8 1 1 1
node 9 1 1 1
node 10 1 1 1
node 11 1 1 1
node 12 1 1 1
node 13 1 1 1
node 14 1 1 1
node 15 1 1 1
node 16 1 1 1
node 17 1 0 2
node 18 1 0 2
node 19 1 0 2
node 20 1 0 2
node 22 1 0 0
node 49 1 0 0
node 58 1 0 0
node 66 1 0 0
node 85 1 0 0
node 90 1 0 0
node 94 1 0 0
node 98 1 0 0
node 105 1 0 0
gene 1 1 17 5.17834 0 1 5.17834 1
gene 1 2 17 7.67834 0 2 7.67834 1
gene 1 3 17 -1.55714 0 3 -1.55714 1
gene 1 4 17 -1.79021 0 4 -1.79021 1
gene 1 5 17 1.88229 0 5 1.88229 1
gene 1 6 17 -2.26952 0 6 -2.26952 1
gene 1 7 17 3.03943 0 7 3.03943 1
gene 1 8 17 -1.31772 0 8 -1.31772 1
gene 1 9 17 -0.531629 0 9 -0.531629 1
gene 1 10 17 -0.137432 0 10 -0.137432 1
gene 1 11 17 -0.496544 0 11 -0.496544 1
gene 1 12 17 -1.93239 0 12 -1.93239 1
gene 1 13 17 -0.266337 0 13 -0.266337 1
gene 1 14 17 2.13639 0 14 2.13639 1
gene 1 15 17 -1.23641 0 15 -1.23641 1
gene 1 16 17 0.40219 0 16 0.40219 1
gene 1 1 18 -2.69773 0 17 -2.69773 1
gene 1 2 18 -3.44394 0 18 -3.44394 1
gene 1 3 18 -3.56445 0 19 -3.56445 1
gene 1 4 18 -1.79485 0 20 -1.79485 1
gene 1 5 18 -0.370777 0 21 -0.370777 1
gene 1 6 18 0.116845 0 22 0.116845 1
gene 1 7 18 2.98761 0 23 2.98761 1
gene 1 8 18 -0.654931 0 24 -0.654931 1
gene 1 9 18 1.39062 0 25 1.39062 1
gene 1 10 18 -0.780238 0 26 -0.780238 1
gene 1 11 18 -1.38137 0 27 -1.38137 1
gene 1 12 18 2.92451 0 28 2.92451 1
gene 1 13 18 -6.60671 0 29 -6.60671 1
gene 1 14 18 2.55604 0 30 2.55604 1
gene 1 15 18 0.943889 0 31 0.943889 1
gene 1 16 18 6.6276 0 32 6.6276 1
gene 1 1 19 1.43994 0 33 1.43994 0
gene 1 2 19 -2.29761 0 34 -2.29761 1
gene 1 3 19 2.60027 0 35 2.60027 1
gene 1 4 19 -2.10213 0 36 -2.10213 1
gene 1 5 19 -2.26755 0 37 -2.26755 1
gene 1 6 19 1.96114 0 38 1.96114 1
gene 1 7 19 5.01817 0 39 5.01817 1
gene 1 8 19 8 0 40 8 1
gene 1 9 19 -0.802586 0 41 -0.802586 1
gene 1 10 19 -1.3114 0 42 -1.3114 1
gene 1 11 19 -0.827319 0 43 -0.827319 1
gene 1 12 19 -0.129225 0 44 -0.129225 1
gene 1 13 19 -0.942051 0 45 -0.942051 1
gene 1 14 19 1.76854 0 46 1.76854 1
gene 1 15 19 6.28629 0 47 6.28629 1
gene 1 16 19 -0.144325 0 48 -0.144325 1
gene 1 1 20 -3.98152 0 49 -3.98152 1
gene 1 2 20 7.9467 0 50 7.9467 1
gene 1 3 20 8 0 51 8 1
gene 1 4 20 0.842312 0 52 0.842312 1
gene 1 5 20 3.1542 0 53 3.1542 1
gene 1 6 20 0.684173 0 54 0.684173 1
gene 1 7 20 1.29085 0 55 1.29085 1
gene 1 8 20 3.41468 0 56 3.41468 1
gene 1 9 20 -1.756 0 57 -1.756 1
gene 1 10 20 7.72362 0 58 7.72362 1
gene 1 11 20 3.39869 0 59 3.39869 1
gene 1 12 20 0.449473 0 60 0.449473 1
gene 1 13 20 0.876817 0 61 0.876817 1
gene 1 14 20 4.09077 0 62 4.09077 1
gene 1 15 20 2.60815 0 63 2.60815 1
gene 1 16 20 -3.86443 0 64 -3.86443 1
gene 1 3 22 0.978218 0 69 0.978218 0
gene 1 22 20 2.03836 0 70 2.03836 1
gene 1 17 19 3.80633 0 130 3.80633 1
gene 1 13 49 0.419143 0 149 0.419143 1
gene 1 49 18 2.1481 0 150 2.1481 1
gene 1 20 18 -0.591577 0 162 -0.591577 1
gene 1 20 58 2.84039 0 177 2.84039 1
gene 1 58 18 0.182969 0 178 0.182969 1
gene 1 2 58 -6.3932 0 182 -6.3932 1
gene 1 2 66 -0.224958 0 202 -0.224958 1
gene 1 66 19 0.223531 0 203 0.223531 1
gene 1 17 58 2.52043 0 224 2.52043 1
gene 1 17 20 7.55739 0 228 7.55739 1
gene 1 15 22 2.52213 0 267 2.52213 1
gene 1 6 58 -1.51956 0 269 -1.51956 1
gene 1 49 17 -2.97531 0 283 -2.97531 1
gene 1 9 85 2.4504 0 288 2.4504 1
gene 1 85 19 -1.4942 0 289 -1.4942 1
gene 1 9 90 2.15838 0 314 2.15838 1
gene 1 90 20 -8 0 315 -8 1
gene 1 13 94 -0.561188 0 326 -0.561188 1
gene 1 94 17 6.79127 0 327 6.79127 1
gene 1 11 22 1.25772 0 347 1.25772 1
gene 1 1 98 1.52258 0 351 1.52258 1
gene 1 98 19 6.21451 0 352 6.21451 1
gene 1 3 105 1.67327 0 378 1.67327 1
gene 1 105 22 -3.83801 0 379 -3.83801 1
gene 1 5 49 -2.53728 0 427 -2.53728 1
genomeend 11

/* Organism #12 Fitness: 1312 Error: 333 */
genomestart 12
trait 1 0.529001 0.402786 1 0.903053 1 1 0.987347 0.33246 
node 1 1 1 1
node 2 1 1 1
node 3 1 1 1
node 4 1 1 1
node 5 1 1 1
node 6 1 1 1
node 7 1 1 1
node 8 1 1 1
node 9 1 1 1
node 10 1 1 1
node 11 1 1 1
node 12 1 1 1
node 13 1 1 1
node 14 1 1 1
node 15 1 1 1
node 16 1 1 1
node 17 1 0 2
node 18 1 0 2
node 19 1 0 2
node 20 1 0 2
node 22 1 0 0
node 49 1 0 0
node 58 1 0 0
node 66 1 0 0
node 85 1 0 0
node 90 1 0 0
node 94 1 0 0
node 98 1 0 0
node 105 1 0 0
gene 1 1 17 0.717577 0 1 0.717577 1
gene 1 2 17 5.21159 0 2 5.21159 1
gene 1 3 17 0.204225 0 3 0.204225 1
gene 1 4 17 0.446386 0 4 0.446386 1
gene 1 5 17 1.91955 0 5 1.91955 1
gene 1 6 17 1.23978 0 6 1.23978 1
gene 1 7 17 3.85275 0 7 3.85275 1
gene 1 8 17 0.926466 0 8 0.926466 1
gene 1 9 17 1.66722 0 9 1.66722 1
gene 1 10 17 3.0089 0 10 3.0089 1
gene 1 11 17 1.43171 0 11 1.43171 1
gene 1 12 17 -1.03688 0 12 -1.03688 1
gene 1 13 17 1.60182 0 13 1.60182 1
gene 1 14 17 5.93243 0 14 5.93243 1
gene 1 15 17 0.779428 0 15 0.779428 1
gene 1 16 17 1.78339 0 16 1.78339 1
gene 1 1 18 0.353244 0 17 0.353244 1
gene 1 2 18 1.69888 0 18 1.69888 1
gene 1 3 18 -4.46945 0 19 -4.46945 1
gene 1 4 18 -1.8132 0 20 -1.8132 1
gene 1 5 18 0.525795 0 21 0.525795 1
gene 1 6 18 -0.186107 0 22 -0.186107 1
gene 1 7 18 2.51171 0 23 2.51171 1
gene 1 8 18 -5.2625 0 24 -5.2625 1
gene 1 9 18 2.33648 0 25 2.33648 1
gene 1 10 18 -2.42935 0 26 -2.42935 1
gene 1 11 18 -5.39605 0 27 -5.39605 1
gene 1 12 18 3.03243 0 28 3.03243 1
gene 1 13 18 -3.48219 0 29 -3.48219 1
gene 1 14 18 2.59616 0 30 2.59616 1
gene 1 15 18 -0.797417 0 31 -0.797417 1
gene 1 16 18 8 0 32 8 1
gene 1 1 19 -0.233721 0 33 -0.233721 1
gene 1 2 19 2.35572 0 34 2.35572 1
gene 1 3 19 0.680084 0 35 0.680084 1
gene 1 4 19 3.51127 0 36 3.51127 1
gene 1 5 19 1.81943 0 37 1.81943 1
gene 1 6 19 -1.36399 0 38 -1.36399 1
gene 1 7 19 5.80668 0 39 5.80668 1
gene 1 8 19 0.890697 0 40 0.890697 1
gene 1 9 19 2.55516 0 41 2.55516 1
gene 1 10 19 -2.87245 0 42 -2.87245 1
gene 1 11 19 -3.05328 0 43 -3.05328 1
gene 1 12 19 0.957391 0 44 0.957391 1
gene 1 13 19 1.20469 0 45 1.20469 1
gene 1 14 19 0.450802 0 46 0.450802 1
gene 1 15 19 6.92087 0 47 6.92087 1
gene 1 16 19 -0.880153 0 48 -0.880153 1
gene 1 1 20 -1.03699 0 49 -1.03699 1
gene 1 2 20 6.39999 0 50 6.39999 1
gene 1 3 20 7.98529 0 51 7.98529 1
gene 1 4 20 -2.7545 0 52 -2.7545 1
gene 1 5 20 6.89282 0 53 6.89282 1
gene 1 6 20 3.52462 0 54 3.52462 1
gene 1 7 20 1.61229 0 55 1.61229 1
gene 1 8 20 4.10806 0 56 4.10806 1
gene 1 9 20 -1.90478 0 57 -1.90478 1
gene 1 10 20 2.07011 0 58 2.07011 1
gene 1 11 20 1.16079 0 59 1.16079 1
gene 1 12 20 2.86028 0 60 2.86028 1
gene 1 13 20 1.08328 0 61 1.08328 1
gene 1 14 20 7.27058 0 62 7.27058 1
gene 1 15 20 -1.70243 0 63 -1.70243 1
gene 1 16 20 3.20058 0 64 3.20058 1
gene 1 3 22 2.03973 0 69 2.03973 1
gene 1 22 20 -2.29186 0 70 -2.29186 1
gene 1 17 19 2.32722 0 130 2.32722 1
gene 1 13 49 1.73816 0 149 1.73816 1
gene 1 49 18 -1.89714 0 150 -1.89714 1
gene 1 20 18 2.35063 0 162 2.35063 1
gene 1 20 58 0.997923 0 177 0.997923 1
gene 1 58 18 -1.21497 0 178 -1.21497 1
gene 1 2 58 -5.49672 0 182 -5.49672 1
gene 1 2 66 1.91862 0 202 1.91862 1
gene 1 66 19 -1.41097 0 203 -1.41097 1
gene 1 17 58 0.498345 0 224 0.498345 1
gene 1 17 20 2.1144 0 228 2.1144 1
gene 1 15 22 3.08565 0 267 3.08565 1
gene 1 6 58 1.44221 0 269 1.44221 1
gene 1 49 17 0.421797 0 283 0.421797 1
gene 1 9 85 1.86038 0 288 1.86038 1
gene 1 85 19 0.878164 0 289 0.878164 1
gene 1 9 90 2.04324 0 314 2.04324 1
gene 1 90 20 -0.72084 0 315 -0.72084 1
gene 1 13 94 -0.714576 0 326 -0.714576 1
gene 1 94 17 6.21482 0 327 6.21482 1
gene 1 11 22 -0.582983 0 347 -0.582983 1
gene 1 1 98 0.0637504 0 351 0.0637504 1
gene 1 98 19 2.45121 0 352 2.45121 1
gene 1 3 105 2.4474 0 378 2.4474 1
gene 1 105 22 -1.49389 0 379 -1.49389 1
gene 1 5 49 -1.59802 0 427 -1.59802 1
genomeend 12

/* Organism #13 Fitness: 2128 Error: 422 */
genomestart 13
trait 1 0.529001 0.402786 0.422872 0.211204 0.902788 0.941464 0.987347 1 
node 1 1 1 1
node 2 1 1 1
node 3 1 1 1
node 4 1 1 1
node 5 1 1 1
node 6 1 1 1
node 7 1 1 1
node 8 1 1 1
node 9 1 1 1
node 10 1 1 1
node 11 1 1 1
node 12 1 1 1
node 13 1 1 1
node 14 1 1 1
node 15 1 1 1
node 16 1 1 1
node 17 1 0 2
node 18 1 0 2
node 19 1 0 2
node 20 1 0 2
node 22 1 0 0
node 49 1 0 0
node 58 1 0 0
node 66 1 0 0
node 85 1 0 0
node 90 1 0 0
node 94 1 0 0
node 98 1 0 0
node 105 1 0 0
gene 1 1 17 3.99441 0 1 3.99441 1
gene 1 2 17 6.13192 0 2 6.13192 1
gene 1 3 17 -2.81505 0 3 -2.81505 1
gene 1 4 17 -5.37988 0 4 -5.37988 1
gene 1 5 17 2.62066 0 5 2.62066 1
gene 1 6 17 4.1675 0 6 4.1675 1
gene 1 7 17 4.47337 0 7 4.47337 1
gene 1 8 17 -5.5782 0 8 -5.5782 1
gene 1 9 17 1.42893 0 9 1.42893 1
gene 1 10 17 5.63467 0 10 5.63467 1
gene 1 11 17 -1.36264 0 11 -1.36264 1
gene 1 12 17 1.6104 0 12 1.6104 1
gene 1 13 17 1.08343 0 13 1.08343 1
gene 1 14 17 2.37146 0 14 2.37146 1
gene 1 15 17 2.10631 0 15 2.10631 1
gene 1 16 17 -0.184509 0 16 -0.184509 1
gene 1 1 18 -3.99921 0 17 -3.99921 1
gene 1 2 18 -2.60066 0 18 -2.60066 1
gene 1 3 18 -3.42811 0 19 -3.42811 1
gene 1 4 18 -2.08435 0 20 -2.08435 1
gene 1 5 18 -2.375 0 21 -2.375 1
gene 1 6 18 0.947258 0 22 0.947258 1
gene 1 7 18 0.423382 0 23 0.423382 1
gene 1 8 18 -7.74281 0 24 -7.74281 1
gene 1 9 18 -0.101879 0 25 -0.101879 1
gene 1 10 18 0.68832 0 26 0.68832 1
gene 1 11 18 -5.11853 0 27 -5.11853 1
gene 1 12 18 2.58173 0 28 2.58173 1
gene 1 13 18 -5.30972 0 29 -5.30972 1
gene 1 14 18 5.8553 0 30 5.8553 1
gene 1 15 18 -0.00184196 0 31 -0.00184196 1
gene 1 16 18 5.39043 0 32 5.39043 1
gene 1 1 19 -1.14264 0 33 -1.14264 0
gene 1 2 19 2.27891 0 34 2.27891 1
gene 1 3 19 4.62888 0 35 4.62888 1
gene 1 4 19 3.4826 0 36 3.4826 1
gene 1 5 19 -4.49648 0 37 -4.49648 1
gene 1 6 19 1.52126 0 38 1.52126 1
gene 1 7 19 3.53129 0 39 3.53129 1
gene 1 8 19 5.6752 0 40 5.6752 1
gene 1 9 19 -1.12698 0 41 -1.12698 1
gene 1 10 19 -0.635775 0 42 -0.635775 1
gene 1 11 19 -1.8053 0 43 -1.8053 1
gene 1 12 19 -1.11764 0 44 -1.11764 1
gene 1 13 19 -0.522397 0 45 -0.522397 1
gene 1 14 19 -0.371283 0 46 -0.371283 1
gene 1 15 19 8 0 47 8 1
gene 1 16 19 -1.08283 0 48 -1.08283 1
gene 1 1 20 1.54626 0 49 1.54626 1
gene 1 2 20 8 0 50 8 1
gene 1 3 20 -1.3356 0 51 -1.3356 1
gene 1 4 20 -4.35147 0 52 -4.35147 1
gene 1 5 20 5.3179 0 53 5.3179 1
gene 1 6 20 5.2574 0 54 5.2574 1
gene 1 7 20 -0.480941 0 55 -0.480941 1
gene 1 8 20 1.89049 0 56 1.89049 1
gene 1 9 20 0.84963 0 57 0.84963 1
gene 1 10 20 5.3345 0 58 5.3345 1
gene 1 11 20 4.08461 0 59 4.08461 1
gene 1 12 20 0.991088 0 60 0.991088 1
gene 1 13 20 6.60667 0 61 6.60667 1
gene 1 14 20 4.79171 0 62 4.79171 1
gene 1 15 20 2.88835 0 63 2.88835 1
gene 1 16 20 2.40218 0 64 2.40218 1
gene 1 3 22 0.750398 0 69 0.750398 0
gene 1 22 20 7.85715 0 70 7.85715 1
gene 1 17 19 0.991731 0 130 0.991731 1
gene 1 13 49 0.824426 0 149 0.824426 1
gene 1 49 18 4.52977 0 150 4.52977 1
gene 1 20 18 4.75456 0 162 4.75456 1
gene 1 20 58 3.74064 0 177 3.74064 1
gene 1 58 18 -1.08108 0 178 -1.08108 1
gene 1 2 58 -5.88017 0 182 -5.88017 1
gene 1 2 66 0.656533 0 202 0.656533 1
gene 1 66 19 1.87123 0 203 1.87123 1
gene 1 17 58 1.52029 0 224 1.52029 1
gene 1 17 20 -1.7052 0 228 -1.7052 1
gene 1 15 22 0.181938 0 267 0.181938 1
gene 1 6 58 -1.25298 0 269 -1.25298 1
gene 1 49 17 -0.192875 0 283 -0.192875 1
gene 1 9 85 2.17762 0 288 2.17762 1
gene 1 85 19 2.42605 0 289 2.42605 1
gene 1 9 90 -2.3033 0 314 -2.3033 1
gene 1 90 20 -6.17882 0 315 -6.17882 1
gene 1 13 94 1.42968 0 326 1.42968 1
gene 1 94 17 8 0 327 8 1
gene 1 11 22 0.0265336 0 347 0.0265336 1
gene 1 1 98 1.35934 0 351 1.35934 1
gene 1 98 19 4.17062 0 352 4.17062 1
gene 1 3 105 1.9765 0 378 1.9765 1
gene 1 105 22 -3.75469 0 379 -3.75469 1
gene 1 5 49 -0.521566 0 427 -0.521566 1
genomeend 13

/* Species #26 : (Size 12) (AF 2218.83) (Age 4)  */


/* Organism #14 Fitness: 2114 Error: 398 */
genomestart 14
trait 1 0.534619 0.499554 0.373689 0.337037 0.805717 1 1 1 
node 1 1 1 1
node 2 1 1 1
node 3 1 1 1
node 4 1 1 1
node 5 1 1 1
node 6 1 1 1
node 7 1 1 1
node 8 1 1 1
node 9 1 1 1
node 10 1 1 1
node 11 1 1 1
node 12 1 1 1
node 13 1 1 1
node 14 1 1 1
node 15 1 1 1
node 16 1 1 1
node 17 1 0 2
node 18 1 0 2
node 19 1 0 2
node 20 1 0 2
node 22 1 0 0
node 49 1 0 0
node 58 1 0 0
node 66 1 0 0
node 85 1 0 0
node 90 1 0 0
node 94 1 0 0
node 98 1 0 0
node 105 1 0 0
gene 1 1 17 3.42743 0 1 3.42743 1
gene 1 2 17 5.4563 0 2 5.4563 1
gene 1 3 17 1.89704 0 3 1.89704 1
gene 1 4 17 -2.42317 0 4 -2.42317 1
gene 1 5 17 2.59018 0 5 2.59018 1
gene 1 6 17 -0.736226 0 6 -0.736226 1
gene 1 7 17 8 0 7 8 1
gene 1 8 17 -7.48985 0 8 -7.48985 1
gene 1 9 17 0.972961 0 9 0.972961 1
gene 1 10 17 0.434193 0 10 0.434193 1
gene 1 11 17 3.24936 0 11 3.24936 1
gene 1 12 17 3.78415 0 12 3.78415 1
gene 1 13 17 -3.68162 0 13 -3.68162 1
gene 1 14 17 3.57367 0 14 3.57367 1
gene 1 15 17 -0.994656 0 15 -0.994656 1
gene 1 16 17 -6.19484 0 16 -6.19484 1
gene 1 1 18 -2.17165 0 17 -2.17165 1
gene 1 2 18 -1.40842 0 18 -1.40842 1
gene 1 3 18 0.84773 0 19 0.84773 1
gene 1 4 18 -1.81587 0 20 -1.81587 1
gene 1 5 18 -1.6567 0 21 -1.6567 1
gene 1 6 18 -0.736318 0 22 -0.736318 1
gene 1 7 18 -1.98765 0 23 -1.98765 1
gene 1 8 18 -7.63615 0 24 -7.63615 1
gene 1 9 18 5.06262 0 25 5.06262 1
gene 1 10 18 -2.45532 0 26 -2.45532 1
gene 1 11 18 -3.76797 0 27 -3.76797 1
gene 1 12 18 -2.15796 0 28 -2.15796 1
gene 1 13 18 1.4468 0 29 1.4468 1
gene 1 14 18 8 0 30 8 1
gene 1 15 18 -1.46203 0 31 -1.46203 1
gene 1 16 18 -2.43235 0 32 -2.43235 1
gene 1 1 19 -4.24198 0 33 -4.24198 0
gene 1 2 19 4.56519 0 34 4.56519 1
gene 1 3 19 8 0 35 8 1
gene 1 4 19 -0.827242 0 36 -0.827242 1
gene 1 5 19 -7.04876 0 37 -7.04876 1
gene 1 6 19 -4.6564 0 38 -4.6564 1
gene 1 7 19 3.04085 0 39 3.04085 1
gene 1 8 19 8 0 40 8 1
gene 1 9 19 1.82919 0 41 1.82919 1
gene 1 10 19 -8 0 42 -8 1
gene 1 11 19 1.19909 0 43 1.19909 1
gene 1 12 19 1.974 0 44 1.974 1
gene 1 13 19 -2.93401 0 45 -2.93401 1
gene 1 14 19 -1.73357 0 46 -1.73357 1
gene 1 15 19 8 0 47 8 1
gene 1 16 19 -7.37515 0 48 -7.37515 1
gene 1 1 20 -0.027249 0 49 -0.027249 1
gene 1 2 20 3.8086 0 50 3.8086 1
gene 1 3 20 8 0 51 8 1
gene 1 4 20 -5.96643 0 52 -5.96643 1
gene 1 5 20 -0.0684868 0 53 -0.0684868 1
gene 1 6 20 7.39189 0 54 7.39189 1
gene 1 7 20 5.87827 0 55 5.87827 1
gene 1 8 20 5.34384 0 56 5.34384 1
gene 1 9 20 -0.0775019 0 57 -0.0775019 1
gene 1 10 20 7.69019 0 58 7.69019 1
gene 1 11 20 -0.628583 0 59 -0.628583 1
gene 1 12 20 4.49628 0 60 4.49628 1
gene 1 13 20 3.57798 0 61 3.57798 1
gene 1 14 20 7.59099 0 62 7.59099 1
gene 1 15 20 1.64364 0 63 1.64364 1
gene 1 16 20 5.63131 0 64 5.63131 1
gene 1 3 22 5.28545 0 69 5.28545 0
gene 1 22 20 -2.82242 0 70 -2.82242 1
gene 1 17 19 0.396604 0 130 0.396604 1
gene 1 13 49 -2.129 0 149 -2.129 1
gene 1 49 18 -4.76178 0 150 -4.76178 1
gene 1 20 18 -0.357155 0 162 -0.357155 1
gene 1 20 58 -3.23601 0 177 -3.23601 1
gene 1 58 18 -6.0659 0 178 -6.0659 1
gene 1 2 58 0.194507 0 182 0.194507 1
gene 1 2 66 1.56315 0 202 1.56315 1
gene 1 66 19 0.722841 0 203 0.722841 1
gene 1 17 58 -6.5143 0 224 -6.5143 1
gene 1 17 20 0.0670139 0 228 0.0670139 1
gene 1 15 22 3.9383 0 267 3.9383 1
gene 1 6 58 -0.899211 0 269 -0.899211 1
gene 1 49 17 -2.71532 0 283 -2.71532 1
gene 1 9 85 1.5583 0 288 1.5583 1
gene 1 85 19 -4.0972 0 289 -4.0972 1
gene 1 9 90 0.86193 0 314 0.86193 1
gene 1 90 20 1.31191 0 315 1.31191 1
gene 1 13 94 3.3029 0 326 3.3029 1
gene 1 94 17 1.72981 0 327 1.72981 1
gene 1 11 22 0.396363 0 347 0.396363 1
gene 1 1 98 -1.27268 0 351 -1.27268 1
gene 1 98 19 0.00491265 0 352 0.00491265 1
gene 1 3 105 -0.684212 0 378 -0.684212 1
gene 1 105 22 -1.03212 0 379 -1.03212 1
gene 1 13 90 0.896193 0 430 0.896193 1
genomeend 14

/* Organism #15 Fitness: 1690 Error: 355 */
genomestart 15
trait 1 0.534619 0.499554 0.373689 0.337037 0.805717 1 1 1 
node 1 1 1 1
node 2 1 1 1
node 3 1 1 1
node 4 1 1 1
node 5 1 1 1
node 6 1 1 1
node 7 1 1 1
node 8 1 1 1
node 9 1 1 1
node 10 1 1 1
node 11 1 1 1
node 12 1 1 1
node 13 1 1 1
node 14 1 1 1
node 15 1 1 1
node 16 1 1 1
node 17 1 0 2
node 18 1 0 2
node 19 1 0 2
node 20 1 0 2
node 22 1 0 0
node 49 1 0 0
node 58 1 0 0
node 66 1 0 0
node 85 1 0 0
node 90 1 0 0
node 94 1 0 0
node 98 1 0 0
node 105 1 0 0
gene 1 1 17 5.36928 0 1 5.36928 1
gene 1 2 17 5.46143 0 2 5.46143 1
gene 1 3 17 2.80085 0 3 2.80085 1
gene 1 4 17 -2.15457 0 4 -2.15457 1
gene 1 5 17 3.19172 0 5 3.19172 1
gene 1 6 17 -0.736226 0 6 -0.736226 1
gene 1 7 17 8 0 7 8 1
gene 1 8 17 -7.48985 0 8 -7.48985 1
gene 1 9 17 1.90167 0 9 1.90167 1
gene 1 10 17 8 0 10 8 1
gene 1 11 17 4.36316 0 11 4.36316 1
gene 1 12 17 3.00916 0 12 3.00916 1
gene 1 13 17 -0.261277 0 13 -0.261277 1
gene 1 14 17 3.27557 0 14 3.27557 1
gene 1 15 17 1.85336 0 15 1.85336 1
gene 1 16 17 -6.19484 0 16 -6.19484 1
gene 1 1 18 -2.17165 0 17 -2.17165 1
gene 1 2 18 -1.40842 0 18 -1.40842 1
gene 1 3 18 0.188392 0 19 0.188392 1
gene 1 4 18 -0.920433 0 20 -0.920433 1
gene 1 5 18 -1.6567 0 21 -1.6567 1
gene 1 6 18 -0.736318 0 22 -0.736318 1
gene 1 7 18 0.190506 0 23 0.190506 1
gene 1 8 18 -7.63615 0 24 -7.63615 1
gene 1 9 18 5.06262 0 25 5.06262 1
gene 1 10 18 -2.45532 0 26 -2.45532 1
gene 1 11 18 -3.76797 0 27 -3.76797 1
gene 1 12 18 -2.15796 0 28 -2.15796 1
gene 1 13 18 2.08406 0 29 2.08406 1
gene 1 14 18 8 0 30 8 1
gene 1 15 18 5.82038 0 31 5.82038 1
gene 1 16 18 8 0 32 8 1
gene 1 1 19 -4.24198 0 33 -4.24198 0
gene 1 2 19 4.91903 0 34 4.91903 1
gene 1 3 19 6.79906 0 35 6.79906 1
gene 1 4 19 -0.827242 0 36 -0.827242 1
gene 1 5 19 -7.04876 0 37 -7.04876 1
gene 1 6 19 -0.219164 0 38 -0.219164 1
gene 1 7 19 3.04085 0 39 3.04085 1
gene 1 8 19 8 0 40 8 1
gene 1 9 19 1.48826 0 41 1.48826 1
gene 1 10 19 -8 0 42 -8 1
gene 1 11 19 3.02746 0 43 3.02746 1
gene 1 12 19 1.974 0 44 1.974 1
gene 1 13 19 -2.93401 0 45 -2.93401 1
gene 1 14 19 -1.73357 0 46 -1.73357 1
gene 1 15 19 8 0 47 8 1
gene 1 16 19 -7.37515 0 48 -7.37515 1
gene 1 1 20 -0.307056 0 49 -0.307056 1
gene 1 2 20 6.93131 0 50 6.93131 1
gene 1 3 20 8 0 51 8 1
gene 1 4 20 -3.79689 0 52 -3.79689 1
gene 1 5 20 -0.416087 0 53 -0.416087 1
gene 1 6 20 3.71784 0 54 3.71784 1
gene 1 7 20 5.87827 0 55 5.87827 1
gene 1 8 20 4.07868 0 56 4.07868 1
gene 1 9 20 -0.0775019 0 57 -0.0775019 1
gene 1 10 20 7.69019 0 58 7.69019 1
gene 1 11 20 -2.24288 0 59 -2.24288 1
gene 1 12 20 4.49628 0 60 4.49628 1
gene 1 13 20 3.57798 0 61 3.57798 1
gene 1 14 20 5.74994 0 62 5.74994 1
gene 1 15 20 1.64364 0 63 1.64364 1
gene 1 16 20 5.63131 0 64 5.63131 1
gene 1 3 22 5.28545 0 69 5.28545 0
gene 1 22 20 -2.82242 0 70 -2.82242 1
gene 1 17 19 -1.04655 0 130 -1.04655 1
gene 1 13 49 -2.04589 0 149 -2.04589 1
gene 1 49 18 -0.0855598 0 150 -0.0855598 1
gene 1 20 18 6.06665 0 162 6.06665 1
gene 1 20 58 -3.23601 0 177 -3.23601 1
gene 1 58 18 -6.0659 0 178 -6.0659 1
gene 1 2 58 -3.92833 0 182 -3.92833 1
gene 1 2 66 -0.94087 0 202 -0.94087 1
gene 1 66 19 0.722841 0 203 0.722841 1
gene 1 17 58 -2.94985 0 224 -2.94985 1
gene 1 17 20 -0.947921 0 228 -0.947921 1
gene 1 15 22 1.62421 0 267 1.62421 1
gene 1 6 58 0.580435 0 269 0.580435 1
gene 1 49 17 -3.36802 0 283 -3.36802 1
gene 1 9 85 1.5583 0 288 1.5583 1
gene 1 85 19 -4.0972 0 289 -4.0972 1
gene 1 9 90 0.86193 0 314 0.86193 1
gene 1 90 20 1.31191 0 315 1.31191 1
gene 1 13 94 2.45675 0 326 2.45675 1
gene 1 94 17 1.72981 0 327 1.72981 1
gene 1 11 22 -0.228871 0 347 -0.228871 1
gene 1 1 98 -1.27268 0 351 -1.27268 1
gene 1 98 19 2.35166 0 352 2.35166 1
gene 1 3 105 -1.8856 0 378 -1.8856 1
gene 1 105 22 -1.03212 0 379 -1.03212 1
gene 1 13 90 -0.715659 0 430 -0.715659 1
genomeend 15

/* Organism #16 Fitness: 2198 Error: 450 */
genomestart 16
trait 1 0.534619 0.499554 0.373689 0.337037 0.805717 1 1 1 
node 1 1 1 1
node 2 1 1 1
node 3 1 1 1
node 4 1 1 1
node 5 1 1 1
node 6 1 1 1
node 7 1 1 1
node 8 1 1 1
node 9 1 1 1
node 10 1 1 1
node 11 1 1 1
node 12 1 1 1
node 13 1 1 1
node 14 1 1 1
node 15 1 1 1
node 16 1 1 1
node 17 1 0 2
node 18 1 0 2
node 19 1 0 2
node 20 1 0 2
node 22 1 0 0
node 49 1 0 0
node 58 1 0 0
node 66 1 0 0
node 85 1 0 0
node 90 1 0 0
node 94 1 0 0
node 98 1 0 0
node 105 1 0 0
gene 1 1 17 7.25131 0 1 7.25131 1
gene 1 2 17 8 0 2 8 1
gene 1 3 17 1.89704 0 3 1.89704 1
gene 1 4 17 -2.42317 0 4 -2.42317 1
gene 1 5 17 0.310355 0 5 0.310355 1
gene 1 6 17 -0.736226 0 6 -0.736226 1
gene 1 7 17 6.94585 0 7 6.94585 1
gene 1 8 17 -7.48985 0 8 -7.48985 1
gene 1 9 17 0.972961 0 9 0.972961 1
gene 1 10 17 7.44149 0 10 7.44149 1
gene 1 11 17 3.24936 0 11 3.24936 1
gene 1 12 17 0.429838 0 12 0.429838 1
gene 1 13 17 -3.68162 0 13 -3.68162 1
gene 1 14 17 3.57367 0 14 3.57367 1
gene 1 15 17 5.67576 0 15 5.67576 1
gene 1 16 17 0.397555 0 16 0.397555 1
gene 1 1 18 -1.861 0 17 -1.861 1
gene 1 2 18 -0.968013 0 18 -0.968013 1
gene 1 3 18 2.33054 0 19 2.33054 1
gene 1 4 18 -1.81587 0 20 -1.81587 1
gene 1 5 18 -4.32646 0 21 -4.32646 1
gene 1 6 18 -1.0756 0 22 -1.0756 1
gene 1 7 18 -2.2801 0 23 -2.2801 1
gene 1 8 18 -7.63615 0 24 -7.63615 1
gene 1 9 18 5.06262 0 25 5.06262 1
gene 1 10 18 3.89155 0 26 3.89155 1
gene 1 11 18 1.50731 0 27 1.50731 1
gene 1 12 18 1.82282 0 28 1.82282 1
gene 1 13 18 -1.17392 0 29 -1.17392 1
gene 1 14 18 8 0 30 8 1
gene 1 15 18 2.94631 0 31 2.94631 1
gene 1 16 18 7.67232 0 32 7.67232 1
gene 1 1 19 -4.24198 0 33 -4.24198 0
gene 1 2 19 3.68364 0 34 3.68364 1
gene 1 3 19 8 0 35 8 1
gene 1 4 19 -0.669033 0 36 -0.669033 1
gene 1 5 19 -2.56373 0 37 -2.56373 1
gene 1 6 19 -4.6564 0 38 -4.6564 1
gene 1 7 19 0.691411 0 39 0.691411 1
gene 1 8 19 8 0 40 8 1
gene 1 9 19 1.82919 0 41 1.82919 1
gene 1 10 19 -7.18257 0 42 -7.18257 1
gene 1 11 19 1.79179 0 43 1.79179 1
gene 1 12 19 1.63752 0 44 1.63752 1
gene 1 13 19 -4.53608 0 45 -4.53608 1
gene 1 14 19 -1.73357 0 46 -1.73357 1
gene 1 15 19 8 0 47 8 1
gene 1 16 19 -7.37515 0 48 -7.37515 1
gene 1 1 20 -0.027249 0 49 -0.027249 1
gene 1 2 20 7.24359 0 50 7.24359 1
gene 1 3 20 6.69438 0 51 6.69438 1
gene 1 4 20 0.397946 0 52 0.397946 1
gene 1 5 20 0.187049 0 53 0.187049 1
gene 1 6 20 6.44246 0 54 6.44246 1
gene 1 7 20 5.87827 0 55 5.87827 1
gene 1 8 20 5.65847 0 56 5.65847 1
gene 1 9 20 2.15549 0 57 2.15549 1
gene 1 10 20 7.69019 0 58 7.69019 1
gene 1 11 20 -0.628583 0 59 -0.628583 1
gene 1 12 20 4.49628 0 60 4.49628 1
gene 1 13 20 4.53216 0 61 4.53216 1
gene 1 14 20 7.57182 0 62 7.57182 1
gene 1 15 20 1.64364 0 63 1.64364 1
gene 1 16 20 5.63131 0 64 5.63131 1
gene 1 3 22 6.99272 0 69 6.99272 0
gene 1 22 20 -2.82242 0 70 -2.82242 1
gene 1 17 19 1.04387 0 130 1.04387 1
gene 1 13 49 -3.77635 0 149 -3.77635 1
gene 1 49 18 -4.76178 0 150 -4.76178 1
gene 1 20 18 -0.357155 0 162 -0.357155 1
gene 1 20 58 -3.23601 0 177 -3.23601 1
gene 1 58 18 -8 0 178 -8 1
gene 1 2 58 -2.90508 0 182 -2.90508 1
gene 1 2 66 1.28253 0 202 1.28253 1
gene 1 66 19 0.722841 0 203 0.722841 1
gene 1 17 58 -6.5143 0 224 -6.5143 1
gene 1 17 20 -1.14634 0 228 -1.14634 1
gene 1 15 22 3.9383 0 267 3.9383 1
gene 1 6 58 -0.899211 0 269 -0.899211 1
gene 1 49 17 -2.71532 0 283 -2.71532 1
gene 1 9 85 1.5583 0 288 1.5583 1
gene 1 85 19 -4.0972 0 289 -4.0972 1
gene 1 9 90 0.86193 0 314 0.86193 1
gene 1 90 20 1.31191 0 315 1.31191 1
gene 1 13 94 3.3029 0 326 3.3029 1
gene 1 94 17 1.72981 0 327 1.72981 1
gene 1 11 22 1.71249 0 347 1.71249 1
gene 1 1 98 -1.27268 0 351 -1.27268 1
gene 1 98 19 0.00491265 0 352 0.00491265 1
gene 1 3 105 2.26832 0 378 2.26832 1
gene 1 105 22 0.770682 0 379 0.770682 1
gene 1 13 90 0.896193 0 430 0.896193 1
gene 1 94 22 0.454382 0 441 0.454382 1
genomeend 16

/* Organism #17 Fitness: 2354 Error: 414 */
genomestart 17
trait 1 0.534619 0.499554 0.373689 0.337037 0.805717 1 1 1 
node 1 1 1 1
node 2 1 1 1
node 3 1 1 1
node 4 1 1 1
node 5 1 1 1
node 6 1 1 1
node 7 1 1 1
node 8 1 1 1
node 9 1 1 1
node 10 1 1 1
node 11 1 1 1
node 12 1 1 1
node 13 1 1 1
node 14 1 1 1
node 15 1 1 1
node 16 1 1 1
node 17 1 0 2
node 18 1 0 2
node 19 1 0 2
node 20 1 0 2
node 22 1 0 0
node 49 1 0 0
node 58 1 0 0
node 66 1 0 0
node 85 1 0 0
node 90 1 0 0
node 94 1 0 0
node 98 1 0 0
node 105 1 0 0
gene 1 1 17 1.07939 0 1 1.07939 1
gene 1 2 17 7.76762 0 2 7.76762 1
gene 1 3 17 3.30967 0 3 3.30967 1
gene 1 4 17 -4.45986 0 4 -4.45986 1
gene 1 5 17 0.623404 0 5 0.623404 1
gene 1 6 17 -2.54185 0 6 -2.54185 1
gene 1 7 17 7.74412 0 7 7.74412 1
gene 1 8 17 -6.08159 0 8 -6.08159 1
gene 1 9 17 -1.48053 0 9 -1.48053 1
gene 1 10 17 -1.08838 0 10 -1.08838 1
gene 1 11 17 4.80395 0 11 4.80395 1
gene 1 12 17 5.82374 0 12 5.82374 1
gene 1 13 17 -5.83108 0 13 -5.83108 1
gene 1 14 17 5.60096 0 14 5.60096 1
gene 1 15 17 0.36119 0 15 0.36119 1
gene 1 16 17 -5.90901 0 16 -5.90901 1
gene 1 1 18 -1.61074 0 17 -1.61074 1
gene 1 2 18 0.988008 0 18 0.988008 1
gene 1 3 18 -1.59627 0 19 -1.59627 1
gene 1 4 18 -2.86975 0 20 -2.86975 1
gene 1 5 18 -0.843492 0 21 -0.843492 1
gene 1 6 18 -0.162769 0 22 -0.162769 1
gene 1 7 18 -0.11989 0 23 -0.11989 1
gene 1 8 18 -7.99575 0 24 -7.99575 1
gene 1 9 18 4.73845 0 25 4.73845 1
gene 1 10 18 -3.72257 0 26 -3.72257 1
gene 1 11 18 -2.89109 0 27 -2.89109 1
gene 1 12 18 -3.19705 0 28 -3.19705 1
gene 1 13 18 -0.83706 0 29 -0.83706 1
gene 1 14 18 6.03909 0 30 6.03909 1
gene 1 15 18 -2.89282 0 31 -2.89282 1
gene 1 16 18 -1.73814 0 32 -1.73814 1
gene 1 1 19 -3.46972 0 33 -3.46972 0
gene 1 2 19 3.3276 0 34 3.3276 1
gene 1 3 19 5.87552 0 35 5.87552 1
gene 1 4 19 -1.45764 0 36 -1.45764 1
gene 1 5 19 -8 0 37 -8 1
gene 1 6 19 -2.63129 0 38 -2.63129 1
gene 1 7 19 3.07963 0 39 3.07963 1
gene 1 8 19 8 0 40 8 1
gene 1 9 19 3.0013 0 41 3.0013 1
gene 1 10 19 -7.09911 0 42 -7.09911 1
gene 1 11 19 -0.427915 0 43 -0.427915 1
gene 1 12 19 1.72526 0 44 1.72526 1
gene 1 13 19 -3.84744 0 45 -3.84744 1
gene 1 14 19 -0.231759 0 46 -0.231759 1
gene 1 15 19 7.34154 0 47 7.34154 1
gene 1 16 19 -8 0 48 -8 1
gene 1 1 20 1.98797 0 49 1.98797 1
gene 1 2 20 5.58914 0 50 5.58914 1
gene 1 3 20 8 0 51 8 1
gene 1 4 20 -6.80163 0 52 -6.80163 1
gene 1 5 20 1.71149 0 53 1.71149 1
gene 1 6 20 8 0 54 8 1
gene 1 7 20 6.1006 0 55 6.1006 1
gene 1 8 20 6.46468 0 56 6.46468 1
gene 1 9 20 -0.0632979 0 57 -0.0632979 1
gene 1 10 20 8 0 58 8 1
gene 1 11 20 -2.25265 0 59 -2.25265 1
gene 1 12 20 6.20017 0 60 6.20017 1
gene 1 13 20 4.48603 0 61 4.48603 1
gene 1 14 20 8 0 62 8 1
gene 1 15 20 0.459683 0 63 0.459683 1
gene 1 16 20 5.98105 0 64 5.98105 1
gene 1 3 22 3.40582 0 69 3.40582 0
gene 1 22 20 -3.8091 0 70 -3.8091 1
gene 1 17 19 -0.33163 0 130 -0.33163 1
gene 1 13 49 -2.51133 0 149 -2.51133 1
gene 1 49 18 -4.08884 0 150 -4.08884 1
gene 1 20 18 1.4125 0 162 1.4125 1
gene 1 20 58 -3.86799 0 177 -3.86799 1
gene 1 58 18 -4.58847 0 178 -4.58847 1
gene 1 2 58 -1.9978 0 182 -1.9978 1
gene 1 2 66 2.42848 0 202 2.42848 1
gene 1 66 19 0.722841 0 203 0.722841 1
gene 1 17 58 1.52569 0 224 1.52569 1
gene 1 17 20 2.50868 0 228 2.50868 1
gene 1 15 22 3.9383 0 267 3.9383 1
gene 1 6 58 0.993731 0 269 0.993731 1
gene 1 49 17 -0.368768 0 283 -0.368768 1
gene 1 9 85 1.5583 0 288 1.5583 1
gene 1 85 19 -3.29296 0 289 -3.29296 1
gene 1 9 90 0.86193 0 314 0.86193 1
gene 1 90 20 0.136381 0 315 0.136381 1
gene 1 13 94 3.3029 0 326 3.3029 1
gene 1 94 17 2.05476 0 327 2.05476 1
gene 1 11 22 -0.0661962 0 347 -0.0661962 1
gene 1 1 98 0.000431625 0 351 0.000431625 1
gene 1 98 19 0.238184 0 352 0.238184 1
gene 1 3 105 -0.642185 0 378 -0.642185 1
gene 1 105 22 -0.313483 0 379 -0.313483 1
gene 1 13 90 0.523522 0 430 0.523522 1
genomeend 17

/* Organism #18 Fitness: 2429 Error: 374 */
genomestart 18
trait 1 0.534619 0.499554 0.373689 0.337037 0.805717 1 1 1 
node 1 1 1 1
node 2 1 1 1
node 3 1 1 1
node 4 1 1 1
node 5 1 1 1
node 6 1 1 1
node 7 1 1 1
node 8 1 1 1
node 9 1 1 1
node 10 1 1 1
node 11 1 1 1
node 12 1 1 1
node 13 1 1 1
node 14 1 1 1
node 15 1 1 1
node 16 1 1 1
node 17 1 0 2
node 18 1 0 2
node 19 1 0 2
node 20 1 0 2
node 22 1 0 0
node 49 1 0 0
node 58 1 0 0
node 66 1 0 0
node 85 1 0 0
node 90 1 0 0
node 94 1 0 0
node 98 1 0 0
node 105 1 0 0
gene 1 1 17 0.355251 0 1 0.355251 1
gene 1 2 17 7.76262 0 2 7.76262 1
gene 1 3 17 0.0163644 0 3 0.0163644 1
gene 1 4 17 -0.84798 0 4 -0.84798 1
gene 1 5 17 4.75201 0 5 4.75201 1
gene 1 6 17 -0.736226 0 6 -0.736226 1
gene 1 7 17 7.19627 0 7 7.19627 1
gene 1 8 17 -6.4665 0 8 -6.4665 1
gene 1 9 17 2.41849 0 9 2.41849 1
gene 1 10 17 1.21307 0 10 1.21307 1
gene 1 11 17 5.21357 0 11 5.21357 1
gene 1 12 17 4.89626 0 12 4.89626 1
gene 1 13 17 -1.53311 0 13 -1.53311 1
gene 1 14 17 5.76106 0 14 5.76106 1
gene 1 15 17 -1.37835 0 15 -1.37835 1
gene 1 16 17 -4.3962 0 16 -4.3962 1
gene 1 1 18 1.08625 0 17 1.08625 1
gene 1 2 18 -2.66603 0 18 -2.66603 1
gene 1 3 18 2.88217 0 19 2.88217 1
gene 1 4 18 -0.865848 0 20 -0.865848 1
gene 1 5 18 -2.87617 0 21 -2.87617 1
gene 1 6 18 -2.12211 0 22 -2.12211 1
gene 1 7 18 -2.27948 0 23 -2.27948 1
gene 1 8 18 -7.40983 0 24 -7.40983 1
gene 1 9 18 5.54698 0 25 5.54698 1
gene 1 10 18 -0.63748 0 26 -0.63748 1
gene 1 11 18 -4.42142 0 27 -4.42142 1
gene 1 12 18 -2.59631 0 28 -2.59631 1
gene 1 13 18 -0.1445 0 29 -0.1445 1
gene 1 14 18 7.86597 0 30 7.86597 1
gene 1 15 18 1.2528 0 31 1.2528 1
gene 1 16 18 -1.07631 0 32 -1.07631 1
gene 1 1 19 -4.24198 0 33 -4.24198 0
gene 1 2 19 -2.31561 0 34 -2.31561 1
gene 1 3 19 8 0 35 8 1
gene 1 4 19 -0.666865 0 36 -0.666865 1
gene 1 5 19 -6.85367 0 37 -6.85367 1
gene 1 6 19 -4.94541 0 38 -4.94541 1
gene 1 7 19 1.06891 0 39 1.06891 1
gene 1 8 19 8 0 40 8 1
gene 1 9 19 -0.639262 0 41 -0.639262 1
gene 1 10 19 -8 0 42 -8 1
gene 1 11 19 0.742213 0 43 0.742213 1
gene 1 12 19 4.41686 0 44 4.41686 1
gene 1 13 19 -2.93401 0 45 -2.93401 1
gene 1 14 19 -0.18544 0 46 -0.18544 1
gene 1 15 19 7.15024 0 47 7.15024 1
gene 1 16 19 -7.37197 0 48 -7.37197 1
gene 1 1 20 -0.293236 0 49 -0.293236 1
gene 1 2 20 4.98124 0 50 4.98124 1
gene 1 3 20 8 0 51 8 1
gene 1 4 20 -7.45342 0 52 -7.45342 1
gene 1 5 20 1.66779 0 53 1.66779 1
gene 1 6 20 5.17905 0 54 5.17905 1
gene 1 7 20 6.52126 0 55 6.52126 1
gene 1 8 20 5.35494 0 56 5.35494 1
gene 1 9 20 -2.2125 0 57 -2.2125 1
gene 1 10 20 7.85834 0 58 7.85834 1
gene 1 11 20 1.42031 0 59 1.42031 1
gene 1 12 20 4.07455 0 60 4.07455 1
gene 1 13 20 3.15728 0 61 3.15728 1
gene 1 14 20 8 0 62 8 1
gene 1 15 20 1.2322 0 63 1.2322 1
gene 1 16 20 3.62195 0 64 3.62195 1
gene 1 3 22 5.69337 0 69 5.69337 0
gene 1 22 20 -1.31469 0 70 -1.31469 1
gene 1 17 19 -0.579049 0 130 -0.579049 1
gene 1 13 49 -3.63577 0 149 -3.63577 1
gene 1 49 18 -3.87167 0 150 -3.87167 1
gene 1 20 18 0.74046 0 162 0.74046 1
gene 1 20 58 -5.52769 0 177 -5.52769 1
gene 1 58 18 0.111572 0 178 0.111572 1
gene 1 2 58 -2.22951 0 182 -2.22951 1
gene 1 2 66 2.18588 0 202 2.18588 1
gene 1 66 19 2.56288 0 203 2.56288 1
gene 1 17 58 -4.11577 0 224 -4.11577 1
gene 1 17 20 -0.342471 0 228 -0.342471 1
gene 1 15 22 2.21563 0 267 2.21563 1
gene 1 6 58 1.34126 0 269 1.34126 1
gene 1 49 17 -0.684089 0 283 -0.684089 1
gene 1 9 85 -0.90694 0 288 -0.90694 1
gene 1 85 19 -2.78078 0 289 -2.78078 1
gene 1 9 90 0.790156 0 314 0.790156 1
gene 1 90 20 0.844335 0 315 0.844335 1
gene 1 13 94 -2.21665 0 326 -2.21665 1
gene 1 94 17 -0.962001 0 327 -0.962001 1
gene 1 11 22 2.11109 0 347 2.11109 1
gene 1 1 98 -1.27268 0 351 -1.27268 1
gene 1 98 19 -0.810539 0 352 -0.810539 1
gene 1 3 105 0.696276 0 378 0.696276 1
gene 1 105 22 0.194544 0 379 0.194544 1
gene 1 13 90 0.121517 0 430 0.121517 1
genomeend 18

/* Organism #19 Fitness: 2285 Error: 433 */
genomestart 19
trait 1 0.534619 0.499554 0.373689 0.337037 0.805717 1 1 1 
node 1 1 1 1
node 2 1 1 1
node 3 1 1 1
node 4 1 1 1
node 5 1 1 1
node 6 1 1 1
node 7 1 1 1
node 8 1 1 1
node 9 1 1 1
node 10 1 1 1
node 11 1 1 1
node 12 1 1 1
node 13 1 1 1
node 14 1 1 1
node 15 1 1 1
node 16 1 1 1
node 17 1 0 2
node 18 1 0 2
node 19 1 0 2
node 20 1 0 2
node 22 1 0 0
node 49 1 0 0
node 58 1 0 0
node 66 1 0 0
node 85 1 0 0
node 90 1 0 0
node 94 1 0 0
node 98 1 0 0
node 105 1 0 0
gene 1 1 17 5.36928 0 1 5.36928 1
gene 1 2 17 5.46143 0 2 5.46143 1
gene 1 3 17 0.970892 0 3 0.970892 1
gene 1 4 17 -2.15457 0 4 -2.15457 1
gene 1 5 17 3.19172 0 5 3.19172 1
gene 1 6 17 -0.823077 0 6 -0.823077 1
gene 1 7 17 6.94585 0 7 6.94585 1
gene 1 8 17 -5.76409 0 8 -5.76409 1
gene 1 9 17 1.90167 0 9 1.90167 1
gene 1 10 17 8 0 10 8 1
gene 1 11 17 2.89371 0 11 2.89371 1
gene 1 12 17 0.429838 0 12 0.429838 1
gene 1 13 17 -0.261277 0 13 -0.261277 1
gene 1 14 17 3.27557 0 14 3.27557 1
gene 1 15 17 1.85336 0 15 1.85336 1
gene 1 16 17 0.397555 0 16 0.397555 1
gene 1 1 18 -1.861 0 17 -1.861 1
gene 1 2 18 -0.968013 0 18 -0.968013 1
gene 1 3 18 2.33054 0 19 2.33054 1
gene 1 4 18 -0.920433 0 20 -0.920433 1
gene 1 5 18 -4.32646 0 21 -4.32646 1
gene 1 6 18 -3.38503 0 22 -3.38503 1
gene 1 7 18 0.190506 0 23 0.190506 1
gene 1 8 18 -7.34949 0 24 -7.34949 1
gene 1 9 18 7.12148 0 25 7.12148 1
gene 1 10 18 3.89155 0 26 3.89155 1
gene 1 11 18 1.50731 0 27 1.50731 1
gene 1 12 18 1.82282 0 28 1.82282 1
gene 1 13 18 2.08406 0 29 2.08406 1
gene 1 14 18 8 0 30 8 1
gene 1 15 18 5.82038 0 31 5.82038 1
gene 1 16 18 7.67232 0 32 7.67232 1
gene 1 1 19 -4.28727 0 33 -4.28727 0
gene 1 2 19 3.68364 0 34 3.68364 1
gene 1 3 19 -2.06998 0 35 -2.06998 1
gene 1 4 19 1.54993 0 36 1.54993 1
gene 1 5 19 -2.56373 0 37 -2.56373 1
gene 1 6 19 1.52335 0 38 1.52335 1
gene 1 7 19 0.691411 0 39 0.691411 1
gene 1 8 19 8 0 40 8 1
gene 1 9 19 1.48826 0 41 1.48826 1
gene 1 10 19 -8 0 42 -8 1
gene 1 11 19 3.02746 0 43 3.02746 1
gene 1 12 19 -0.11185 0 44 -0.11185 1
gene 1 13 19 -2.25782 0 45 -2.25782 1
gene 1 14 19 7.15666 0 46 7.15666 1
gene 1 15 19 6.30183 0 47 6.30183 1
gene 1 16 19 -8 0 48 -8 1
gene 1 1 20 -0.307056 0 49 -0.307056 1
gene 1 2 20 6.93131 0 50 6.93131 1
gene 1 3 20 6.69438 0 51 6.69438 1
gene 1 4 20 0.397946 0 52 0.397946 1
gene 1 5 20 0.187049 0 53 0.187049 1
gene 1 6 20 6.44246 0 54 6.44246 1
gene 1 7 20 6.09266 0 55 6.09266 1
gene 1 8 20 4.07868 0 56 4.07868 1
gene 1 9 20 2.15549 0 57 2.15549 1
gene 1 10 20 5.92884 0 58 5.92884 1
gene 1 11 20 -0.221377 0 59 -0.221377 1
gene 1 12 20 1.24842 0 60 1.24842 1
gene 1 13 20 4.53216 0 61 4.53216 1
gene 1 14 20 7.57182 0 62 7.57182 1
gene 1 15 20 -0.814476 0 63 -0.814476 1
gene 1 16 20 0.88133 0 64 0.88133 1
gene 1 3 22 6.99272 0 69 6.99272 0
gene 1 22 20 -3.90503 0 70 -3.90503 1
gene 1 17 19 -1.04655 0 130 -1.04655 1
gene 1 13 49 -2.04589 0 149 -2.04589 1
gene 1 49 18 -0.844773 0 150 -0.844773 1
gene 1 20 18 6.06665 0 162 6.06665 1
gene 1 20 58 1.6032 0 177 1.6032 1
gene 1 58 18 -7.64136 0 178 -7.64136 1
gene 1 2 58 -2.90508 0 182 -2.90508 1
gene 1 2 66 1.28253 0 202 1.28253 1
gene 1 66 19 1.91953 0 203 1.91953 1
gene 1 17 58 -2.94985 0 224 -2.94985 1
gene 1 17 20 -1.14634 0 228 -1.14634 1
gene 1 15 22 0.168293 0 267 0.168293 1
gene 1 6 58 2.86254 0 269 2.86254 1
gene 1 49 17 -3.36802 0 283 -3.36802 1
gene 1 9 85 -2.12225 0 288 -2.12225 1
gene 1 85 19 -1.99413 0 289 -1.99413 1
gene 1 9 90 -0.517482 0 314 -0.517482 1
gene 1 90 20 1.68407 0 315 1.68407 1
gene 1 13 94 3.08446 0 326 3.08446 1
gene 1 94 17 4.24314 0 327 4.24314 1
gene 1 11 22 -0.228871 0 347 -0.228871 1
gene 1 1 98 -1.50281 0 351 -1.50281 1
gene 1 98 19 2.35166 0 352 2.35166 1
gene 1 3 105 -1.8856 0 378 -1.8856 1
gene 1 105 22 0.770682 0 379 0.770682 1
gene 1 13 90 -1.42147 0 430 -1.42147 1
genomeend 19

/* Organism #20 Fitness: 2334 Error: 415 */
genomestart 20
trait 1 0.534619 0.499554 0.373689 0.337037 0.805717 1 1 1 
node 1 1 1 1
node 2 1 1 1
node 3 1 1 1
node 4 1 1 1
node 5 1 1 1
node 6 1 1 1
node 7 1 1 1
node 8 1 1 1
node 9 1 1 1
node 10 1 1 1
node 11 1 1 1
node 12 1 1 1
node 13 1 1 1
node 14 1 1 1
node 15 1 1 1
node 16 1 1 1
node 17 1 0 2
node 18 1 0 2
node 19 1 0 2
node 20 1 0 2
node 22 1 0 0
node 49 1 0 0
node 58 1 0 0
node 66 1 0 0
node 85 1 0 0
node 90 1 0 0
node 94 1 0 0
node 98 1 0 0
node 105 1 0 0
gene 1 1 17 3.38417 0 1 3.38417 1
gene 1 2 17 6.41625 0 2 6.41625 1
gene 1 3 17 5.2167 0 3 5.2167 1
gene 1 4 17 -1.1749 0 4 -1.1749 1
gene 1 5 17 5.14721 0 5 5.14721 1
gene 1 6 17 2.36556 0 6 2.36556 1
gene 1 7 17 7.88591 0 7 7.88591 1
gene 1 8 17 -7.23719 0 8 -7.23719 1
gene 1 9 17 1.40927 0 9 1.40927 1
gene 1 10 17 8 0 10 8 1
gene 1 11 17 3.89862 0 11 3.89862 1
gene 1 12 17 3.00916 0 12 3.00916 1
gene 1 13 17 -0.261277 0 13 -0.261277 1
gene 1 14 17 2.75086 0 14 2.75086 1
gene 1 15 17 0.756914 0 15 0.756914 1
gene 1 16 17 2.02925 0 16 2.02925 1
gene 1 1 18 -1.23517 0 17 -1.23517 1
gene 1 2 18 -1.06248 0 18 -1.06248 1
gene 1 3 18 0.188392 0 19 0.188392 1
gene 1 4 18 0.824908 0 20 0.824908 1
gene 1 5 18 -6.9288 0 21 -6.9288 1
gene 1 6 18 -1.02917 0 22 -1.02917 1
gene 1 7 18 2.14261 0 23 2.14261 1
gene 1 8 18 -7.97391 0 24 -7.97391 1
gene 1 9 18 7.05135 0 25 7.05135 1
gene 1 10 18 1.56894 0 26 1.56894 1
gene 1 11 18 -1.5298 0 27 -1.5298 1
gene 1 12 18 3.64438 0 28 3.64438 1
gene 1 13 18 -0.65183 0 29 -0.65183 1
gene 1 14 18 6.49138 0 30 6.49138 1
gene 1 15 18 7.99528 0 31 7.99528 1
gene 1 16 18 2.13579 0 32 2.13579 1
gene 1 1 19 -4.28727 0 33 -4.28727 0
gene 1 2 19 0.221694 0 34 0.221694 1
gene 1 3 19 8 0 35 8 1
gene 1 4 19 -0.398928 0 36 -0.398928 1
gene 1 5 19 -4.64203 0 37 -4.64203 1
gene 1 6 19 -0.219164 0 38 -0.219164 1
gene 1 7 19 5.16375 0 39 5.16375 1
gene 1 8 19 4.91979 0 40 4.91979 1
gene 1 9 19 -0.00216166 0 41 -0.00216166 1
gene 1 10 19 -7.90743 0 42 -7.90743 1
gene 1 11 19 3.31878 0 43 3.31878 1
gene 1 12 19 0.070373 0 44 0.070373 1
gene 1 13 19 -2.5478 0 45 -2.5478 1
gene 1 14 19 -1.71103 0 46 -1.71103 1
gene 1 15 19 1.47463 0 47 1.47463 1
gene 1 16 19 -6.02128 0 48 -6.02128 1
gene 1 1 20 -0.307056 0 49 -0.307056 1
gene 1 2 20 4.8702 0 50 4.8702 1
gene 1 3 20 -2.20976 0 51 -2.20976 1
gene 1 4 20 -3.04719 0 52 -3.04719 1
gene 1 5 20 -0.379295 0 53 -0.379295 1
gene 1 6 20 5.74098 0 54 5.74098 1
gene 1 7 20 8 0 55 8 1
gene 1 8 20 5.7784 0 56 5.7784 1
gene 1 9 20 -1.31884 0 57 -1.31884 1
gene 1 10 20 7.15624 0 58 7.15624 1
gene 1 11 20 -3.95033 0 59 -3.95033 1
gene 1 12 20 -0.50328 0 60 -0.50328 1
gene 1 13 20 1.62351 0 61 1.62351 1
gene 1 14 20 3.50689 0 62 3.50689 1
gene 1 15 20 -2.86173 0 63 -2.86173 1
gene 1 16 20 0.733561 0 64 0.733561 1
gene 1 3 22 7.65593 0 69 7.65593 0
gene 1 22 20 -3.65358 0 70 -3.65358 1
gene 1 17 19 -1.04655 0 130 -1.04655 1
gene 1 13 49 -1.74707 0 149 -1.74707 1
gene 1 49 18 -0.458024 0 150 -0.458024 1
gene 1 20 18 5.40344 0 162 5.40344 1
gene 1 20 58 -0.117405 0 177 -0.117405 1
gene 1 58 18 -7.64136 0 178 -7.64136 1
gene 1 2 58 -5.26494 0 182 -5.26494 1
gene 1 2 66 0.985512 0 202 0.985512 1
gene 1 66 19 4.76784 0 203 4.76784 1
gene 1 17 58 -4.93976 0 224 -4.93976 1
gene 1 17 20 -1.29432 0 228 -1.29432 1
gene 1 15 22 2.60827 0 267 2.60827 1
gene 1 6 58 -0.301186 0 269 -0.301186 1
gene 1 49 17 1.77162 0 283 1.77162 1
gene 1 9 85 0.715147 0 288 0.715147 1
gene 1 85 19 0.427845 0 289 0.427845 1
gene 1 9 90 2.03723 0 314 2.03723 1
gene 1 90 20 2.72333 0 315 2.72333 1
gene 1 13 94 2.45675 0 326 2.45675 1
gene 1 94 17 4.01086 0 327 4.01086 1
gene 1 11 22 -0.228871 0 347 -0.228871 1
gene 1 1 98 -1.33366 0 351 -1.33366 1
gene 1 98 19 1.21036 0 352 1.21036 1
gene 1 3 105 0.472032 0 378 0.472032 1
gene 1 105 22 3.02956 0 379 3.02956 1
gene 1 13 90 1.75287 0 430 1.75287 1
genomeend 20

/* Organism #21 Fitness: 2033 Error: 417 */
genomestart 21
trait 1 0.534619 0.499554 0.373689 0.337037 0.805717 1 1 1 
node 1 1 1 1
node 2 1 1 1
node 3 1 1 1
node 4 1 1 1
node 5 1 1 1
node 6 1 1 1
node 7 1 1 1
node 8 1 1 1
node 9 1 1 1
node 10 1 1 1
node 11 1 1 1
node 12 1 1 1
node 13 1 1 1
node 14 1 1 1
node 15 1 1 1
node 16 1 1 1
node 17 1 0 2
node 18 1 0 2
node 19 1 0 2
node 20 1 0 2
node 22 1 0 0
node 49 1 0 0
node 58 1 0 0
node 66 1 0 0
node 85 1 0 0
node 90 1 0 0
node 94 1 0 0
node 98 1 0 0
node 105 1 0 0
gene 1 1 17 6.31029 0 1 6.31029 1
gene 1 2 17 6.73071 0 2 6.73071 1
gene 1 3 17 1.88587 0 3 1.88587 1
gene 1 4 17 -2.85453 0 4 -2.85453 1
gene 1 5 17 1.75104 0 5 1.75104 1
gene 1 6 17 -0.859107 0 6 -0.859107 1
gene 1 7 17 7.47292 0 7 7.47292 1
gene 1 8 17 -6.88204 0 8 -6.88204 1
gene 1 9 17 1.07527 0 9 1.07527 1
gene 1 10 17 7.72074 0 10 7.72074 1
gene 1 11 17 3.62843 0 11 3.62843 1
gene 1 12 17 1.7195 0 12 1.7195 1
gene 1 13 17 -1.8009 0 13 -1.8009 1
gene 1 14 17 2.22653 0 14 2.22653 1
gene 1 15 17 3.76456 0 15 3.76456 1
gene 1 16 17 -2.42677 0 16 -2.42677 1
gene 1 1 18 -0.349118 0 17 -0.349118 1
gene 1 2 18 -0.510624 0 18 -0.510624 1
gene 1 3 18 1.25947 0 19 1.25947 1
gene 1 4 18 -1.20725 0 20 -1.20725 1
gene 1 5 18 -6.16323 0 21 -6.16323 1
gene 1 6 18 -2.23031 0 22 -2.23031 1
gene 1 7 18 -1.0448 0 23 -1.0448 1
gene 1 8 18 -7.6617 0 24 -7.6617 1
gene 1 9 18 6.31447 0 25 6.31447 1
gene 1 10 18 1.4915 0 26 1.4915 1
gene 1 11 18 -1.54621 0 27 -1.54621 1
gene 1 12 18 1.95387 0 28 1.95387 1
gene 1 13 18 0.45507 0 29 0.45507 1
gene 1 14 18 8 0 30 8 1
gene 1 15 18 4.38334 0 31 4.38334 1
gene 1 16 18 7.83616 0 32 7.83616 1
gene 1 1 19 -2.97189 0 33 -2.97189 1
gene 1 2 19 4.30134 0 34 4.30134 1
gene 1 3 19 2.36454 0 35 2.36454 1
gene 1 4 19 0.44045 0 36 0.44045 1
gene 1 5 19 -3.54213 0 37 -3.54213 1
gene 1 6 19 0.652095 0 38 0.652095 1
gene 1 7 19 3.06049 0 39 3.06049 1
gene 1 8 19 7.3114 0 40 7.3114 1
gene 1 9 19 0.823941 0 41 0.823941 1
gene 1 10 19 -7.59128 0 42 -7.59128 1
gene 1 11 19 2.40962 0 43 2.40962 1
gene 1 12 19 0.762835 0 44 0.762835 1
gene 1 13 19 -3.39695 0 45 -3.39695 1
gene 1 14 19 5.94616 0 46 5.94616 1
gene 1 15 19 7.15092 0 47 7.15092 1
gene 1 16 19 -4.04094 0 48 -4.04094 1
gene 1 1 20 -0.429195 0 49 -0.429195 1
gene 1 2 20 7.08745 0 50 7.08745 1
gene 1 3 20 7.34719 0 51 7.34719 1
gene 1 4 20 -1.69947 0 52 -1.69947 1
gene 1 5 20 -0.114519 0 53 -0.114519 1
gene 1 6 20 5.08015 0 54 5.08015 1
gene 1 7 20 3.79463 0 55 3.79463 1
gene 1 8 20 4.86857 0 56 4.86857 1
gene 1 9 20 -0.0373302 0 57 -0.0373302 1
gene 1 10 20 3.47766 0 58 3.47766 1
gene 1 11 20 -1.23213 0 59 -1.23213 1
gene 1 12 20 2.48789 0 60 2.48789 1
gene 1 13 20 3.51281 0 61 3.51281 1
gene 1 14 20 6.66088 0 62 6.66088 1
gene 1 15 20 -2.83695 0 63 -2.83695 1
gene 1 16 20 1.14272 0 64 1.14272 1
gene 1 3 22 7.32432 0 69 7.32432 1
gene 1 22 20 -1.15486 0 70 -1.15486 1
gene 1 17 19 -0.00133872 0 130 -0.00133872 1
gene 1 13 49 -2.91112 0 149 -2.91112 1
gene 1 49 18 -0.465166 0 150 -0.465166 1
gene 1 20 18 5.63133 0 162 5.63133 1
gene 1 20 58 -0.352549 0 177 -0.352549 1
gene 1 58 18 -7.82068 0 178 -7.82068 1
gene 1 2 58 -3.4167 0 182 -3.4167 1
gene 1 2 66 0.170828 0 202 0.170828 1
gene 1 66 19 2.37371 0 203 2.37371 1
gene 1 17 58 -2.60808 0 224 -2.60808 1
gene 1 17 20 -1.04713 0 228 -1.04713 1
gene 1 15 22 0.896253 0 267 0.896253 1
gene 1 6 58 1.72149 0 269 1.72149 1
gene 1 49 17 -2.1863 0 283 -2.1863 1
gene 1 9 85 -1.65623 0 288 -1.65623 1
gene 1 85 19 -0.71953 0 289 -0.71953 1
gene 1 9 90 0.830776 0 314 0.830776 1
gene 1 90 20 1.49799 0 315 1.49799 1
gene 1 13 94 2.77061 0 326 2.77061 1
gene 1 94 17 4.32864 0 327 4.32864 1
gene 1 11 22 0.741809 0 347 0.741809 1
gene 1 1 98 -1.11494 0 351 -1.11494 1
gene 1 98 19 0.732221 0 352 0.732221 1
gene 1 3 105 0.191358 0 378 0.191358 1
gene 1 105 22 0.770682 0 379 0.770682 1
gene 1 13 90 -1.06856 0 430 -1.06856 1
genomeend 21

/* Organism #22 Fitness: 1478 Error: 340 */
genomestart 22
trait 1 1 0.371912 0.373689 0.125696 0.805717 1 1 1 
node 1 1 1 1
node 2 1 1 1
node 3 1 1 1
node 4 1 1 1
node 5 1 1 1
node 6 1 1 1
node 7 1 1 1
node 8 1 1 1
node 9 1 1 1
node 10 1 1 1
node 11 1 1 1
node 12 1 1 1
node 13 1 1 1
node 14 1 1 1
node 15 1 1 1
node 16 1 1 1
node 17 1 0 2
node 18 1 0 2
node 19 1 0 2
node 20 1 0 2
node 22 1 0 0
node 49 1 0 0
node 58 1 0 0
node 66 1 0 0
node 85 1 0 0
node 90 1 0 0
node 94 1 0 0
node 98 1 0 0
node 105 1 0 0
gene 1 1 17 7.25131 0 1 7.25131 1
gene 1 2 17 8 0 2 8 1
gene 1 3 17 0.970892 0 3 0.970892 1
gene 1 4 17 -3.5545 0 4 -3.5545 1
gene 1 5 17 0.310355 0 5 0.310355 1
gene 1 6 17 -0.895136 0 6 -0.895136 1
gene 1 7 17 6.94585 0 7 6.94585 1
gene 1 8 17 -8 0 8 -8 1
gene 1 9 17 0.248869 0 9 0.248869 1
gene 1 10 17 7.44149 0 10 7.44149 1
gene 1 11 17 2.89371 0 11 2.89371 1
gene 1 12 17 0.429838 0 12 0.429838 1
gene 1 13 17 -3.34051 0 13 -3.34051 1
gene 1 14 17 1.1775 0 14 1.1775 1
gene 1 15 17 5.67576 0 15 5.67576 1
gene 1 16 17 0.397555 0 16 0.397555 1
gene 1 1 18 -1.861 0 17 -1.861 1
gene 1 2 18 -0.968013 0 18 -0.968013 1
gene 1 3 18 2.33054 0 19 2.33054 1
gene 1 4 18 -1.49406 0 20 -1.49406 1
gene 1 5 18 -4.32646 0 21 -4.32646 1
gene 1 6 18 -1.0756 0 22 -1.0756 1
gene 1 7 18 -2.2801 0 23 -2.2801 1
gene 1 8 18 -7.34949 0 24 -7.34949 1
gene 1 9 18 7.12148 0 25 7.12148 1
gene 1 10 18 3.89155 0 26 3.89155 1
gene 1 11 18 1.50731 0 27 1.50731 1
gene 1 12 18 1.82282 0 28 1.82282 1
gene 1 13 18 -1.17392 0 29 -1.17392 1
gene 1 14 18 8 0 30 8 1
gene 1 15 18 2.94631 0 31 2.94631 1
gene 1 16 18 7.67232 0 32 7.67232 1
gene 1 1 19 -1.6565 0 33 -1.6565 0
gene 1 2 19 3.68364 0 34 3.68364 1
gene 1 3 19 -2.06998 0 35 -2.06998 1
gene 1 4 19 -0.669033 0 36 -0.669033 1
gene 1 5 19 -2.56373 0 37 -2.56373 1
gene 1 6 19 1.52335 0 38 1.52335 1
gene 1 7 19 0.691411 0 39 0.691411 1
gene 1 8 19 8 0 40 8 1
gene 1 9 19 0.159627 0 41 0.159627 1
gene 1 10 19 -7.18257 0 42 -7.18257 1
gene 1 11 19 1.79179 0 43 1.79179 1
gene 1 12 19 1.63752 0 44 1.63752 1
gene 1 13 19 -4.53608 0 45 -4.53608 1
gene 1 14 19 7.15666 0 46 7.15666 1
gene 1 15 19 8 0 47 8 1
gene 1 16 19 -0.0818863 0 48 -0.0818863 1
gene 1 1 20 -0.551334 0 49 -0.551334 1
gene 1 2 20 7.24359 0 50 7.24359 1
gene 1 3 20 6.69438 0 51 6.69438 1
gene 1 4 20 0.397946 0 52 0.397946 1
gene 1 5 20 0.187049 0 53 0.187049 1
gene 1 6 20 6.44246 0 54 6.44246 1
gene 1 7 20 1.49659 0 55 1.49659 1
gene 1 8 20 5.65847 0 56 5.65847 1
gene 1 9 20 2.15549 0 57 2.15549 1
gene 1 10 20 1.02649 0 58 1.02649 1
gene 1 11 20 -0.221377 0 59 -0.221377 1
gene 1 12 20 1.24842 0 60 1.24842 1
gene 1 13 20 4.53216 0 61 4.53216 1
gene 1 14 20 7.57182 0 62 7.57182 1
gene 1 15 20 -0.814476 0 63 -0.814476 1
gene 1 16 20 0.88133 0 64 0.88133 1
gene 1 3 22 6.99272 0 69 6.99272 0
gene 1 22 20 1.5953 0 70 1.5953 1
gene 1 17 19 1.04387 0 130 1.04387 1
gene 1 13 49 -3.77635 0 149 -3.77635 1
gene 1 49 18 -0.844773 0 150 -0.844773 1
gene 1 20 18 5.196 0 162 5.196 1
gene 1 20 58 -2.3083 0 177 -2.3083 1
gene 1 58 18 -8 0 178 -8 1
gene 1 2 58 -2.90508 0 182 -2.90508 1
gene 1 2 66 1.28253 0 202 1.28253 1
gene 1 66 19 1.91953 0 203 1.91953 1
gene 1 17 58 -2.2663 0 224 -2.2663 1
gene 1 17 20 -1.14634 0 228 -1.14634 1
gene 1 15 22 0.168293 0 267 0.168293 1
gene 1 6 58 2.86254 0 269 2.86254 1
gene 1 49 17 -1.00458 0 283 -1.00458 1
gene 1 9 85 -2.12225 0 288 -2.12225 1
gene 1 85 19 0.555073 0 289 0.555073 1
gene 1 9 90 -0.517482 0 314 -0.517482 1
gene 1 90 20 1.68407 0 315 1.68407 1
gene 1 13 94 3.08446 0 326 3.08446 1
gene 1 94 17 4.41414 0 327 4.41414 1
gene 1 11 22 1.71249 0 347 1.71249 1
gene 1 1 98 -1.50281 0 351 -1.50281 1
gene 1 98 19 -0.887218 0 352 -0.887218 1
gene 1 3 105 2.26832 0 378 2.26832 1
gene 1 105 22 0.770682 0 379 0.770682 1
gene 1 13 90 -1.42147 0 430 -1.42147 1
genomeend 22

/* Organism #23 Fitness: 1614 Error: 361 */
genomestart 23
trait 1 0.534619 0.499554 0.373689 0.337037 0.805717 1 1 1 
node 1 1 1 1
node 2 1 1 1
node 3 1 1 1
node 4 1 1 1
node 5 1 1 1
node 6 1 1 1
node 7 1 1 1
node 8 1 1 1
node 9 1 1 1
node 10 1 1 1
node 11 1 1 1
node 12 1 1 1
node 13 1 1 1
node 14 1 1 1
node 15 1 1 1
node 16 1 1 1
node 17 1 0 2
node 18 1 0 2
node 19 1 0 2
node 20 1 0 2
node 22 1 0 0
node 49 1 0 0
node 58 1 0 0
node 66 1 0 0
node 85 1 0 0
node 90 1 0 0
node 94 1 0 0
node 98 1 0 0
node 105 1 0 0
gene 1 1 17 3.29146 0 1 3.29146 1
gene 1 2 17 3.70252 0 2 3.70252 1
gene 1 3 17 1.9378 0 3 1.9378 1
gene 1 4 17 -4.46817 0 4 -4.46817 1
gene 1 5 17 4.80222 0 5 4.80222 1
gene 1 6 17 0.249779 0 6 0.249779 1
gene 1 7 17 5.77063 0 7 5.77063 1
gene 1 8 17 -8 0 8 -8 1
gene 1 9 17 3.40028 0 9 3.40028 1
gene 1 10 17 5.72505 0 10 5.72505 1
gene 1 11 17 4.83237 0 11 4.83237 1
gene 1 12 17 3.49569 0 12 3.49569 1
gene 1 13 17 -0.185384 0 13 -0.185384 1
gene 1 14 17 5.76407 0 14 5.76407 1
gene 1 15 17 0.815643 0 15 0.815643 1
gene 1 16 17 -2.81734 0 16 -2.81734 1
gene 1 1 18 2.69128 0 17 2.69128 1
gene 1 2 18 -2.45679 0 18 -2.45679 1
gene 1 3 18 0.122197 0 19 0.122197 1
gene 1 4 18 -4.27742 0 20 -4.27742 1
gene 1 5 18 -2.89286 0 21 -2.89286 1
gene 1 6 18 -1.98783 0 22 -1.98783 1
gene 1 7 18 -2.23104 0 23 -2.23104 1
gene 1 8 18 -8 0 24 -8 1
gene 1 9 18 5.79844 0 25 5.79844 1
gene 1 10 18 -3.38847 0 26 -3.38847 1
gene 1 11 18 -6.00202 0 27 -6.00202 1
gene 1 12 18 3.0662 0 28 3.0662 1
gene 1 13 18 2.243 0 29 2.243 1
gene 1 14 18 8 0 30 8 1
gene 1 15 18 7.51751 0 31 7.51751 1
gene 1 16 18 -4.16918 0 32 -4.16918 1
gene 1 1 19 -6.62706 0 33 -6.62706 0
gene 1 2 19 5.9008 0 34 5.9008 1
gene 1 3 19 6.55203 0 35 6.55203 1
gene 1 4 19 1.25651 0 36 1.25651 1
gene 1 5 19 -8 0 37 -8 1
gene 1 6 19 -5.92889 0 38 -5.92889 1
gene 1 7 19 5.16872 0 39 5.16872 1
gene 1 8 19 8 0 40 8 1
gene 1 9 19 1.07869 0 41 1.07869 1
gene 1 10 19 -8 0 42 -8 1
gene 1 11 19 2.38199 0 43 2.38199 1
gene 1 12 19 1.81096 0 44 1.81096 1
gene 1 13 19 -0.761578 0 45 -0.761578 1
gene 1 14 19 -3.48407 0 46 -3.48407 1
gene 1 15 19 6.11338 0 47 6.11338 1
gene 1 16 19 -6.22943 0 48 -6.22943 1
gene 1 1 20 -1.33683 0 49 -1.33683 1
gene 1 2 20 4.85296 0 50 4.85296 1
gene 1 3 20 8 0 51 8 1
gene 1 4 20 -7.38891 0 52 -7.38891 1
gene 1 5 20 -1.96612 0 53 -1.96612 1
gene 1 6 20 5.23381 0 54 5.23381 1
gene 1 7 20 5.05404 0 55 5.05404 1
gene 1 8 20 5.58104 0 56 5.58104 1
gene 1 9 20 -0.724495 0 57 -0.724495 1
gene 1 10 20 6.16512 0 58 6.16512 1
gene 1 11 20 -2.95762 0 59 -2.95762 1
gene 1 12 20 3.16912 0 60 3.16912 1
gene 1 13 20 3.55075 0 61 3.55075 1
gene 1 14 20 3.58069 0 62 3.58069 1
gene 1 15 20 2.42219 0 63 2.42219 1
gene 1 16 20 3.15584 0 64 3.15584 1
gene 1 3 22 8 0 69 8 0
gene 1 22 20 -1.94211 0 70 -1.94211 1
gene 1 17 19 -3.24572 0 130 -3.24572 1
gene 1 13 49 -1.41983 0 149 -1.41983 1
gene 1 49 18 0.528682 0 150 0.528682 1
gene 1 20 18 5.12881 0 162 5.12881 1
gene 1 20 58 2.9825 0 177 2.9825 1
gene 1 58 18 -5.91288 0 178 -5.91288 1
gene 1 2 58 2.06709 0 182 2.06709 1
gene 1 2 66 3.18517 0 202 3.18517 1
gene 1 66 19 1.32119 0 203 1.32119 1
gene 1 17 58 -5.29738 0 224 -5.29738 1
gene 1 17 20 1.25105 0 228 1.25105 1
gene 1 15 22 3.9383 0 267 3.9383 1
gene 1 6 58 2.27012 0 269 2.27012 1
gene 1 49 17 -4.20184 0 283 -4.20184 1
gene 1 9 85 0.483807 0 288 0.483807 1
gene 1 85 19 -1.99413 0 289 -1.99413 1
gene 1 9 90 1.16672 0 314 1.16672 1
gene 1 90 20 1.31413 0 315 1.31413 1
gene 1 13 94 4.8183 0 326 4.8183 1
gene 1 94 17 -0.343432 0 327 -0.343432 1
gene 1 11 22 -1.14594 0 347 -1.14594 1
gene 1 1 98 -0.85541 0 351 -0.85541 1
gene 1 98 19 -0.452014 0 352 -0.452014 1
gene 1 3 105 -2.71119 0 378 -2.71119 1
gene 1 105 22 0.770682 0 379 0.770682 1
gene 1 13 90 -0.135543 0 430 -0.135543 1
genomeend 23

/* Organism #24 Fitness: 2653 Error: 480 */
genomestart 24
trait 1 0.534619 0.499554 0.373689 0.337037 0.805717 1 1 1 
node 1 1 1 1
node 2 1 1 1
node 3 1 1 1
node 4 1 1 1
node 5 1 1 1
node 6 1 1 1
node 7 1 1 1
node 8 1 1 1
node 9 1 1 1
node 10 1 1 1
node 11 1 1 1
node 12 1 1 1
node 13 1 1 1
node 14 1 1 1
node 15 1 1 1
node 16 1 1 1
node 17 1 0 2
node 18 1 0 2
node 19 1 0 2
node 20 1 0 2
node 22 1 0 0
node 49 1 0 0
node 58 1 0 0
node 66 1 0 0
node 85 1 0 0
node 90 1 0 0
node 94 1 0 0
node 98 1 0 0
node 105 1 0 0
gene 1 1 17 5.36928 0 1 5.36928 1
gene 1 2 17 5.46143 0 2 5.46143 1
gene 1 3 17 2.80085 0 3 2.80085 1
gene 1 4 17 -2.42317 0 4 -2.42317 1
gene 1 5 17 2.59018 0 5 2.59018 1
gene 1 6 17 -0.736226 0 6 -0.736226 1
gene 1 7 17 8 0 7 8 1
gene 1 8 17 -5.76409 0 8 -5.76409 1
gene 1 9 17 1.90167 0 9 1.90167 1
gene 1 10 17 8 0 10 8 1
gene 1 11 17 3.24936 0 11 3.24936 1
gene 1 12 17 3.78415 0 12 3.78415 1
gene 1 13 17 -3.68162 0 13 -3.68162 1
gene 1 14 17 3.57367 0 14 3.57367 1
gene 1 15 17 1.85336 0 15 1.85336 1
gene 1 16 17 -5.2511 0 16 -5.2511 1
gene 1 1 18 1.16277 0 17 1.16277 1
gene 1 2 18 -0.053235 0 18 -0.053235 1
gene 1 3 18 0.188392 0 19 0.188392 1
gene 1 4 18 -0.920433 0 20 -0.920433 1
gene 1 5 18 -1.6567 0 21 -1.6567 1
gene 1 6 18 -0.736318 0 22 -0.736318 1
gene 1 7 18 -1.98765 0 23 -1.98765 1
gene 1 8 18 -7.97391 0 24 -7.97391 1
gene 1 9 18 5.06262 0 25 5.06262 1
gene 1 10 18 -0.908548 0 26 -0.908548 1
gene 1 11 18 -3.76797 0 27 -3.76797 1
gene 1 12 18 -2.15796 0 28 -2.15796 1
gene 1 13 18 2.08406 0 29 2.08406 1
gene 1 14 18 8 0 30 8 1
gene 1 15 18 -1.46203 0 31 -1.46203 1
gene 1 16 18 8 0 32 8 1
gene 1 1 19 -4.28727 0 33 -4.28727 0
gene 1 2 19 4.56519 0 34 4.56519 1
gene 1 3 19 6.79906 0 35 6.79906 1
gene 1 4 19 -0.827242 0 36 -0.827242 1
gene 1 5 19 -4.52053 0 37 -4.52053 1
gene 1 6 19 -4.6564 0 38 -4.6564 1
gene 1 7 19 3.04085 0 39 3.04085 1
gene 1 8 19 8 0 40 8 1
gene 1 9 19 1.48826 0 41 1.48826 1
gene 1 10 19 -8 0 42 -8 1
gene 1 11 19 3.02746 0 43 3.02746 1
gene 1 12 19 -0.11185 0 44 -0.11185 1
gene 1 13 19 -2.93401 0 45 -2.93401 1
gene 1 14 19 4.73567 0 46 4.73567 1
gene 1 15 19 8 0 47 8 1
gene 1 16 19 -7.37515 0 48 -7.37515 1
gene 1 1 20 -0.027249 0 49 -0.027249 1
gene 1 2 20 6.93131 0 50 6.93131 1
gene 1 3 20 8 0 51 8 1
gene 1 4 20 -3.79689 0 52 -3.79689 1
gene 1 5 20 -0.416087 0 53 -0.416087 1
gene 1 6 20 7.39189 0 54 7.39189 1
gene 1 7 20 5.87827 0 55 5.87827 1
gene 1 8 20 4.07868 0 56 4.07868 1
gene 1 9 20 -2.23015 0 57 -2.23015 1
gene 1 10 20 7.69019 0 58 7.69019 1
gene 1 11 20 -2.24288 0 59 -2.24288 1
gene 1 12 20 4.49628 0 60 4.49628 1
gene 1 13 20 2.49345 0 61 2.49345 1
gene 1 14 20 7.59099 0 62 7.59099 1
gene 1 15 20 -4.85943 0 63 -4.85943 1
gene 1 16 20 1.40411 0 64 1.40411 1
gene 1 3 22 7.65593 0 69 7.65593 0
gene 1 22 20 -3.90503 0 70 -3.90503 1
gene 1 17 19 0.396604 0 130 0.396604 1
gene 1 13 49 -2.129 0 149 -2.129 1
gene 1 49 18 -0.0855598 0 150 -0.0855598 1
gene 1 20 18 6.06665 0 162 6.06665 1
gene 1 20 58 1.6032 0 177 1.6032 1
gene 1 58 18 -6.0659 0 178 -6.0659 1
gene 1 2 58 -3.92833 0 182 -3.92833 1
gene 1 2 66 1.56315 0 202 1.56315 1
gene 1 66 19 2.82789 0 203 2.82789 1
gene 1 17 58 -6.5143 0 224 -6.5143 1
gene 1 17 20 -0.947921 0 228 -0.947921 1
gene 1 15 22 1.62421 0 267 1.62421 1
gene 1 6 58 0.580435 0 269 0.580435 1
gene 1 49 17 -3.36802 0 283 -3.36802 1
gene 1 9 85 1.5583 0 288 1.5583 1
gene 1 85 19 -1.99413 0 289 -1.99413 1
gene 1 9 90 2.17903 0 314 2.17903 1
gene 1 90 20 1.31191 0 315 1.31191 1
gene 1 13 94 2.45675 0 326 2.45675 1
gene 1 94 17 4.24314 0 327 4.24314 1
gene 1 11 22 -0.228871 0 347 -0.228871 1
gene 1 1 98 -1.27268 0 351 -1.27268 1
gene 1 98 19 2.35166 0 352 2.35166 1
gene 1 3 105 -0.684212 0 378 -0.684212 1
gene 1 105 22 0.770682 0 379 0.770682 1
gene 1 13 90 0.896193 0 430 0.896193 1
genomeend 24

/* Organism #25 Fitness: 3444 Error: 559 */
genomestart 25
trait 1 0.534619 0.499554 0.373689 0.337037 0.805717 1 1 1 
node 1 1 1 1
node 2 1 1 1
node 3 1 1 1
node 4 1 1 1
node 5 1 1 1
node 6 1 1 1
node 7 1 1 1
node 8 1 1 1
node 9 1 1 1
node 10 1 1 1
node 11 1 1 1
node 12 1 1 1
node 13 1 1 1
node 14 1 1 1
node 15 1 1 1
node 16 1 1 1
node 17 1 0 2
node 18 1 0 2
node 19 1 0 2
node 20 1 0 2
node 22 1 0 0
node 49 1 0 0
node 58 1 0 0
node 66 1 0 0
node 85 1 0 0
node 90 1 0 0
node 94 1 0 0
node 98 1 0 0
node 105 1 0 0
gene 1 1 17 5.92252 0 1 5.92252 1
gene 1 2 17 8 0 2 8 1
gene 1 3 17 2.89654 0 3 2.89654 1
gene 1 4 17 -5.02636 0 4 -5.02636 1
gene 1 5 17 0.987013 0 5 0.987013 1
gene 1 6 17 -1.7802 0 6 -1.7802 1
gene 1 7 17 6.88169 0 7 6.88169 1
gene 1 8 17 -6.54111 0 8 -6.54111 1
gene 1 9 17 -1.4221 0 9 -1.4221 1
gene 1 10 17 5.55276 0 10 5.55276 1
gene 1 11 17 1.28706 0 11 1.28706 1
gene 1 12 17 1.96205 0 12 1.96205 1
gene 1 13 17 -4.89762 0 13 -4.89762 1
gene 1 14 17 -1.30315 0 14 -1.30315 1
gene 1 15 17 8 0 15 8 1
gene 1 16 17 2.39218 0 16 2.39218 1
gene 1 1 18 -0.58305 0 17 -0.58305 1
gene 1 2 18 -3.13176 0 18 -3.13176 1
gene 1 3 18 0.10794 0 19 0.10794 1
gene 1 4 18 0.353007 0 20 0.353007 1
gene 1 5 18 -2.21238 0 21 -2.21238 1
gene 1 6 18 -0.731574 0 22 -0.731574 1
gene 1 7 18 -1.28147 0 23 -1.28147 1
gene 1 8 18 -6.69365 0 24 -6.69365 1
gene 1 9 18 8 0 25 8 1
gene 1 10 18 5.44635 0 26 5.44635 1
gene 1 11 18 1.8298 0 27 1.8298 1
gene 1 12 18 1.5748 0 28 1.5748 1
gene 1 13 18 0.939984 0 29 0.939984 1
gene 1 14 18 7.17694 0 30 7.17694 1
gene 1 15 18 3.37916 0 31 3.37916 1
gene 1 16 18 8 0 32 8 1
gene 1 1 19 -3.51241 0 33 -3.51241 0
gene 1 2 19 3.47915 0 34 3.47915 1
gene 1 3 19 -1.94444 0 35 -1.94444 1
gene 1 4 19 -1.38522 0 36 -1.38522 1
gene 1 5 19 -4.75409 0 37 -4.75409 1
gene 1 6 19 2.81222 0 38 2.81222 1
gene 1 7 19 0.794432 0 39 0.794432 1
gene 1 8 19 8 0 40 8 1
gene 1 9 19 1.61551 0 41 1.61551 1
gene 1 10 19 -7.70573 0 42 -7.70573 1
gene 1 11 19 0.992946 0 43 0.992946 1
gene 1 12 19 2.29172 0 44 2.29172 1
gene 1 13 19 -3.58564 0 45 -3.58564 1
gene 1 14 19 7.35681 0 46 7.35681 1
gene 1 15 19 7.65685 0 47 7.65685 1
gene 1 16 19 0.0224664 0 48 0.0224664 1
gene 1 1 20 1.55243 0 49 1.55243 1
gene 1 2 20 8 0 50 8 1
gene 1 3 20 6.40249 0 51 6.40249 1
gene 1 4 20 -0.157917 0 52 -0.157917 1
gene 1 5 20 0.894871 0 53 0.894871 1
gene 1 6 20 6.10073 0 54 6.10073 1
gene 1 7 20 3.47466 0 55 3.47466 1
gene 1 8 20 7.03354 0 56 7.03354 1
gene 1 9 20 4.59123 0 57 4.59123 1
gene 1 10 20 -1.24475 0 58 -1.24475 1
gene 1 11 20 0.957955 0 59 0.957955 1
gene 1 12 20 3.61866 0 60 3.61866 1
gene 1 13 20 2.58367 0 61 2.58367 1
gene 1 14 20 8 0 62 8 1
gene 1 15 20 -3.14561 0 63 -3.14561 1
gene 1 16 20 2.60689 0 64 2.60689 1
gene 1 3 22 5.23258 0 69 5.23258 0
gene 1 22 20 1.76754 0 70 1.76754 1
gene 1 17 19 2.91815 0 130 2.91815 1
gene 1 13 49 -1.37276 0 149 -1.37276 1
gene 1 49 18 -1.66014 0 150 -1.66014 1
