
/* Species #60 : (Size 13) (AF 2026.85) (Age 20)  */


/* Organism #0 Fitness: 1270 Error: 235 */
genomestart 0
trait 1 0.534889 0.531579 0.535503 0.690432 0.65826 0.623369 0.798816 0.126657 
node 1 1 1 1
node 2 1 1 1
node 3 1 1 1
node 4 1 1 1
node 5 1 1 1
node 6 1 1 1
node 7 1 1 1
node 8 1 1 1
node 9 1 1 1
node 10 1 1 1
node 11 1 1 1
node 12 1 1 1
node 13 1 1 1
node 14 1 1 1
node 15 1 1 1
node 16 1 1 1
node 17 1 0 2
node 18 1 0 2
node 19 1 0 2
node 20 1 0 2
node 24 1 0 0
node 25 1 0 0
node 39 1 0 0
node 55 1 0 0
node 56 1 0 0
node 64 1 0 0
node 69 1 0 0
node 77 1 0 0
node 97 1 0 0
node 99 1 0 0
node 109 1 0 0
node 111 1 0 0
node 113 1 0 0
node 119 1 0 0
node 121 1 0 0
node 122 1 0 0
node 126 1 0 0
node 134 1 0 0
node 136 1 0 0
node 139 1 0 0
node 145 1 0 0
node 149 1 0 0
node 159 1 0 0
node 174 1 0 0
node 177 1 0 0
node 179 1 0 0
node 182 1 0 0
node 190 1 0 0
node 207 1 0 0
node 215 1 0 0
node 216 1 0 0
node 221 1 0 0
node 224 1 0 0
node 242 1 0 0
gene 1 1 17 -1.83887 0 1 -1.83887 1
gene 1 2 17 -0.986008 0 2 -0.986008 1
gene 1 3 17 1.03627 0 3 1.03627 1
gene 1 4 17 0.144389 0 4 0.144389 1
gene 1 5 17 7.36507 0 5 7.36507 1
gene 1 6 17 2.45864 0 6 2.45864 1
gene 1 7 17 0.765137 0 7 0.765137 1
gene 1 8 17 2.9723 0 8 2.9723 1
gene 1 9 17 4.70759 0 9 4.70759 1
gene 1 10 17 0.0536542 0 10 0.0536542 1
gene 1 11 17 0.74283 0 11 0.74283 1
gene 1 12 17 5.92261 0 12 5.92261 1
gene 1 13 17 0.736242 0 13 0.736242 1
gene 1 14 17 2.83369 0 14 2.83369 1
gene 1 15 17 -4.89117 0 15 -4.89117 1
gene 1 16 17 5.59466 0 16 5.59466 1
gene 1 1 18 -3.91918 0 17 -3.91918 1
gene 1 2 18 -3.12844 0 18 -3.12844 1
gene 1 3 18 -2.08542 0 19 -2.08542 1
gene 1 4 18 1.2329 0 20 1.2329 1
gene 1 5 18 -2.18488 0 21 -2.18488 1
gene 1 6 18 -3.22475 0 22 -3.22475 1
gene 1 7 18 -7.61532 0 23 -7.61532 1
gene 1 8 18 -1.55731 0 24 -1.55731 1
gene 1 9 18 0.412147 0 25 0.412147 1
gene 1 10 18 -1.98002 0 26 -1.98002 1
gene 1 11 18 -0.0873389 0 27 -0.0873389 1
gene 1 12 18 -1.84729 0 28 -1.84729 1
gene 1 13 18 2.05928 0 29 2.05928 1
gene 1 14 18 0.409708 0 30 0.409708 1
gene 1 15 18 3.94206 0 31 3.94206 1
gene 1 16 18 -0.195516 0 32 -0.195516 1
gene 1 1 19 4.16061 0 33 4.16061 1
gene 1 2 19 3.89397 0 34 3.89397 1
gene 1 3 19 3.18124 0 35 3.18124 1
gene 1 4 19 -5.766 0 36 -5.766 1
gene 1 5 19 3.99346 0 37 3.99346 1
gene 1 6 19 -2.22762 0 38 -2.22762 1
gene 1 7 19 3.48834 0 39 3.48834 1
gene 1 8 19 -2.12227 0 40 -2.12227 1
gene 1 9 19 -1.8604 0 41 -1.8604 1
gene 1 10 19 2.15747 0 42 2.15747 1
gene 1 11 19 -2.09927 0 43 -2.09927 1
gene 1 12 19 -1.08942 0 44 -1.08942 1
gene 1 13 19 -8 0 45 -8 1
gene 1 14 19 0.429543 0 46 0.429543 1
gene 1 15 19 1.52076 0 47 1.52076 1
gene 1 16 19 1.05305 0 48 1.05305 1
gene 1 1 20 -0.895988 0 49 -0.895988 1
gene 1 2 20 4.71721 0 50 4.71721 1
gene 1 3 20 0.770142 0 51 0.770142 1
gene 1 4 20 -0.692877 0 52 -0.692877 1
gene 1 5 20 2.88688 0 53 2.88688 1
gene 1 6 20 -0.76066 0 54 -0.76066 1
gene 1 7 20 -2.33247 0 55 -2.33247 1
gene 1 8 20 2.76852 0 56 2.76852 1
gene 1 9 20 -0.608817 0 57 -0.608817 1
gene 1 10 20 -2.92199 0 58 -2.92199 1
gene 1 11 20 3.37158 0 59 3.37158 1
gene 1 12 20 0.352853 0 60 0.352853 1
gene 1 13 20 1.2129 0 61 1.2129 1
gene 1 14 20 -6.26115 0 62 -6.26115 1
gene 1 15 20 3.01031 0 63 3.01031 1
gene 1 16 20 0.938689 0 64 0.938689 1
gene 1 7 24 3.55847 0 74 3.55847 1
gene 1 24 17 1.47587 0 75 1.47587 1
gene 1 11 25 -0.58726 0 78 -0.58726 1
gene 1 25 18 -6.93548 0 79 -6.93548 1
gene 1 20 24 -4.46409 0 89 -4.46409 1
gene 1 25 19 2.50998 0 93 2.50998 1
gene 1 10 25 -2.76672 0 96 -2.76672 1
gene 1 20 18 4.44691 0 102 4.44691 1
gene 1 5 24 -0.0973446 0 114 -0.0973446 1
gene 1 9 25 -2.63273 0 124 -2.63273 1
gene 1 8 39 -4.61386 0 142 -4.61386 1
gene 1 39 19 -2.72569 0 143 -2.72569 1
gene 1 18 24 6.31524 0 156 6.31524 1
gene 1 4 25 1.86527 0 177 1.86527 1
gene 1 1 55 -5.66251 0 209 -5.66251 1
gene 1 55 20 -0.587843 0 210 -0.587843 1
gene 1 2 55 2.23867 0 212 2.23867 1
gene 1 16 56 -1.82945 0 215 -1.82945 1
gene 1 56 20 2.77003 0 216 2.77003 1
gene 1 14 64 -8 0 240 -8 1
gene 1 64 18 -1.03058 0 241 -1.03058 1
gene 1 2 69 5.30667 0 256 5.30667 1
gene 1 69 20 -4.8689 0 257 -4.8689 0
gene 1 15 64 4.06466 0 274 4.06466 1
gene 1 5 77 -3.08227 0 291 -3.08227 1
gene 1 77 20 -1.21743 0 292 -1.21743 1
gene 1 11 77 -0.250828 0 314 -0.250828 1
gene 1 9 56 1.93372 0 334 1.93372 1
gene 1 9 39 -8 0 360 -8 1
gene 1 14 97 0.357422 0 361 0.357422 1
gene 1 97 18 -6.69254 0 362 -6.69254 1
gene 1 97 99 -1.40776 0 365 -1.40776 1
gene 1 99 18 -0.429729 0 366 -0.429729 1
gene 1 69 77 -3.69483 0 367 -3.69483 1
gene 1 8 97 -8 0 379 -8 1
gene 1 4 55 -1.40037 0 409 -1.40037 1
gene 1 16 109 -0.420465 0 411 -0.420465 1
gene 1 109 17 0.389988 0 412 0.389988 1
gene 1 14 111 3.50138 0 418 3.50138 1
gene 1 111 97 2.13554 0 419 2.13554 1
gene 1 10 55 -4.68946 0 429 -4.68946 1
gene 1 14 113 4.73041 0 430 4.73041 1
gene 1 113 97 2.92917 0 431 2.92917 1
gene 1 15 119 -2.14769 0 452 -2.14769 1
gene 1 119 17 -3.06198 0 453 -3.06198 1
gene 1 6 39 6.20095 0 456 6.20095 1
gene 1 5 113 4.30709 0 462 4.30709 1
gene 1 1 121 -0.134503 0 463 -0.134503 1
gene 1 121 17 1.79237 0 464 1.79237 1
gene 1 6 122 -2.45553 0 466 -2.45553 1
gene 1 122 39 3.52849 0 467 3.52849 1
gene 1 8 25 1.57182 0 469 1.57182 1
gene 1 15 126 2.6367 0 485 2.6367 1
gene 1 126 18 7.56738 0 486 7.56738 1
gene 1 77 39 -2.66294 0 495 -2.66294 1
gene 1 8 134 -2.57968 0 512 -2.57968 1
gene 1 134 25 -4.91263 0 513 -4.91263 1
gene 1 16 136 0.111307 0 520 0.111307 1
gene 1 136 18 1.94942 0 521 1.94942 1
gene 1 109 55 -5.9301 0 526 -5.9301 1
gene 1 16 139 4.56663 0 536 4.56663 1
gene 1 139 109 2.21039 0 537 2.21039 1
gene 1 18 145 1.58175 0 557 1.58175 1
gene 1 145 24 1.35901 0 558 1.35901 1
gene 1 25 145 2.91741 0 561 2.91741 1
gene 1 14 149 2.89863 0 571 2.89863 1
gene 1 149 97 -2.57236 0 572 -2.57236 1
gene 1 19 111 2.31929 0 592 2.31929 1
gene 1 126 111 -3.51293 0 593 -3.51293 1
gene 1 149 99 -1.30042 0 595 -1.30042 1
gene 1 10 159 1.44197 0 609 1.44197 1
gene 1 159 19 1.09979 0 610 1.09979 1
gene 1 9 139 -1.73665 0 612 -1.73665 1
gene 1 10 174 -0.458183 0 659 -0.458183 1
gene 1 174 25 1.64719 0 660 1.64719 1
gene 1 174 177 2.91356 0 667 2.91356 1
gene 1 177 25 1.92598 0 668 1.92598 1
gene 1 1 179 -1.13391 0 672 -1.13391 1
gene 1 179 121 2.2731 0 673 2.2731 1
gene 1 5 182 1.58857 0 679 1.58857 1
gene 1 182 24 -0.342277 0 680 -0.342277 1
gene 1 121 149 -0.0759238 0 691 -0.0759238 1
gene 1 6 149 1.44927 0 711 1.44927 1
gene 1 4 190 1.55386 0 712 1.55386 1
gene 1 190 20 1.75788 0 713 1.75788 1
gene 1 3 207 -1.55935 0 767 -1.55935 1
gene 1 207 18 -2.0707 0 768 -2.0707 1
gene 1 69 215 0.24441 0 795 0.24441 1
gene 1 215 20 -3.23763 0 796 -3.23763 1
gene 1 13 216 1.17834 0 800 1.17834 1
gene 1 216 19 -0.408842 0 801 -0.408842 1
gene 1 7 221 -0.15419 0 816 -0.15419 1
gene 1 221 17 -0.0776962 0 817 -0.0776962 1
gene 1 39 149 -0.392707 0 820 -0.392707 1
gene 1 9 136 -1.53365 0 826 -1.53365 1
gene 1 182 224 -1.50482 0 838 -1.50482 1
gene 1 224 24 -2.57735 0 839 -2.57735 1
gene 1 113 69 4.49736 0 843 4.49736 1
gene 1 177 111 5.89789 0 857 5.89789 1
gene 1 126 99 -1.58753 0 883 -1.58753 1
gene 1 56 159 0.873217 0 894 0.873217 1
gene 1 15 242 -0.731753 0 903 -0.731753 1
gene 1 242 126 -3.0084 0 904 -3.0084 1
gene 1 207 190 -1.299 0 907 -1.299 1
gene 1 15 69 1.3912 0 919 1.3912 1
genomeend 0

/* Organism #1 Fitness: 1970 Error: 240 */
genomestart 1
trait 1 0.534889 0.531579 0.535503 0.690432 0.65826 0.623369 0.798816 0.126657 
node 1 1 1 1
node 2 1 1 1
node 3 1 1 1
node 4 1 1 1
node 5 1 1 1
node 6 1 1 1
node 7 1 1 1
node 8 1 1 1
node 9 1 1 1
node 10 1 1 1
node 11 1 1 1
node 12 1 1 1
node 13 1 1 1
node 14 1 1 1
node 15 1 1 1
node 16 1 1 1
node 17 1 0 2
node 18 1 0 2
node 19 1 0 2
node 20 1 0 2
node 24 1 0 0
node 25 1 0 0
node 39 1 0 0
node 55 1 0 0
node 56 1 0 0
node 64 1 0 0
node 69 1 0 0
node 77 1 0 0
node 97 1 0 0
node 99 1 0 0
node 109 1 0 0
node 111 1 0 0
node 113 1 0 0
node 119 1 0 0
node 121 1 0 0
node 122 1 0 0
node 126 1 0 0
node 134 1 0 0
node 136 1 0 0
node 139 1 0 0
node 145 1 0 0
node 149 1 0 0
node 159 1 0 0
node 174 1 0 0
node 177 1 0 0
node 179 1 0 0
node 182 1 0 0
node 190 1 0 0
node 207 1 0 0
node 215 1 0 0
node 216 1 0 0
node 221 1 0 0
node 224 1 0 0
node 242 1 0 0
node 249 1 0 0
gene 1 1 17 -0.623422 0 1 -0.623422 1
gene 1 2 17 1.10241 0 2 1.10241 1
gene 1 3 17 1.18846 0 3 1.18846 1
gene 1 4 17 -1.28463 0 4 -1.28463 1
gene 1 5 17 2.78384 0 5 2.78384 1
gene 1 6 17 1.18027 0 6 1.18027 1
gene 1 7 17 -1.84123 0 7 -1.84123 1
gene 1 8 17 1.31455 0 8 1.31455 1
gene 1 9 17 6.34686 0 9 6.34686 1
gene 1 10 17 2.16378 0 10 2.16378 1
gene 1 11 17 0.912422 0 11 0.912422 1
gene 1 12 17 1.33046 0 12 1.33046 1
gene 1 13 17 0.861961 0 13 0.861961 1
gene 1 14 17 1.4566 0 14 1.4566 1
gene 1 15 17 -2.50556 0 15 -2.50556 1
gene 1 16 17 2.78095 0 16 2.78095 1
gene 1 1 18 -2.32746 0 17 -2.32746 1
gene 1 2 18 0.314613 0 18 0.314613 1
gene 1 3 18 -6.07597 0 19 -6.07597 1
gene 1 4 18 0.924405 0 20 0.924405 1
gene 1 5 18 0.473332 0 21 0.473332 1
gene 1 6 18 -1.75848 0 22 -1.75848 1
gene 1 7 18 -4.01685 0 23 -4.01685 1
gene 1 8 18 -1.50928 0 24 -1.50928 1
gene 1 9 18 2.19796 0 25 2.19796 1
gene 1 10 18 1.25613 0 26 1.25613 1
gene 1 11 18 1.99392 0 27 1.99392 1
gene 1 12 18 -1.46018 0 28 -1.46018 1
gene 1 13 18 1.07677 0 29 1.07677 1
gene 1 14 18 1.37438 0 30 1.37438 1
gene 1 15 18 3.04374 0 31 3.04374 1
gene 1 16 18 -1.80519 0 32 -1.80519 1
gene 1 1 19 0.849833 0 33 0.849833 1
gene 1 2 19 -0.27445 0 34 -0.27445 1
gene 1 3 19 5.724 0 35 5.724 1
gene 1 4 19 -2.60043 0 36 -2.60043 1
gene 1 5 19 1.69834 0 37 1.69834 1
gene 1 6 19 -0.511715 0 38 -0.511715 1
gene 1 7 19 0.821778 0 39 0.821778 1
gene 1 8 19 -3.71152 0 40 -3.71152 1
gene 1 9 19 0.0922452 0 41 0.0922452 1
gene 1 10 19 -2.10313 0 42 -2.10313 1
gene 1 11 19 0.119841 0 43 0.119841 1
gene 1 12 19 -1.28371 0 44 -1.28371 1
gene 1 13 19 -6.77295 0 45 -6.77295 1
gene 1 14 19 0.605516 0 46 0.605516 1
gene 1 15 19 1.59833 0 47 1.59833 1
gene 1 16 19 0.398347 0 48 0.398347 1
gene 1 1 20 -3.42923 0 49 -3.42923 1
gene 1 2 20 0.540565 0 50 0.540565 1
gene 1 3 20 -1.57612 0 51 -1.57612 1
gene 1 4 20 4.10587 0 52 4.10587 1
gene 1 5 20 2.25046 0 53 2.25046 1
gene 1 6 20 -2.27689 0 54 -2.27689 1
gene 1 7 20 -3.02189 0 55 -3.02189 1
gene 1 8 20 3.24311 0 56 3.24311 1
gene 1 9 20 -0.989524 0 57 -0.989524 1
gene 1 10 20 -4.46083 0 58 -4.46083 1
gene 1 11 20 1.9857 0 59 1.9857 1
gene 1 12 20 -2.88599 0 60 -2.88599 1
gene 1 13 20 0.758305 0 61 0.758305 1
gene 1 14 20 -8 0 62 -8 1
gene 1 15 20 -1.05256 0 63 -1.05256 1
gene 1 16 20 1.06688 0 64 1.06688 1
gene 1 7 24 5.19668 0 74 5.19668 1
gene 1 24 17 1.81281 0 75 1.81281 1
gene 1 11 25 0.738699 0 78 0.738699 1
gene 1 25 18 -1.4903 0 79 -1.4903 1
gene 1 20 24 -3.14922 0 89 -3.14922 1
gene 1 25 19 -1.16877 0 93 -1.16877 1
gene 1 10 25 -1.54666 0 96 -1.54666 1
gene 1 20 18 3.32315 0 102 3.32315 1
gene 1 5 24 1.26495 0 114 1.26495 1
gene 1 9 25 1.46146 0 124 1.46146 1
gene 1 8 39 -3.5276 0 142 -3.5276 1
gene 1 39 19 -0.624782 0 143 -0.624782 1
gene 1 18 24 0.666105 0 156 0.666105 1
gene 1 4 25 2.84752 0 177 2.84752 1
gene 1 1 55 -1.06558 0 209 -1.06558 1
gene 1 55 20 1.38487 0 210 1.38487 1
gene 1 2 55 3.0165 0 212 3.0165 1
gene 1 16 56 0.39463 0 215 0.39463 1
gene 1 56 20 1.32357 0 216 1.32357 1
gene 1 14 64 -7.62048 0 240 -7.62048 1
gene 1 64 18 -3.08893 0 241 -3.08893 1
gene 1 2 69 5.72707 0 256 5.72707 1
gene 1 69 20 -1.22897 0 257 -1.22897 1
gene 1 15 64 0.306 0 274 0.306 1
gene 1 5 77 -0.790474 0 291 -0.790474 1
gene 1 77 20 1.74228 0 292 1.74228 1
gene 1 11 77 0.0128997 0 314 0.0128997 1
gene 1 9 56 1.79444 0 334 1.79444 1
gene 1 9 39 -5.45768 0 360 -5.45768 1
gene 1 14 97 5.99789 0 361 5.99789 1
gene 1 97 18 -4.86849 0 362 -4.86849 1
gene 1 97 99 2.23137 0 365 2.23137 1
gene 1 99 18 0.290172 0 366 0.290172 1
gene 1 69 77 -2.91847 0 367 -2.91847 1
gene 1 8 97 -7.71916 0 379 -7.71916 1
gene 1 4 55 1.80324 0 409 1.80324 1
gene 1 16 109 -2.89571 0 411 -2.89571 1
gene 1 109 17 -1.00094 0 412 -1.00094 1
gene 1 14 111 1.06528 0 418 1.06528 1
gene 1 111 97 -1.46505 0 419 -1.46505 1
gene 1 10 55 -2.54191 0 429 -2.54191 1
gene 1 14 113 4.16213 0 430 4.16213 1
gene 1 113 97 6.90451 0 431 6.90451 1
gene 1 15 119 -3.76272 0 452 -3.76272 0
gene 1 119 17 -3.69555 0 453 -3.69555 1
gene 1 6 39 1.3275 0 456 1.3275 1
gene 1 5 113 -1.39233 0 462 -1.39233 1
gene 1 1 121 -3.3012 0 463 -3.3012 1
gene 1 121 17 1.83416 0 464 1.83416 1
gene 1 6 122 -2.78779 0 466 -2.78779 1
gene 1 122 39 7.30461 0 467 7.30461 1
gene 1 8 25 0.84482 0 469 0.84482 1
gene 1 15 126 -0.279815 0 485 -0.279815 1
gene 1 126 18 4.01165 0 486 4.01165 1
gene 1 77 39 -2.7027 0 495 -2.7027 1
gene 1 8 134 -1.32667 0 512 -1.32667 1
gene 1 134 25 -0.726905 0 513 -0.726905 1
gene 1 16 136 -0.258625 0 520 -0.258625 1
gene 1 136 18 0.662593 0 521 0.662593 1
gene 1 109 55 -4.42481 0 526 -4.42481 1
gene 1 16 139 2.79098 0 536 2.79098 1
gene 1 139 109 0.611052 0 537 0.611052 1
gene 1 18 145 1.91136 0 557 1.91136 1
gene 1 145 24 -1.2633 0 558 -1.2633 1
gene 1 25 145 1.11089 0 561 1.11089 1
gene 1 14 149 1.96951 0 571 1.96951 1
gene 1 149 97 -0.730838 0 572 -0.730838 1
gene 1 19 111 1.1996 0 592 1.1996 1
gene 1 126 111 -0.624506 0 593 -0.624506 1
gene 1 149 99 -0.226329 0 595 -0.226329 1
gene 1 10 159 1.74028 0 609 1.74028 1
gene 1 159 19 1.03699 0 610 1.03699 1
gene 1 9 139 -0.361086 0 612 -0.361086 1
gene 1 10 174 -0.482793 0 659 -0.482793 1
gene 1 174 25 -2.38465 0 660 -2.38465 1
gene 1 174 177 -0.249177 0 667 -0.249177 1
gene 1 177 25 -4.06199 0 668 -4.06199 1
gene 1 1 179 -2.23901 0 672 -2.23901 1
gene 1 179 121 3.78095 0 673 3.78095 1
gene 1 5 182 1.37932 0 679 1.37932 1
gene 1 182 24 0.107318 0 680 0.107318 1
gene 1 121 149 0.536976 0 691 0.536976 1
gene 1 6 149 1.17991 0 711 1.17991 1
gene 1 4 190 -0.354599 0 712 -0.354599 1
gene 1 190 20 1.0462 0 713 1.0462 1
gene 1 3 207 -1.3792 0 767 -1.3792 1
gene 1 207 18 -1.04492 0 768 -1.04492 1
gene 1 69 215 1.31449 0 795 1.31449 1
gene 1 215 20 -0.848477 0 796 -0.848477 1
gene 1 13 216 0.996295 0 800 0.996295 1
gene 1 216 19 -4.12346 0 801 -4.12346 1
gene 1 7 221 2.34687 0 816 2.34687 1
gene 1 221 17 0.919517 0 817 0.919517 1
gene 1 39 149 1.95006 0 820 1.95006 1
gene 1 9 136 0.193108 0 826 0.193108 1
gene 1 182 224 0.542606 0 838 0.542606 1
gene 1 224 24 -2.29494 0 839 -2.29494 1
gene 1 113 69 -2.08446 0 843 -2.08446 1
gene 1 177 111 0.613666 0 857 0.613666 1
gene 1 126 99 2.26758 0 883 2.26758 1
gene 1 56 159 2.35125 0 894 2.35125 1
gene 1 15 242 -0.578068 0 903 -0.578068 1
gene 1 242 126 3.14522 0 904 3.14522 1
gene 1 207 190 0.391123 0 907 0.391123 1
gene 1 15 69 -0.73724 0 919 -0.73724 1
gene 1 15 249 1 0 922 0 1
gene 1 249 119 -3.76272 0 923 0 1
genomeend 1

/* Organism #2 Fitness: 2956 Error: 298 */
genomestart 2
trait 1 1 0 0.535503 0.860864 1 0.623369 0.849348 0.126657 
node 1 1 1 1
node 2 1 1 1
node 3 1 1 1
node 4 1 1 1
node 5 1 1 1
node 6 1 1 1
node 7 1 1 1
node 8 1 1 1
node 9 1 1 1
node 10 1 1 1
node 11 1 1 1
node 12 1 1 1
node 13 1 1 1
node 14 1 1 1
node 15 1 1 1
node 16 1 1 1
node 17 1 0 2
node 18 1 0 2
node 19 1 0 2
node 20 1 0 2
node 24 1 0 0
node 25 1 0 0
node 39 1 0 0
node 55 1 0 0
node 56 1 0 0
node 64 1 0 0
node 69 1 0 0
node 77 1 0 0
node 97 1 0 0
node 99 1 0 0
node 109 1 0 0
node 111 1 0 0
node 113 1 0 0
node 119 1 0 0
node 121 1 0 0
node 122 1 0 0
node 126 1 0 0
node 134 1 0 0
node 136 1 0 0
node 139 1 0 0
node 145 1 0 0
node 149 1 0 0
node 159 1 0 0
node 174 1 0 0
node 177 1 0 0
node 179 1 0 0
node 182 1 0 0
node 190 1 0 0
node 207 1 0 0
node 215 1 0 0
node 216 1 0 0
node 221 1 0 0
node 224 1 0 0
node 242 1 0 0
gene 1 1 17 0.383208 0 1 0.383208 1
gene 1 2 17 -0.986008 0 2 -0.986008 1
gene 1 3 17 -2.16385 0 3 -2.16385 1
gene 1 4 17 -1.28009 0 4 -1.28009 1
gene 1 5 17 8 0 5 8 1
gene 1 6 17 3.58231 0 6 3.58231 1
gene 1 7 17 1.17881 0 7 1.17881 1
gene 1 8 17 3.49564 0 8 3.49564 1
gene 1 9 17 4.05793 0 9 4.05793 1
gene 1 10 17 2.1534 0 10 2.1534 1
gene 1 11 17 -1.0319 0 11 -1.0319 1
gene 1 12 17 6.55199 0 12 6.55199 1
gene 1 13 17 0.212912 0 13 0.212912 1
gene 1 14 17 5.03684 0 14 5.03684 1
gene 1 15 17 -0.579985 0 15 -0.579985 1
gene 1 16 17 3.46729 0 16 3.46729 1
gene 1 1 18 -5.52002 0 17 -5.52002 1
gene 1 2 18 -5.26706 0 18 -5.26706 1
gene 1 3 18 1.65908 0 19 1.65908 1
gene 1 4 18 1.2329 0 20 1.2329 1
gene 1 5 18 -2.7622 0 21 -2.7622 1
gene 1 6 18 -3.49354 0 22 -3.49354 1
gene 1 7 18 -7.80887 0 23 -7.80887 1
gene 1 8 18 -2.1844 0 24 -2.1844 1
gene 1 9 18 0.412147 0 25 0.412147 1
gene 1 10 18 -4.06812 0 26 -4.06812 1
gene 1 11 18 -2.0676 0 27 -2.0676 1
gene 1 12 18 -3.13683 0 28 -3.13683 1
gene 1 13 18 2.05928 0 29 2.05928 1
gene 1 14 18 0.409708 0 30 0.409708 1
gene 1 15 18 -2.2682 0 31 -2.2682 1
gene 1 16 18 -0.807868 0 32 -0.807868 1
gene 1 1 19 2.7618 0 33 2.7618 1
gene 1 2 19 5.68538 0 34 5.68538 1
gene 1 3 19 3.18124 0 35 3.18124 1
gene 1 4 19 -5.77533 0 36 -5.77533 1
gene 1 5 19 4.79261 0 37 4.79261 1
gene 1 6 19 -0.997789 0 38 -0.997789 1
gene 1 7 19 2.35977 0 39 2.35977 1
gene 1 8 19 -0.281116 0 40 -0.281116 1
gene 1 9 19 -1.57146 0 41 -1.57146 1
gene 1 10 19 2.15364 0 42 2.15364 1
gene 1 11 19 1.6152 0 43 1.6152 1
gene 1 12 19 -1.73581 0 44 -1.73581 1
gene 1 13 19 -1.80054 0 45 -1.80054 1
gene 1 14 19 0.657643 0 46 0.657643 1
gene 1 15 19 3.36582 0 47 3.36582 1
gene 1 16 19 -0.910578 0 48 -0.910578 1
gene 1 1 20 -1.54796 0 49 -1.54796 1
gene 1 2 20 -2.06918 0 50 -2.06918 1
gene 1 3 20 1.12987 0 51 1.12987 1
gene 1 4 20 0.911369 0 52 0.911369 1
gene 1 5 20 1.20442 0 53 1.20442 1
gene 1 6 20 -1.13671 0 54 -1.13671 1
gene 1 7 20 -4.73366 0 55 -4.73366 1
gene 1 8 20 -1.1706 0 56 -1.1706 1
gene 1 9 20 -2.64184 0 57 -2.64184 1
gene 1 10 20 -0.953267 0 58 -0.953267 1
gene 1 11 20 5.63882 0 59 5.63882 1
gene 1 12 20 2.55476 0 60 2.55476 1
gene 1 13 20 -1.00191 0 61 -1.00191 1
gene 1 14 20 -5.32567 0 62 -5.32567 1
gene 1 15 20 0.11494 0 63 0.11494 1
gene 1 16 20 -1.50042 0 64 -1.50042 1
gene 1 7 24 5.75786 0 74 5.75786 1
gene 1 24 17 0.110436 0 75 0.110436 1
gene 1 11 25 -1.76882 0 78 -1.76882 1
gene 1 25 18 -5.72356 0 79 -5.72356 1
gene 1 20 24 -5.66341 0 89 -5.66341 1
gene 1 25 19 0.237666 0 93 0.237666 1
gene 1 10 25 -4.03876 0 96 -4.03876 1
gene 1 20 18 3.45944 0 102 3.45944 1
gene 1 5 24 -1.51974 0 114 -1.51974 1
gene 1 9 25 -0.940697 0 124 -0.940697 1
gene 1 8 39 -2.44279 0 142 -2.44279 1
gene 1 39 19 -0.475203 0 143 -0.475203 1
gene 1 18 24 7.76215 0 156 7.76215 1
gene 1 4 25 -2.20297 0 177 -2.20297 1
gene 1 1 55 -3.4555 0 209 -3.4555 1
gene 1 55 20 1.52317 0 210 1.52317 1
gene 1 2 55 1.48414 0 212 1.48414 1
gene 1 16 56 -3.28571 0 215 -3.28571 1
gene 1 56 20 2.77003 0 216 2.77003 1
gene 1 14 64 -7.88593 0 240 -7.88593 1
gene 1 64 18 0.588342 0 241 0.588342 1
gene 1 2 69 7.66119 0 256 7.66119 1
gene 1 69 20 -3.87743 0 257 -3.87743 1
gene 1 15 64 6.12742 0 274 6.12742 1
gene 1 5 77 -0.0371452 0 291 -0.0371452 1
gene 1 77 20 -2.18185 0 292 -2.18185 1
gene 1 11 77 0.447942 0 314 0.447942 1
gene 1 9 56 1.58983 0 334 1.58983 1
gene 1 9 39 -7.20949 0 360 -7.20949 1
gene 1 14 97 -0.558318 0 361 -0.558318 1
gene 1 97 18 -1.90463 0 362 -1.90463 1
gene 1 97 99 -0.95659 0 365 -0.95659 1
gene 1 99 18 0.252314 0 366 0.252314 1
gene 1 69 77 -5.95739 0 367 -5.95739 1
gene 1 8 97 -8 0 379 -8 1
gene 1 4 55 0.823844 0 409 0.823844 1
gene 1 16 109 0.855791 0 411 0.855791 1
gene 1 109 17 2.03933 0 412 2.03933 1
gene 1 14 111 1.90085 0 418 1.90085 1
gene 1 111 97 0.753301 0 419 0.753301 1
gene 1 10 55 -5.26597 0 429 -5.26597 1
gene 1 14 113 3.10429 0 430 3.10429 1
gene 1 113 97 -0.00628981 0 431 -0.00628981 1
gene 1 15 119 2.16392 0 452 2.16392 1
gene 1 119 17 -3.36396 0 453 -3.36396 1
gene 1 6 39 1.6275 0 456 1.6275 1
gene 1 5 113 5.05856 0 462 5.05856 1
gene 1 1 121 -1.79256 0 463 -1.79256 1
gene 1 121 17 -0.803511 0 464 -0.803511 1
gene 1 6 122 -3.5821 0 466 -3.5821 1
gene 1 122 39 3.76981 0 467 3.76981 1
gene 1 8 25 -0.694852 0 469 -0.694852 1
gene 1 15 126 0.579549 0 485 0.579549 1
gene 1 126 18 6.96315 0 486 6.96315 1
gene 1 77 39 -5.13362 0 495 -5.13362 1
gene 1 8 134 0.193636 0 512 0.193636 1
gene 1 134 25 -3.95768 0 513 -3.95768 1
gene 1 16 136 -0.453394 0 520 -0.453394 1
gene 1 136 18 2.22822 0 521 2.22822 1
gene 1 109 55 -5.9301 0 526 -5.9301 1
gene 1 16 139 1.69775 0 536 1.69775 1
gene 1 139 109 2.21039 0 537 2.21039 1
gene 1 18 145 1.16171 0 557 1.16171 1
gene 1 145 24 1.35901 0 558 1.35901 1
gene 1 25 145 2.91741 0 561 2.91741 1
gene 1 14 149 0.501694 0 571 0.501694 1
gene 1 149 97 -3.61992 0 572 -3.61992 1
gene 1 19 111 1.37669 0 592 1.37669 1
gene 1 126 111 -5.73908 0 593 -5.73908 1
gene 1 149 99 0.19831 0 595 0.19831 1
gene 1 10 159 1.29939 0 609 1.29939 1
gene 1 159 19 2.33399 0 610 2.33399 1
gene 1 9 139 -3.13637 0 612 -3.13637 1
gene 1 10 174 -1.10362 0 659 -1.10362 1
gene 1 174 25 2.78244 0 660 2.78244 1
gene 1 174 177 0.671157 0 667 0.671157 1
gene 1 177 25 2.80664 0 668 2.80664 1
gene 1 1 179 -1.14912 0 672 -1.14912 1
gene 1 179 121 0.0402064 0 673 0.0402064 1
gene 1 5 182 0.751352 0 679 0.751352 1
gene 1 182 24 1.61247 0 680 1.61247 1
gene 1 121 149 -0.902727 0 691 -0.902727 1
gene 1 6 149 3.66933 0 711 3.66933 1
gene 1 4 190 2.24552 0 712 2.24552 1
gene 1 190 20 1.84584 0 713 1.84584 1
gene 1 3 207 -0.906082 0 767 -0.906082 1
gene 1 207 18 -4.37829 0 768 -4.37829 1
gene 1 69 215 0.508172 0 795 0.508172 1
gene 1 215 20 -5.7128 0 796 -5.7128 1
gene 1 13 216 1.17834 0 800 1.17834 1
gene 1 216 19 1.3129 0 801 1.3129 1
gene 1 7 221 1.67635 0 816 1.67635 1
gene 1 221 17 -0.0776962 0 817 -0.0776962 1
gene 1 39 149 -0.593716 0 820 -0.593716 1
gene 1 9 136 1.99599 0 826 1.99599 1
gene 1 182 224 -2.6146 0 838 -2.6146 1
gene 1 224 24 0.544072 0 839 0.544072 1
gene 1 113 69 3.15094 0 843 3.15094 1
gene 1 177 111 7.85734 0 857 7.85734 1
gene 1 126 99 -1.58753 0 883 -1.58753 1
gene 1 56 159 0.0785405 0 894 0.0785405 1
gene 1 15 242 -0.0735688 0 903 -0.0735688 1
gene 1 242 126 -3.44241 0 904 -3.44241 1
gene 1 207 190 0.222889 0 907 0.222889 1
gene 1 15 69 3.45843 0 919 3.45843 1
genomeend 2

/* Organism #3 Fitness: 2042 Error: 252 */
genomestart 3
trait 1 0.534889 0.531579 0.535503 0.690432 0.65826 0.623369 0.798816 0.126657 
node 1 1 1 1
node 2 1 1 1
node 3 1 1 1
node 4 1 1 1
node 5 1 1 1
node 6 1 1 1
node 7 1 1 1
node 8 1 1 1
node 9 1 1 1
node 10 1 1 1
node 11 1 1 1
node 12 1 1 1
node 13 1 1 1
node 14 1 1 1
node 15 1 1 1
node 16 1 1 1
node 17 1 0 2
node 18 1 0 2
node 19 1 0 2
node 20 1 0 2
node 24 1 0 0
node 25 1 0 0
node 39 1 0 0
node 55 1 0 0
node 56 1 0 0
node 64 1 0 0
node 69 1 0 0
node 77 1 0 0
node 97 1 0 0
node 99 1 0 0
node 109 1 0 0
node 111 1 0 0
node 113 1 0 0
node 119 1 0 0
node 121 1 0 0
node 122 1 0 0
node 126 1 0 0
node 134 1 0 0
node 136 1 0 0
node 139 1 0 0
node 145 1 0 0
node 149 1 0 0
node 159 1 0 0
node 174 1 0 0
node 177 1 0 0
node 179 1 0 0
node 182 1 0 0
node 190 1 0 0
node 207 1 0 0
node 215 1 0 0
node 216 1 0 0
node 221 1 0 0
node 224 1 0 0
node 242 1 0 0
gene 1 1 17 -0.0113959 0 1 -0.0113959 1
gene 1 2 17 0.735733 0 2 0.735733 1
gene 1 3 17 0.931934 0 3 0.931934 1
gene 1 4 17 -0.378139 0 4 -0.378139 1
gene 1 5 17 6.51033 0 5 6.51033 1
gene 1 6 17 4.24547 0 6 4.24547 1
gene 1 7 17 -0.892112 0 7 -0.892112 1
gene 1 8 17 4.58846 0 8 4.58846 1
gene 1 9 17 6.74481 0 9 6.74481 1
gene 1 10 17 0.662244 0 10 0.662244 1
gene 1 11 17 2.90701 0 11 2.90701 1
gene 1 12 17 2.71573 0 12 2.71573 1
gene 1 13 17 0.647042 0 13 0.647042 1
gene 1 14 17 1.22971 0 14 1.22971 1
gene 1 15 17 -4.75003 0 15 -4.75003 1
gene 1 16 17 6.40574 0 16 6.40574 1
gene 1 1 18 -1.03928 0 17 -1.03928 1
gene 1 2 18 -0.725795 0 18 -0.725795 1
gene 1 3 18 -5.18365 0 19 -5.18365 1
gene 1 4 18 1.14197 0 20 1.14197 1
gene 1 5 18 0.273993 0 21 0.273993 1
gene 1 6 18 -4.06356 0 22 -4.06356 1
gene 1 7 18 -6.25679 0 23 -6.25679 1
gene 1 8 18 0.21875 0 24 0.21875 1
gene 1 9 18 2.47021 0 25 2.47021 1
gene 1 10 18 1.57438 0 26 1.57438 1
gene 1 11 18 1.99558 0 27 1.99558 1
gene 1 12 18 0.662612 0 28 0.662612 1
gene 1 13 18 3.67459 0 29 3.67459 1
gene 1 14 18 2.18772 0 30 2.18772 1
gene 1 15 18 4.25985 0 31 4.25985 1
gene 1 16 18 -0.296119 0 32 -0.296119 1
gene 1 1 19 0.591242 0 33 0.591242 1
gene 1 2 19 -0.435934 0 34 -0.435934 1
gene 1 3 19 4.91373 0 35 4.91373 1
gene 1 4 19 -5.53926 0 36 -5.53926 1
gene 1 5 19 5.1749 0 37 5.1749 1
gene 1 6 19 -1.89053 0 38 -1.89053 1
gene 1 7 19 1.28938 0 39 1.28938 1
gene 1 8 19 -3.16219 0 40 -3.16219 1
gene 1 9 19 -0.500527 0 41 -0.500527 1
gene 1 10 19 0.504614 0 42 0.504614 1
gene 1 11 19 -3.33146 0 43 -3.33146 1
gene 1 12 19 -2.21195 0 44 -2.21195 1
gene 1 13 19 -5.73206 0 45 -5.73206 1
gene 1 14 19 0.7623 0 46 0.7623 1
gene 1 15 19 3.65581 0 47 3.65581 1
gene 1 16 19 -1.70606 0 48 -1.70606 1
gene 1 1 20 -2.93727 0 49 -2.93727 1
gene 1 2 20 1.71933 0 50 1.71933 1
gene 1 3 20 1.2696 0 51 1.2696 1
gene 1 4 20 0.860292 0 52 0.860292 1
gene 1 5 20 1.65766 0 53 1.65766 1
gene 1 6 20 -1.14719 0 54 -1.14719 1
gene 1 7 20 -2.2683 0 55 -2.2683 1
gene 1 8 20 4.07208 0 56 4.07208 1
gene 1 9 20 -3.11982 0 57 -3.11982 1
gene 1 10 20 -6.15368 0 58 -6.15368 1
gene 1 11 20 1.48829 0 59 1.48829 1
gene 1 12 20 -1.22649 0 60 -1.22649 1
gene 1 13 20 0.0689922 0 61 0.0689922 1
gene 1 14 20 -4.77851 0 62 -4.77851 1
gene 1 15 20 -0.840839 0 63 -0.840839 1
gene 1 16 20 1.37847 0 64 1.37847 1
gene 1 7 24 2.01954 0 74 2.01954 1
gene 1 24 17 2.248 0 75 2.248 1
gene 1 11 25 0.914353 0 78 0.914353 1
gene 1 25 18 -5.38605 0 79 -5.38605 1
gene 1 20 24 -3.72583 0 89 -3.72583 1
gene 1 25 19 -0.139214 0 93 -0.139214 1
gene 1 10 25 -2.85613 0 96 -2.85613 1
gene 1 20 18 1.83207 0 102 1.83207 1
gene 1 5 24 0.0214149 0 114 0.0214149 1
gene 1 9 25 -2.69167 0 124 -2.69167 1
gene 1 8 39 -5.54517 0 142 -5.54517 1
gene 1 39 19 -1.83361 0 143 -1.83361 1
gene 1 18 24 1.40078 0 156 1.40078 1
gene 1 4 25 2.10706 0 177 2.10706 1
gene 1 1 55 -2.20268 0 209 -2.20268 1
gene 1 55 20 -0.888681 0 210 -0.888681 1
gene 1 2 55 2.13425 0 212 2.13425 1
gene 1 16 56 -0.760481 0 215 -0.760481 1
gene 1 56 20 2.3131 0 216 2.3131 1
gene 1 14 64 -7.83084 0 240 -7.83084 1
gene 1 64 18 -4.07758 0 241 -4.07758 1
gene 1 2 69 4.31496 0 256 4.31496 1
gene 1 69 20 -4.63315 0 257 -4.63315 0
gene 1 15 64 1.15013 0 274 1.15013 1
gene 1 5 77 -1.99591 0 291 -1.99591 1
gene 1 77 20 -0.949864 0 292 -0.949864 1
gene 1 11 77 -1.6583 0 314 -1.6583 1
gene 1 9 56 4.0518 0 334 4.0518 1
gene 1 9 39 -7.63193 0 360 -7.63193 1
gene 1 14 97 4.89775 0 361 4.89775 1
gene 1 97 18 -8 0 362 -8 1
gene 1 97 99 1.1606 0 365 1.1606 1
gene 1 99 18 1.06354 0 366 1.06354 1
gene 1 69 77 -2.0146 0 367 -2.0146 1
gene 1 8 97 -8 0 379 -8 1
gene 1 4 55 -0.59316 0 409 -0.59316 1
gene 1 16 109 -3.40047 0 411 -3.40047 1
gene 1 109 17 0.565441 0 412 0.565441 1
gene 1 14 111 1.46649 0 418 1.46649 1
gene 1 111 97 -1.00396 0 419 -1.00396 1
gene 1 10 55 -4.49113 0 429 -4.49113 1
gene 1 14 113 3.63031 0 430 3.63031 1
gene 1 113 97 6.78664 0 431 6.78664 1
gene 1 15 119 -5.40713 0 452 -5.40713 1
gene 1 119 17 -3.90683 0 453 -3.90683 1
gene 1 6 39 2.32849 0 456 2.32849 1
gene 1 5 113 3.82343 0 462 3.82343 1
gene 1 1 121 -2.43468 0 463 -2.43468 1
gene 1 121 17 3.79037 0 464 3.79037 1
gene 1 6 122 -0.483421 0 466 -0.483421 1
gene 1 122 39 6.06538 0 467 6.06538 1
gene 1 8 25 0.300968 0 469 0.300968 1
gene 1 15 126 2.87774 0 485 2.87774 1
gene 1 126 18 7.6649 0 486 7.6649 1
gene 1 77 39 -4.17711 0 495 -4.17711 1
gene 1 8 134 -1.55514 0 512 -1.55514 1
gene 1 134 25 -2.69942 0 513 -2.69942 1
gene 1 16 136 -1.39545 0 520 -1.39545 1
gene 1 136 18 2.46106 0 521 2.46106 1
gene 1 109 55 -3.70387 0 526 -3.70387 1
gene 1 16 139 1.36054 0 536 1.36054 1
gene 1 139 109 0.0457315 0 537 0.0457315 1
gene 1 18 145 0.845175 0 557 0.845175 1
gene 1 145 24 -0.458371 0 558 -0.458371 1
gene 1 25 145 0.57724 0 561 0.57724 1
gene 1 14 149 3.3703 0 571 3.3703 1
gene 1 149 97 0.439265 0 572 0.439265 1
gene 1 19 111 -0.407674 0 592 -0.407674 1
gene 1 126 111 -3.55242 0 593 -3.55242 1
gene 1 149 99 -3.00418 0 595 -3.00418 1
gene 1 10 159 0.595195 0 609 0.595195 1
gene 1 159 19 3.22049 0 610 3.22049 1
gene 1 9 139 0.0401509 0 612 0.0401509 1
gene 1 10 174 -0.470488 0 659 -0.470488 1
gene 1 174 25 0.708302 0 660 0.708302 1
gene 1 174 177 0.454474 0 667 0.454474 1
gene 1 177 25 -0.523163 0 668 -0.523163 1
gene 1 1 179 -0.0302335 0 672 -0.0302335 1
gene 1 179 121 -1.20929 0 673 -1.20929 1
gene 1 5 182 0.660507 0 679 0.660507 1
gene 1 182 24 -0.11748 0 680 -0.11748 1
gene 1 121 149 1.05205 0 691 1.05205 1
gene 1 6 149 0.450257 0 711 0.450257 1
gene 1 4 190 0.13547 0 712 0.13547 1
gene 1 190 20 -2.12986 0 713 -2.12986 1
gene 1 3 207 -2.3557 0 767 -2.3557 1
gene 1 207 18 -2.26526 0 768 -2.26526 1
gene 1 69 215 3.04526 0 795 3.04526 1
gene 1 215 20 1.86944 0 796 1.86944 1
gene 1 13 216 2.3012 0 800 2.3012 1
gene 1 216 19 1.2005 0 801 1.2005 1
gene 1 7 221 1.72504 0 816 1.72504 1
gene 1 221 17 -0.252123 0 817 -0.252123 1
gene 1 39 149 0.778675 0 820 0.778675 1
gene 1 9 136 -0.595784 0 826 -0.595784 1
gene 1 182 224 2.45913 0 838 2.45913 1
gene 1 224 24 -0.952325 0 839 -0.952325 1
gene 1 113 69 3.50652 0 843 3.50652 1
gene 1 177 111 3.25578 0 857 3.25578 1
gene 1 126 99 -1.26702 0 883 -1.26702 1
gene 1 56 159 1.61223 0 894 1.61223 1
gene 1 15 242 -0.812062 0 903 -0.812062 1
gene 1 242 126 -0.163657 0 904 -0.163657 1
gene 1 207 190 0.049524 0 907 0.049524 1
gene 1 15 69 -0.146973 0 919 -0.146973 1
genomeend 3

/* Organism #4 Fitness: 1890 Error: 263 */
genomestart 4
trait 1 0.534889 0.531579 0.535503 0.690432 0.65826 0.623369 0.798816 0.126657 
node 1 1 1 1
node 2 1 1 1
node 3 1 1 1
node 4 1 1 1
node 5 1 1 1
node 6 1 1 1
node 7 1 1 1
node 8 1 1 1
node 9 1 1 1
node 10 1 1 1
node 11 1 1 1
node 12 1 1 1
node 13 1 1 1
node 14 1 1 1
node 15 1 1 1
node 16 1 1 1
node 17 1 0 2
node 18 1 0 2
node 19 1 0 2
node 20 1 0 2
node 24 1 0 0
node 25 1 0 0
node 39 1 0 0
node 55 1 0 0
node 56 1 0 0
node 64 1 0 0
node 69 1 0 0
node 77 1 0 0
node 97 1 0 0
node 99 1 0 0
node 109 1 0 0
node 111 1 0 0
node 113 1 0 0
node 119 1 0 0
node 121 1 0 0
node 122 1 0 0
node 126 1 0 0
node 134 1 0 0
node 136 1 0 0
node 139 1 0 0
node 145 1 0 0
node 149 1 0 0
node 159 1 0 0
node 174 1 0 0
node 177 1 0 0
node 179 1 0 0
node 182 1 0 0
node 190 1 0 0
node 207 1 0 0
node 215 1 0 0
node 216 1 0 0
node 221 1 0 0
node 224 1 0 0
node 242 1 0 0
gene 1 1 17 -1.83887 0 1 -1.83887 1
gene 1 2 17 -0.986008 0 2 -0.986008 1
gene 1 3 17 1.18846 0 3 1.18846 1
gene 1 4 17 0.144389 0 4 0.144389 1
gene 1 5 17 2.78384 0 5 2.78384 1
gene 1 6 17 1.18027 0 6 1.18027 1
gene 1 7 17 0.765137 0 7 0.765137 1
gene 1 8 17 1.31455 0 8 1.31455 1
gene 1 9 17 6.34686 0 9 6.34686 1
gene 1 10 17 2.16378 0 10 2.16378 1
gene 1 11 17 0.74283 0 11 0.74283 1
gene 1 12 17 1.33046 0 12 1.33046 1
gene 1 13 17 0.736242 0 13 0.736242 1
gene 1 14 17 2.83369 0 14 2.83369 1
gene 1 15 17 -4.89117 0 15 -4.89117 1
gene 1 16 17 5.59466 0 16 5.59466 1
gene 1 1 18 -3.91918 0 17 -3.91918 1
gene 1 2 18 -3.12844 0 18 -3.12844 1
gene 1 3 18 -2.08542 0 19 -2.08542 1
gene 1 4 18 0.924405 0 20 0.924405 1
gene 1 5 18 0.473332 0 21 0.473332 1
gene 1 6 18 -3.22475 0 22 -3.22475 1
gene 1 7 18 -4.01685 0 23 -4.01685 1
gene 1 8 18 -1.50928 0 24 -1.50928 1
gene 1 9 18 0.412147 0 25 0.412147 1
gene 1 10 18 -1.98002 0 26 -1.98002 1
gene 1 11 18 1.99392 0 27 1.99392 1
gene 1 12 18 -1.46018 0 28 -1.46018 1
gene 1 13 18 1.07677 0 29 1.07677 1
gene 1 14 18 1.37438 0 30 1.37438 1
gene 1 15 18 3.04374 0 31 3.04374 1
gene 1 16 18 -0.195516 0 32 -0.195516 1
gene 1 1 19 4.16061 0 33 4.16061 1
gene 1 2 19 3.89397 0 34 3.89397 1
gene 1 3 19 3.18124 0 35 3.18124 1
gene 1 4 19 -5.766 0 36 -5.766 1
gene 1 5 19 1.69834 0 37 1.69834 1
gene 1 6 19 -2.22762 0 38 -2.22762 1
gene 1 7 19 0.821778 0 39 0.821778 1
gene 1 8 19 -3.71152 0 40 -3.71152 1
gene 1 9 19 -1.8604 0 41 -1.8604 1
gene 1 10 19 -2.10313 0 42 -2.10313 1
gene 1 11 19 -2.09927 0 43 -2.09927 1
gene 1 12 19 -1.08942 0 44 -1.08942 1
gene 1 13 19 -8 0 45 -8 1
gene 1 14 19 0.605516 0 46 0.605516 1
gene 1 15 19 1.52076 0 47 1.52076 1
gene 1 16 19 0.398347 0 48 0.398347 1
gene 1 1 20 -3.42923 0 49 -3.42923 1
gene 1 2 20 0.540565 0 50 0.540565 1
gene 1 3 20 0.770142 0 51 0.770142 1
gene 1 4 20 -0.692877 0 52 -0.692877 1
gene 1 5 20 2.25046 0 53 2.25046 1
gene 1 6 20 -0.76066 0 54 -0.76066 1
gene 1 7 20 -2.33247 0 55 -2.33247 1
gene 1 8 20 2.76852 0 56 2.76852 1
gene 1 9 20 -0.608817 0 57 -0.608817 1
gene 1 10 20 -4.46083 0 58 -4.46083 1
gene 1 11 20 1.9857 0 59 1.9857 1
gene 1 12 20 0.352853 0 60 0.352853 1
gene 1 13 20 0.758305 0 61 0.758305 1
gene 1 14 20 -6.26115 0 62 -6.26115 1
gene 1 15 20 3.01031 0 63 3.01031 1
gene 1 16 20 0.938689 0 64 0.938689 1
gene 1 7 24 5.19668 0 74 5.19668 1
gene 1 24 17 1.47587 0 75 1.47587 1
gene 1 11 25 -0.58726 0 78 -0.58726 1
gene 1 25 18 -6.93548 0 79 -6.93548 1
gene 1 20 24 -4.46409 0 89 -4.46409 1
gene 1 25 19 2.50998 0 93 2.50998 1
gene 1 10 25 -1.54666 0 96 -1.54666 1
gene 1 20 18 3.32315 0 102 3.32315 1
gene 1 5 24 1.26495 0 114 1.26495 1
gene 1 9 25 -2.63273 0 124 -2.63273 1
gene 1 8 39 -3.5276 0 142 -3.5276 1
gene 1 39 19 -2.72569 0 143 -2.72569 1
gene 1 18 24 0.666105 0 156 0.666105 1
gene 1 4 25 1.86527 0 177 1.86527 1
gene 1 1 55 -1.06558 0 209 -1.06558 1
gene 1 55 20 -0.587843 0 210 -0.587843 1
gene 1 2 55 2.23867 0 212 2.23867 1
gene 1 16 56 0.39463 0 215 0.39463 1
gene 1 56 20 1.32357 0 216 1.32357 1
gene 1 14 64 -7.62048 0 240 -7.62048 1
gene 1 64 18 -3.08893 0 241 -3.08893 1
gene 1 2 69 5.30667 0 256 5.30667 1
gene 1 69 20 -1.22897 0 257 -1.22897 0
gene 1 15 64 0.306 0 274 0.306 1
gene 1 5 77 -0.790474 0 291 -0.790474 1
gene 1 77 20 -1.21743 0 292 -1.21743 1
gene 1 11 77 0.0128997 0 314 0.0128997 1
gene 1 9 56 1.93372 0 334 1.93372 1
gene 1 9 39 -5.45768 0 360 -5.45768 1
gene 1 14 97 5.99789 0 361 5.99789 1
gene 1 97 18 -4.86849 0 362 -4.86849 1
gene 1 97 99 2.23137 0 365 2.23137 1
gene 1 99 18 0.290172 0 366 0.290172 1
gene 1 69 77 -3.69483 0 367 -3.69483 1
gene 1 8 97 -8 0 379 -8 1
gene 1 4 55 1.80324 0 409 1.80324 1
gene 1 16 109 -0.420465 0 411 -0.420465 1
gene 1 109 17 -1.00094 0 412 -1.00094 1
gene 1 14 111 1.06528 0 418 1.06528 1
gene 1 111 97 2.13554 0 419 2.13554 1
gene 1 10 55 -2.54191 0 429 -2.54191 1
gene 1 14 113 4.73041 0 430 4.73041 1
gene 1 113 97 2.92917 0 431 2.92917 1
gene 1 15 119 -2.14769 0 452 -2.14769 1
gene 1 119 17 -3.69555 0 453 -3.69555 1
gene 1 6 39 1.3275 0 456 1.3275 1
gene 1 5 113 4.30709 0 462 4.30709 1
gene 1 1 121 -3.3012 0 463 -3.3012 1
gene 1 121 17 1.83416 0 464 1.83416 1
gene 1 6 122 -2.45553 0 466 -2.45553 1
gene 1 122 39 7.30461 0 467 7.30461 1
gene 1 8 25 0.84482 0 469 0.84482 1
gene 1 15 126 -0.279815 0 485 -0.279815 1
gene 1 126 18 7.56738 0 486 7.56738 1
gene 1 77 39 -2.66294 0 495 -2.66294 1
gene 1 8 134 -1.32667 0 512 -1.32667 1
gene 1 134 25 -0.726905 0 513 -0.726905 1
gene 1 16 136 -0.258625 0 520 -0.258625 1
gene 1 136 18 0.662593 0 521 0.662593 1
gene 1 109 55 -5.9301 0 526 -5.9301 1
gene 1 16 139 4.56663 0 536 4.56663 1
gene 1 139 109 2.21039 0 537 2.21039 1
gene 1 18 145 1.58175 0 557 1.58175 1
gene 1 145 24 1.35901 0 558 1.35901 1
gene 1 25 145 2.91741 0 561 2.91741 1
gene 1 14 149 1.96951 0 571 1.96951 1
gene 1 149 97 -2.57236 0 572 -2.57236 1
gene 1 19 111 2.31929 0 592 2.31929 1
gene 1 126 111 -3.51293 0 593 -3.51293 1
gene 1 149 99 -1.30042 0 595 -1.30042 1
gene 1 10 159 1.74028 0 609 1.74028 1
gene 1 159 19 1.09979 0 610 1.09979 1
gene 1 9 139 -1.73665 0 612 -1.73665 1
gene 1 10 174 -0.482793 0 659 -0.482793 1
gene 1 174 25 1.64719 0 660 1.64719 1
gene 1 174 177 2.91356 0 667 2.91356 1
gene 1 177 25 1.92598 0 668 1.92598 1
gene 1 1 179 -2.23901 0 672 -2.23901 1
gene 1 179 121 3.78095 0 673 3.78095 1
gene 1 5 182 1.37932 0 679 1.37932 1
gene 1 182 24 0.107318 0 680 0.107318 1
gene 1 121 149 -0.0759238 0 691 -0.0759238 1
gene 1 6 149 1.44927 0 711 1.44927 1
gene 1 4 190 -0.354599 0 712 -0.354599 1
gene 1 190 20 1.0462 0 713 1.0462 1
gene 1 3 207 -1.3792 0 767 -1.3792 1
gene 1 207 18 -2.0707 0 768 -2.0707 1
gene 1 69 215 0.24441 0 795 0.24441 1
gene 1 215 20 -0.848477 0 796 -0.848477 1
gene 1 13 216 0.996295 0 800 0.996295 1
gene 1 216 19 -0.408842 0 801 -0.408842 1
gene 1 7 221 -0.15419 0 816 -0.15419 1
gene 1 221 17 -0.0776962 0 817 -0.0776962 1
gene 1 39 149 -0.392707 0 820 -0.392707 1
gene 1 9 136 -1.53365 0 826 -1.53365 1
gene 1 182 224 -1.50482 0 838 -1.50482 1
gene 1 224 24 -2.29494 0 839 -2.29494 1
gene 1 113 69 -2.08446 0 843 -2.08446 1
gene 1 177 111 0.613666 0 857 0.613666 1
gene 1 126 99 -1.58753 0 883 -1.58753 1
gene 1 56 159 2.35125 0 894 2.35125 1
gene 1 15 242 -0.731753 0 903 -0.731753 1
gene 1 242 126 3.14522 0 904 3.14522 1
gene 1 207 190 -1.299 0 907 -1.299 1
gene 1 15 69 -0.73724 0 919 -0.73724 1
genomeend 4

/* Organism #5 Fitness: 2548 Error: 404 */
genomestart 5
trait 1 0.534889 0.531579 0.535503 0.690432 0.65826 0.623369 0.798816 0.126657 
node 1 1 1 1
node 2 1 1 1
node 3 1 1 1
node 4 1 1 1
node 5 1 1 1
node 6 1 1 1
node 7 1 1 1
node 8 1 1 1
node 9 1 1 1
node 10 1 1 1
node 11 1 1 1
node 12 1 1 1
node 13 1 1 1
node 14 1 1 1
node 15 1 1 1
node 16 1 1 1
node 17 1 0 2
node 18 1 0 2
node 19 1 0 2
node 20 1 0 2
node 24 1 0 0
node 25 1 0 0
node 39 1 0 0
node 55 1 0 0
node 56 1 0 0
node 64 1 0 0
node 69 1 0 0
node 77 1 0 0
node 97 1 0 0
node 99 1 0 0
node 109 1 0 0
node 111 1 0 0
node 113 1 0 0
node 119 1 0 0
node 121 1 0 0
node 122 1 0 0
node 126 1 0 0
node 134 1 0 0
node 136 1 0 0
node 139 1 0 0
node 145 1 0 0
node 149 1 0 0
node 159 1 0 0
node 174 1 0 0
node 177 1 0 0
node 179 1 0 0
node 182 1 0 0
node 190 1 0 0
node 207 1 0 0
node 215 1 0 0
node 216 1 0 0
node 221 1 0 0
node 224 1 0 0
node 242 1 0 0
gene 1 1 17 2.10359 0 1 2.10359 1
gene 1 2 17 -0.123232 0 2 -0.123232 1
gene 1 3 17 -0.979397 0 3 -0.979397 1
gene 1 4 17 -0.481461 0 4 -0.481461 1
gene 1 5 17 2.19006 0 5 2.19006 1
gene 1 6 17 0.387685 0 6 0.387685 1
gene 1 7 17 -2.00951 0 7 -2.00951 1
gene 1 8 17 0.987734 0 8 0.987734 1
gene 1 9 17 8 0 9 8 1
gene 1 10 17 1.81744 0 10 1.81744 1
gene 1 11 17 0.946979 0 11 0.946979 1
gene 1 12 17 2.3824 0 12 2.3824 1
gene 1 13 17 0.824139 0 13 0.824139 1
gene 1 14 17 1.4566 0 14 1.4566 1
gene 1 15 17 0.875427 0 15 0.875427 1
gene 1 16 17 1.24312 0 16 1.24312 1
gene 1 1 18 -4.29946 0 17 -4.29946 1
gene 1 2 18 1.19147 0 18 1.19147 1
gene 1 3 18 -4.05749 0 19 -4.05749 1
gene 1 4 18 -0.928004 0 20 -0.928004 1
gene 1 5 18 -0.442684 0 21 -0.442684 1
gene 1 6 18 -1.75848 0 22 -1.75848 1
gene 1 7 18 1.95608 0 23 1.95608 1
gene 1 8 18 0.903944 0 24 0.903944 1
gene 1 9 18 1.44078 0 25 1.44078 1
gene 1 10 18 1.7635 0 26 1.7635 1
gene 1 11 18 3.13378 0 27 3.13378 1
gene 1 12 18 -1.77147 0 28 -1.77147 1
gene 1 13 18 1.07677 0 29 1.07677 1
gene 1 14 18 0.939468 0 30 0.939468 1
gene 1 15 18 1.40082 0 31 1.40082 1
gene 1 16 18 -0.706243 0 32 -0.706243 1
gene 1 1 19 0.849833 0 33 0.849833 1
gene 1 2 19 -0.454854 0 34 -0.454854 1
gene 1 3 19 6.54418 0 35 6.54418 1
gene 1 4 19 -0.510514 0 36 -0.510514 1
gene 1 5 19 -0.583863 0 37 -0.583863 1
gene 1 6 19 -2.07703 0 38 -2.07703 1
gene 1 7 19 0.555701 0 39 0.555701 1
gene 1 8 19 -3.71152 0 40 -3.71152 1
gene 1 9 19 -1.82676 0 41 -1.82676 1
gene 1 10 19 -2.3552 0 42 -2.3552 1
gene 1 11 19 -1.19983 0 43 -1.19983 1
gene 1 12 19 -1.12408 0 44 -1.12408 1
gene 1 13 19 -1.88798 0 45 -1.88798 1
gene 1 14 19 -1.77463 0 46 -1.77463 1
gene 1 15 19 0.92437 0 47 0.92437 1
gene 1 16 19 -0.843072 0 48 -0.843072 1
gene 1 1 20 -0.969843 0 49 -0.969843 1
gene 1 2 20 1.88691 0 50 1.88691 1
gene 1 3 20 0.678572 0 51 0.678572 1
gene 1 4 20 3.00542 0 52 3.00542 1
gene 1 5 20 2.25046 0 53 2.25046 1
gene 1 6 20 0.258943 0 54 0.258943 1
gene 1 7 20 -3.95359 0 55 -3.95359 1
gene 1 8 20 4.13508 0 56 4.13508 1
gene 1 9 20 1.90322 0 57 1.90322 1
gene 1 10 20 -4.56617 0 58 -4.56617 1
gene 1 11 20 4.25549 0 59 4.25549 1
gene 1 12 20 -1.60149 0 60 -1.60149 1
gene 1 13 20 0.758305 0 61 0.758305 1
gene 1 14 20 -6.02779 0 62 -6.02779 1
gene 1 15 20 -1.17085 0 63 -1.17085 1
gene 1 16 20 1.01647 0 64 1.01647 1
gene 1 7 24 1.94898 0 74 1.94898 1
gene 1 24 17 0.17863 0 75 0.17863 1
gene 1 11 25 -0.457216 0 78 -0.457216 1
gene 1 25 18 -1.07391 0 79 -1.07391 1
gene 1 20 24 0.860902 0 89 0.860902 1
gene 1 25 19 -1.46431 0 93 -1.46431 1
gene 1 10 25 -0.0578109 0 96 -0.0578109 1
gene 1 20 18 -1.3598 0 102 -1.3598 1
gene 1 5 24 -0.160498 0 114 -0.160498 1
gene 1 9 25 -1.7106 0 124 -1.7106 1
gene 1 8 39 -2.35787 0 142 -2.35787 1
gene 1 39 19 -1.05067 0 143 -1.05067 1
gene 1 18 24 1.8592 0 156 1.8592 1
gene 1 4 25 1.14364 0 177 1.14364 1
gene 1 1 55 0.955034 0 209 0.955034 1
gene 1 55 20 -0.564643 0 210 -0.564643 1
gene 1 2 55 5.29318 0 212 5.29318 1
gene 1 16 56 0.13783 0 215 0.13783 1
gene 1 56 20 3.3139 0 216 3.3139 1
gene 1 14 64 -8 0 240 -8 1
gene 1 64 18 1.32605 0 241 1.32605 1
gene 1 2 69 0.118901 0 256 0.118901 1
gene 1 69 20 -1.22897 0 257 -1.22897 1
gene 1 15 64 -1.15939 0 274 -1.15939 1
gene 1 5 77 -1.02761 0 291 -1.02761 1
gene 1 77 20 1.74228 0 292 1.74228 1
gene 1 11 77 -1.43325 0 314 -1.43325 1
gene 1 9 56 1.79444 0 334 1.79444 1
gene 1 9 39 -4.18523 0 360 -4.18523 1
gene 1 14 97 0.563781 0 361 0.563781 1
gene 1 97 18 -4.50475 0 362 -4.50475 1
gene 1 97 99 2.11005 0 365 2.11005 1
gene 1 99 18 1.76086 0 366 1.76086 1
gene 1 69 77 -3.52623 0 367 -3.52623 1
gene 1 8 97 -8 0 379 -8 1
gene 1 4 55 3.65832 0 409 3.65832 1
gene 1 16 109 -3.0175 0 411 -3.0175 1
gene 1 109 17 -2.73882 0 412 -2.73882 1
gene 1 14 111 1.62843 0 418 1.62843 1
gene 1 111 97 0.29307 0 419 0.29307 1
gene 1 10 55 -4.57529 0 429 -4.57529 1
gene 1 14 113 4.10346 0 430 4.10346 1
gene 1 113 97 5.64466 0 431 5.64466 1
gene 1 15 119 -1.26656 0 452 -1.26656 1
gene 1 119 17 -1.28432 0 453 -1.28432 1
gene 1 6 39 1.85316 0 456 1.85316 1
gene 1 5 113 -2.68129 0 462 -2.68129 1
gene 1 1 121 -5.27902 0 463 -5.27902 1
gene 1 121 17 2.18318 0 464 2.18318 1
gene 1 6 122 -0.892905 0 466 -0.892905 1
gene 1 122 39 7.30461 0 467 7.30461 1
gene 1 8 25 1.60606 0 469 1.60606 1
gene 1 15 126 0.440467 0 485 0.440467 1
gene 1 126 18 2.10147 0 486 2.10147 1
gene 1 77 39 -4.34384 0 495 -4.34384 1
gene 1 8 134 -2.26745 0 512 -2.26745 1
gene 1 134 25 -1.12978 0 513 -1.12978 1
gene 1 16 136 -0.258625 0 520 -0.258625 1
gene 1 136 18 0.953661 0 521 0.953661 1
gene 1 109 55 -6.22514 0 526 -6.22514 1
gene 1 16 139 -1.75807 0 536 -1.75807 1
gene 1 139 109 1.80168 0 537 1.80168 1
gene 1 18 145 0.219331 0 557 0.219331 1
gene 1 145 24 -0.94844 0 558 -0.94844 1
gene 1 25 145 3.19585 0 561 3.19585 1
gene 1 14 149 2.94809 0 571 2.94809 1
gene 1 149 97 0.619943 0 572 0.619943 1
gene 1 19 111 2.02297 0 592 2.02297 1
gene 1 126 111 1.1342 0 593 1.1342 1
gene 1 149 99 -0.226329 0 595 -0.226329 1
gene 1 10 159 1.9585 0 609 1.9585 1
gene 1 159 19 -0.28292 0 610 -0.28292 1
gene 1 9 139 -0.599193 0 612 -0.599193 1
gene 1 10 174 1.9441 0 659 1.9441 1
gene 1 174 25 -0.762196 0 660 -0.762196 1
gene 1 174 177 0.267138 0 667 0.267138 1
gene 1 177 25 -2.21491 0 668 -2.21491 1
gene 1 1 179 -0.0920616 0 672 -0.0920616 1
gene 1 179 121 1.4907 0 673 1.4907 1
gene 1 5 182 1.37932 0 679 1.37932 1
gene 1 182 24 -0.150591 0 680 -0.150591 1
gene 1 121 149 0.463772 0 691 0.463772 1
gene 1 6 149 0.640477 0 711 0.640477 1
gene 1 4 190 0.743243 0 712 0.743243 1
gene 1 190 20 2.59539 0 713 2.59539 1
gene 1 3 207 -1.3792 0 767 -1.3792 1
gene 1 207 18 -0.550015 0 768 -0.550015 1
gene 1 69 215 2.37432 0 795 2.37432 1
gene 1 215 20 -2.23215 0 796 -2.23215 1
gene 1 13 216 3.41641 0 800 3.41641 1
gene 1 216 19 -5.09293 0 801 -5.09293 1
gene 1 7 221 1.28981 0 816 1.28981 1
gene 1 221 17 2.99127 0 817 2.99127 1
gene 1 39 149 2.9847 0 820 2.9847 1
gene 1 9 136 1.18643 0 826 1.18643 1
gene 1 182 224 -0.990164 0 838 -0.990164 1
gene 1 224 24 -1.16339 0 839 -1.16339 1
gene 1 113 69 -3.22492 0 843 -3.22492 1
gene 1 177 111 2.99651 0 857 2.99651 1
gene 1 126 99 3.26049 0 883 3.26049 1
gene 1 56 159 0.0341446 0 894 0.0341446 1
gene 1 15 242 0.99558 0 903 0.99558 1
gene 1 242 126 1.59977 0 904 1.59977 1
gene 1 207 190 0.391123 0 907 0.391123 1
gene 1 15 69 -1.0966 0 919 -1.0966 1
genomeend 5

/* Organism #6 Fitness: 1228 Error: 242 */
genomestart 6
trait 1 0.534889 0.531579 0.535503 0.690432 0.65826 0.623369 0.798816 0.126657 
node 1 1 1 1
node 2 1 1 1
node 3 1 1 1
node 4 1 1 1
node 5 1 1 1
node 6 1 1 1
node 7 1 1 1
node 8 1 1 1
node 9 1 1 1
node 10 1 1 1
node 11 1 1 1
node 12 1 1 1
node 13 1 1 1
node 14 1 1 1
node 15 1 1 1
node 16 1 1 1
node 17 1 0 2
node 18 1 0 2
node 19 1 0 2
node 20 1 0 2
node 24 1 0 0
node 25 1 0 0
node 39 1 0 0
node 55 1 0 0
node 56 1 0 0
node 64 1 0 0
node 69 1 0 0
node 77 1 0 0
node 97 1 0 0
node 99 1 0 0
node 109 1 0 0
node 111 1 0 0
node 113 1 0 0
node 119 1 0 0
node 121 1 0 0
node 122 1 0 0
node 126 1 0 0
node 134 1 0 0
node 136 1 0 0
node 139 1 0 0
node 145 1 0 0
node 149 1 0 0
node 159 1 0 0
node 174 1 0 0
node 177 1 0 0
node 179 1 0 0
node 182 1 0 0
node 190 1 0 0
node 207 1 0 0
node 215 1 0 0
node 216 1 0 0
node 221 1 0 0
node 224 1 0 0
node 242 1 0 0
gene 1 1 17 -1.83887 0 1 -1.83887 1
gene 1 2 17 -0.986008 0 2 -0.986008 1
gene 1 3 17 1.03627 0 3 1.03627 1
gene 1 4 17 0.144389 0 4 0.144389 1
gene 1 5 17 7.36507 0 5 7.36507 1
gene 1 6 17 2.45864 0 6 2.45864 1
gene 1 7 17 0.765137 0 7 0.765137 1
gene 1 8 17 2.9723 0 8 2.9723 1
gene 1 9 17 4.70759 0 9 4.70759 1
gene 1 10 17 0.0536542 0 10 0.0536542 1
gene 1 11 17 0.74283 0 11 0.74283 1
gene 1 12 17 5.92261 0 12 5.92261 1
gene 1 13 17 0.736242 0 13 0.736242 1
gene 1 14 17 2.83369 0 14 2.83369 1
gene 1 15 17 -4.89117 0 15 -4.89117 1
gene 1 16 17 5.59466 0 16 5.59466 1
gene 1 1 18 -3.91918 0 17 -3.91918 1
gene 1 2 18 -3.12844 0 18 -3.12844 1
gene 1 3 18 -2.08542 0 19 -2.08542 1
gene 1 4 18 1.2329 0 20 1.2329 1
gene 1 5 18 -2.18488 0 21 -2.18488 1
gene 1 6 18 -3.22475 0 22 -3.22475 1
gene 1 7 18 -7.61532 0 23 -7.61532 1
gene 1 8 18 -1.55731 0 24 -1.55731 1
gene 1 9 18 0.412147 0 25 0.412147 1
gene 1 10 18 -1.98002 0 26 -1.98002 1
gene 1 11 18 -0.0873389 0 27 -0.0873389 1
gene 1 12 18 -1.84729 0 28 -1.84729 1
gene 1 13 18 2.05928 0 29 2.05928 1
gene 1 14 18 0.409708 0 30 0.409708 1
gene 1 15 18 3.94206 0 31 3.94206 1
gene 1 16 18 -0.195516 0 32 -0.195516 1
gene 1 1 19 4.16061 0 33 4.16061 1
gene 1 2 19 3.89397 0 34 3.89397 1
gene 1 3 19 3.18124 0 35 3.18124 1
gene 1 4 19 -5.766 0 36 -5.766 1
gene 1 5 19 3.99346 0 37 3.99346 1
gene 1 6 19 -2.22762 0 38 -2.22762 1
gene 1 7 19 3.48834 0 39 3.48834 1
gene 1 8 19 -2.12227 0 40 -2.12227 1
gene 1 9 19 -1.8604 0 41 -1.8604 1
gene 1 10 19 2.15747 0 42 2.15747 1
gene 1 11 19 -2.09927 0 43 -2.09927 1
gene 1 12 19 -1.08942 0 44 -1.08942 1
gene 1 13 19 -8 0 45 -8 1
gene 1 14 19 0.429543 0 46 0.429543 1
gene 1 15 19 1.52076 0 47 1.52076 1
gene 1 16 19 1.05305 0 48 1.05305 1
gene 1 1 20 -0.895988 0 49 -0.895988 1
gene 1 2 20 4.71721 0 50 4.71721 1
gene 1 3 20 0.770142 0 51 0.770142 1
gene 1 4 20 -0.692877 0 52 -0.692877 1
gene 1 5 20 2.88688 0 53 2.88688 1
gene 1 6 20 -0.76066 0 54 -0.76066 1
gene 1 7 20 -2.33247 0 55 -2.33247 1
gene 1 8 20 2.76852 0 56 2.76852 1
gene 1 9 20 -0.608817 0 57 -0.608817 1
gene 1 10 20 -2.92199 0 58 -2.92199 1
gene 1 11 20 3.37158 0 59 3.37158 1
gene 1 12 20 0.352853 0 60 0.352853 1
gene 1 13 20 1.2129 0 61 1.2129 1
gene 1 14 20 -6.26115 0 62 -6.26115 1
gene 1 15 20 3.01031 0 63 3.01031 1
gene 1 16 20 0.938689 0 64 0.938689 1
gene 1 7 24 3.55847 0 74 3.55847 1
gene 1 24 17 1.47587 0 75 1.47587 1
gene 1 11 25 -0.58726 0 78 -0.58726 1
gene 1 25 18 -6.93548 0 79 -6.93548 1
gene 1 20 24 -4.46409 0 89 -4.46409 1
gene 1 25 19 2.50998 0 93 2.50998 1
gene 1 10 25 -2.76672 0 96 -2.76672 1
gene 1 20 18 4.44691 0 102 4.44691 1
gene 1 5 24 -0.0973446 0 114 -0.0973446 1
gene 1 9 25 -2.63273 0 124 -2.63273 1
gene 1 8 39 -4.61386 0 142 -4.61386 1
gene 1 39 19 -2.72569 0 143 -2.72569 1
gene 1 18 24 6.31524 0 156 6.31524 1
gene 1 4 25 1.86527 0 177 1.86527 1
gene 1 1 55 -5.66251 0 209 -5.66251 1
gene 1 55 20 -0.587843 0 210 -0.587843 1
gene 1 2 55 2.23867 0 212 2.23867 1
gene 1 16 56 -1.82945 0 215 -1.82945 1
gene 1 56 20 2.77003 0 216 2.77003 1
gene 1 14 64 -8 0 240 -8 1
gene 1 64 18 -1.03058 0 241 -1.03058 1
gene 1 2 69 5.30667 0 256 5.30667 1
gene 1 69 20 -4.8689 0 257 -4.8689 0
gene 1 15 64 4.06466 0 274 4.06466 1
gene 1 5 77 -3.08227 0 291 -3.08227 1
gene 1 77 20 -1.21743 0 292 -1.21743 1
gene 1 11 77 -0.250828 0 314 -0.250828 1
gene 1 9 56 1.93372 0 334 1.93372 1
gene 1 9 39 -8 0 360 -8 1
gene 1 14 97 0.357422 0 361 0.357422 1
gene 1 97 18 -6.69254 0 362 -6.69254 1
gene 1 97 99 -1.40776 0 365 -1.40776 1
gene 1 99 18 -0.429729 0 366 -0.429729 1
gene 1 69 77 -3.69483 0 367 -3.69483 1
gene 1 8 97 -8 0 379 -8 1
gene 1 4 55 -1.40037 0 409 -1.40037 1
gene 1 16 109 -0.420465 0 411 -0.420465 1
gene 1 109 17 0.389988 0 412 0.389988 1
gene 1 14 111 3.50138 0 418 3.50138 1
gene 1 111 97 2.13554 0 419 2.13554 1
gene 1 10 55 -4.68946 0 429 -4.68946 1
gene 1 14 113 4.73041 0 430 4.73041 1
gene 1 113 97 2.92917 0 431 2.92917 1
gene 1 15 119 -2.14769 0 452 -2.14769 1
gene 1 119 17 -3.06198 0 453 -3.06198 1
gene 1 6 39 6.20095 0 456 6.20095 1
gene 1 5 113 4.30709 0 462 4.30709 1
gene 1 1 121 -0.134503 0 463 -0.134503 1
gene 1 121 17 1.79237 0 464 1.79237 1
gene 1 6 122 -2.45553 0 466 -2.45553 1
gene 1 122 39 3.52849 0 467 3.52849 1
gene 1 8 25 1.57182 0 469 1.57182 1
gene 1 15 126 2.6367 0 485 2.6367 1
gene 1 126 18 7.56738 0 486 7.56738 1
gene 1 77 39 -2.66294 0 495 -2.66294 1
gene 1 8 134 -2.57968 0 512 -2.57968 1
gene 1 134 25 -4.91263 0 513 -4.91263 1
gene 1 16 136 0.111307 0 520 0.111307 1
gene 1 136 18 1.94942 0 521 1.94942 1
gene 1 109 55 -5.9301 0 526 -5.9301 1
gene 1 16 139 4.56663 0 536 4.56663 1
gene 1 139 109 2.21039 0 537 2.21039 1
gene 1 18 145 1.58175 0 557 1.58175 1
gene 1 145 24 1.35901 0 558 1.35901 1
gene 1 25 145 2.91741 0 561 2.91741 1
gene 1 14 149 2.89863 0 571 2.89863 1
gene 1 149 97 -2.57236 0 572 -2.57236 1
gene 1 19 111 2.31929 0 592 2.31929 1
gene 1 126 111 -3.51293 0 593 -3.51293 1
gene 1 149 99 -1.30042 0 595 -1.30042 1
gene 1 10 159 1.44197 0 609 1.44197 1
gene 1 159 19 1.09979 0 610 1.09979 1
gene 1 9 139 -1.73665 0 612 -1.73665 1
gene 1 10 174 -0.458183 0 659 -0.458183 1
gene 1 174 25 1.64719 0 660 1.64719 1
gene 1 174 177 2.91356 0 667 2.91356 1
gene 1 177 25 1.92598 0 668 1.92598 1
gene 1 1 179 -1.13391 0 672 -1.13391 1
gene 1 179 121 2.2731 0 673 2.2731 1
gene 1 5 182 1.58857 0 679 1.58857 1
gene 1 182 24 -0.342277 0 680 -0.342277 1
gene 1 121 149 -0.0759238 0 691 -0.0759238 1
gene 1 6 149 1.44927 0 711 1.44927 1
gene 1 4 190 1.55386 0 712 1.55386 1
gene 1 190 20 1.75788 0 713 1.75788 1
gene 1 3 207 -1.55935 0 767 -1.55935 1
gene 1 207 18 -2.0707 0 768 -2.0707 1
gene 1 69 215 0.24441 0 795 0.24441 1
gene 1 215 20 -3.23763 0 796 -3.23763 1
gene 1 13 216 1.17834 0 800 1.17834 1
gene 1 216 19 -0.408842 0 801 -0.408842 1
gene 1 7 221 -0.15419 0 816 -0.15419 1
gene 1 221 17 -0.0776962 0 817 -0.0776962 1
gene 1 39 149 -0.392707 0 820 -0.392707 1
gene 1 9 136 -1.53365 0 826 -1.53365 1
gene 1 182 224 -1.50482 0 838 -1.50482 1
gene 1 224 24 -2.57735 0 839 -2.57735 1
gene 1 113 69 4.49736 0 843 4.49736 1
gene 1 177 111 5.89789 0 857 5.89789 1
gene 1 126 99 -1.58753 0 883 -1.58753 1
gene 1 56 159 0.873217 0 894 0.873217 1
gene 1 15 242 -0.731753 0 903 -0.731753 1
gene 1 242 126 -3.0084 0 904 -3.0084 1
gene 1 207 190 -1.299 0 907 -1.299 1
gene 1 15 69 1.3912 0 919 1.3912 1
genomeend 6

/* Organism #7 Fitness: 2269 Error: 300 */
genomestart 7
trait 1 0.534889 0.531579 0.535503 0.690432 0.65826 0.623369 0.798816 0.126657 
node 1 1 1 1
node 2 1 1 1
node 3 1 1 1
node 4 1 1 1
node 5 1 1 1
node 6 1 1 1
node 7 1 1 1
node 8 1 1 1
node 9 1 1 1
node 10 1 1 1
node 11 1 1 1
node 12 1 1 1
node 13 1 1 1
node 14 1 1 1
node 15 1 1 1
node 16 1 1 1
node 17 1 0 2
node 18 1 0 2
node 19 1 0 2
node 20 1 0 2
node 24 1 0 0
node 25 1 0 0
node 39 1 0 0
node 55 1 0 0
node 56 1 0 0
node 64 1 0 0
node 69 1 0 0
node 77 1 0 0
node 97 1 0 0
node 99 1 0 0
node 109 1 0 0
node 111 1 0 0
node 113 1 0 0
node 119 1 0 0
node 121 1 0 0
node 122 1 0 0
node 126 1 0 0
node 134 1 0 0
node 136 1 0 0
node 139 1 0 0
node 145 1 0 0
node 149 1 0 0
node 159 1 0 0
node 174 1 0 0
node 177 1 0 0
node 179 1 0 0
node 182 1 0 0
node 190 1 0 0
node 207 1 0 0
node 215 1 0 0
node 216 1 0 0
node 221 1 0 0
node 224 1 0 0
node 242 1 0 0
gene 1 1 17 -1.2136 0 1 -1.2136 1
gene 1 2 17 0.551673 0 2 0.551673 1
gene 1 3 17 -0.816284 0 3 -0.816284 1
gene 1 4 17 1.41226 0 4 1.41226 1
gene 1 5 17 8 0 5 8 1
gene 1 6 17 4.95203 0 6 4.95203 1
gene 1 7 17 2.95111 0 7 2.95111 1
gene 1 8 17 3.77696 0 8 3.77696 1
gene 1 9 17 4.79481 0 9 4.79481 1
gene 1 10 17 0.513608 0 10 0.513608 1
gene 1 11 17 -0.973027 0 11 -0.973027 1
gene 1 12 17 7.94298 0 12 7.94298 1
gene 1 13 17 1.92173 0 13 1.92173 1
gene 1 14 17 5.22245 0 14 5.22245 1
gene 1 15 17 -3.64349 0 15 -3.64349 1
gene 1 16 17 7.1405 0 16 7.1405 1
gene 1 1 18 -2.57172 0 17 -2.57172 1
gene 1 2 18 -3.01198 0 18 -3.01198 1
gene 1 3 18 -0.448145 0 19 -0.448145 1
gene 1 4 18 1.24844 0 20 1.24844 1
gene 1 5 18 -2.13091 0 21 -2.13091 1
gene 1 6 18 -2.34942 0 22 -2.34942 1
gene 1 7 18 -6.96788 0 23 -6.96788 1
gene 1 8 18 -2.75431 0 24 -2.75431 1
gene 1 9 18 0.126176 0 25 0.126176 1
gene 1 10 18 -2.3714 0 26 -2.3714 1
gene 1 11 18 -1.65574 0 27 -1.65574 1
gene 1 12 18 -0.605373 0 28 -0.605373 1
gene 1 13 18 2.30551 0 29 2.30551 1
gene 1 14 18 2.45224 0 30 2.45224 1
gene 1 15 18 3.11869 0 31 3.11869 1
gene 1 16 18 -0.117962 0 32 -0.117962 1
gene 1 1 19 3.36671 0 33 3.36671 1
gene 1 2 19 6.28247 0 34 6.28247 1
gene 1 3 19 3.23272 0 35 3.23272 1
gene 1 4 19 -7.64482 0 36 -7.64482 1
gene 1 5 19 4.98411 0 37 4.98411 1
gene 1 6 19 -4.31156 0 38 -4.31156 1
gene 1 7 19 2.07717 0 39 2.07717 1
gene 1 8 19 -0.30625 0 40 -0.30625 1
gene 1 9 19 -0.951184 0 41 -0.951184 1
gene 1 10 19 2.77636 0 42 2.77636 1
gene 1 11 19 -1.18984 0 43 -1.18984 1
gene 1 12 19 0.0318613 0 44 0.0318613 1
gene 1 13 19 -8 0 45 -8 1
gene 1 14 19 2.5807 0 46 2.5807 1
gene 1 15 19 2.99548 0 47 2.99548 1
gene 1 16 19 1.34535 0 48 1.34535 1
gene 1 1 20 -2.91747 0 49 -2.91747 1
gene 1 2 20 6.42221 0 50 6.42221 1
gene 1 3 20 2.81948 0 51 2.81948 1
gene 1 4 20 -3.02039 0 52 -3.02039 1
gene 1 5 20 3.8628 0 53 3.8628 1
gene 1 6 20 -2.05663 0 54 -2.05663 1
gene 1 7 20 -1.98729 0 55 -1.98729 1
gene 1 8 20 1.62481 0 56 1.62481 1
gene 1 9 20 1.04908 0 57 1.04908 1
gene 1 10 20 -3.51407 0 58 -3.51407 1
gene 1 11 20 1.48079 0 59 1.48079 1
gene 1 12 20 -1.34312 0 60 -1.34312 1
gene 1 13 20 -0.30937 0 61 -0.30937 1
gene 1 14 20 -6.90647 0 62 -6.90647 1
gene 1 15 20 4.7391 0 63 4.7391 1
gene 1 16 20 -0.173699 0 64 -0.173699 1
gene 1 7 24 5.86365 0 74 5.86365 1
gene 1 24 17 0.516324 0 75 0.516324 1
gene 1 11 25 0.403238 0 78 0.403238 1
gene 1 25 18 -8 0 79 -8 1
gene 1 20 24 -3.86878 0 89 -3.86878 1
gene 1 25 19 3.65566 0 93 3.65566 1
gene 1 10 25 -4.29177 0 96 -4.29177 1
gene 1 20 18 6.77296 0 102 6.77296 1
gene 1 5 24 -1.22525 0 114 -1.22525 1
gene 1 9 25 -1.48132 0 124 -1.48132 1
gene 1 8 39 -6.53174 0 142 -6.53174 1
gene 1 39 19 -1.22389 0 143 -1.22389 1
gene 1 18 24 4.97116 0 156 4.97116 1
gene 1 4 25 4.3565 0 177 4.3565 1
gene 1 1 55 -7.59049 0 209 -7.59049 1
gene 1 55 20 -0.983706 0 210 -0.983706 1
gene 1 2 55 1.13631 0 212 1.13631 1
gene 1 16 56 -3.81039 0 215 -3.81039 1
gene 1 56 20 3.3255 0 216 3.3255 1
gene 1 14 64 -6.08918 0 240 -6.08918 1
gene 1 64 18 -2.7398 0 241 -2.7398 1
gene 1 2 69 4.74566 0 256 4.74566 1
gene 1 69 20 -2.64878 0 257 -2.64878 0
gene 1 15 64 2.13274 0 274 2.13274 1
gene 1 5 77 -5.12434 0 291 -5.12434 1
gene 1 77 20 0.0825796 0 292 0.0825796 1
gene 1 11 77 1.15698 0 314 1.15698 1
gene 1 9 56 1.65722 0 334 1.65722 1
gene 1 9 39 -8 0 360 -8 1
gene 1 14 97 -0.569696 0 361 -0.569696 1
gene 1 97 18 -8 0 362 -8 1
gene 1 97 99 -0.427161 0 365 -0.427161 1
gene 1 99 18 -0.275791 0 366 -0.275791 1
gene 1 69 77 -5.40616 0 367 -5.40616 1
gene 1 8 97 -8 0 379 -8 1
gene 1 4 55 -1.68967 0 409 -1.68967 1
gene 1 16 109 -0.74998 0 411 -0.74998 1
gene 1 109 17 1.89253 0 412 1.89253 1
gene 1 14 111 2.57097 0 418 2.57097 1
gene 1 111 97 2.0655 0 419 2.0655 1
gene 1 10 55 -5.43773 0 429 -5.43773 1
gene 1 14 113 6.67726 0 430 6.67726 1
gene 1 113 97 5.13867 0 431 5.13867 1
gene 1 15 119 -2.11989 0 452 -2.11989 1
gene 1 119 17 -3.10106 0 453 -3.10106 1
gene 1 6 39 5.30662 0 456 5.30662 1
gene 1 5 113 3.1222 0 462 3.1222 1
gene 1 1 121 0.384838 0 463 0.384838 1
gene 1 121 17 2.44116 0 464 2.44116 1
gene 1 6 122 -1.81139 0 466 -1.81139 1
gene 1 122 39 2.20608 0 467 2.20608 1
gene 1 8 25 0.912674 0 469 0.912674 1
gene 1 15 126 1.12068 0 485 1.12068 1
gene 1 126 18 5.72811 0 486 5.72811 1
gene 1 77 39 -4.01897 0 495 -4.01897 1
gene 1 8 134 -4.21995 0 512 -4.21995 1
gene 1 134 25 -3.49786 0 513 -3.49786 1
gene 1 16 136 -1.06478 0 520 -1.06478 1
gene 1 136 18 2.74761 0 521 2.74761 1
gene 1 109 55 -4.46531 0 526 -4.46531 1
gene 1 16 139 3.18895 0 536 3.18895 1
gene 1 139 109 0.757614 0 537 0.757614 1
gene 1 18 145 1.67881 0 557 1.67881 1
gene 1 145 24 0.0808759 0 558 0.0808759 1
gene 1 25 145 0.720112 0 561 0.720112 1
gene 1 14 149 0.909059 0 571 0.909059 1
gene 1 149 97 -0.143017 0 572 -0.143017 1
gene 1 19 111 2.04249 0 592 2.04249 1
gene 1 126 111 -2.71687 0 593 -2.71687 1
gene 1 149 99 0.591894 0 595 0.591894 1
gene 1 10 159 3.07468 0 609 3.07468 1
gene 1 159 19 1.16871 0 610 1.16871 1
gene 1 9 139 -4.00287 0 612 -4.00287 1
gene 1 10 174 0.639614 0 659 0.639614 1
gene 1 174 25 3.15869 0 660 3.15869 1
gene 1 174 177 2.91356 0 667 2.91356 1
gene 1 177 25 0.417104 0 668 0.417104 1
gene 1 1 179 -1.13391 0 672 -1.13391 1
gene 1 179 121 2.2731 0 673 2.2731 1
gene 1 5 182 1.58857 0 679 1.58857 1
gene 1 182 24 -1.12232 0 680 -1.12232 1
gene 1 121 149 -0.0759238 0 691 -0.0759238 1
gene 1 6 149 -0.345371 0 711 -0.345371 1
gene 1 4 190 1.55386 0 712 1.55386 1
gene 1 190 20 -0.41224 0 713 -0.41224 1
gene 1 3 207 -1.55935 0 767 -1.55935 1
gene 1 207 18 -3.03348 0 768 -3.03348 1
gene 1 69 215 0.24441 0 795 0.24441 1
gene 1 215 20 -2.16554 0 796 -2.16554 1
gene 1 13 216 1.17834 0 800 1.17834 1
gene 1 216 19 -1.40838 0 801 -1.40838 1
gene 1 7 221 -2.1554 0 816 -2.1554 1
gene 1 221 17 -0.424852 0 817 -0.424852 1
gene 1 39 149 -0.357304 0 820 -0.357304 1
gene 1 9 136 -1.53365 0 826 -1.53365 1
gene 1 182 224 -1.50482 0 838 -1.50482 1
gene 1 224 24 2.41876 0 839 2.41876 1
gene 1 113 69 4.49736 0 843 4.49736 1
gene 1 177 111 5.89789 0 857 5.89789 1
gene 1 126 99 0.368082 0 883 0.368082 1
gene 1 56 159 0.540219 0 894 0.540219 1
gene 1 15 242 -0.731753 0 903 -0.731753 1
gene 1 242 126 -0.0730526 0 904 -0.0730526 1
gene 1 207 190 -0.85643 0 907 -0.85643 1
gene 1 15 69 1.3912 0 919 1.3912 1
genomeend 7

/* Organism #8 Fitness: 2674 Error: 488 */
genomestart 8
trait 1 0.511633 0.531579 0.535503 0.704077 0.675394 0.585644 0.804141 0.158321 
node 1 1 1 1
node 2 1 1 1
node 3 1 1 1
node 4 1 1 1
node 5 1 1 1
node 6 1 1 1
node 7 1 1 1
node 8 1 1 1
node 9 1 1 1
node 10 1 1 1
node 11 1 1 1
node 12 1 1 1
node 13 1 1 1
node 14 1 1 1
node 15 1 1 1
node 16 1 1 1
node 17 1 0 2
node 18 1 0 2
node 19 1 0 2
node 20 1 0 2
node 24 1 0 0
node 25 1 0 0
node 39 1 0 0
node 55 1 0 0
node 56 1 0 0
node 64 1 0 0
node 69 1 0 0
node 77 1 0 0
node 97 1 0 0
node 99 1 0 0
node 109 1 0 0
node 111 1 0 0
node 113 1 0 0
node 119 1 0 0
node 121 1 0 0
node 122 1 0 0
node 126 1 0 0
node 134 1 0 0
node 136 1 0 0
node 139 1 0 0
node 145 1 0 0
node 149 1 0 0
node 159 1 0 0
node 174 1 0 0
node 177 1 0 0
node 179 1 0 0
node 182 1 0 0
node 190 1 0 0
node 207 1 0 0
node 215 1 0 0
node 216 1 0 0
node 221 1 0 0
node 224 1 0 0
node 242 1 0 0
gene 1 1 17 2.4416 0 1 2.4416 1
gene 1 2 17 -0.10445 0 2 -0.10445 1
gene 1 3 17 2.41341 0 3 2.41341 1
gene 1 4 17 0.109402 0 4 0.109402 1
gene 1 5 17 5.2495 0 5 5.2495 1
gene 1 6 17 4.24749 0 6 4.24749 1
gene 1 7 17 -2.94202 0 7 -2.94202 1
gene 1 8 17 2.82774 0 8 2.82774 1
gene 1 9 17 6.65543 0 9 6.65543 1
gene 1 10 17 2.41319 0 10 2.41319 1
gene 1 11 17 2.83362 0 11 2.83362 1
gene 1 12 17 3.56218 0 12 3.56218 1
gene 1 13 17 0.542991 0 13 0.542991 1
gene 1 14 17 2.75293 0 14 2.75293 1
gene 1 15 17 -6.36255 0 15 -6.36255 1
gene 1 16 17 4.04055 0 16 4.04055 1
gene 1 1 18 -1.72159 0 17 -1.72159 1
gene 1 2 18 -5.91283 0 18 -5.91283 1
gene 1 3 18 -0.450756 0 19 -0.450756 1
gene 1 4 18 0.552949 0 20 0.552949 1
gene 1 5 18 -2.99184 0 21 -2.99184 1
gene 1 6 18 -1.56751 0 22 -1.56751 1
gene 1 7 18 -8 0 23 -8 1
gene 1 8 18 -1.15081 0 24 -1.15081 1
gene 1 9 18 -3.03295 0 25 -3.03295 1
gene 1 10 18 -2.02388 0 26 -2.02388 1
gene 1 11 18 -2.11804 0 27 -2.11804 1
gene 1 12 18 -2.95344 0 28 -2.95344 1
gene 1 13 18 1.5378 0 29 1.5378 1
gene 1 14 18 -1.96741 0 30 -1.96741 1
gene 1 15 18 4.49965 0 31 4.49965 1
gene 1 16 18 -0.0290647 0 32 -0.0290647 1
gene 1 1 19 5.39881 0 33 5.39881 1
gene 1 2 19 4.76564 0 34 4.76564 1
gene 1 3 19 2.11522 0 35 2.11522 1
gene 1 4 19 -4.67747 0 36 -4.67747 1
gene 1 5 19 2.63103 0 37 2.63103 1
gene 1 6 19 -1.68161 0 38 -1.68161 1
gene 1 7 19 3.8103 0 39 3.8103 1
gene 1 8 19 0.608856 0 40 0.608856 1
gene 1 9 19 -1.91432 0 41 -1.91432 1
gene 1 10 19 1.74507 0 42 1.74507 1
gene 1 11 19 -2.78392 0 43 -2.78392 1
gene 1 12 19 1.59229 0 44 1.59229 1
gene 1 13 19 -5.08335 0 45 -5.08335 1
gene 1 14 19 -1.43475 0 46 -1.43475 1
gene 1 15 19 3.09125 0 47 3.09125 1
gene 1 16 19 0.00905354 0 48 0.00905354 1
gene 1 1 20 1.93682 0 49 1.93682 1
gene 1 2 20 3.41654 0 50 3.41654 1
gene 1 3 20 1.39621 0 51 1.39621 1
gene 1 4 20 -0.295699 0 52 -0.295699 1
gene 1 5 20 4.9798 0 53 4.9798 1
gene 1 6 20 -1.08098 0 54 -1.08098 1
gene 1 7 20 -0.902582 0 55 -0.902582 1
gene 1 8 20 3.92064 0 56 3.92064 1
gene 1 9 20 0.319676 0 57 0.319676 1
gene 1 10 20 -3.00764 0 58 -3.00764 1
gene 1 11 20 1.03666 0 59 1.03666 1
gene 1 12 20 3.06042 0 60 3.06042 1
gene 1 13 20 -2.93057 0 61 -2.93057 1
gene 1 14 20 -7.87526 0 62 -7.87526 1
gene 1 15 20 -0.460799 0 63 -0.460799 1
gene 1 16 20 -1.60699 0 64 -1.60699 1
gene 1 7 24 4.52715 0 74 4.52715 1
gene 1 24 17 3.20013 0 75 3.20013 1
gene 1 11 25 2.20053 0 78 2.20053 1
gene 1 25 18 -3.89599 0 79 -3.89599 1
gene 1 20 24 -0.394072 0 89 -0.394072 1
gene 1 25 19 5.16859 0 93 5.16859 1
gene 1 10 25 -0.912409 0 96 -0.912409 1
gene 1 20 18 4.02049 0 102 4.02049 1
gene 1 5 24 3.16716 0 114 3.16716 1
gene 1 9 25 -3.1925 0 124 -3.1925 1
gene 1 8 39 -5.74996 0 142 -5.74996 1
gene 1 39 19 2.56625 0 143 2.56625 1
gene 1 18 24 8 0 156 8 1
gene 1 4 25 2.10453 0 177 2.10453 1
gene 1 1 55 -6.99952 0 209 -6.99952 1
gene 1 55 20 -2.08879 0 210 -2.08879 1
gene 1 2 55 0.13778 0 212 0.13778 1
gene 1 16 56 1.04172 0 215 1.04172 1
gene 1 56 20 -1.48464 0 216 -1.48464 1
gene 1 14 64 -5.44889 0 240 -5.44889 1
gene 1 64 18 -2.29932 0 241 -2.29932 1
gene 1 2 69 2.18228 0 256 2.18228 1
gene 1 69 20 -3.04196 0 257 -3.04196 0
gene 1 15 64 1.07593 0 274 1.07593 1
gene 1 5 77 -1.5238 0 291 -1.5238 1
gene 1 77 20 1.07643 0 292 1.07643 1
gene 1 11 77 -1.97848 0 314 -1.97848 1
gene 1 9 56 1.4244 0 334 1.4244 1
gene 1 9 39 -5.83999 0 360 -5.83999 1
gene 1 14 97 -0.552173 0 361 -0.552173 1
gene 1 97 18 -6.40528 0 362 -6.40528 1
gene 1 97 99 -1.31296 0 365 -1.31296 1
gene 1 99 18 -3.46833 0 366 -3.46833 1
gene 1 69 77 -3.70183 0 367 -3.70183 1
gene 1 8 97 -5.81024 0 379 -5.81024 1
gene 1 4 55 -1.63484 0 409 -1.63484 1
gene 1 16 109 0.786189 0 411 0.786189 1
gene 1 109 17 -0.42733 0 412 -0.42733 1
gene 1 14 111 3.98657 0 418 3.98657 1
gene 1 111 97 2.07217 0 419 2.07217 1
gene 1 10 55 1.08599 0 429 1.08599 1
gene 1 14 113 3.58302 0 430 3.58302 1
gene 1 113 97 1.18701 0 431 1.18701 1
gene 1 15 119 -1.94297 0 452 -1.94297 1
gene 1 119 17 -2.60483 0 453 -2.60483 1
gene 1 6 39 8 0 456 8 1
gene 1 5 113 2.14871 0 462 2.14871 1
gene 1 1 121 -1.33972 0 463 -1.33972 1
gene 1 121 17 0.0427615 0 464 0.0427615 1
gene 1 6 122 -3.58386 0 466 -3.58386 1
gene 1 122 39 4.28037 0 467 4.28037 1
gene 1 8 25 3.2779 0 469 3.2779 1
gene 1 15 126 0.658564 0 485 0.658564 1
gene 1 126 18 4.32206 0 486 4.32206 1
gene 1 77 39 2.58568 0 495 2.58568 1
gene 1 8 134 -2.96828 0 512 -2.96828 1
gene 1 134 25 -1.28432 0 513 -1.28432 1
gene 1 16 136 0.487524 0 520 0.487524 1
gene 1 136 18 2.30861 0 521 2.30861 1
gene 1 109 55 -0.546271 0 526 -0.546271 1
gene 1 16 139 4.83298 0 536 4.83298 1
gene 1 139 109 4.86904 0 537 4.86904 1
gene 1 18 145 3.96568 0 557 3.96568 1
gene 1 145 24 1.63531 0 558 1.63531 1
gene 1 25 145 4.43059 0 561 4.43059 1
gene 1 14 149 -0.774097 0 571 -0.774097 1
gene 1 149 97 -1.97242 0 572 -1.97242 1
gene 1 19 111 1.5622 0 592 1.5622 1
gene 1 126 111 -3.92961 0 593 -3.92961 1
gene 1 149 99 -2.6847 0 595 -2.6847 1
gene 1 10 159 1.59832 0 609 1.59832 1
gene 1 159 19 0.039954 0 610 0.039954 1
gene 1 9 139 -2.07044 0 612 -2.07044 1
gene 1 10 174 1.84161 0 659 1.84161 1
gene 1 174 25 0.691686 0 660 0.691686 1
gene 1 174 177 2.03145 0 667 2.03145 1
gene 1 177 25 2.32398 0 668 2.32398 1
gene 1 1 179 -1.33469 0 672 -1.33469 1
gene 1 179 121 4.74757 0 673 4.74757 1
gene 1 5 182 -0.471849 0 679 -0.471849 1
gene 1 182 24 -2.89986 0 680 -2.89986 1
gene 1 121 149 0.0969783 0 691 0.0969783 1
gene 1 6 149 3.10902 0 711 3.10902 1
gene 1 4 190 1.08213 0 712 1.08213 1
gene 1 190 20 -1.94446 0 713 -1.94446 1
gene 1 3 207 1.58259 0 767 1.58259 1
gene 1 207 18 -1.09332 0 768 -1.09332 1
gene 1 69 215 0.584082 0 795 0.584082 1
gene 1 215 20 -0.985524 0 796 -0.985524 1
gene 1 13 216 2.35527 0 800 2.35527 1
gene 1 216 19 1.24456 0 801 1.24456 1
gene 1 7 221 -0.373777 0 816 -0.373777 1
gene 1 221 17 -1.29901 0 817 -1.29901 1
gene 1 39 149 -0.988905 0 820 -0.988905 1
gene 1 9 136 -0.939897 0 826 -0.939897 1
gene 1 182 224 -0.567086 0 838 -0.567086 1
gene 1 224 24 -1.05926 0 839 -1.05926 1
gene 1 113 69 4.55609 0 843 4.55609 1
gene 1 177 111 1.13366 0 857 1.13366 1
gene 1 126 99 -1.60183 0 883 -1.60183 1
gene 1 56 159 0.758351 0 894 0.758351 1
gene 1 15 242 -3.48661 0 903 -3.48661 1
gene 1 242 126 -0.560078 0 904 -0.560078 1
gene 1 207 190 -0.213954 0 907 -0.213954 1
gene 1 15 69 0.848994 0 919 0.848994 1
genomeend 8

/* Organism #9 Fitness: 917 Error: 90 */
genomestart 9
trait 1 0.488378 0.531579 0.535503 0.717723 0.692528 0.547918 0.809466 0.189985 
node 1 1 1 1
node 2 1 1 1
node 3 1 1 1
node 4 1 1 1
node 5 1 1 1
node 6 1 1 1
node 7 1 1 1
node 8 1 1 1
node 9 1 1 1
node 10 1 1 1
node 11 1 1 1
node 12 1 1 1
node 13 1 1 1
node 14 1 1 1
node 15 1 1 1
node 16 1 1 1
node 17 1 0 2
node 18 1 0 2
node 19 1 0 2
node 20 1 0 2
node 24 1 0 0
node 25 1 0 0
node 39 1 0 0
node 55 1 0 0
node 56 1 0 0
node 64 1 0 0
node 69 1 0 0
node 77 1 0 0
node 97 1 0 0
node 99 1 0 0
node 109 1 0 0
node 111 1 0 0
node 113 1 0 0
node 119 1 0 0
node 121 1 0 0
node 122 1 0 0
node 126 1 0 0
node 134 1 0 0
node 136 1 0 0
node 139 1 0 0
node 145 1 0 0
node 149 1 0 0
node 159 1 0 0
node 174 1 0 0
node 177 1 0 0
node 179 1 0 0
node 182 1 0 0
node 190 1 0 0
node 207 1 0 0
node 215 1 0 0
node 216 1 0 0
node 221 1 0 0
node 224 1 0 0
node 242 1 0 0
gene 1 1 17 2.82605 0 1 2.82605 1
gene 1 2 17 2.35928 0 2 2.35928 1
gene 1 3 17 1.48365 0 3 1.48365 1
gene 1 4 17 -2.02069 0 4 -2.02069 1
gene 1 5 17 0.226185 0 5 0.226185 1
gene 1 6 17 0.9865 0 6 0.9865 1
gene 1 7 17 -4.66385 0 7 -4.66385 1
gene 1 8 17 2.15581 0 8 2.15581 1
gene 1 9 17 1.55714 0 9 1.55714 1
gene 1 10 17 0.514441 0 10 0.514441 1
gene 1 11 17 1.44639 0 11 1.44639 1
gene 1 12 17 -0.862816 0 12 -0.862816 1
gene 1 13 17 -0.311954 0 13 -0.311954 1
gene 1 14 17 2.01698 0 14 2.01698 1
gene 1 15 17 -1.83234 0 15 -1.83234 1
gene 1 16 17 1.02791 0 16 1.02791 1
gene 1 1 18 -0.108268 0 17 -0.108268 1
gene 1 2 18 -4.06169 0 18 -4.06169 1
gene 1 3 18 -1.85924 0 19 -1.85924 1
gene 1 4 18 0.345704 0 20 0.345704 1
gene 1 5 18 -1.7315 0 21 -1.7315 1
gene 1 6 18 1.89354 0 22 1.89354 1
gene 1 7 18 -7.93874 0 23 -7.93874 1
gene 1 8 18 0.54265 0 24 0.54265 1
gene 1 9 18 -4.36663 0 25 -4.36663 1
gene 1 10 18 -1.76537 0 26 -1.76537 1
gene 1 11 18 -3.99287 0 27 -3.99287 1
gene 1 12 18 -1.14079 0 28 -1.14079 1
gene 1 13 18 -1.1861 0 29 -1.1861 1
gene 1 14 18 -3.32559 0 30 -3.32559 1
gene 1 15 18 1.25146 0 31 1.25146 1
gene 1 16 18 1.35336 0 32 1.35336 1
gene 1 1 19 -1.41722 0 33 -1.41722 1
gene 1 2 19 -1.19225 0 34 -1.19225 1
gene 1 3 19 2.59186 0 35 2.59186 1
gene 1 4 19 -6.43711 0 36 -6.43711 1
gene 1 5 19 -0.682436 0 37 -0.682436 1
gene 1 6 19 -0.843111 0 38 -0.843111 1
gene 1 7 19 1.59265 0 39 1.59265 1
gene 1 8 19 -0.684108 0 40 -0.684108 1
gene 1 9 19 -6.88723 0 41 -6.88723 1
gene 1 10 19 1.09863 0 42 1.09863 1
gene 1 11 19 -2.34692 0 43 -2.34692 1
gene 1 12 19 2.22974 0 44 2.22974 1
gene 1 13 19 -7.58282 0 45 -7.58282 1
gene 1 14 19 2.2497 0 46 2.2497 1
gene 1 15 19 -0.825622 0 47 -0.825622 1
gene 1 16 19 -0.48594 0 48 -0.48594 1
gene 1 1 20 -0.978881 0 49 -0.978881 1
gene 1 2 20 0.0548945 0 50 0.0548945 1
gene 1 3 20 -1.55248 0 51 -1.55248 1
gene 1 4 20 0.639239 0 52 0.639239 1
gene 1 5 20 4.85628 0 53 4.85628 1
gene 1 6 20 1.2385 0 54 1.2385 1
gene 1 7 20 -2.56775 0 55 -2.56775 1
gene 1 8 20 2.40085 0 56 2.40085 1
gene 1 9 20 5.61596 0 57 5.61596 1
gene 1 10 20 -3.7349 0 58 -3.7349 1
gene 1 11 20 2.47773 0 59 2.47773 1
gene 1 12 20 -0.866657 0 60 -0.866657 1
gene 1 13 20 -3.71123 0 61 -3.71123 1
gene 1 14 20 -4.65161 0 62 -4.65161 1
gene 1 15 20 2.67743 0 63 2.67743 1
gene 1 16 20 -3.19045 0 64 -3.19045 1
gene 1 7 24 -0.828933 0 74 -0.828933 1
gene 1 24 17 1.75619 0 75 1.75619 1
gene 1 11 25 4.80513 0 78 4.80513 1
gene 1 25 18 0.107826 0 79 0.107826 1
gene 1 20 24 -1.12099 0 89 -1.12099 1
gene 1 25 19 4.7175 0 93 4.7175 1
gene 1 10 25 -1.27264 0 96 -1.27264 1
gene 1 20 18 -0.365521 0 102 -0.365521 1
gene 1 5 24 4.41889 0 114 4.41889 1
gene 1 9 25 0.86286 0 124 0.86286 1
gene 1 8 39 -7.08967 0 142 -7.08967 1
gene 1 39 19 1.9436 0 143 1.9436 1
gene 1 18 24 -2.09813 0 156 -2.09813 1
gene 1 4 25 -1.20235 0 177 -1.20235 1
gene 1 1 55 -5.68823 0 209 -5.68823 1
gene 1 55 20 1.38749 0 210 1.38749 1
gene 1 2 55 -3.3201 0 212 -3.3201 1
gene 1 16 56 2.47494 0 215 2.47494 1
gene 1 56 20 -3.04416 0 216 -3.04416 1
gene 1 14 64 -5.5253 0 240 -5.5253 1
gene 1 64 18 -1.78181 0 241 -1.78181 1
gene 1 2 69 -1.26467 0 256 -1.26467 1
gene 1 69 20 -2.68027 0 257 -2.68027 0
gene 1 15 64 2.64565 0 274 2.64565 1
gene 1 5 77 -0.481259 0 291 -0.481259 1
gene 1 77 20 -1.00284 0 292 -1.00284 1
gene 1 11 77 2.39718 0 314 2.39718 1
gene 1 9 56 -2.52439 0 334 -2.52439 1
gene 1 9 39 -6.30563 0 360 -6.30563 1
gene 1 14 97 -0.108831 0 361 -0.108831 1
gene 1 97 18 -6.0114 0 362 -6.0114 1
gene 1 97 99 -3.59668 0 365 -3.59668 1
gene 1 99 18 -2.18215 0 366 -2.18215 1
gene 1 69 77 -7.21117 0 367 -7.21117 1
gene 1 8 97 -8 0 379 -8 1
gene 1 4 55 -1.79901 0 409 -1.79901 1
gene 1 16 109 -1.19124 0 411 -1.19124 1
gene 1 109 17 0.762157 0 412 0.762157 1
gene 1 14 111 -1.53506 0 418 -1.53506 1
gene 1 111 97 3.39367 0 419 3.39367 1
gene 1 10 55 1.64826 0 429 1.64826 1
gene 1 14 113 4.92208 0 430 4.92208 1
gene 1 113 97 0.795695 0 431 0.795695 1
gene 1 15 119 -1.28007 0 452 -1.28007 1
gene 1 119 17 -2.04858 0 453 -2.04858 1
gene 1 6 39 5.33106 0 456 5.33106 1
gene 1 5 113 5.01713 0 462 5.01713 1
gene 1 1 121 -3.24388 0 463 -3.24388 1
gene 1 121 17 -1.85864 0 464 -1.85864 1
gene 1 6 122 -2.31136 0 466 -2.31136 1
gene 1 122 39 2.69566 0 467 2.69566 1
gene 1 8 25 -1.64952 0 469 -1.64952 1
gene 1 15 126 2.78692 0 485 2.78692 1
gene 1 126 18 2.60243 0 486 2.60243 1
gene 1 77 39 -0.753562 0 495 -0.753562 1
gene 1 8 134 -2.38342 0 512 -2.38342 1
gene 1 134 25 1.55796 0 513 1.55796 1
gene 1 16 136 -0.962499 0 520 -0.962499 1
gene 1 136 18 -2.26261 0 521 -2.26261 1
gene 1 109 55 -1.77826 0 526 -1.77826 1
gene 1 16 139 0.9384 0 536 0.9384 1
gene 1 139 109 2.90308 0 537 2.90308 1
gene 1 18 145 2.33664 0 557 2.33664 1
gene 1 145 24 -2.40614 0 558 -2.40614 1
gene 1 25 145 1.4886 0 561 1.4886 1
gene 1 14 149 0.301301 0 571 0.301301 1
gene 1 149 97 0.0978924 0 572 0.0978924 1
gene 1 19 111 3.55584 0 592 3.55584 1
gene 1 126 111 0.72712 0 593 0.72712 1
gene 1 149 99 -6.1526 0 595 -6.1526 1
gene 1 10 159 4.43997 0 609 4.43997 1
gene 1 159 19 -3.34881 0 610 -3.34881 1
gene 1 9 139 -3.94238 0 612 -3.94238 1
gene 1 10 174 -0.33883 0 659 -0.33883 1
gene 1 174 25 -1.55122 0 660 -1.55122 1
gene 1 174 177 0.189534 0 667 0.189534 1
gene 1 177 25 0.802504 0 668 0.802504 1
gene 1 1 179 -3.27526 0 672 -3.27526 1
gene 1 179 121 -0.660109 0 673 -0.660109 1
gene 1 5 182 -0.720212 0 679 -0.720212 1
gene 1 182 24 -3.37111 0 680 -3.37111 1
gene 1 121 149 2.06777 0 691 2.06777 1
gene 1 6 149 1.86182 0 711 1.86182 1
gene 1 4 190 0.992827 0 712 0.992827 1
gene 1 190 20 -2.33228 0 713 -2.33228 1
gene 1 3 207 4.34184 0 767 4.34184 1
gene 1 207 18 -2.50349 0 768 -2.50349 1
gene 1 69 215 4.70714 0 795 4.70714 1
gene 1 215 20 -3.80945 0 796 -3.80945 1
gene 1 13 216 -0.988818 0 800 -0.988818 1
gene 1 216 19 -7.01281 0 801 -7.01281 1
gene 1 7 221 -0.487708 0 816 -0.487708 1
gene 1 221 17 -1.95442 0 817 -1.95442 1
gene 1 39 149 -3.40471 0 820 -3.40471 1
gene 1 9 136 0.907598 0 826 0.907598 1
gene 1 182 224 -2.94371 0 838 -2.94371 1
gene 1 224 24 -4.0503 0 839 -4.0503 1
gene 1 113 69 2.40937 0 843 2.40937 1
gene 1 177 111 -1.87418 0 857 -1.87418 1
gene 1 126 99 -3.55974 0 883 -3.55974 1
gene 1 56 159 -0.519765 0 894 -0.519765 1
gene 1 15 242 -2.47581 0 903 -2.47581 1
gene 1 242 126 -1.6386 0 904 -1.6386 1
gene 1 207 190 -1.3697 0 907 -1.3697 1
gene 1 15 69 2.23134 0 919 2.23134 1
genomeend 9

/* Organism #10 Fitness: 3010 Error: 520 */
genomestart 10
trait 1 0.488378 0.531579 0.535503 0.717723 0.692528 0.547918 0.809466 0.189985 
node 1 1 1 1
node 2 1 1 1
node 3 1 1 1
node 4 1 1 1
node 5 1 1 1
node 6 1 1 1
node 7 1 1 1
node 8 1 1 1
node 9 1 1 1
node 10 1 1 1
node 11 1 1 1
node 12 1 1 1
node 13 1 1 1
node 14 1 1 1
node 15 1 1 1
node 16 1 1 1
node 17 1 0 2
node 18 1 0 2
node 19 1 0 2
node 20 1 0 2
node 24 1 0 0
node 25 1 0 0
node 39 1 0 0
node 55 1 0 0
node 56 1 0 0
node 64 1 0 0
node 69 1 0 0
node 77 1 0 0
node 97 1 0 0
node 99 1 0 0
node 109 1 0 0
node 111 1 0 0
node 113 1 0 0
node 119 1 0 0
node 121 1 0 0
node 122 1 0 0
node 126 1 0 0
node 134 1 0 0
node 136 1 0 0
node 139 1 0 0
node 145 1 0 0
node 149 1 0 0
node 159 1 0 0
node 174 1 0 0
node 177 1 0 0
node 179 1 0 0
node 182 1 0 0
node 190 1 0 0
node 207 1 0 0
node 215 1 0 0
node 216 1 0 0
node 221 1 0 0
node 224 1 0 0
node 242 1 0 0
gene 1 1 17 4.64243 0 1 4.64243 1
gene 1 2 17 -0.387016 0 2 -0.387016 1
gene 1 3 17 0.494085 0 3 0.494085 1
gene 1 4 17 -0.336743 0 4 -0.336743 1
gene 1 5 17 7.43137 0 5 7.43137 1
gene 1 6 17 5.18611 0 6 5.18611 1
gene 1 7 17 -2.35256 0 7 -2.35256 1
gene 1 8 17 0.201452 0 8 0.201452 1
gene 1 9 17 7.72203 0 9 7.72203 1
gene 1 10 17 -0.916356 0 10 -0.916356 1
gene 1 11 17 3.28725 0 11 3.28725 1
gene 1 12 17 0.479708 0 12 0.479708 1
gene 1 13 17 -2.24301 0 13 -2.24301 1
gene 1 14 17 0.534861 0 14 0.534861 1
gene 1 15 17 -2.73584 0 15 -2.73584 1
gene 1 16 17 -1.32949 0 16 -1.32949 1
gene 1 1 18 -0.281823 0 17 -0.281823 1
gene 1 2 18 -8 0 18 -8 1
gene 1 3 18 3.26468 0 19 3.26468 1
gene 1 4 18 -0.200708 0 20 -0.200708 1
gene 1 5 18 -1.53209 0 21 -1.53209 1
gene 1 6 18 0.485088 0 22 0.485088 1
gene 1 7 18 -8 0 23 -8 1
gene 1 8 18 -2.16716 0 24 -2.16716 1
gene 1 9 18 -3.63959 0 25 -3.63959 1
gene 1 10 18 -3.57449 0 26 -3.57449 1
gene 1 11 18 -4.52644 0 27 -4.52644 1
gene 1 12 18 -0.128518 0 28 -0.128518 1
gene 1 13 18 -1.74297 0 29 -1.74297 1
gene 1 14 18 -3.00281 0 30 -3.00281 1
gene 1 15 18 -1.63773 0 31 -1.63773 1
gene 1 16 18 3.23983 0 32 3.23983 1
gene 1 1 19 4.03576 0 33 4.03576 1
gene 1 2 19 3.14134 0 34 3.14134 1
gene 1 3 19 3.82005 0 35 3.82005 1
gene 1 4 19 -6.73325 0 36 -6.73325 1
gene 1 5 19 -2.46831 0 37 -2.46831 1
gene 1 6 19 -1.1087 0 38 -1.1087 1
gene 1 7 19 6.0196 0 39 6.0196 1
gene 1 8 19 1.07709 0 40 1.07709 1
gene 1 9 19 -5.80903 0 41 -5.80903 1
gene 1 10 19 -0.35763 0 42 -0.35763 1
gene 1 11 19 -0.263007 0 43 -0.263007 1
gene 1 12 19 5.3067 0 44 5.3067 1
gene 1 13 19 -4.70814 0 45 -4.70814 1
gene 1 14 19 -3.3982 0 46 -3.3982 1
gene 1 15 19 2.27301 0 47 2.27301 1
gene 1 16 19 1.34959 0 48 1.34959 1
gene 1 1 20 1.78876 0 49 1.78876 1
gene 1 2 20 2.76678 0 50 2.76678 1
gene 1 3 20 -5.35644 0 51 -5.35644 1
gene 1 4 20 -0.290911 0 52 -0.290911 1
gene 1 5 20 1.72556 0 53 1.72556 1
gene 1 6 20 0.884815 0 54 0.884815 1
gene 1 7 20 -2.56775 0 55 -2.56775 1
gene 1 8 20 0.153134 0 56 0.153134 1
gene 1 9 20 3.05303 0 57 3.05303 1
gene 1 10 20 -3.25944 0 58 -3.25944 1
gene 1 11 20 -1.9721 0 59 -1.9721 1
gene 1 12 20 2.37971 0 60 2.37971 1
gene 1 13 20 -3.04591 0 61 -3.04591 1
gene 1 14 20 -3.64804 0 62 -3.64804 1
gene 1 15 20 1.17325 0 63 1.17325 1
gene 1 16 20 -0.775893 0 64 -0.775893 1
gene 1 7 24 3.66949 0 74 3.66949 1
gene 1 24 17 0.431311 0 75 0.431311 1
gene 1 11 25 -2.1003 0 78 -2.1003 1
gene 1 25 18 1.02865 0 79 1.02865 1
gene 1 20 24 -1.98118 0 89 -1.98118 1
gene 1 25 19 3.75101 0 93 3.75101 1
gene 1 10 25 -1.76514 0 96 -1.76514 1
gene 1 20 18 5.33874 0 102 5.33874 1
gene 1 5 24 6.03814 0 114 6.03814 1
gene 1 9 25 -3.03596 0 124 -3.03596 1
gene 1 8 39 -8 0 142 -8 1
gene 1 39 19 2.17565 0 143 2.17565 1
gene 1 18 24 -2.47985 0 156 -2.47985 1
gene 1 4 25 0.195272 0 177 0.195272 1
gene 1 1 55 -8 0 209 -8 1
gene 1 55 20 0.515001 0 210 0.515001 1
gene 1 2 55 -1.4541 0 212 -1.4541 1
gene 1 16 56 1.44553 0 215 1.44553 1
gene 1 56 20 -1.15029 0 216 -1.15029 1
gene 1 14 64 -8 0 240 -8 1
gene 1 64 18 -1.22665 0 241 -1.22665 1
gene 1 2 69 0.288244 0 256 0.288244 1
gene 1 69 20 -1.43239 0 257 -1.43239 0
gene 1 15 64 -0.656754 0 274 -0.656754 1
gene 1 5 77 1.86713 0 291 1.86713 1
gene 1 77 20 -1.52159 0 292 -1.52159 1
gene 1 11 77 -0.412367 0 314 -0.412367 1
gene 1 9 56 -3.19813 0 334 -3.19813 1
gene 1 9 39 -8 0 360 -8 1
gene 1 14 97 3.0258 0 361 3.0258 1
gene 1 97 18 -6.0114 0 362 -6.0114 1
gene 1 97 99 -5.19685 0 365 -5.19685 1
gene 1 99 18 -4.02899 0 366 -4.02899 1
gene 1 69 77 -6.96804 0 367 -6.96804 1
gene 1 8 97 0.000129134 0 379 0.000129134 1
gene 1 4 55 -0.446894 0 409 -0.446894 1
gene 1 16 109 -1.03582 0 411 -1.03582 1
gene 1 109 17 0.945909 0 412 0.945909 1
gene 1 14 111 1.11603 0 418 1.11603 1
gene 1 111 97 0.115238 0 419 0.115238 1
gene 1 10 55 2.23115 0 429 2.23115 1
gene 1 14 113 1.60473 0 430 1.60473 1
gene 1 113 97 1.71041 0 431 1.71041 1
gene 1 15 119 0.362497 0 452 0.362497 1
gene 1 119 17 -2.06175 0 453 -2.06175 1
gene 1 6 39 8 0 456 8 1
gene 1 5 113 6.73488 0 462 6.73488 1
gene 1 1 121 -4.802 0 463 -4.802 1
gene 1 121 17 0.353484 0 464 0.353484 1
gene 1 6 122 -1.21284 0 466 -1.21284 1
gene 1 122 39 0.541897 0 467 0.541897 1
gene 1 8 25 -1.64964 0 469 -1.64964 1
gene 1 15 126 -0.521545 0 485 -0.521545 1
gene 1 126 18 0.0870715 0 486 0.0870715 1
gene 1 77 39 -1.6271 0 495 -1.6271 1
gene 1 8 134 -3.51843 0 512 -3.51843 1
gene 1 134 25 -1.55458 0 513 -1.55458 1
gene 1 16 136 -0.344973 0 520 -0.344973 1
gene 1 136 18 -2.27203 0 521 -2.27203 1
gene 1 109 55 -2.16017 0 526 -2.16017 1
gene 1 16 139 2.98907 0 536 2.98907 1
gene 1 139 109 3.55386 0 537 3.55386 1
gene 1 18 145 4.96549 0 557 4.96549 1
gene 1 145 24 -1.80731 0 558 -1.80731 1
gene 1 25 145 2.25325 0 561 2.25325 1
gene 1 14 149 2.37394 0 571 2.37394 1
gene 1 149 97 -2.11138 0 572 -2.11138 1
gene 1 19 111 0.666063 0 592 0.666063 1
gene 1 126 111 -2.59787 0 593 -2.59787 1
gene 1 149 99 -0.75688 0 595 -0.75688 1
gene 1 10 159 1.00422 0 609 1.00422 1
gene 1 159 19 0.920781 0 610 0.920781 1
gene 1 9 139 -1.88907 0 612 -1.88907 1
gene 1 10 174 4.14139 0 659 4.14139 1
gene 1 174 25 3.25721 0 660 3.25721 1
gene 1 174 177 3.60708 0 667 3.60708 1
gene 1 177 25 1.10829 0 668 1.10829 1
gene 1 1 179 -4.00347 0 672 -4.00347 1
gene 1 179 121 5.0118 0 673 5.0118 1
gene 1 5 182 -0.720212 0 679 -0.720212 1
gene 1 182 24 -2.72642 0 680 -2.72642 1
gene 1 121 149 -0.753454 0 691 -0.753454 1
gene 1 6 149 1.66002 0 711 1.66002 1
gene 1 4 190 1.31317 0 712 1.31317 1
gene 1 190 20 -1.59451 0 713 -1.59451 1
gene 1 3 207 2.35622 0 767 2.35622 1
gene 1 207 18 0.262995 0 768 0.262995 1
gene 1 69 215 -2.22873 0 795 -2.22873 1
gene 1 215 20 -2.73419 0 796 -2.73419 1
gene 1 13 216 0.773629 0 800 0.773629 1
gene 1 216 19 -6.2538 0 801 -6.2538 1
gene 1 7 221 -0.316832 0 816 -0.316832 1
gene 1 221 17 -2.39622 0 817 -2.39622 1
gene 1 39 149 -2.76504 0 820 -2.76504 1
gene 1 9 136 -0.217216 0 826 -0.217216 1
gene 1 182 224 1.49645 0 838 1.49645 1
gene 1 224 24 -1.3731 0 839 -1.3731 1
gene 1 113 69 0.938316 0 843 0.938316 1
gene 1 177 111 0.90455 0 857 0.90455 1
gene 1 126 99 0.0727744 0 883 0.0727744 1
gene 1 56 159 -0.31643 0 894 -0.31643 1
gene 1 15 242 -0.241015 0 903 -0.241015 1
gene 1 242 126 0.861126 0 904 0.861126 1
gene 1 207 190 -0.441116 0 907 -0.441116 1
gene 1 15 69 0.492609 0 919 0.492609 1
genomeend 10

/* Organism #11 Fitness: 2093 Error: 431 */
genomestart 11
trait 1 0.534889 0.531579 0.535503 0.690432 0.65826 0.623369 0.798816 0.126657 
node 1 1 1 1
node 2 1 1 1
node 3 1 1 1
node 4 1 1 1
node 5 1 1 1
node 6 1 1 1
node 7 1 1 1
node 8 1 1 1
node 9 1 1 1
node 10 1 1 1
node 11 1 1 1
node 12 1 1 1
node 13 1 1 1
node 14 1 1 1
node 15 1 1 1
node 16 1 1 1
node 17 1 0 2
node 18 1 0 2
node 19 1 0 2
node 20 1 0 2
node 24 1 0 0
node 25 1 0 0
node 39 1 0 0
node 55 1 0 0
node 56 1 0 0
node 64 1 0 0
node 69 1 0 0
node 77 1 0 0
node 97 1 0 0
node 99 1 0 0
node 109 1 0 0
node 111 1 0 0
node 113 1 0 0
node 119 1 0 0
node 121 1 0 0
node 122 1 0 0
node 126 1 0 0
node 134 1 0 0
node 136 1 0 0
node 139 1 0 0
node 145 1 0 0
node 149 1 0 0
node 159 1 0 0
node 174 1 0 0
node 177 1 0 0
node 179 1 0 0
node 182 1 0 0
node 190 1 0 0
node 207 1 0 0
node 215 1 0 0
node 216 1 0 0
node 221 1 0 0
node 224 1 0 0
node 242 1 0 0
gene 1 1 17 -2.37699 0 1 -2.37699 1
gene 1 2 17 0.718204 0 2 0.718204 1
gene 1 3 17 1.09872 0 3 1.09872 1
gene 1 4 17 2.19947 0 4 2.19947 1
gene 1 5 17 8 0 5 8 1
gene 1 6 17 1.34001 0 6 1.34001 1
gene 1 7 17 -1.66147 0 7 -1.66147 1
gene 1 8 17 4.50931 0 8 4.50931 1
gene 1 9 17 2.72603 0 9 2.72603 1
gene 1 10 17 0.685703 0 10 0.685703 1
gene 1 11 17 2.79528 0 11 2.79528 1
gene 1 12 17 7.23201 0 12 7.23201 1
gene 1 13 17 0.0425422 0 13 0.0425422 1
gene 1 14 17 1.58923 0 14 1.58923 1
gene 1 15 17 -5.97692 0 15 -5.97692 1
gene 1 16 17 4.72004 0 16 4.72004 1
gene 1 1 18 -3.79719 0 17 -3.79719 1
gene 1 2 18 -2.09436 0 18 -2.09436 1
gene 1 3 18 -3.3225 0 19 -3.3225 1
gene 1 4 18 -1.23401 0 20 -1.23401 1
gene 1 5 18 0.0166886 0 21 0.0166886 1
gene 1 6 18 -5.34034 0 22 -5.34034 1
gene 1 7 18 -8 0 23 -8 1
gene 1 8 18 0.502765 0 24 0.502765 1
gene 1 9 18 2.21296 0 25 2.21296 1
gene 1 10 18 -3.72142 0 26 -3.72142 1
gene 1 11 18 -1.86801 0 27 -1.86801 1
gene 1 12 18 -1.7795 0 28 -1.7795 1
gene 1 13 18 3.05346 0 29 3.05346 1
gene 1 14 18 -0.226305 0 30 -0.226305 1
gene 1 15 18 4.57651 0 31 4.57651 1
gene 1 16 18 -0.352715 0 32 -0.352715 1
gene 1 1 19 4.35745 0 33 4.35745 1
gene 1 2 19 6.09131 0 34 6.09131 1
gene 1 3 19 4.511 0 35 4.511 1
gene 1 4 19 -3.51239 0 36 -3.51239 1
gene 1 5 19 4.50841 0 37 4.50841 1
gene 1 6 19 -4.44235 0 38 -4.44235 1
gene 1 7 19 5.79219 0 39 5.79219 1
gene 1 8 19 -3.93526 0 40 -3.93526 1
gene 1 9 19 -2.59337 0 41 -2.59337 1
gene 1 10 19 4.58373 0 42 4.58373 1
gene 1 11 19 -0.292792 0 43 -0.292792 1
gene 1 12 19 -1.85716 0 44 -1.85716 1
gene 1 13 19 -7.29731 0 45 -7.29731 1
gene 1 14 19 1.76361 0 46 1.76361 1
gene 1 15 19 -0.680114 0 47 -0.680114 1
gene 1 16 19 -0.677534 0 48 -0.677534 1
gene 1 1 20 1.33401 0 49 1.33401 1
gene 1 2 20 3.38062 0 50 3.38062 1
gene 1 3 20 -1.66599 0 51 -1.66599 1
gene 1 4 20 1.69339 0 52 1.69339 1
gene 1 5 20 3.56333 0 53 3.56333 1
gene 1 6 20 -1.19718 0 54 -1.19718 1
gene 1 7 20 -1.74919 0 55 -1.74919 1
gene 1 8 20 0.503074 0 56 0.503074 1
gene 1 9 20 -0.462056 0 57 -0.462056 1
gene 1 10 20 -0.448505 0 58 -0.448505 1
gene 1 11 20 4.50139 0 59 4.50139 1
gene 1 12 20 -0.987747 0 60 -0.987747 1
gene 1 13 20 -0.807372 0 61 -0.807372 1
gene 1 14 20 -8 0 62 -8 1
gene 1 15 20 1.58689 0 63 1.58689 1
gene 1 16 20 2.85912 0 64 2.85912 1
gene 1 7 24 5.78868 0 74 5.78868 1
gene 1 24 17 -0.924132 0 75 -0.924132 1
gene 1 11 25 -0.580721 0 78 -0.580721 1
gene 1 25 18 -7.26232 0 79 -7.26232 1
gene 1 20 24 -3.20176 0 89 -3.20176 1
gene 1 25 19 0.442204 0 93 0.442204 1
gene 1 10 25 -1.12318 0 96 -1.12318 1
gene 1 20 18 6.90173 0 102 6.90173 1
gene 1 5 24 -0.297756 0 114 -0.297756 1
gene 1 9 25 -4.99142 0 124 -4.99142 1
gene 1 8 39 -2.88503 0 142 -2.88503 1
gene 1 39 19 -4.55276 0 143 -4.55276 1
gene 1 18 24 8 0 156 8 1
gene 1 4 25 0.260529 0 177 0.260529 1
gene 1 1 55 -7.90887 0 209 -7.90887 1
gene 1 55 20 -0.516098 0 210 -0.516098 1
gene 1 2 55 0.613535 0 212 0.613535 1
gene 1 16 56 -2.10645 0 215 -2.10645 1
gene 1 56 20 4.94897 0 216 4.94897 1
gene 1 14 64 -8 0 240 -8 1
gene 1 64 18 -1.20151 0 241 -1.20151 1
gene 1 2 69 5.12468 0 256 5.12468 1
gene 1 69 20 -4.49192 0 257 -4.49192 0
gene 1 15 64 5.84427 0 274 5.84427 1
gene 1 5 77 -2.79158 0 291 -2.79158 1
gene 1 77 20 -1.31368 0 292 -1.31368 1
gene 1 11 77 1.04818 0 314 1.04818 1
gene 1 9 56 2.03299 0 334 2.03299 1
gene 1 9 39 -6.29186 0 360 -6.29186 1
gene 1 14 97 1.71259 0 361 1.71259 1
gene 1 97 18 -5.28654 0 362 -5.28654 1
gene 1 97 99 -1.87151 0 365 -1.87151 1
gene 1 99 18 1.06545 0 366 1.06545 1
gene 1 69 77 -3.4783 0 367 -3.4783 1
gene 1 8 97 -8 0 379 -8 1
gene 1 4 55 -0.375877 0 409 -0.375877 1
gene 1 16 109 0.260792 0 411 0.260792 1
gene 1 109 17 0.405785 0 412 0.405785 1
gene 1 14 111 3.8906 0 418 3.8906 1
gene 1 111 97 3.48671 0 419 3.48671 1
gene 1 10 55 -4.51278 0 429 -4.51278 1
gene 1 14 113 6.5556 0 430 6.5556 1
gene 1 113 97 3.88148 0 431 3.88148 1
gene 1 15 119 -4.00464 0 452 -4.00464 1
gene 1 119 17 -4.89387 0 453 -4.89387 1
gene 1 6 39 5.42754 0 456 5.42754 1
gene 1 5 113 2.51444 0 462 2.51444 1
gene 1 1 121 1.44014 0 463 1.44014 1
gene 1 121 17 3.34491 0 464 3.34491 1
gene 1 6 122 -3.68793 0 466 -3.68793 1
gene 1 122 39 4.44303 0 467 4.44303 1
gene 1 8 25 1.67706 0 469 1.67706 1
gene 1 15 126 1.93357 0 485 1.93357 1
gene 1 126 18 8 0 486 8 1
gene 1 77 39 -5.09414 0 495 -5.09414 1
gene 1 8 134 -3.35743 0 512 -3.35743 1
gene 1 134 25 -2.83051 0 513 -2.83051 1
gene 1 16 136 2.06632 0 520 2.06632 1
gene 1 136 18 1.78849 0 521 1.78849 1
gene 1 109 55 -6.96181 0 526 -6.96181 1
gene 1 16 139 3.73157 0 536 3.73157 1
gene 1 139 109 2.75282 0 537 2.75282 1
gene 1 18 145 2.08704 0 557 2.08704 1
gene 1 145 24 -0.0419051 0 558 -0.0419051 1
gene 1 25 145 2.27906 0 561 2.27906 1
gene 1 14 149 3.66158 0 571 3.66158 1
gene 1 149 97 -0.614812 0 572 -0.614812 1
gene 1 19 111 0.264578 0 592 0.264578 1
gene 1 126 111 -5.39441 0 593 -5.39441 1
gene 1 149 99 -0.0143955 0 595 -0.0143955 1
gene 1 10 159 0.660055 0 609 0.660055 1
gene 1 159 19 1.21343 0 610 1.21343 1
gene 1 9 139 0.751999 0 612 0.751999 1
gene 1 10 174 0.387191 0 659 0.387191 1
gene 1 174 25 1.64719 0 660 1.64719 1
gene 1 174 177 5.32584 0 667 5.32584 1
gene 1 177 25 3.89298 0 668 3.89298 1
gene 1 1 179 1.22286 0 672 1.22286 1
gene 1 179 121 0.463953 0 673 0.463953 1
gene 1 5 182 1.24427 0 679 1.24427 1
gene 1 182 24 -1.46849 0 680 -1.46849 1
gene 1 121 149 0.733114 0 691 0.733114 1
gene 1 6 149 1.44927 0 711 1.44927 1
gene 1 4 190 1.43831 0 712 1.43831 1
gene 1 190 20 0.559364 0 713 0.559364 1
gene 1 3 207 -1.97562 0 767 -1.97562 1
gene 1 207 18 -1.94742 0 768 -1.94742 1
gene 1 69 215 2.29881 0 795 2.29881 1
gene 1 215 20 -1.92101 0 796 -1.92101 1
gene 1 13 216 0.604714 0 800 0.604714 1
gene 1 216 19 -1.42641 0 801 -1.42641 1
gene 1 7 221 -0.15419 0 816 -0.15419 1
gene 1 221 17 2.16417 0 817 2.16417 1
gene 1 39 149 -0.956913 0 820 -0.956913 1
gene 1 9 136 -2.97762 0 826 -2.97762 1
gene 1 182 224 -1.50482 0 838 -1.50482 1
gene 1 224 24 -2.57735 0 839 -2.57735 1
gene 1 113 69 3.4534 0 843 3.4534 1
gene 1 177 111 3.845 0 857 3.845 1
gene 1 126 99 0.558976 0 883 0.558976 1
gene 1 56 159 -1.72232 0 894 -1.72232 1
gene 1 15 242 -0.731753 0 903 -0.731753 1
gene 1 242 126 -3.0084 0 904 -3.0084 1
gene 1 207 190 -0.197957 0 907 -0.197957 1
gene 1 15 69 1.3912 0 919 1.3912 1
genomeend 11

/* Organism #12 Fitness: 1482 Error: 165 */
genomestart 12
trait 1 0.534889 0.531579 0.535503 0.690432 0.65826 0.623369 0.798816 0.126657 
node 1 1 1 1
node 2 1 1 1
node 3 1 1 1
node 4 1 1 1
node 5 1 1 1
node 6 1 1 1
node 7 1 1 1
node 8 1 1 1
node 9 1 1 1
node 10 1 1 1
node 11 1 1 1
node 12 1 1 1
node 13 1 1 1
node 14 1 1 1
node 15 1 1 1
node 16 1 1 1
node 17 1 0 2
node 18 1 0 2
node 19 1 0 2
node 20 1 0 2
node 24 1 0 0
node 25 1 0 0
node 39 1 0 0
node 55 1 0 0
node 56 1 0 0
node 64 1 0 0
node 69 1 0 0
node 77 1 0 0
node 97 1 0 0
node 99 1 0 0
node 109 1 0 0
node 111 1 0 0
node 113 1 0 0
node 119 1 0 0
node 121 1 0 0
node 122 1 0 0
node 126 1 0 0
node 134 1 0 0
node 136 1 0 0
node 139 1 0 0
node 145 1 0 0
node 149 1 0 0
node 159 1 0 0
node 174 1 0 0
node 177 1 0 0
node 179 1 0 0
node 182 1 0 0
node 190 1 0 0
node 207 1 0 0
node 215 1 0 0
node 216 1 0 0
node 221 1 0 0
node 224 1 0 0
node 242 1 0 0
gene 1 1 17 1.21439 0 1 1.21439 1
gene 1 2 17 1.40428 0 2 1.40428 1
gene 1 3 17 3.45061 0 3 3.45061 1
gene 1 4 17 -1.79861 0 4 -1.79861 1
gene 1 5 17 1.519 0 5 1.519 1
gene 1 6 17 -0.382558 0 6 -0.382558 1
gene 1 7 17 0.209769 0 7 0.209769 1
gene 1 8 17 3.34504 0 8 3.34504 1
gene 1 9 17 4.55333 0 9 4.55333 1
gene 1 10 17 1.12844 0 10 1.12844 1
gene 1 11 17 1.50857 0 11 1.50857 1
gene 1 12 17 1.94848 0 12 1.94848 1
gene 1 13 17 0.0577847 0 13 0.0577847 1
gene 1 14 17 -1.01083 0 14 -1.01083 1
gene 1 15 17 -2.70128 0 15 -2.70128 1
gene 1 16 17 1.29993 0 16 1.29993 1
gene 1 1 18 -3.41742 0 17 -3.41742 1
gene 1 2 18 1.5685 0 18 1.5685 1
gene 1 3 18 -8 0 19 -8 1
gene 1 4 18 -0.997074 0 20 -0.997074 1
gene 1 5 18 -1.97305 0 21 -1.97305 1
gene 1 6 18 -0.236045 0 22 -0.236045 1
gene 1 7 18 -1.96093 0 23 -1.96093 1
gene 1 8 18 -1.32478 0 24 -1.32478 1
gene 1 9 18 2.17914 0 25 2.17914 1
gene 1 10 18 2.20183 0 26 2.20183 1
gene 1 11 18 2.87451 0 27 2.87451 1
gene 1 12 18 0.698753 0 28 0.698753 1
gene 1 13 18 2.64402 0 29 2.64402 1
gene 1 14 18 3.43622 0 30 3.43622 1
gene 1 15 18 1.62193 0 31 1.62193 1
gene 1 16 18 -3.09626 0 32 -3.09626 1
gene 1 1 19 -0.797835 0 33 -0.797835 1
gene 1 2 19 -0.377528 0 34 -0.377528 1
gene 1 3 19 3.93577 0 35 3.93577 1
gene 1 4 19 -1.87525 0 36 -1.87525 1
gene 1 5 19 -0.735542 0 37 -0.735542 1
gene 1 6 19 1.51128 0 38 1.51128 1
gene 1 7 19 2.26389 0 39 2.26389 1
gene 1 8 19 -4.44589 0 40 -4.44589 1
gene 1 9 19 -1.62017 0 41 -1.62017 1
gene 1 10 19 -4.4341 0 42 -4.4341 1
gene 1 11 19 -0.369263 0 43 -0.369263 1
gene 1 12 19 -0.385307 0 44 -0.385307 1
gene 1 13 19 -4.58247 0 45 -4.58247 1
gene 1 14 19 -0.973195 0 46 -0.973195 1
gene 1 15 19 1.80797 0 47 1.80797 1
gene 1 16 19 -0.24294 0 48 -0.24294 1
gene 1 1 20 -2.00654 0 49 -2.00654 1
gene 1 2 20 -1.11831 0 50 -1.11831 1
gene 1 3 20 -2.6294 0 51 -2.6294 1
gene 1 4 20 4.164 0 52 4.164 1
gene 1 5 20 3.00819 0 53 3.00819 1
gene 1 6 20 -0.223444 0 54 -0.223444 1
gene 1 7 20 -1.19215 0 55 -1.19215 1
gene 1 8 20 4.15142 0 56 4.15142 1
gene 1 9 20 -3.32411 0 57 -3.32411 1
gene 1 10 20 -5.42312 0 58 -5.42312 1
gene 1 11 20 4.38252 0 59 4.38252 1
gene 1 12 20 -1.51335 0 60 -1.51335 1
gene 1 13 20 -1.6049 0 61 -1.6049 1
gene 1 14 20 -8 0 62 -8 1
gene 1 15 20 -0.117223 0 63 -0.117223 1
gene 1 16 20 2.48685 0 64 2.48685 1
gene 1 7 24 4.29132 0 74 4.29132 1
gene 1 24 17 3.52969 0 75 3.52969 1
gene 1 11 25 -0.154464 0 78 -0.154464 1
gene 1 25 18 -3.59203 0 79 -3.59203 1
gene 1 20 24 -5.58701 0 89 -5.58701 1
gene 1 25 19 -2.35584 0 93 -2.35584 1
gene 1 10 25 -1.9948 0 96 -1.9948 1
gene 1 20 18 1.98557 0 102 1.98557 1
gene 1 5 24 2.16499 0 114 2.16499 1
gene 1 9 25 3.72163 0 124 3.72163 1
gene 1 8 39 -2.68328 0 142 -2.68328 1
gene 1 39 19 1.44667 0 143 1.44667 1
gene 1 18 24 1.84442 0 156 1.84442 1
gene 1 4 25 4.70141 0 177 4.70141 1
gene 1 1 55 0.432978 0 209 0.432978 1
gene 1 55 20 -0.209707 0 210 -0.209707 1
gene 1 2 55 3.68006 0 212 3.68006 1
gene 1 16 56 2.57811 0 215 2.57811 1
gene 1 56 20 1.46501 0 216 1.46501 1
gene 1 14 64 -8 0 240 -8 1
gene 1 64 18 -5.26635 0 241 -5.26635 1
gene 1 2 69 4.69952 0 256 4.69952 1
gene 1 69 20 -1.52587 0 257 -1.52587 1
gene 1 15 64 0.602379 0 274 0.602379 1
gene 1 5 77 -2.92143 0 291 -2.92143 1
gene 1 77 20 0.402475 0 292 0.402475 1
gene 1 11 77 1.46988 0 314 1.46988 1
gene 1 9 56 3.49539 0 334 3.49539 1
gene 1 9 39 -3.58627 0 360 -3.58627 1
gene 1 14 97 7.95457 0 361 7.95457 1
gene 1 97 18 -7.11508 0 362 -7.11508 1
gene 1 97 99 1.00279 0 365 1.00279 1
gene 1 99 18 0.818972 0 366 0.818972 1
gene 1 69 77 -5.26581 0 367 -5.26581 1
gene 1 8 97 -6.88683 0 379 -6.88683 1
gene 1 4 55 -0.65703 0 409 -0.65703 1
gene 1 16 109 -0.950833 0 411 -0.950833 1
gene 1 109 17 -2.06534 0 412 -2.06534 1
gene 1 14 111 0.122319 0 418 0.122319 1
gene 1 111 97 -2.79644 0 419 -2.79644 1
gene 1 10 55 -4.28536 0 429 -4.28536 1
gene 1 14 113 3.44085 0 430 3.44085 1
gene 1 113 97 8 0 431 8 1
gene 1 15 119 -2.46351 0 452 -2.46351 1
gene 1 119 17 -1.3757 0 453 -1.3757 1
gene 1 6 39 2.12837 0 456 2.12837 1
gene 1 5 113 -2.49336 0 462 -2.49336 1
gene 1 1 121 -5.20725 0 463 -5.20725 1
gene 1 121 17 1.68267 0 464 1.68267 1
gene 1 6 122 -2.68776 0 466 -2.68776 1
gene 1 122 39 7.20124 0 467 7.20124 1
gene 1 8 25 2.85657 0 469 2.85657 1
gene 1 15 126 -2.64513 0 485 -2.64513 1
gene 1 126 18 3.91852 0 486 3.91852 1
gene 1 77 39 -0.74245 0 495 -0.74245 1
gene 1 8 134 -0.554858 0 512 -0.554858 1
gene 1 134 25 -1.66747 0 513 -1.66747 1
gene 1 16 136 -1.1501 0 520 -1.1501 1
gene 1 136 18 -0.0730958 0 521 -0.0730958 1
gene 1 109 55 -4.13589 0 526 -4.13589 1
gene 1 16 139 1.45458 0 536 1.45458 1
gene 1 139 109 -1.09489 0 537 -1.09489 1
gene 1 18 145 3.96717 0 557 3.96717 1
gene 1 145 24 0.40617 0 558 0.40617 1
gene 1 25 145 0.806519 0 561 0.806519 1
gene 1 14 149 -0.299949 0 571 -0.299949 1
gene 1 149 97 1.75185 0 572 1.75185 1
gene 1 19 111 -0.432582 0 592 -0.432582 1
gene 1 126 111 -0.750996 0 593 -0.750996 1
gene 1 149 99 -2.20305 0 595 -2.20305 1
gene 1 10 159 0.96816 0 609 0.96816 1
gene 1 159 19 1.61638 0 610 1.61638 1
gene 1 9 139 0.883761 0 612 0.883761 1
gene 1 10 174 -2.07961 0 659 -2.07961 1
gene 1 174 25 -4.15494 0 660 -4.15494 1
gene 1 174 177 1.10922 0 667 1.10922 1
gene 1 177 25 -4.06199 0 668 -4.06199 1
gene 1 1 179 -2.23901 0 672 -2.23901 1
gene 1 179 121 4.13826 0 673 4.13826 1
gene 1 5 182 -0.999817 0 679 -0.999817 1
gene 1 182 24 0.107318 0 680 0.107318 1
gene 1 121 149 -0.592845 0 691 -0.592845 1
gene 1 6 149 1.82437 0 711 1.82437 1
gene 1 4 190 1.49212 0 712 1.49212 1
gene 1 190 20 -1.96285 0 713 -1.96285 1
gene 1 3 207 -3.44087 0 767 -3.44087 1
gene 1 207 18 -1.04492 0 768 -1.04492 1
gene 1 69 215 0.728381 0 795 0.728381 1
gene 1 215 20 -0.577531 0 796 -0.577531 1
gene 1 13 216 2.78652 0 800 2.78652 1
gene 1 216 19 -6.4655 0 801 -6.4655 1
gene 1 7 221 2.34687 0 816 2.34687 1
gene 1 221 17 0.277062 0 817 0.277062 1
gene 1 39 149 1.95006 0 820 1.95006 1
gene 1 9 136 2.26003 0 826 2.26003 1
gene 1 182 224 1.65095 0 838 1.65095 1
gene 1 224 24 0.0401153 0 839 0.0401153 1
gene 1 113 69 -1.00577 0 843 -1.00577 1
gene 1 177 111 0.613666 0 857 0.613666 1
gene 1 126 99 3.09618 0 883 3.09618 1
gene 1 56 159 0.68533 0 894 0.68533 1
gene 1 15 242 -1.08687 0 903 -1.08687 1
gene 1 242 126 2.70858 0 904 2.70858 1
gene 1 207 190 -2.3332 0 907 -2.3332 1
gene 1 15 69 -0.73724 0 919 -0.73724 1
genomeend 12
