
/* Species #210 : (Size 6) (AF 2383.33) (Age 15)  */


/* Organism #0 Fitness: 1518 Error: 179 */
genomestart 0
trait 1 0.227499 0.666218 1 0.630105 0.101963 0.428481 0.0484476 0.266142 
node 1 1 1 1
node 2 1 1 1
node 3 1 1 1
node 4 1 1 1
node 5 1 1 1
node 6 1 1 1
node 7 1 1 1
node 8 1 1 1
node 9 1 1 1
node 10 1 1 1
node 11 1 1 1
node 12 1 1 1
node 13 1 1 1
node 14 1 1 1
node 15 1 1 1
node 16 1 1 1
node 17 1 0 2
node 18 1 0 2
node 19 1 0 2
node 20 1 0 2
node 26 1 0 0
node 35 1 0 0
node 58 1 0 0
node 87 1 0 0
node 94 1 0 0
node 95 1 0 0
node 96 1 0 0
node 98 1 0 0
node 102 1 0 0
node 109 1 0 0
node 111 1 0 0
node 114 1 0 0
node 123 1 0 0
node 131 1 0 0
node 133 1 0 0
node 137 1 0 0
node 140 1 0 0
node 144 1 0 0
node 146 1 0 0
node 156 1 0 0
node 165 1 0 0
node 169 1 0 0
node 186 1 0 0
node 188 1 0 0
node 189 1 0 0
node 193 1 0 0
node 194 1 0 0
node 196 1 0 0
node 199 1 0 0
node 202 1 0 0
node 215 1 0 0
node 217 1 0 0
node 220 1 0 0
node 223 1 0 0
node 228 1 0 0
node 244 1 0 0
node 258 1 0 0
node 269 1 0 0
node 276 1 0 0
node 283 1 0 0
node 287 1 0 0
node 308 1 0 0
node 316 1 0 0
node 325 1 0 0
node 344 1 0 0
node 345 1 0 0
node 354 1 0 0
node 356 1 0 0
node 367 1 0 0
node 369 1 0 0
node 375 1 0 0
node 385 1 0 0
node 402 1 0 0
node 410 1 0 0
node 418 1 0 0
node 422 1 0 0
node 429 1 0 0
node 438 1 0 0
node 444 1 0 0
node 452 1 0 0
node 453 1 0 0
node 466 1 0 0
node 469 1 0 0
node 470 1 0 0
node 496 1 0 0
node 504 1 0 0
node 513 1 0 0
node 525 1 0 0
node 528 1 0 0
node 531 1 0 0
node 548 1 0 0
node 556 1 0 0
node 564 1 0 0
node 586 1 0 0
node 590 1 0 0
node 613 1 0 0
node 636 1 0 0
node 638 1 0 0
node 653 1 0 0
node 654 1 0 0
node 662 1 0 0
node 668 1 0 0
node 669 1 0 0
node 679 1 0 0
node 686 1 0 0
node 690 1 0 0
node 692 1 0 0
node 697 1 0 0
node 700 1 0 0
node 702 1 0 0
node 711 1 0 0
node 714 1 0 0
gene 1 1 17 -3.34379 0 1 -3.34379 1
gene 1 2 17 1.87765 0 2 1.87765 1
gene 1 3 17 -1.71937 0 3 -1.71937 1
gene 1 4 17 -4.78309 0 4 -4.78309 1
gene 1 5 17 -2.03353 0 5 -2.03353 1
gene 1 6 17 0.379037 0 6 0.379037 1
gene 1 7 17 0.970788 0 7 0.970788 1
gene 1 8 17 -0.365303 0 8 -0.365303 1
gene 1 9 17 -1.1302 0 9 -1.1302 1
gene 1 10 17 -2.12348 0 10 -2.12348 1
gene 1 11 17 -0.117983 0 11 -0.117983 1
gene 1 12 17 -1.93708 0 12 -1.93708 1
gene 1 13 17 -1.52177 0 13 -1.52177 1
gene 1 14 17 -2.26334 0 14 -2.26334 1
gene 1 15 17 -0.0683406 0 15 -0.0683406 1
gene 1 16 17 -1.38321 0 16 -1.38321 1
gene 1 1 18 7.53258 0 17 7.53258 1
gene 1 2 18 -0.244821 0 18 -0.244821 1
gene 1 3 18 -2.23191 0 19 -2.23191 1
gene 1 4 18 2.60117 0 20 2.60117 1
gene 1 5 18 2.89677 0 21 2.89677 1
gene 1 6 18 -2.21525 0 22 -2.21525 1
gene 1 7 18 -2.14778 0 23 -2.14778 1
gene 1 8 18 -1.19095 0 24 -1.19095 1
gene 1 9 18 1.6085 0 25 1.6085 1
gene 1 10 18 0.319736 0 26 0.319736 1
gene 1 11 18 -5.38683 0 27 -5.38683 1
gene 1 12 18 -4.99926 0 28 -4.99926 1
gene 1 13 18 6.02209 0 29 6.02209 1
gene 1 14 18 -2.17311 0 30 -2.17311 0
gene 1 15 18 -5.98203 0 31 -5.98203 1
gene 1 16 18 4.4922 0 32 4.4922 1
gene 1 1 19 2.08189 0 33 2.08189 1
gene 1 2 19 -0.387193 0 34 -0.387193 1
gene 1 3 19 5.02655 0 35 5.02655 1
gene 1 4 19 -1.33334 0 36 -1.33334 1
gene 1 5 19 -2.00431 0 37 -2.00431 1
gene 1 6 19 -1.06792 0 38 -1.06792 1
gene 1 7 19 -8 0 39 -8 1
gene 1 8 19 2.5792 0 40 2.5792 1
gene 1 9 19 -2.71052 0 41 -2.71052 1
gene 1 10 19 -1.47884 0 42 -1.47884 1
gene 1 11 19 -1.32736 0 43 -1.32736 1
gene 1 12 19 -2.29817 0 44 -2.29817 1
gene 1 13 19 1.86477 0 45 1.86477 1
gene 1 14 19 1.49908 0 46 1.49908 1
gene 1 15 19 -0.0760602 0 47 -0.0760602 1
gene 1 16 19 1.84104 0 48 1.84104 1
gene 1 1 20 1.10587 0 49 1.10587 1
gene 1 2 20 -0.259035 0 50 -0.259035 1
gene 1 3 20 0.805657 0 51 0.805657 1
gene 1 4 20 5.38923 0 52 5.38923 1
gene 1 5 20 3.94081 0 53 3.94081 1
gene 1 6 20 -3.54316 0 54 -3.54316 1
gene 1 7 20 2.56349 0 55 2.56349 1
gene 1 8 20 4.09406 0 56 4.09406 1
gene 1 9 20 3.03221 0 57 3.03221 1
gene 1 10 20 0.833489 0 58 0.833489 1
gene 1 11 20 -8 0 59 -8 1
gene 1 12 20 -5.58808 0 60 -5.58808 1
gene 1 13 20 -2.06692 0 61 -2.06692 1
gene 1 14 20 -0.835145 0 62 -0.835145 1
gene 1 15 20 2.18604 0 63 2.18604 1
gene 1 16 20 -0.981043 0 64 -0.981043 1
gene 1 6 26 -1.37715 0 85 -1.37715 1
gene 1 26 19 -1.80148 0 86 -1.80148 1
gene 1 18 20 -3.99891 0 120 -3.99891 1
gene 1 13 35 1.57061 0 121 1.57061 1
gene 1 35 20 0.230646 0 122 0.230646 1
gene 1 19 20 -4.04378 0 189 -4.04378 1
gene 1 9 26 2.36365 0 193 2.36365 1
gene 1 6 58 2.52682 0 201 2.52682 1
gene 1 58 26 -5.69294 0 202 -5.69294 1
gene 1 10 58 -8 0 204 -8 1
gene 1 17 58 0.754827 0 210 0.754827 1
gene 1 9 35 0.709248 0 250 0.709248 1
gene 1 15 87 5.88054 0 319 5.88054 1
gene 1 87 17 2.94511 0 320 2.94511 1
gene 1 3 58 -2.3802 0 336 -2.3802 1
gene 1 6 94 -2.33187 0 342 -2.33187 1
gene 1 94 19 1.81735 0 343 1.81735 1
gene 1 9 95 3.29103 0 344 3.29103 1
gene 1 95 17 3.76143 0 345 3.76143 1
gene 1 10 94 1.12645 0 346 1.12645 1
gene 1 6 96 0.527166 0 349 0.527166 1
gene 1 96 18 2.43308 0 350 2.43308 1
gene 1 16 35 -2.728 0 360 -2.728 1
gene 1 3 98 3.65863 0 362 3.65863 1
gene 1 98 20 3.92233 0 363 3.92233 1
gene 1 7 102 -0.292114 0 371 -0.292114 1
gene 1 102 20 0.46503 0 372 0.46503 1
gene 1 3 109 1.64316 0 400 1.64316 1
gene 1 109 19 -7.34072 0 401 -7.34072 1
gene 1 35 96 1.68839 0 402 1.68839 1
gene 1 6 111 -1.49069 0 405 -1.49069 1
gene 1 111 18 2.24797 0 406 2.24797 1
gene 1 87 98 1.21399 0 411 1.21399 1
gene 1 15 114 4.97114 0 423 4.97114 1
gene 1 114 19 -8 0 424 -8 1
gene 1 1 123 -1.3582 0 454 -1.3582 1
gene 1 123 20 8 0 455 8 1
gene 1 58 131 2.82174 0 486 2.82174 1
gene 1 131 26 4.2649 0 487 4.2649 1
gene 1 9 133 8 0 492 8 1
gene 1 133 35 -2.63143 0 493 -2.63143 1
gene 1 87 137 2.39818 0 502 2.39818 1
gene 1 137 17 -1.12671 0 503 -1.12671 1
gene 1 13 140 3.05088 0 508 3.05088 1
gene 1 140 19 -0.973659 0 509 -0.973659 1
gene 1 109 144 3.71644 0 521 3.71644 1
gene 1 144 19 2.88835 0 522 2.88835 1
gene 1 14 111 -8 0 531 -8 1
gene 1 13 146 2.13654 0 533 2.13654 1
gene 1 146 35 -4.14856 0 534 -4.14856 1
gene 1 96 111 -5.14359 0 536 -5.14359 1
gene 1 102 133 0.390595 0 547 0.390595 1
gene 1 87 94 -3.4789 0 555 -3.4789 1
gene 1 3 156 -3.08044 0 581 -3.08044 1
gene 1 156 109 -3.62113 0 582 -3.62113 1
gene 1 5 165 -2.19644 0 622 -2.19644 1
gene 1 165 17 -1.7167 0 623 -1.7167 1
gene 1 26 169 -4.60386 0 633 -4.60386 1
gene 1 169 19 -0.0408295 0 634 -0.0408295 1
gene 1 3 165 -1.38451 0 639 -1.38451 1
gene 1 6 186 -1.75946 0 715 -1.75946 1
gene 1 186 18 -3.4795 0 716 -3.4795 1
gene 1 102 188 4.78948 0 719 4.78948 1
gene 1 188 133 1.41172 0 720 1.41172 1
gene 1 11 189 -3.88875 0 721 -3.88875 1
gene 1 189 20 6.26978 0 722 6.26978 1
gene 1 3 193 1.57015 0 730 1.57015 1
gene 1 193 109 5.9393 0 731 5.9393 1
gene 1 6 165 -6.19395 0 732 -6.19395 1
gene 1 96 194 2.5515 0 734 2.5515 1
gene 1 194 18 2.87389 0 735 2.87389 1
gene 1 109 137 -0.0791531 0 738 -0.0791531 1
gene 1 35 111 0.62041 0 739 0.62041 1
gene 1 4 196 1.89251 0 745 1.89251 1
gene 1 196 20 -1.31535 0 746 -1.31535 1
gene 1 58 98 -0.592633 0 750 -0.592633 1
gene 1 87 199 -1.62136 0 755 -1.62136 1
gene 1 199 17 -0.539355 0 756 -0.539355 1
gene 1 137 202 1.0464 0 765 1.0464 1
gene 1 202 17 6.23351 0 766 6.23351 1
gene 1 98 133 -6.3685 0 770 -6.3685 1
gene 1 87 19 1.2408 0 774 1.2408 1
gene 1 35 131 0.158688 0 807 0.158688 1
gene 1 5 215 -4.34323 0 816 -4.34323 1
gene 1 215 19 8 0 817 8 1
gene 1 87 217 -2.43893 0 823 -2.43893 1
gene 1 217 94 -0.414866 0 824 -0.414866 1
gene 1 19 96 -1.31153 0 830 -1.31153 1
gene 1 3 220 -4.21575 0 836 -4.21575 1
gene 1 220 98 1.31408 0 837 1.31408 1
gene 1 6 223 0.515736 0 850 0.515736 1
gene 1 223 186 1.87217 0 851 1.87217 1
gene 1 3 199 6.56858 0 856 6.56858 1
gene 1 5 228 0.572172 0 863 0.572172 1
gene 1 228 17 2.31446 0 864 2.31446 1
gene 1 220 202 1.45515 0 886 1.45515 0
gene 1 3 244 -8 0 936 -8 1
gene 1 244 18 -0.858797 0 937 -0.858797 1
gene 1 1 258 3.97967 0 986 3.97967 1
gene 1 258 17 2.44597 0 987 2.44597 1
gene 1 87 269 -1.41366 0 1033 -1.41366 1
gene 1 269 137 0.192112 0 1034 0.192112 1
gene 1 220 123 -0.893327 0 1040 -0.893327 1
gene 1 15 276 5.68228 0 1066 5.68228 1
gene 1 276 114 7.51218 0 1067 7.51218 1
gene 1 223 94 6.50237 0 1073 6.50237 1
gene 1 133 194 -1.65355 0 1077 -1.65355 1
gene 1 3 283 0.227185 0 1085 0.227185 1
gene 1 283 20 4.14448 0 1086 4.14448 1
gene 1 14 287 2.33545 0 1095 2.33545 1
gene 1 287 17 1.00748 0 1096 1.00748 1
gene 1 114 131 0.504686 0 1143 0.504686 1
gene 1 258 308 -6.9218 0 1161 -6.9218 1
gene 1 308 17 1.12894 0 1162 1.12894 1
gene 1 4 156 5.60732 0 1165 5.60732 1
gene 1 87 316 2.64571 0 1199 2.64571 1
gene 1 316 94 2.01035 0 1200 2.01035 1
gene 1 26 196 -1.37971 0 1203 -1.37971 1
gene 1 87 325 2.62908 0 1232 2.62908 1
gene 1 325 17 0.445334 0 1233 0.445334 1
gene 1 165 344 8 0 1316 8 1
gene 1 344 17 -0.0235742 0 1317 -0.0235742 1
gene 1 6 345 4.39866 0 1320 4.39866 1
gene 1 345 17 1.53017 0 1321 1.53017 1
gene 1 14 188 4.94969 0 1335 4.94969 1
gene 1 133 354 2.06187 0 1359 2.06187 1
gene 1 354 194 -1.72747 0 1360 -1.72747 1
gene 1 95 269 3.56496 0 1366 3.56496 1
gene 1 258 356 -0.958551 0 1372 -0.958551 1
gene 1 356 308 4.44986 0 1373 4.44986 1
gene 1 2 367 -1.26473 0 1405 -1.26473 1
gene 1 367 17 -0.322042 0 1406 -0.322042 1
gene 1 16 369 -5.20631 0 1409 -5.20631 1
gene 1 369 35 -4.10658 0 1410 -4.10658 1
gene 1 14 194 -1.70053 0 1426 -1.70053 1
gene 1 14 375 1.2595 0 1441 1.2595 1
gene 1 375 18 -0.693871 0 1442 -0.693871 1
gene 1 144 96 5.77104 0 1470 5.77104 1
gene 1 345 169 1.12344 0 1473 1.12344 1
gene 1 3 385 6.14105 0 1488 6.14105 1
gene 1 385 58 8 0 1489 8 1
gene 1 369 325 -2.70229 0 1540 -2.70229 1
gene 1 3 402 1.83025 0 1567 1.83025 1
gene 1 402 199 -2.80663 0 1568 -2.80663 1
gene 1 26 410 0.173168 0 1604 0.173168 1
gene 1 410 169 -3.33248 0 1605 -3.33248 0
gene 1 6 418 -7.37008 0 1628 -7.37008 1
gene 1 418 18 -6.89907 0 1629 -6.89907 1
gene 1 418 223 1.12389 0 1652 1.12389 1
gene 1 2 422 -2.86606 0 1667 -2.86606 1
gene 1 422 19 -6.23961 0 1668 -6.23961 1
gene 1 14 429 -2.73983 0 1692 -2.73983 1
gene 1 429 287 -3.44763 0 1693 -3.44763 1
gene 1 123 140 6.33118 0 1717 6.33118 1
gene 1 15 438 8 0 1738 8 1
gene 1 438 114 -1.13827 0 1739 -1.13827 1
gene 1 109 287 -1.44861 0 1744 -1.44861 1
gene 1 14 418 -6.37099 0 1749 -6.37099 1
gene 1 402 95 1.7535 0 1774 1.7535 1
gene 1 3 444 -0.104744 0 1786 -0.104744 1
gene 1 444 283 -2.08327 0 1787 -2.08327 1
gene 1 188 19 -3.63767 0 1817 -3.63767 1
gene 1 15 452 -6.00361 0 1823 -6.00361 1
gene 1 452 114 1.20333 0 1824 1.20333 1
gene 1 186 345 -0.699699 0 1825 -0.699699 1
gene 1 269 453 -1.06529 0 1826 -1.06529 1
gene 1 453 137 -2.22042 0 1827 -2.22042 1
gene 1 375 133 -1.68573 0 1852 -1.68573 1
gene 1 354 131 5.44355 0 1862 5.44355 1
gene 1 402 94 -0.459332 0 1874 -0.459332 1
gene 1 5 466 -1.67808 0 1885 -1.67808 1
gene 1 466 19 0.0999914 0 1886 0.0999914 1
gene 1 228 469 1.62416 0 1895 1.62416 1
gene 1 469 17 0.164995 0 1896 0.164995 1
gene 1 4 422 -0.55286 0 1901 -0.55286 1
gene 1 189 470 6.66448 0 1907 6.66448 1
gene 1 470 20 2.19352 0 1908 2.19352 1
gene 1 58 276 -2.69449 0 1910 -2.69449 1
gene 1 9 199 -2.76239 0 1958 -2.76239 1
gene 1 325 496 -1.44346 0 1993 -1.44346 1
gene 1 496 17 -5.36609 0 1994 -5.36609 1
gene 1 109 504 6.16007 0 2028 6.16007 1
gene 1 504 137 -8 0 2029 -8 1
gene 1 3 345 2.49475 0 2058 2.49475 1
gene 1 10 513 -0.368696 0 2060 -0.368696 1
gene 1 513 17 -1.43123 0 2061 -1.43123 1
gene 1 466 140 -6.31718 0 2065 -6.31718 1
gene 1 308 354 0.733022 0 2086 0.733022 1
gene 1 3 525 1.93493 0 2108 1.93493 1
gene 1 525 402 0.858652 0 2109 0.858652 1
gene 1 102 528 -1.2305 0 2118 -1.2305 1
gene 1 528 133 -0.617753 0 2119 -0.617753 1
gene 1 10 531 0.7172 0 2128 0.7172 1
gene 1 531 94 -1.76612 0 2129 -1.76612 1
gene 1 169 20 0.638717 0 2168 0.638717 1
gene 1 344 444 3.46833 0 2179 3.46833 1
gene 1 3 548 3.35685 0 2202 3.35685 1
gene 1 548 165 0.683692 0 2203 0.683692 1
gene 1 375 325 0.62558 0 2209 0.62558 1
gene 1 345 165 -0.129437 0 2233 -0.129437 1
gene 1 15 556 -4.89267 0 2237 -4.89267 1
gene 1 556 438 -3.04886 0 2238 -3.04886 1
gene 1 16 564 1.35423 0 2263 1.35423 1
gene 1 564 35 2.50759 0 2264 2.50759 1
gene 1 438 133 -3.18434 0 2332 -3.18434 1
gene 1 4 586 -1.0537 0 2348 -1.0537 1
gene 1 586 20 -1.20476 0 2349 -1.20476 1
gene 1 102 504 1.57177 0 2355 1.57177 1
gene 1 6 590 -0.905489 0 2360 -0.905489 1
gene 1 590 94 4.43465 0 2361 4.43465 1
gene 1 98 438 5.7271 0 2383 5.7271 1
gene 1 3 96 2.43367 0 2424 2.43367 1
gene 1 4 613 -2.25718 0 2452 -2.25718 1
gene 1 613 18 0.521786 0 2453 0.521786 1
gene 1 452 194 -1.77368 0 2479 -1.77368 1
gene 1 8 453 -1.65262 0 2531 -1.65262 1
gene 1 513 470 4.04204 0 2549 4.04204 1
gene 1 11 636 1.25526 0 2551 1.25526 1
gene 1 636 19 -1.14276 0 2552 -1.14276 1
gene 1 6 638 0.441786 0 2557 0.441786 1
gene 1 638 345 1.8071 0 2558 1.8071 1
gene 1 564 422 -0.398737 0 2595 -0.398737 1
gene 1 3 653 2.25509 0 2604 2.25509 1
gene 1 653 385 5.02463 0 2605 5.02463 1
gene 1 4 654 -3.56726 0 2608 -3.56726 1
gene 1 654 422 -1.60773 0 2609 -1.60773 1
gene 1 10 156 0.636638 0 2611 0.636638 1
gene 1 123 452 -2.49249 0 2639 -2.49249 1
gene 1 4 662 0.970949 0 2643 0.970949 1
gene 1 662 654 -0.910711 0 2644 -0.910711 1
gene 1 140 528 0.486797 0 2651 0.486797 1
gene 1 556 133 2.60757 0 2656 2.60757 1
gene 1 6 668 0.656059 0 2671 0.656059 1
gene 1 668 186 -3.37592 0 2672 -3.37592 1
gene 1 217 669 1.09534 0 2674 1.09534 1
gene 1 669 94 4.51606 0 2675 4.51606 1
gene 1 169 194 3.87977 0 2713 3.87977 1
gene 1 220 679 -1.53637 0 2715 -1.53637 1
gene 1 679 123 -1.28949 0 2716 -1.28949 1
gene 1 5 686 -3.24463 0 2741 -3.24463 1
gene 1 686 165 -1.24606 0 2742 -1.24606 1
gene 1 3 690 0.00994055 0 2753 0.00994055 1
gene 1 690 109 -2.42343 0 2754 -2.42343 1
gene 1 193 654 -2.35444 0 2759 -2.35444 1
gene 1 7 217 -2.20026 0 2761 -2.20026 1
gene 1 87 692 0.453226 0 2765 0.453226 1
gene 1 692 316 -3.5599 0 2766 -3.5599 1
gene 1 418 697 -1.26704 0 2780 -1.26704 1
gene 1 697 18 -0.869709 0 2781 -0.869709 1
gene 1 429 653 5.58728 0 2795 5.58728 1
gene 1 220 700 0.303226 0 2798 0.303226 1
gene 1 700 202 -6.49052 0 2799 -6.49052 1
gene 1 15 702 1.04546 0 2803 1.04546 1
gene 1 702 20 -1.42914 0 2804 -1.42914 1
gene 1 12 504 -1.04907 0 2829 -1.04907 1
gene 1 654 276 0.552694 0 2835 0.552694 1
gene 1 410 711 6.21821 0 2839 6.21821 1
gene 1 711 169 -2.43243 0 2840 -2.43243 1
gene 1 14 714 -2.08524 0 2848 -2.08524 1
gene 1 714 18 3.25431 0 2849 3.25431 1
gene 1 692 711 -2.59968 0 2850 -2.59968 1
gene 1 258 344 1.12144 0 2860 1.12144 1
genomeend 0

/* Organism #1 Fitness: 4673 Error: 329 */
genomestart 1
trait 1 0.227499 0.666218 1 0.630105 0.101963 0.428481 0.0484476 0.266142 
node 1 1 1 1
node 2 1 1 1
node 3 1 1 1
node 4 1 1 1
node 5 1 1 1
node 6 1 1 1
node 7 1 1 1
node 8 1 1 1
node 9 1 1 1
node 10 1 1 1
node 11 1 1 1
node 12 1 1 1
node 13 1 1 1
node 14 1 1 1
node 15 1 1 1
node 16 1 1 1
node 17 1 0 2
node 18 1 0 2
node 19 1 0 2
node 20 1 0 2
node 26 1 0 0
node 35 1 0 0
node 58 1 0 0
node 87 1 0 0
node 94 1 0 0
node 95 1 0 0
node 96 1 0 0
node 98 1 0 0
node 102 1 0 0
node 109 1 0 0
node 111 1 0 0
node 114 1 0 0
node 123 1 0 0
node 131 1 0 0
node 133 1 0 0
node 137 1 0 0
node 140 1 0 0
node 144 1 0 0
node 146 1 0 0
node 156 1 0 0
node 165 1 0 0
node 169 1 0 0
node 186 1 0 0
node 188 1 0 0
node 189 1 0 0
node 193 1 0 0
node 194 1 0 0
node 196 1 0 0
node 199 1 0 0
node 202 1 0 0
node 215 1 0 0
node 217 1 0 0
node 220 1 0 0
node 223 1 0 0
node 228 1 0 0
node 244 1 0 0
node 258 1 0 0
node 269 1 0 0
node 276 1 0 0
node 283 1 0 0
node 287 1 0 0
node 308 1 0 0
node 316 1 0 0
node 325 1 0 0
node 344 1 0 0
node 345 1 0 0
node 354 1 0 0
node 356 1 0 0
node 367 1 0 0
node 369 1 0 0
node 375 1 0 0
node 385 1 0 0
node 402 1 0 0
node 410 1 0 0
node 418 1 0 0
node 422 1 0 0
node 429 1 0 0
node 438 1 0 0
node 444 1 0 0
node 452 1 0 0
node 453 1 0 0
node 466 1 0 0
node 469 1 0 0
node 470 1 0 0
node 496 1 0 0
node 504 1 0 0
node 513 1 0 0
node 525 1 0 0
node 528 1 0 0
node 531 1 0 0
node 548 1 0 0
node 556 1 0 0
node 564 1 0 0
node 586 1 0 0
node 590 1 0 0
node 613 1 0 0
node 636 1 0 0
node 638 1 0 0
node 653 1 0 0
node 654 1 0 0
node 662 1 0 0
node 668 1 0 0
node 669 1 0 0
node 679 1 0 0
node 686 1 0 0
node 690 1 0 0
node 692 1 0 0
node 697 1 0 0
node 700 1 0 0
node 702 1 0 0
node 711 1 0 0
node 714 1 0 0
gene 1 1 17 -1.17153 0 1 -1.17153 1
gene 1 2 17 2.39984 0 2 2.39984 1
gene 1 3 17 -2.58828 0 3 -2.58828 1
gene 1 4 17 -7.06545 0 4 -7.06545 1
gene 1 5 17 -2.17545 0 5 -2.17545 1
gene 1 6 17 1.5914 0 6 1.5914 1
gene 1 7 17 -0.696424 0 7 -0.696424 1
gene 1 8 17 0.683729 0 8 0.683729 1
gene 1 9 17 -2.95911 0 9 -2.95911 1
gene 1 10 17 -3.39286 0 10 -3.39286 1
gene 1 11 17 0.247472 0 11 0.247472 1
gene 1 12 17 -3.50476 0 12 -3.50476 1
gene 1 13 17 0.12062 0 13 0.12062 1
gene 1 14 17 -2.35152 0 14 -2.35152 1
gene 1 15 17 -0.498238 0 15 -0.498238 1
gene 1 16 17 -3.29862 0 16 -3.29862 1
gene 1 1 18 8 0 17 8 1
gene 1 2 18 1.27732 0 18 1.27732 1
gene 1 3 18 -1.85067 0 19 -1.85067 1
gene 1 4 18 0.35307 0 20 0.35307 1
gene 1 5 18 3.30613 0 21 3.30613 1
gene 1 6 18 -1.75383 0 22 -1.75383 1
gene 1 7 18 -1.19462 0 23 -1.19462 1
gene 1 8 18 0.408708 0 24 0.408708 1
gene 1 9 18 3.85558 0 25 3.85558 1
gene 1 10 18 0.874531 0 26 0.874531 1
gene 1 11 18 -5.41307 0 27 -5.41307 1
gene 1 12 18 -2.92027 0 28 -2.92027 1
gene 1 13 18 5.90176 0 29 5.90176 1
gene 1 14 18 -4.65937 0 30 -4.65937 0
gene 1 15 18 -4.67907 0 31 -4.67907 1
gene 1 16 18 5.40598 0 32 5.40598 1
gene 1 1 19 2.71105 0 33 2.71105 1
gene 1 2 19 1.13163 0 34 1.13163 1
gene 1 3 19 5.30569 0 35 5.30569 1
gene 1 4 19 -2.88172 0 36 -2.88172 1
gene 1 5 19 -1.61001 0 37 -1.61001 1
gene 1 6 19 -0.496729 0 38 -0.496729 1
gene 1 7 19 -7.93319 0 39 -7.93319 1
gene 1 8 19 2.03039 0 40 2.03039 1
gene 1 9 19 -1.64631 0 41 -1.64631 1
gene 1 10 19 -2.63727 0 42 -2.63727 1
gene 1 11 19 0.659458 0 43 0.659458 1
gene 1 12 19 -1.86644 0 44 -1.86644 1
gene 1 13 19 0.390236 0 45 0.390236 1
gene 1 14 19 2.67692 0 46 2.67692 1
gene 1 15 19 -0.230557 0 47 -0.230557 1
gene 1 16 19 2.79518 0 48 2.79518 1
gene 1 1 20 -1.33232 0 49 -1.33232 1
gene 1 2 20 -1.48413 0 50 -1.48413 1
gene 1 3 20 -0.87132 0 51 -0.87132 1
gene 1 4 20 7.86128 0 52 7.86128 1
gene 1 5 20 5.84616 0 53 5.84616 1
gene 1 6 20 -5.21102 0 54 -5.21102 1
gene 1 7 20 3.67228 0 55 3.67228 1
gene 1 8 20 4.5138 0 56 4.5138 1
gene 1 9 20 1.88207 0 57 1.88207 1
gene 1 10 20 -1.57865 0 58 -1.57865 1
gene 1 11 20 -8 0 59 -8 1
gene 1 12 20 -3.80278 0 60 -3.80278 1
gene 1 13 20 -2.84079 0 61 -2.84079 1
gene 1 14 20 -0.693454 0 62 -0.693454 1
gene 1 15 20 2.34079 0 63 2.34079 1
gene 1 16 20 -2.17775 0 64 -2.17775 1
gene 1 6 26 -2.4545 0 85 -2.4545 1
gene 1 26 19 -3.17717 0 86 -3.17717 1
gene 1 18 20 -3.85539 0 120 -3.85539 1
gene 1 13 35 1.97958 0 121 1.97958 1
gene 1 35 20 -1.22109 0 122 -1.22109 1
gene 1 19 20 -5.03877 0 189 -5.03877 1
gene 1 9 26 0.185219 0 193 0.185219 1
gene 1 6 58 3.57882 0 201 3.57882 1
gene 1 58 26 -5.64933 0 202 -5.64933 1
gene 1 10 58 -7.24667 0 204 -7.24667 1
gene 1 17 58 -1.21903 0 210 -1.21903 1
gene 1 9 35 2.03003 0 250 2.03003 1
gene 1 15 87 6.71897 0 319 6.71897 1
gene 1 87 17 2.8662 0 320 2.8662 1
gene 1 3 58 -3.24736 0 336 -3.24736 1
gene 1 6 94 -4.69591 0 342 -4.69591 1
gene 1 94 19 0.0187872 0 343 0.0187872 1
gene 1 9 95 2.92624 0 344 2.92624 1
gene 1 95 17 1.72226 0 345 1.72226 1
gene 1 10 94 -1.09309 0 346 -1.09309 1
gene 1 6 96 0.0497857 0 349 0.0497857 1
gene 1 96 18 2.64133 0 350 2.64133 1
gene 1 16 35 -2.80995 0 360 -2.80995 1
gene 1 3 98 1.35803 0 362 1.35803 1
gene 1 98 20 2.21189 0 363 2.21189 1
gene 1 7 102 0.329071 0 371 0.329071 1
gene 1 102 20 -0.909192 0 372 -0.909192 1
gene 1 3 109 -0.779322 0 400 -0.779322 1
gene 1 109 19 -7.18956 0 401 -7.18956 1
gene 1 35 96 -0.229311 0 402 -0.229311 1
gene 1 6 111 -3.70661 0 405 -3.70661 1
gene 1 111 18 0.775519 0 406 0.775519 1
gene 1 87 98 0.734133 0 411 0.734133 1
gene 1 15 114 5.33769 0 423 5.33769 1
gene 1 114 19 -6.69266 0 424 -6.69266 1
gene 1 1 123 -3.29265 0 454 -3.29265 1
gene 1 123 20 6.97057 0 455 6.97057 1
gene 1 58 131 1.46611 0 486 1.46611 1
gene 1 131 26 3.45572 0 487 3.45572 1
gene 1 9 133 6.80836 0 492 6.80836 1
gene 1 133 35 -0.66094 0 493 -0.66094 1
gene 1 87 137 2.79281 0 502 2.79281 1
gene 1 137 17 0.18892 0 503 0.18892 1
gene 1 13 140 4.4495 0 508 4.4495 1
gene 1 140 19 -3.12098 0 509 -3.12098 1
gene 1 109 144 2.05591 0 521 2.05591 1
gene 1 144 19 5.10266 0 522 5.10266 1
gene 1 14 111 -8 0 531 -8 1
gene 1 13 146 3.07503 0 533 3.07503 1
gene 1 146 35 -6.03249 0 534 -6.03249 1
gene 1 96 111 -7.30757 0 536 -7.30757 1
gene 1 102 133 -0.137751 0 547 -0.137751 1
gene 1 87 94 -5.54494 0 555 -5.54494 1
gene 1 3 156 -1.3927 0 581 -1.3927 1
gene 1 156 109 -4.53683 0 582 -4.53683 1
gene 1 5 165 -3.35989 0 622 -3.35989 1
gene 1 165 17 -1.95213 0 623 -1.95213 1
gene 1 26 169 -5.14817 0 633 -5.14817 1
gene 1 169 19 2.39617 0 634 2.39617 1
gene 1 3 165 -2.43839 0 639 -2.43839 1
gene 1 6 186 -2.88683 0 715 -2.88683 1
gene 1 186 18 -3.55226 0 716 -3.55226 1
gene 1 102 188 3.29911 0 719 3.29911 1
gene 1 188 133 2.82232 0 720 2.82232 1
gene 1 11 189 -4.57073 0 721 -4.57073 1
gene 1 189 20 4.10886 0 722 4.10886 1
gene 1 3 193 2.423 0 730 2.423 1
gene 1 193 109 8 0 731 8 1
gene 1 6 165 -6.17005 0 732 -6.17005 1
gene 1 96 194 4.96741 0 734 4.96741 1
gene 1 194 18 5.02574 0 735 5.02574 1
gene 1 109 137 -0.324046 0 738 -0.324046 1
gene 1 35 111 2.62705 0 739 2.62705 1
gene 1 4 196 1.33435 0 745 1.33435 1
gene 1 196 20 -2.60861 0 746 -2.60861 1
gene 1 58 98 -2.62566 0 750 -2.62566 1
gene 1 87 199 -1.8389 0 755 -1.8389 1
gene 1 199 17 -2.43029 0 756 -2.43029 1
gene 1 137 202 0.452119 0 765 0.452119 1
gene 1 202 17 4.31787 0 766 4.31787 1
gene 1 98 133 -8 0 770 -8 1
gene 1 87 19 1.24776 0 774 1.24776 1
gene 1 35 131 0.842789 0 807 0.842789 1
gene 1 5 215 -3.92435 0 816 -3.92435 1
gene 1 215 19 6.82051 0 817 6.82051 1
gene 1 87 217 -2.60524 0 823 -2.60524 1
gene 1 217 94 -0.00546755 0 824 -0.00546755 1
gene 1 19 96 -1.34365 0 830 -1.34365 1
gene 1 3 220 -1.93076 0 836 -1.93076 1
gene 1 220 98 2.50663 0 837 2.50663 1
gene 1 6 223 3.01237 0 850 3.01237 1
gene 1 223 186 2.94011 0 851 2.94011 1
gene 1 3 199 7.86401 0 856 7.86401 1
gene 1 5 228 2.20356 0 863 2.20356 1
gene 1 228 17 4.46391 0 864 4.46391 1
gene 1 220 202 -0.732725 0 886 -0.732725 0
gene 1 3 244 -8 0 936 -8 1
gene 1 244 18 0.230009 0 937 0.230009 1
gene 1 1 258 2.46996 0 986 2.46996 1
gene 1 258 17 4.42713 0 987 4.42713 1
gene 1 87 269 -3.28835 0 1033 -3.28835 1
gene 1 269 137 0.118154 0 1034 0.118154 1
gene 1 220 123 -1.67609 0 1040 -1.67609 1
gene 1 15 276 6.20817 0 1066 6.20817 1
gene 1 276 114 5.93931 0 1067 5.93931 1
gene 1 223 94 8 0 1073 8 1
gene 1 133 194 0.598553 0 1077 0.598553 1
gene 1 3 283 0.528134 0 1085 0.528134 1
gene 1 283 20 3.02375 0 1086 3.02375 1
gene 1 14 287 0.626556 0 1095 0.626556 1
gene 1 287 17 -0.133807 0 1096 -0.133807 1
gene 1 114 131 -0.724591 0 1143 -0.724591 1
gene 1 258 308 -8 0 1161 -8 1
gene 1 308 17 2.03031 0 1162 2.03031 1
gene 1 4 156 7.56631 0 1165 7.56631 1
gene 1 87 316 0.260556 0 1199 0.260556 1
gene 1 316 94 -0.13446 0 1200 -0.13446 1
gene 1 26 196 -2.72559 0 1203 -2.72559 1
gene 1 87 325 3.57081 0 1232 3.57081 1
gene 1 325 17 2.65881 0 1233 2.65881 1
gene 1 165 344 7.93961 0 1316 7.93961 1
gene 1 344 17 2.12433 0 1317 2.12433 1
gene 1 6 345 4.56783 0 1320 4.56783 1
gene 1 345 17 0.131615 0 1321 0.131615 1
gene 1 14 188 5.86941 0 1335 5.86941 1
gene 1 133 354 0.682417 0 1359 0.682417 1
gene 1 354 194 -2.27755 0 1360 -2.27755 1
gene 1 95 269 3.76985 0 1366 3.76985 1
gene 1 258 356 1.44378 0 1372 1.44378 1
gene 1 356 308 2.58963 0 1373 2.58963 1
gene 1 2 367 -3.10896 0 1405 -3.10896 1
gene 1 367 17 0.504359 0 1406 0.504359 1
gene 1 16 369 -6.61101 0 1409 -6.61101 1
gene 1 369 35 -4.53222 0 1410 -4.53222 1
gene 1 14 194 -1.87214 0 1426 -1.87214 1
gene 1 14 375 2.8224 0 1441 2.8224 1
gene 1 375 18 0.73504 0 1442 0.73504 1
gene 1 144 96 3.55994 0 1470 3.55994 1
gene 1 345 169 3.32 0 1473 3.32 1
gene 1 3 385 5.59488 0 1488 5.59488 1
gene 1 385 58 7.23252 0 1489 7.23252 1
gene 1 369 325 -2.65697 0 1540 -2.65697 1
gene 1 3 402 3.76819 0 1567 3.76819 1
gene 1 402 199 -1.06799 0 1568 -1.06799 1
gene 1 26 410 -0.430894 0 1604 -0.430894 1
gene 1 410 169 -3.9866 0 1605 -3.9866 0
gene 1 6 418 -5.69261 0 1628 -5.69261 1
gene 1 418 18 -6.14621 0 1629 -6.14621 1
gene 1 418 223 -0.799658 0 1652 -0.799658 1
gene 1 2 422 -4.116 0 1667 -4.116 1
gene 1 422 19 -5.44916 0 1668 -5.44916 1
gene 1 14 429 -1.22537 0 1692 -1.22537 1
gene 1 429 287 -3.58393 0 1693 -3.58393 1
gene 1 123 140 7.75972 0 1717 7.75972 1
gene 1 15 438 8 0 1738 8 1
gene 1 438 114 -0.980808 0 1739 -0.980808 1
gene 1 109 287 -0.534903 0 1744 -0.534903 1
gene 1 14 418 -7.21272 0 1749 -7.21272 1
gene 1 402 95 0.238614 0 1774 0.238614 1
gene 1 3 444 1.09027 0 1786 1.09027 1
gene 1 444 283 -0.0720376 0 1787 -0.0720376 1
gene 1 188 19 -5.52339 0 1817 -5.52339 1
gene 1 15 452 -5.72608 0 1823 -5.72608 1
gene 1 452 114 -0.176255 0 1824 -0.176255 1
gene 1 186 345 0.589754 0 1825 0.589754 1
gene 1 269 453 -0.76376 0 1826 -0.76376 1
gene 1 453 137 -4.06914 0 1827 -4.06914 1
gene 1 375 133 -1.40317 0 1852 -1.40317 1
gene 1 354 131 5.36834 0 1862 5.36834 1
gene 1 402 94 1.80024 0 1874 1.80024 1
gene 1 5 466 -0.0232919 0 1885 -0.0232919 1
gene 1 466 19 2.33353 0 1886 2.33353 1
gene 1 228 469 -0.429818 0 1895 -0.429818 1
gene 1 469 17 2.2581 0 1896 2.2581 1
gene 1 4 422 -2.89505 0 1901 -2.89505 1
gene 1 189 470 5.15313 0 1907 5.15313 1
gene 1 470 20 2.5509 0 1908 2.5509 1
gene 1 58 276 -3.12597 0 1910 -3.12597 1
gene 1 9 199 -3.03278 0 1958 -3.03278 1
gene 1 325 496 -2.55771 0 1993 -2.55771 1
gene 1 496 17 -5.13314 0 1994 -5.13314 1
gene 1 109 504 7.2587 0 2028 7.2587 1
gene 1 504 137 -8 0 2029 -8 1
gene 1 3 345 4.6088 0 2058 4.6088 1
gene 1 10 513 -2.00491 0 2060 -2.00491 1
gene 1 513 17 -0.20558 0 2061 -0.20558 1
gene 1 466 140 -7.18577 0 2065 -7.18577 1
gene 1 308 354 -1.48992 0 2086 -1.48992 1
gene 1 3 525 3.6429 0 2108 3.6429 1
gene 1 525 402 0.488177 0 2109 0.488177 1
gene 1 102 528 -3.03376 0 2118 -3.03376 1
gene 1 528 133 0.179316 0 2119 0.179316 1
gene 1 10 531 -0.761372 0 2128 -0.761372 1
gene 1 531 94 -3.48571 0 2129 -3.48571 1
gene 1 169 20 0.209151 0 2168 0.209151 1
gene 1 344 444 4.19544 0 2179 4.19544 1
gene 1 3 548 2.95993 0 2202 2.95993 1
gene 1 548 165 -0.767393 0 2203 -0.767393 1
gene 1 375 325 0.62558 0 2209 0.62558 1
gene 1 345 165 -1.78922 0 2233 -1.78922 1
gene 1 15 556 -4.89267 0 2237 -4.89267 1
gene 1 556 438 -4.80703 0 2238 -4.80703 1
gene 1 16 564 -1.96239 0 2263 -1.96239 1
gene 1 564 35 1.34494 0 2264 1.34494 1
gene 1 438 133 -1.86288 0 2332 -1.86288 1
gene 1 4 586 -1.0537 0 2348 -1.0537 1
gene 1 586 20 -0.0250661 0 2349 -0.0250661 1
gene 1 102 504 1.30503 0 2355 1.30503 1
gene 1 6 590 0.850329 0 2360 0.850329 1
gene 1 590 94 0.557866 0 2361 0.557866 1
gene 1 98 438 -0.156983 0 2383 -0.156983 1
gene 1 3 96 2.43367 0 2424 2.43367 1
gene 1 4 613 -3.47995 0 2452 -3.47995 1
gene 1 613 18 -1.41111 0 2453 -1.41111 1
gene 1 452 194 -1.77368 0 2479 -1.77368 1
gene 1 8 453 -1.65262 0 2531 -1.65262 1
gene 1 513 470 4.04204 0 2549 4.04204 1
gene 1 11 636 1.25526 0 2551 1.25526 1
gene 1 636 19 0.0138485 0 2552 0.0138485 1
gene 1 6 638 0.441786 0 2557 0.441786 1
gene 1 638 345 1.8071 0 2558 1.8071 1
gene 1 564 422 -0.398737 0 2595 -0.398737 1
gene 1 3 653 4.33032 0 2604 4.33032 1
gene 1 653 385 5.02463 0 2605 5.02463 1
gene 1 4 654 -3.56726 0 2608 -3.56726 1
gene 1 654 422 -1.60773 0 2609 -1.60773 1
gene 1 10 156 -0.123335 0 2611 -0.123335 1
gene 1 123 452 -2.08758 0 2639 -2.08758 1
gene 1 4 662 0.763927 0 2643 0.763927 1
gene 1 662 654 -0.910711 0 2644 -0.910711 1
gene 1 140 528 -0.0481194 0 2651 -0.0481194 1
gene 1 556 133 2.60757 0 2656 2.60757 1
gene 1 6 668 2.32724 0 2671 2.32724 1
gene 1 668 186 -4.33855 0 2672 -4.33855 1
gene 1 217 669 1.09534 0 2674 1.09534 1
gene 1 669 94 4.51606 0 2675 4.51606 1
gene 1 169 194 3.57019 0 2713 3.57019 1
gene 1 220 679 1.75737 0 2715 1.75737 1
gene 1 679 123 -1.41549 0 2716 -1.41549 1
gene 1 5 686 1.03976 0 2741 1.03976 1
gene 1 686 165 -0.0580067 0 2742 -0.0580067 1
gene 1 3 690 -2.0074 0 2753 -2.0074 1
gene 1 690 109 -2.42343 0 2754 -2.42343 1
gene 1 193 654 -3.36431 0 2759 -3.36431 1
gene 1 7 217 -2.20026 0 2761 -2.20026 1
gene 1 87 692 0.315879 0 2765 0.315879 1
gene 1 692 316 -2.2595 0 2766 -2.2595 1
gene 1 418 697 0.207292 0 2780 0.207292 1
gene 1 697 18 -0.869709 0 2781 -0.869709 1
gene 1 429 653 4.73383 0 2795 4.73383 1
gene 1 220 700 0.303226 0 2798 0.303226 1
gene 1 700 202 -4.248 0 2799 -4.248 1
gene 1 15 702 1.04546 0 2803 1.04546 1
gene 1 702 20 -2.58042 0 2804 -2.58042 1
gene 1 12 504 1.22832 0 2829 1.22832 1
gene 1 654 276 1.50535 0 2835 1.50535 1
gene 1 410 711 3.77903 0 2839 3.77903 1
gene 1 711 169 2.28979 0 2840 2.28979 1
gene 1 14 714 -2.73001 0 2848 -2.73001 1
gene 1 714 18 3.46542 0 2849 3.46542 1
gene 1 692 711 -3.55806 0 2850 -3.55806 1
gene 1 258 344 2.04292 0 2860 2.04292 1
genomeend 1

/* Organism #2 Fitness: 2633 Error: 173 */
genomestart 2
trait 1 0.227499 0.666218 1 0.630105 0.101963 0.428481 0.0484476 0.266142 
node 1 1 1 1
node 2 1 1 1
node 3 1 1 1
node 4 1 1 1
node 5 1 1 1
node 6 1 1 1
node 7 1 1 1
node 8 1 1 1
node 9 1 1 1
node 10 1 1 1
node 11 1 1 1
node 12 1 1 1
node 13 1 1 1
node 14 1 1 1
node 15 1 1 1
node 16 1 1 1
node 17 1 0 2
node 18 1 0 2
node 19 1 0 2
node 20 1 0 2
node 26 1 0 0
node 35 1 0 0
node 58 1 0 0
node 87 1 0 0
node 94 1 0 0
node 95 1 0 0
node 96 1 0 0
node 98 1 0 0
node 102 1 0 0
node 109 1 0 0
node 111 1 0 0
node 114 1 0 0
node 123 1 0 0
node 131 1 0 0
node 133 1 0 0
node 137 1 0 0
node 140 1 0 0
node 144 1 0 0
node 146 1 0 0
node 156 1 0 0
node 165 1 0 0
node 169 1 0 0
node 186 1 0 0
node 188 1 0 0
node 189 1 0 0
node 193 1 0 0
node 194 1 0 0
node 196 1 0 0
node 199 1 0 0
node 202 1 0 0
node 215 1 0 0
node 217 1 0 0
node 220 1 0 0
node 223 1 0 0
node 228 1 0 0
node 244 1 0 0
node 258 1 0 0
node 269 1 0 0
node 276 1 0 0
node 283 1 0 0
node 287 1 0 0
node 308 1 0 0
node 316 1 0 0
node 325 1 0 0
node 344 1 0 0
node 345 1 0 0
node 354 1 0 0
node 356 1 0 0
node 367 1 0 0
node 369 1 0 0
node 375 1 0 0
node 385 1 0 0
node 402 1 0 0
node 410 1 0 0
node 418 1 0 0
node 422 1 0 0
node 429 1 0 0
node 438 1 0 0
node 444 1 0 0
node 452 1 0 0
node 453 1 0 0
node 466 1 0 0
node 469 1 0 0
node 470 1 0 0
node 496 1 0 0
node 504 1 0 0
node 513 1 0 0
node 525 1 0 0
node 528 1 0 0
node 531 1 0 0
node 548 1 0 0
node 556 1 0 0
node 564 1 0 0
node 586 1 0 0
node 590 1 0 0
node 613 1 0 0
node 636 1 0 0
node 638 1 0 0
node 653 1 0 0
node 654 1 0 0
node 662 1 0 0
node 668 1 0 0
node 669 1 0 0
node 679 1 0 0
node 686 1 0 0
node 690 1 0 0
node 692 1 0 0
node 697 1 0 0
node 700 1 0 0
node 702 1 0 0
node 711 1 0 0
node 714 1 0 0
gene 1 1 17 -3.82782 0 1 -3.82782 1
gene 1 2 17 1.80399 0 2 1.80399 1
gene 1 3 17 -0.498483 0 3 -0.498483 1
gene 1 4 17 -3.02387 0 4 -3.02387 1
gene 1 5 17 -0.679585 0 5 -0.679585 1
gene 1 6 17 -1.7195 0 6 -1.7195 1
gene 1 7 17 2.77221 0 7 2.77221 1
gene 1 8 17 -1.10933 0 8 -1.10933 1
gene 1 9 17 0.0176721 0 9 0.0176721 1
gene 1 10 17 -4.01093 0 10 -4.01093 1
gene 1 11 17 1.12151 0 11 1.12151 1
gene 1 12 17 -1.15701 0 12 -1.15701 1
gene 1 13 17 -2.79403 0 13 -2.79403 1
gene 1 14 17 -1.30824 0 14 -1.30824 1
gene 1 15 17 -1.25876 0 15 -1.25876 1
gene 1 16 17 -1.2247 0 16 -1.2247 1
gene 1 1 18 5.94825 0 17 5.94825 1
gene 1 2 18 1.85666 0 18 1.85666 1
gene 1 3 18 -1.7398 0 19 -1.7398 1
gene 1 4 18 2.34511 0 20 2.34511 1
gene 1 5 18 2.25673 0 21 2.25673 1
gene 1 6 18 -1.70749 0 22 -1.70749 1
gene 1 7 18 -4.51388 0 23 -4.51388 1
gene 1 8 18 -0.938658 0 24 -0.938658 1
gene 1 9 18 2.00927 0 25 2.00927 1
gene 1 10 18 -0.167434 0 26 -0.167434 1
gene 1 11 18 -6.64307 0 27 -6.64307 1
gene 1 12 18 -7.03783 0 28 -7.03783 1
gene 1 13 18 8 0 29 8 1
gene 1 14 18 -1.18644 0 30 -1.18644 0
gene 1 15 18 -5.31095 0 31 -5.31095 1
gene 1 16 18 4.3668 0 32 4.3668 1
gene 1 1 19 3.14924 0 33 3.14924 1
gene 1 2 19 -2.8441 0 34 -2.8441 1
gene 1 3 19 6.08107 0 35 6.08107 1
gene 1 4 19 -1.77624 0 36 -1.77624 1
gene 1 5 19 -0.798482 0 37 -0.798482 1
gene 1 6 19 -2.23882 0 38 -2.23882 1
gene 1 7 19 -6.5379 0 39 -6.5379 1
gene 1 8 19 1.44812 0 40 1.44812 1
gene 1 9 19 -1.61682 0 41 -1.61682 1
gene 1 10 19 0.0348473 0 42 0.0348473 1
gene 1 11 19 -2.39935 0 43 -2.39935 1
gene 1 12 19 -1.54291 0 44 -1.54291 1
gene 1 13 19 0.386276 0 45 0.386276 1
gene 1 14 19 0.483621 0 46 0.483621 1
gene 1 15 19 1.04545 0 47 1.04545 1
gene 1 16 19 1.55902 0 48 1.55902 1
gene 1 1 20 -0.21492 0 49 -0.21492 1
gene 1 2 20 1.73165 0 50 1.73165 1
gene 1 3 20 2.98492 0 51 2.98492 1
gene 1 4 20 2.89222 0 52 2.89222 1
gene 1 5 20 2.0301 0 53 2.0301 1
gene 1 6 20 -2.29514 0 54 -2.29514 1
gene 1 7 20 3.43644 0 55 3.43644 1
gene 1 8 20 3.44655 0 56 3.44655 1
gene 1 9 20 0.755134 0 57 0.755134 1
gene 1 10 20 2.98057 0 58 2.98057 1
gene 1 11 20 -6.73053 0 59 -6.73053 1
gene 1 12 20 -4.65304 0 60 -4.65304 1
gene 1 13 20 -3.27255 0 61 -3.27255 1
gene 1 14 20 -0.352016 0 62 -0.352016 1
gene 1 15 20 1.5416 0 63 1.5416 1
gene 1 16 20 -1.99946 0 64 -1.99946 1
gene 1 6 26 1.12158 0 85 1.12158 1
gene 1 26 19 -1.03297 0 86 -1.03297 1
gene 1 18 20 -5.80057 0 120 -5.80057 1
gene 1 13 35 2.46009 0 121 2.46009 1
gene 1 35 20 0.643963 0 122 0.643963 1
gene 1 19 20 -4.01377 0 189 -4.01377 1
gene 1 9 26 1.04643 0 193 1.04643 1
gene 1 6 58 4.8321 0 201 4.8321 1
gene 1 58 26 -6.48264 0 202 -6.48264 1
gene 1 10 58 -8 0 204 -8 1
gene 1 17 58 2.90983 0 210 2.90983 1
gene 1 9 35 1.15632 0 250 1.15632 1
gene 1 15 87 3.81732 0 319 3.81732 1
gene 1 87 17 4.50537 0 320 4.50537 1
gene 1 3 58 -1.10728 0 336 -1.10728 1
gene 1 6 94 -4.79263 0 342 -4.79263 1
gene 1 94 19 3.35597 0 343 3.35597 1
gene 1 9 95 2.03702 0 344 2.03702 1
gene 1 95 17 3.45595 0 345 3.45595 1
gene 1 10 94 1.47813 0 346 1.47813 1
gene 1 6 96 -0.75424 0 349 -0.75424 1
gene 1 96 18 4.81222 0 350 4.81222 1
gene 1 16 35 -0.718071 0 360 -0.718071 1
gene 1 3 98 1.88213 0 362 1.88213 1
gene 1 98 20 4.86683 0 363 4.86683 1
gene 1 7 102 -1.22678 0 371 -1.22678 1
gene 1 102 20 2.56606 0 372 2.56606 1
gene 1 3 109 0.489096 0 400 0.489096 1
gene 1 109 19 -5.36529 0 401 -5.36529 1
gene 1 35 96 0.0368004 0 402 0.0368004 1
gene 1 6 111 -3.41924 0 405 -3.41924 1
gene 1 111 18 1.39861 0 406 1.39861 1
gene 1 87 98 2.09719 0 411 2.09719 1
gene 1 15 114 7.39132 0 423 7.39132 1
gene 1 114 19 -8 0 424 -8 1
gene 1 1 123 -2.51455 0 454 -2.51455 1
gene 1 123 20 6.78271 0 455 6.78271 1
gene 1 58 131 1.29792 0 486 1.29792 1
gene 1 131 26 3.53505 0 487 3.53505 1
gene 1 9 133 7.48403 0 492 7.48403 1
gene 1 133 35 -4.27097 0 493 -4.27097 1
gene 1 87 137 0.432913 0 502 0.432913 1
gene 1 137 17 -2.45246 0 503 -2.45246 1
gene 1 13 140 0.654502 0 508 0.654502 1
gene 1 140 19 1.24533 0 509 1.24533 1
gene 1 109 144 4.80961 0 521 4.80961 1
gene 1 144 19 3.06389 0 522 3.06389 1
gene 1 14 111 -6.96983 0 531 -6.96983 1
gene 1 13 146 0.495867 0 533 0.495867 1
gene 1 146 35 -5.73131 0 534 -5.73131 1
gene 1 96 111 -6.00879 0 536 -6.00879 1
gene 1 102 133 0.0260047 0 547 0.0260047 1
gene 1 87 94 -1.87423 0 555 -1.87423 1
gene 1 3 156 -1.70971 0 581 -1.70971 1
gene 1 156 109 -3.99531 0 582 -3.99531 1
gene 1 5 165 0.0019151 0 622 0.0019151 1
gene 1 165 17 0.419487 0 623 0.419487 1
gene 1 26 169 -3.49002 0 633 -3.49002 1
gene 1 169 19 0.809364 0 634 0.809364 1
gene 1 3 165 -0.862017 0 639 -0.862017 1
gene 1 6 186 -2.23313 0 715 -2.23313 1
gene 1 186 18 -2.33316 0 716 -2.33316 1
gene 1 102 188 2.52054 0 719 2.52054 1
gene 1 188 133 3.86866 0 720 3.86866 1
gene 1 11 189 -4.19117 0 721 -4.19117 1
gene 1 189 20 5.84142 0 722 5.84142 1
gene 1 3 193 -0.387379 0 730 -0.387379 1
gene 1 193 109 5.18751 0 731 5.18751 1
gene 1 6 165 -7.61042 0 732 -7.61042 1
gene 1 96 194 3.82954 0 734 3.82954 1
gene 1 194 18 0.784897 0 735 0.784897 1
gene 1 109 137 -1.58628 0 738 -1.58628 1
gene 1 35 111 2.69232 0 739 2.69232 1
gene 1 4 196 4.28313 0 745 4.28313 1
gene 1 196 20 -1.05833 0 746 -1.05833 1
gene 1 58 98 -0.656498 0 750 -0.656498 1
gene 1 87 199 -2.48887 0 755 -2.48887 1
gene 1 199 17 1.2253 0 756 1.2253 1
gene 1 137 202 0.911718 0 765 0.911718 1
gene 1 202 17 6.26094 0 766 6.26094 1
gene 1 98 133 -8 0 770 -8 1
gene 1 87 19 0.44255 0 774 0.44255 1
gene 1 35 131 -1.99189 0 807 -1.99189 1
gene 1 5 215 -6.83523 0 816 -6.83523 1
gene 1 215 19 8 0 817 8 1
gene 1 87 217 -1.57454 0 823 -1.57454 1
gene 1 217 94 1.98957 0 824 1.98957 1
gene 1 19 96 -0.152543 0 830 -0.152543 1
gene 1 3 220 -3.94638 0 836 -3.94638 1
gene 1 220 98 1.30489 0 837 1.30489 1
gene 1 6 223 1.83002 0 850 1.83002 1
gene 1 223 186 2.85745 0 851 2.85745 1
gene 1 3 199 7.37547 0 856 7.37547 1
gene 1 5 228 -0.796303 0 863 -0.796303 1
gene 1 228 17 3.11043 0 864 3.11043 1
gene 1 220 202 0.0516949 0 886 0.0516949 0
gene 1 3 244 -8 0 936 -8 1
gene 1 244 18 -2.74923 0 937 -2.74923 1
gene 1 1 258 5.52994 0 986 5.52994 1
gene 1 258 17 4.42482 0 987 4.42482 1
gene 1 87 269 0.433985 0 1033 0.433985 1
gene 1 269 137 -2.06165 0 1034 -2.06165 1
gene 1 220 123 1.5453 0 1040 1.5453 1
gene 1 15 276 4.25255 0 1066 4.25255 1
gene 1 276 114 5.27095 0 1067 5.27095 1
gene 1 223 94 5.88367 0 1073 5.88367 1
gene 1 133 194 -3.77145 0 1077 -3.77145 1
gene 1 3 283 1.25134 0 1085 1.25134 1
gene 1 283 20 4.55046 0 1086 4.55046 1
gene 1 14 287 3.30237 0 1095 3.30237 1
gene 1 287 17 -0.263266 0 1096 -0.263266 1
gene 1 114 131 -0.817893 0 1143 -0.817893 1
gene 1 258 308 -5.90388 0 1161 -5.90388 1
gene 1 308 17 2.00625 0 1162 2.00625 1
gene 1 4 156 3.7281 0 1165 3.7281 1
gene 1 87 316 3.98366 0 1199 3.98366 1
gene 1 316 94 1.69635 0 1200 1.69635 1
gene 1 26 196 1.06035 0 1203 1.06035 1
gene 1 87 325 3.4564 0 1232 3.4564 1
gene 1 325 17 -1.75132 0 1233 -1.75132 1
gene 1 165 344 8 0 1316 8 1
gene 1 344 17 0.917435 0 1317 0.917435 1
gene 1 6 345 2.23176 0 1320 2.23176 1
gene 1 345 17 1.01369 0 1321 1.01369 1
gene 1 14 188 5.81157 0 1335 5.81157 1
gene 1 133 354 -0.203719 0 1359 -0.203719 1
gene 1 354 194 -2.95944 0 1360 -2.95944 1
gene 1 95 269 4.89726 0 1366 4.89726 1
gene 1 258 356 -2.82424 0 1372 -2.82424 1
gene 1 356 308 4.60105 0 1373 4.60105 1
gene 1 2 367 -3.12147 0 1405 -3.12147 1
gene 1 367 17 0.0272512 0 1406 0.0272512 1
gene 1 16 369 -4.48214 0 1409 -4.48214 1
gene 1 369 35 -6.21955 0 1410 -6.21955 1
gene 1 14 194 0.749443 0 1426 0.749443 1
gene 1 14 375 -1.02249 0 1441 -1.02249 1
gene 1 375 18 -3.10504 0 1442 -3.10504 1
gene 1 144 96 7.64253 0 1470 7.64253 1
gene 1 345 169 2.55525 0 1473 2.55525 1
gene 1 3 385 4.36594 0 1488 4.36594 1
gene 1 385 58 8 0 1489 8 1
gene 1 369 325 -1.17097 0 1540 -1.17097 1
gene 1 3 402 1.4331 0 1567 1.4331 1
gene 1 402 199 -3.07513 0 1568 -3.07513 1
gene 1 26 410 0.185589 0 1604 0.185589 1
gene 1 410 169 -4.69498 0 1605 -4.69498 0
gene 1 6 418 -6.5442 0 1628 -6.5442 1
gene 1 418 18 -7.91781 0 1629 -7.91781 1
gene 1 418 223 1.197 0 1652 1.197 1
gene 1 2 422 -5.02702 0 1667 -5.02702 1
gene 1 422 19 -8 0 1668 -8 1
gene 1 14 429 -4.54475 0 1692 -4.54475 1
gene 1 429 287 -2.60233 0 1693 -2.60233 1
gene 1 123 140 6.44601 0 1717 6.44601 1
gene 1 15 438 8 0 1738 8 1
gene 1 438 114 -3.2835 0 1739 -3.2835 1
gene 1 109 287 -3.17984 0 1744 -3.17984 1
gene 1 14 418 -6.37834 0 1749 -6.37834 1
gene 1 402 95 1.49578 0 1774 1.49578 1
gene 1 3 444 1.14693 0 1786 1.14693 1
gene 1 444 283 -3.20601 0 1787 -3.20601 1
gene 1 188 19 -5.53225 0 1817 -5.53225 1
gene 1 15 452 -4.61918 0 1823 -4.61918 1
gene 1 452 114 3.06523 0 1824 3.06523 1
gene 1 186 345 -0.908612 0 1825 -0.908612 1
gene 1 269 453 0.413941 0 1826 0.413941 1
gene 1 453 137 -2.8436 0 1827 -2.8436 1
gene 1 375 133 0.35049 0 1852 0.35049 1
gene 1 354 131 5.70432 0 1862 5.70432 1
gene 1 402 94 -0.542863 0 1874 -0.542863 1
gene 1 5 466 -3.9728 0 1885 -3.9728 1
gene 1 466 19 0.296114 0 1886 0.296114 1
gene 1 228 469 1.30776 0 1895 1.30776 1
gene 1 469 17 -1.50566 0 1896 -1.50566 1
gene 1 4 422 0.499987 0 1901 0.499987 1
gene 1 189 470 6.67622 0 1907 6.67622 1
gene 1 470 20 3.61069 0 1908 3.61069 1
gene 1 58 276 -0.47518 0 1910 -0.47518 1
gene 1 9 199 -2.81131 0 1958 -2.81131 1
gene 1 325 496 -2.65539 0 1993 -2.65539 1
gene 1 496 17 -3.71067 0 1994 -3.71067 1
gene 1 109 504 7.57847 0 2028 7.57847 1
gene 1 504 137 -6.31127 0 2029 -6.31127 1
gene 1 3 345 2.9239 0 2058 2.9239 1
gene 1 10 513 2.08419 0 2060 2.08419 1
gene 1 513 17 0.474387 0 2061 0.474387 1
gene 1 466 140 -4.53518 0 2065 -4.53518 1
gene 1 308 354 -1.04424 0 2086 -1.04424 1
gene 1 3 525 3.55597 0 2108 3.55597 1
gene 1 525 402 -1.34412 0 2109 -1.34412 1
gene 1 102 528 -3.39775 0 2118 -3.39775 1
gene 1 528 133 -0.238412 0 2119 -0.238412 1
gene 1 10 531 2.68301 0 2128 2.68301 1
gene 1 531 94 -3.37158 0 2129 -3.37158 1
gene 1 169 20 2.68626 0 2168 2.68626 1
gene 1 344 444 4.34354 0 2179 4.34354 1
gene 1 3 548 2.10697 0 2202 2.10697 1
gene 1 548 165 -0.268959 0 2203 -0.268959 1
gene 1 375 325 2.34415 0 2209 2.34415 1
gene 1 345 165 -0.436128 0 2233 -0.436128 1
gene 1 15 556 -4.89267 0 2237 -4.89267 1
gene 1 556 438 -2.46689 0 2238 -2.46689 1
gene 1 16 564 2.69255 0 2263 2.69255 1
gene 1 564 35 -2.16427 0 2264 -2.16427 1
gene 1 438 133 -3.37416 0 2332 -3.37416 1
gene 1 4 586 -1.0537 0 2348 -1.0537 1
gene 1 586 20 -2.26604 0 2349 -2.26604 1
gene 1 102 504 1.57177 0 2355 1.57177 1
gene 1 6 590 -0.905489 0 2360 -0.905489 1
gene 1 590 94 4.43465 0 2361 4.43465 1
gene 1 98 438 -2.2574 0 2383 -2.2574 1
gene 1 3 96 -0.0863348 0 2424 -0.0863348 1
gene 1 4 613 -2.67688 0 2452 -2.67688 1
gene 1 613 18 -1.92193 0 2453 -1.92193 1
gene 1 452 194 -0.258404 0 2479 -0.258404 1
gene 1 8 453 -1.91163 0 2531 -1.91163 1
gene 1 513 470 1.97659 0 2549 1.97659 1
gene 1 11 636 1.23548 0 2551 1.23548 1
gene 1 636 19 1.80036 0 2552 1.80036 1
gene 1 6 638 -0.927356 0 2557 -0.927356 1
gene 1 638 345 1.8071 0 2558 1.8071 1
gene 1 564 422 -2.0996 0 2595 -2.0996 1
gene 1 3 653 1.37734 0 2604 1.37734 1
gene 1 653 385 0.651535 0 2605 0.651535 1
gene 1 4 654 -3.56726 0 2608 -3.56726 1
gene 1 654 422 -0.874664 0 2609 -0.874664 1
gene 1 10 156 -0.688809 0 2611 -0.688809 1
gene 1 123 452 -2.49249 0 2639 -2.49249 1
gene 1 4 662 -0.748411 0 2643 -0.748411 1
gene 1 662 654 -0.910711 0 2644 -0.910711 1
gene 1 140 528 -0.581007 0 2651 -0.581007 1
gene 1 556 133 1.63681 0 2656 1.63681 1
gene 1 6 668 0.656059 0 2671 0.656059 1
gene 1 668 186 0.474239 0 2672 0.474239 1
gene 1 217 669 2.17268 0 2674 2.17268 1
gene 1 669 94 6.00866 0 2675 6.00866 1
gene 1 169 194 4.16481 0 2713 4.16481 1
gene 1 220 679 -1.53637 0 2715 -1.53637 1
gene 1 679 123 -1.00729 0 2716 -1.00729 1
gene 1 5 686 -3.97185 0 2741 -3.97185 1
gene 1 686 165 -1.24606 0 2742 -1.24606 1
gene 1 3 690 -1.69293 0 2753 -1.69293 1
gene 1 690 109 -2.42343 0 2754 -2.42343 1
gene 1 193 654 -1.12463 0 2759 -1.12463 1
gene 1 7 217 -3.53873 0 2761 -3.53873 1
gene 1 87 692 2.16738 0 2765 2.16738 1
gene 1 692 316 -1.89659 0 2766 -1.89659 1
gene 1 418 697 -1.26704 0 2780 -1.26704 1
gene 1 697 18 -0.869709 0 2781 -0.869709 1
gene 1 429 653 -1.85108 0 2795 -1.85108 1
gene 1 220 700 0.303226 0 2798 0.303226 1
gene 1 700 202 -7.13527 0 2799 -7.13527 1
gene 1 15 702 -0.0682044 0 2803 -0.0682044 1
gene 1 702 20 -1.42914 0 2804 -1.42914 1
gene 1 12 504 -2.1278 0 2829 -2.1278 1
gene 1 654 276 -2.03608 0 2835 -2.03608 1
gene 1 410 711 6.21821 0 2839 6.21821 1
gene 1 711 169 -0.234724 0 2840 -0.234724 1
gene 1 14 714 -0.13812 0 2848 -0.13812 1
gene 1 714 18 3.25431 0 2849 3.25431 1
gene 1 692 711 -2.96518 0 2850 -2.96518 1
gene 1 258 344 1.12144 0 2860 1.12144 1
genomeend 2

/* Organism #3 Fitness: 1993 Error: 203 */
genomestart 3
trait 1 0.227499 0.666218 1 0.630105 0.101963 0.428481 0.0484476 0.266142 
node 1 1 1 1
node 2 1 1 1
node 3 1 1 1
node 4 1 1 1
node 5 1 1 1
node 6 1 1 1
node 7 1 1 1
node 8 1 1 1
node 9 1 1 1
node 10 1 1 1
node 11 1 1 1
node 12 1 1 1
node 13 1 1 1
node 14 1 1 1
node 15 1 1 1
node 16 1 1 1
node 17 1 0 2
node 18 1 0 2
node 19 1 0 2
node 20 1 0 2
node 26 1 0 0
node 35 1 0 0
node 58 1 0 0
node 87 1 0 0
node 94 1 0 0
node 95 1 0 0
node 96 1 0 0
node 98 1 0 0
node 102 1 0 0
node 109 1 0 0
node 111 1 0 0
node 114 1 0 0
node 123 1 0 0
node 131 1 0 0
node 133 1 0 0
node 137 1 0 0
node 140 1 0 0
node 144 1 0 0
node 146 1 0 0
node 156 1 0 0
node 165 1 0 0
node 169 1 0 0
node 186 1 0 0
node 188 1 0 0
node 189 1 0 0
node 193 1 0 0
node 194 1 0 0
node 196 1 0 0
node 199 1 0 0
node 202 1 0 0
node 215 1 0 0
node 217 1 0 0
node 220 1 0 0
node 223 1 0 0
node 228 1 0 0
node 244 1 0 0
node 258 1 0 0
node 269 1 0 0
node 276 1 0 0
node 283 1 0 0
node 287 1 0 0
node 308 1 0 0
node 316 1 0 0
node 325 1 0 0
node 344 1 0 0
node 345 1 0 0
node 354 1 0 0
node 356 1 0 0
node 367 1 0 0
node 369 1 0 0
node 375 1 0 0
node 385 1 0 0
node 402 1 0 0
node 410 1 0 0
node 418 1 0 0
node 422 1 0 0
node 429 1 0 0
node 438 1 0 0
node 444 1 0 0
node 452 1 0 0
node 453 1 0 0
node 466 1 0 0
node 469 1 0 0
node 470 1 0 0
node 496 1 0 0
node 504 1 0 0
node 513 1 0 0
node 525 1 0 0
node 528 1 0 0
node 531 1 0 0
node 548 1 0 0
node 556 1 0 0
node 564 1 0 0
node 586 1 0 0
node 590 1 0 0
node 613 1 0 0
node 636 1 0 0
node 638 1 0 0
node 653 1 0 0
node 654 1 0 0
node 662 1 0 0
node 668 1 0 0
node 669 1 0 0
node 679 1 0 0
node 686 1 0 0
node 690 1 0 0
node 692 1 0 0
node 697 1 0 0
node 700 1 0 0
node 702 1 0 0
node 711 1 0 0
node 714 1 0 0
gene 1 1 17 -2.3581 0 1 -2.3581 1
gene 1 2 17 -0.265565 0 2 -0.265565 1
gene 1 3 17 0.279718 0 3 0.279718 1
gene 1 4 17 -4.17072 0 4 -4.17072 1
gene 1 5 17 -0.90256 0 5 -0.90256 1
gene 1 6 17 -1.15754 0 6 -1.15754 1
gene 1 7 17 1.96769 0 7 1.96769 1
gene 1 8 17 -2.27812 0 8 -2.27812 1
gene 1 9 17 -1.21105 0 9 -1.21105 1
gene 1 10 17 -3.92058 0 10 -3.92058 1
gene 1 11 17 -0.522515 0 11 -0.522515 1
gene 1 12 17 -1.18523 0 12 -1.18523 1
gene 1 13 17 -0.267755 0 13 -0.267755 1
gene 1 14 17 -3.67387 0 14 -3.67387 1
gene 1 15 17 0.552328 0 15 0.552328 1
gene 1 16 17 -1.44026 0 16 -1.44026 1
gene 1 1 18 8 0 17 8 1
gene 1 2 18 1.6816 0 18 1.6816 1
gene 1 3 18 -2.79511 0 19 -2.79511 1
gene 1 4 18 0.37066 0 20 0.37066 1
gene 1 5 18 3.82078 0 21 3.82078 1
gene 1 6 18 -0.174513 0 22 -0.174513 1
gene 1 7 18 -1.34675 0 23 -1.34675 1
gene 1 8 18 -3.24175 0 24 -3.24175 1
gene 1 9 18 -0.254051 0 25 -0.254051 1
gene 1 10 18 0.544973 0 26 0.544973 1
gene 1 11 18 -5.68393 0 27 -5.68393 1
gene 1 12 18 -3.97218 0 28 -3.97218 1
gene 1 13 18 6.54354 0 29 6.54354 1
gene 1 14 18 -3.37669 0 30 -3.37669 0
gene 1 15 18 -6.50396 0 31 -6.50396 1
gene 1 16 18 5.53759 0 32 5.53759 1
gene 1 1 19 -0.134668 0 33 -0.134668 1
gene 1 2 19 -2.86471 0 34 -2.86471 1
gene 1 3 19 2.74193 0 35 2.74193 1
gene 1 4 19 -0.698213 0 36 -0.698213 1
gene 1 5 19 -0.902725 0 37 -0.902725 1
gene 1 6 19 0.00808468 0 38 0.00808468 1
gene 1 7 19 -6.13912 0 39 -6.13912 1
gene 1 8 19 1.54807 0 40 1.54807 1
gene 1 9 19 -1.56829 0 41 -1.56829 1
gene 1 10 19 -1.80683 0 42 -1.80683 1
gene 1 11 19 -3.08083 0 43 -3.08083 1
gene 1 12 19 -2.80909 0 44 -2.80909 1
gene 1 13 19 2.60026 0 45 2.60026 1
gene 1 14 19 0.292729 0 46 0.292729 1
gene 1 15 19 0.32384 0 47 0.32384 1
gene 1 16 19 2.3095 0 48 2.3095 1
gene 1 1 20 2.90475 0 49 2.90475 1
gene 1 2 20 -2.04694 0 50 -2.04694 1
gene 1 3 20 1.62703 0 51 1.62703 1
gene 1 4 20 3.53835 0 52 3.53835 1
gene 1 5 20 5.67992 0 53 5.67992 1
gene 1 6 20 -3.63303 0 54 -3.63303 1
gene 1 7 20 2.17608 0 55 2.17608 1
gene 1 8 20 2.82011 0 56 2.82011 1
gene 1 9 20 1.06451 0 57 1.06451 1
gene 1 10 20 -0.988311 0 58 -0.988311 1
gene 1 11 20 -7.39703 0 59 -7.39703 1
gene 1 12 20 -5.38598 0 60 -5.38598 1
gene 1 13 20 -3.3496 0 61 -3.3496 1
gene 1 14 20 -3.08054 0 62 -3.08054 1
gene 1 15 20 2.57162 0 63 2.57162 1
gene 1 16 20 -0.598405 0 64 -0.598405 1
gene 1 6 26 -2.5294 0 85 -2.5294 1
gene 1 26 19 -4.17273 0 86 -4.17273 1
gene 1 18 20 -2.36905 0 120 -2.36905 1
gene 1 13 35 0.0577035 0 121 0.0577035 1
gene 1 35 20 -2.17576 0 122 -2.17576 1
gene 1 19 20 -1.98459 0 189 -1.98459 1
gene 1 9 26 4.67726 0 193 4.67726 1
gene 1 6 58 0.798274 0 201 0.798274 1
gene 1 58 26 -4.42419 0 202 -4.42419 1
gene 1 10 58 -8 0 204 -8 1
gene 1 17 58 -0.309902 0 210 -0.309902 1
gene 1 9 35 0.71989 0 250 0.71989 1
gene 1 15 87 6.33074 0 319 6.33074 1
gene 1 87 17 2.37325 0 320 2.37325 1
gene 1 3 58 -2.50698 0 336 -2.50698 1
gene 1 6 94 -2.72702 0 342 -2.72702 1
gene 1 94 19 3.59817 0 343 3.59817 1
gene 1 9 95 5.35404 0 344 5.35404 1
gene 1 95 17 5.22191 0 345 5.22191 1
gene 1 10 94 -1.2027 0 346 -1.2027 1
gene 1 6 96 -0.0928148 0 349 -0.0928148 1
gene 1 96 18 2.7436 0 350 2.7436 1
gene 1 16 35 -4.52938 0 360 -4.52938 1
gene 1 3 98 3.94595 0 362 3.94595 1
gene 1 98 20 3.80265 0 363 3.80265 1
gene 1 7 102 -1.37459 0 371 -1.37459 1
gene 1 102 20 1.92971 0 372 1.92971 1
gene 1 3 109 -0.451248 0 400 -0.451248 1
gene 1 109 19 -8 0 401 -8 1
gene 1 35 96 -0.416467 0 402 -0.416467 1
gene 1 6 111 -1.63324 0 405 -1.63324 1
gene 1 111 18 0.819541 0 406 0.819541 1
gene 1 87 98 2.84149 0 411 2.84149 1
gene 1 15 114 6.79943 0 423 6.79943 1
gene 1 114 19 -7.94297 0 424 -7.94297 1
gene 1 1 123 0.811025 0 454 0.811025 1
gene 1 123 20 8 0 455 8 1
gene 1 58 131 4.57733 0 486 4.57733 1
gene 1 131 26 2.55982 0 487 2.55982 1
gene 1 9 133 8 0 492 8 1
gene 1 133 35 -3.35979 0 493 -3.35979 1
gene 1 87 137 -0.055443 0 502 -0.055443 1
gene 1 137 17 -2.58301 0 503 -2.58301 1
gene 1 13 140 4.64731 0 508 4.64731 1
gene 1 140 19 -1.77363 0 509 -1.77363 1
gene 1 109 144 1.55874 0 521 1.55874 1
gene 1 144 19 4.30235 0 522 4.30235 1
gene 1 14 111 -6.39232 0 531 -6.39232 1
gene 1 13 146 2.22684 0 533 2.22684 1
gene 1 146 35 -6.51366 0 534 -6.51366 1
gene 1 96 111 -6.32231 0 536 -6.32231 1
gene 1 102 133 2.13518 0 547 2.13518 1
gene 1 87 94 -5.43217 0 555 -5.43217 1
gene 1 3 156 -3.99737 0 581 -3.99737 1
gene 1 156 109 -2.28564 0 582 -2.28564 1
gene 1 5 165 -0.548531 0 622 -0.548531 1
gene 1 165 17 -3.97571 0 623 -3.97571 1
gene 1 26 169 -5.51805 0 633 -5.51805 1
gene 1 169 19 1.51253 0 634 1.51253 1
gene 1 3 165 -1.8779 0 639 -1.8779 1
gene 1 6 186 -3.65976 0 715 -3.65976 1
gene 1 186 18 -3.97592 0 716 -3.97592 1
gene 1 102 188 2.78809 0 719 2.78809 1
gene 1 188 133 0.336491 0 720 0.336491 1
gene 1 11 189 -4.11495 0 721 -4.11495 1
gene 1 189 20 7.77609 0 722 7.77609 1
gene 1 3 193 -0.726158 0 730 -0.726158 1
gene 1 193 109 6.30227 0 731 6.30227 1
gene 1 6 165 -6.83665 0 732 -6.83665 1
gene 1 96 194 1.22613 0 734 1.22613 1
gene 1 194 18 4.59454 0 735 4.59454 1
gene 1 109 137 -0.379563 0 738 -0.379563 1
gene 1 35 111 2.65356 0 739 2.65356 1
gene 1 4 196 1.40017 0 745 1.40017 1
gene 1 196 20 -0.813666 0 746 -0.813666 1
gene 1 58 98 -0.43583 0 750 -0.43583 1
gene 1 87 199 -1.51265 0 755 -1.51265 1
gene 1 199 17 0.397716 0 756 0.397716 1
gene 1 137 202 1.20215 0 765 1.20215 1
gene 1 202 17 4.63309 0 766 4.63309 1
gene 1 98 133 -5.6963 0 770 -5.6963 1
gene 1 87 19 1.19071 0 774 1.19071 1
gene 1 35 131 1.88755 0 807 1.88755 1
gene 1 5 215 -3.99699 0 816 -3.99699 1
gene 1 215 19 7.74723 0 817 7.74723 1
gene 1 87 217 -0.405506 0 823 -0.405506 1
gene 1 217 94 -1.30162 0 824 -1.30162 1
gene 1 19 96 -0.426664 0 830 -0.426664 1
gene 1 3 220 -5.49363 0 836 -5.49363 1
gene 1 220 98 -0.751869 0 837 -0.751869 1
gene 1 6 223 1.72204 0 850 1.72204 1
gene 1 223 186 2.21266 0 851 2.21266 1
gene 1 3 199 7.05802 0 856 7.05802 1
gene 1 5 228 0.0257774 0 863 0.0257774 1
gene 1 228 17 4.74625 0 864 4.74625 1
gene 1 220 202 0.469662 0 886 0.469662 0
gene 1 3 244 -7.16513 0 936 -7.16513 1
gene 1 244 18 -2.6289 0 937 -2.6289 1
gene 1 1 258 5.24687 0 986 5.24687 1
gene 1 258 17 1.70421 0 987 1.70421 1
gene 1 87 269 -0.980674 0 1033 -0.980674 1
gene 1 269 137 -1.92255 0 1034 -1.92255 1
gene 1 220 123 -1.71682 0 1040 -1.71682 1
gene 1 15 276 7.05621 0 1066 7.05621 1
gene 1 276 114 7.17999 0 1067 7.17999 1
gene 1 223 94 5.86762 0 1073 5.86762 1
gene 1 133 194 0.0278045 0 1077 0.0278045 1
gene 1 3 283 1.37131 0 1085 1.37131 1
gene 1 283 20 6.33907 0 1086 6.33907 1
gene 1 14 287 1.46095 0 1095 1.46095 1
gene 1 287 17 -0.294389 0 1096 -0.294389 1
gene 1 114 131 -1.451 0 1143 -1.451 1
gene 1 258 308 -7.16484 0 1161 -7.16484 1
gene 1 308 17 -0.670516 0 1162 -0.670516 1
gene 1 4 156 4.0308 0 1165 4.0308 1
gene 1 87 316 0.645794 0 1199 0.645794 1
gene 1 316 94 3.97697 0 1200 3.97697 1
gene 1 26 196 0.443551 0 1203 0.443551 1
gene 1 87 325 1.0508 0 1232 1.0508 1
gene 1 325 17 -0.180115 0 1233 -0.180115 1
gene 1 165 344 8 0 1316 8 1
gene 1 344 17 2.15726 0 1317 2.15726 1
gene 1 6 345 5.21402 0 1320 5.21402 1
gene 1 345 17 0.108009 0 1321 0.108009 1
gene 1 14 188 5.07966 0 1335 5.07966 1
gene 1 133 354 1.6889 0 1359 1.6889 1
gene 1 354 194 -3.04261 0 1360 -3.04261 1
gene 1 95 269 5.12981 0 1366 5.12981 1
gene 1 258 356 0.560487 0 1372 0.560487 1
gene 1 356 308 6.03119 0 1373 6.03119 1
gene 1 2 367 -1.31245 0 1405 -1.31245 1
gene 1 367 17 1.88891 0 1406 1.88891 1
gene 1 16 369 -4.97105 0 1409 -4.97105 1
gene 1 369 35 -5.9642 0 1410 -5.9642 1
gene 1 14 194 -1.95238 0 1426 -1.95238 1
gene 1 14 375 -0.592262 0 1441 -0.592262 1
gene 1 375 18 1.78387 0 1442 1.78387 1
gene 1 144 96 3.80216 0 1470 3.80216 1
gene 1 345 169 2.08655 0 1473 2.08655 1
gene 1 3 385 7.5305 0 1488 7.5305 1
gene 1 385 58 8 0 1489 8 1
gene 1 369 325 -1.0206 0 1540 -1.0206 1
gene 1 3 402 1.49313 0 1567 1.49313 1
gene 1 402 199 -0.306771 0 1568 -0.306771 1
gene 1 26 410 1.76979 0 1604 1.76979 1
gene 1 410 169 -1.17422 0 1605 -1.17422 0
gene 1 6 418 -5.20993 0 1628 -5.20993 1
gene 1 418 18 -4.48531 0 1629 -4.48531 1
gene 1 418 223 -0.495685 0 1652 -0.495685 1
gene 1 2 422 -0.666423 0 1667 -0.666423 1
gene 1 422 19 -8 0 1668 -8 1
gene 1 14 429 -4.53641 0 1692 -4.53641 1
gene 1 429 287 -3.03195 0 1693 -3.03195 1
gene 1 123 140 8 0 1717 8 1
gene 1 15 438 6.39061 0 1738 6.39061 1
gene 1 438 114 -2.43945 0 1739 -2.43945 1
gene 1 109 287 -3.92686 0 1744 -3.92686 1
gene 1 14 418 -4.75845 0 1749 -4.75845 1
gene 1 402 95 2.19537 0 1774 2.19537 1
gene 1 3 444 -2.33036 0 1786 -2.33036 1
gene 1 444 283 -0.257471 0 1787 -0.257471 1
gene 1 188 19 -3.50654 0 1817 -3.50654 1
gene 1 15 452 -6.40494 0 1823 -6.40494 1
gene 1 452 114 -1.12438 0 1824 -1.12438 1
gene 1 186 345 -1.34356 0 1825 -1.34356 1
gene 1 269 453 1.23682 0 1826 1.23682 1
gene 1 453 137 -3.3592 0 1827 -3.3592 1
gene 1 375 133 -1.53179 0 1852 -1.53179 1
gene 1 354 131 6.14793 0 1862 6.14793 1
gene 1 402 94 -2.59085 0 1874 -2.59085 1
gene 1 5 466 -1.56891 0 1885 -1.56891 1
gene 1 466 19 -2.37404 0 1886 -2.37404 1
gene 1 228 469 3.82808 0 1895 3.82808 1
gene 1 469 17 -0.760193 0 1896 -0.760193 1
gene 1 4 422 -1.49925 0 1901 -1.49925 1
gene 1 189 470 6.318 0 1907 6.318 1
gene 1 470 20 2.03848 0 1908 2.03848 1
gene 1 58 276 -1.26937 0 1910 -1.26937 1
gene 1 9 199 -3.06452 0 1958 -3.06452 1
gene 1 325 496 -1.85686 0 1993 -1.85686 1
gene 1 496 17 -5.80681 0 1994 -5.80681 1
gene 1 109 504 6.35207 0 2028 6.35207 1
gene 1 504 137 -6.39421 0 2029 -6.39421 1
gene 1 3 345 2.20241 0 2058 2.20241 1
gene 1 10 513 -1.76012 0 2060 -1.76012 1
gene 1 513 17 -3.28314 0 2061 -3.28314 1
gene 1 466 140 -7.92528 0 2065 -7.92528 1
gene 1 308 354 2.76907 0 2086 2.76907 1
gene 1 3 525 -0.157623 0 2108 -0.157623 1
gene 1 525 402 1.99421 0 2109 1.99421 1
gene 1 102 528 -0.0996848 0 2118 -0.0996848 1
gene 1 528 133 -1.59824 0 2119 -1.59824 1
gene 1 10 531 0.630983 0 2128 0.630983 1
gene 1 531 94 0.391645 0 2129 0.391645 1
gene 1 169 20 0.277382 0 2168 0.277382 1
gene 1 344 444 1.12174 0 2179 1.12174 1
gene 1 3 548 1.16845 0 2202 1.16845 1
gene 1 548 165 0.823959 0 2203 0.823959 1
gene 1 375 325 1.69089 0 2209 1.69089 1
gene 1 345 165 -0.758913 0 2233 -0.758913 1
gene 1 15 556 -4.89267 0 2237 -4.89267 1
gene 1 556 438 -3.04886 0 2238 -3.04886 1
gene 1 16 564 1.83421 0 2263 1.83421 1
gene 1 564 35 2.07215 0 2264 2.07215 1
gene 1 438 133 -2.08983 0 2332 -2.08983 1
gene 1 4 586 -0.1126 0 2348 -0.1126 1
gene 1 586 20 -0.824528 0 2349 -0.824528 1
gene 1 102 504 1.57177 0 2355 1.57177 1
gene 1 6 590 2.25059 0 2360 2.25059 1
gene 1 590 94 3.87573 0 2361 3.87573 1
gene 1 98 438 5.7271 0 2383 5.7271 1
gene 1 3 96 0.925204 0 2424 0.925204 1
gene 1 4 613 -1.39951 0 2452 -1.39951 1
gene 1 613 18 2.76796 0 2453 2.76796 1
gene 1 452 194 -1.77368 0 2479 -1.77368 1
gene 1 8 453 -0.643233 0 2531 -0.643233 1
gene 1 513 470 1.87742 0 2549 1.87742 1
gene 1 11 636 -2.40284 0 2551 -2.40284 1
gene 1 636 19 1.13045 0 2552 1.13045 1
gene 1 6 638 2.42006 0 2557 2.42006 1
gene 1 638 345 1.36945 0 2558 1.36945 1
gene 1 564 422 -0.398737 0 2595 -0.398737 1
gene 1 3 653 -0.997889 0 2604 -0.997889 1
gene 1 653 385 -0.497349 0 2605 -0.497349 1
gene 1 4 654 -4.50602 0 2608 -4.50602 1
gene 1 654 422 -1.60773 0 2609 -1.60773 1
gene 1 10 156 0.636638 0 2611 0.636638 1
gene 1 123 452 -2.49249 0 2639 -2.49249 1
gene 1 4 662 -2.44401 0 2643 -2.44401 1
gene 1 662 654 -0.910711 0 2644 -0.910711 1
gene 1 140 528 -1.59182 0 2651 -1.59182 1
gene 1 556 133 2.60757 0 2656 2.60757 1
gene 1 6 668 1.74647 0 2671 1.74647 1
gene 1 668 186 -1.31524 0 2672 -1.31524 1
gene 1 217 669 1.09534 0 2674 1.09534 1
gene 1 669 94 2.22088 0 2675 2.22088 1
gene 1 169 194 0.946431 0 2713 0.946431 1
gene 1 220 679 -0.406824 0 2715 -0.406824 1
gene 1 679 123 -3.66364 0 2716 -3.66364 1
gene 1 5 686 -5.17547 0 2741 -5.17547 1
gene 1 686 165 -0.887515 0 2742 -0.887515 1
gene 1 3 690 0.00495879 0 2753 0.00495879 1
gene 1 690 109 -0.0448007 0 2754 -0.0448007 1
gene 1 193 654 -1.51729 0 2759 -1.51729 1
gene 1 7 217 -2.32698 0 2761 -2.32698 1
gene 1 87 692 2.19657 0 2765 2.19657 1
gene 1 692 316 -4.89015 0 2766 -4.89015 1
gene 1 418 697 1.05206 0 2780 1.05206 1
gene 1 697 18 0.811605 0 2781 0.811605 1
gene 1 429 653 5.58728 0 2795 5.58728 1
gene 1 220 700 0.303226 0 2798 0.303226 1
gene 1 700 202 -6.49052 0 2799 -6.49052 1
gene 1 15 702 1.04546 0 2803 1.04546 1
gene 1 702 20 -3.58217 0 2804 -3.58217 1
gene 1 12 504 -0.741516 0 2829 -0.741516 1
gene 1 654 276 0.552694 0 2835 0.552694 1
gene 1 410 711 4.61883 0 2839 4.61883 1
gene 1 711 169 -2.43243 0 2840 -2.43243 1
gene 1 14 714 -0.845144 0 2848 -0.845144 1
gene 1 714 18 3.25431 0 2849 3.25431 1
gene 1 692 711 -4.93026 0 2850 -4.93026 1
gene 1 258 344 2.05678 0 2860 2.05678 1
genomeend 3

/* Organism #4 Fitness: 2702 Error: 273 */
genomestart 4
trait 1 0.227499 0.666218 1 0.630105 0.101963 0.428481 0.0484476 0.266142 
node 1 1 1 1
node 2 1 1 1
node 3 1 1 1
node 4 1 1 1
node 5 1 1 1
node 6 1 1 1
node 7 1 1 1
node 8 1 1 1
node 9 1 1 1
node 10 1 1 1
node 11 1 1 1
node 12 1 1 1
node 13 1 1 1
node 14 1 1 1
node 15 1 1 1
node 16 1 1 1
node 17 1 0 2
node 18 1 0 2
node 19 1 0 2
node 20 1 0 2
node 26 1 0 0
node 35 1 0 0
node 58 1 0 0
node 87 1 0 0
node 94 1 0 0
node 95 1 0 0
node 96 1 0 0
node 98 1 0 0
node 102 1 0 0
node 109 1 0 0
node 111 1 0 0
node 114 1 0 0
node 123 1 0 0
node 131 1 0 0
node 133 1 0 0
node 137 1 0 0
node 140 1 0 0
node 144 1 0 0
node 146 1 0 0
node 156 1 0 0
node 165 1 0 0
node 169 1 0 0
node 186 1 0 0
node 188 1 0 0
node 189 1 0 0
node 193 1 0 0
node 194 1 0 0
node 196 1 0 0
node 199 1 0 0
node 202 1 0 0
node 215 1 0 0
node 217 1 0 0
node 220 1 0 0
node 223 1 0 0
node 228 1 0 0
node 244 1 0 0
node 258 1 0 0
node 269 1 0 0
node 276 1 0 0
node 283 1 0 0
node 287 1 0 0
node 308 1 0 0
node 316 1 0 0
node 325 1 0 0
node 344 1 0 0
node 345 1 0 0
node 354 1 0 0
node 356 1 0 0
node 367 1 0 0
node 369 1 0 0
node 375 1 0 0
node 385 1 0 0
node 402 1 0 0
node 410 1 0 0
node 418 1 0 0
node 422 1 0 0
node 429 1 0 0
node 438 1 0 0
node 444 1 0 0
node 452 1 0 0
node 453 1 0 0
node 466 1 0 0
node 469 1 0 0
node 470 1 0 0
node 496 1 0 0
node 504 1 0 0
node 513 1 0 0
node 525 1 0 0
node 528 1 0 0
node 531 1 0 0
node 548 1 0 0
node 556 1 0 0
node 564 1 0 0
node 586 1 0 0
node 590 1 0 0
node 613 1 0 0
node 636 1 0 0
node 638 1 0 0
node 653 1 0 0
node 654 1 0 0
node 662 1 0 0
node 668 1 0 0
node 669 1 0 0
node 679 1 0 0
node 686 1 0 0
node 690 1 0 0
node 692 1 0 0
node 697 1 0 0
node 700 1 0 0
node 702 1 0 0
node 711 1 0 0
node 714 1 0 0
gene 1 1 17 -3.34379 0 1 -3.34379 1
gene 1 2 17 1.87765 0 2 1.87765 1
gene 1 3 17 -1.71937 0 3 -1.71937 1
gene 1 4 17 -4.78309 0 4 -4.78309 1
gene 1 5 17 -2.03353 0 5 -2.03353 1
gene 1 6 17 0.379037 0 6 0.379037 1
gene 1 7 17 0.970788 0 7 0.970788 1
gene 1 8 17 -0.365303 0 8 -0.365303 1
gene 1 9 17 -1.1302 0 9 -1.1302 1
gene 1 10 17 -2.12348 0 10 -2.12348 1
gene 1 11 17 -0.117983 0 11 -0.117983 1
gene 1 12 17 -1.93708 0 12 -1.93708 1
gene 1 13 17 -1.52177 0 13 -1.52177 1
gene 1 14 17 -2.26334 0 14 -2.26334 1
gene 1 15 17 -0.0683406 0 15 -0.0683406 1
gene 1 16 17 -1.38321 0 16 -1.38321 1
gene 1 1 18 7.53258 0 17 7.53258 1
gene 1 2 18 -0.244821 0 18 -0.244821 1
gene 1 3 18 -2.23191 0 19 -2.23191 1
gene 1 4 18 2.60117 0 20 2.60117 1
gene 1 5 18 2.89677 0 21 2.89677 1
gene 1 6 18 -2.21525 0 22 -2.21525 1
gene 1 7 18 -2.14778 0 23 -2.14778 1
gene 1 8 18 -1.19095 0 24 -1.19095 1
gene 1 9 18 1.6085 0 25 1.6085 1
gene 1 10 18 0.319736 0 26 0.319736 1
gene 1 11 18 -5.38683 0 27 -5.38683 1
gene 1 12 18 -4.99926 0 28 -4.99926 1
gene 1 13 18 6.02209 0 29 6.02209 1
gene 1 14 18 -2.17311 0 30 -2.17311 0
gene 1 15 18 -5.98203 0 31 -5.98203 1
gene 1 16 18 4.4922 0 32 4.4922 1
gene 1 1 19 2.08189 0 33 2.08189 1
gene 1 2 19 -0.387193 0 34 -0.387193 1
gene 1 3 19 5.02655 0 35 5.02655 1
gene 1 4 19 -1.33334 0 36 -1.33334 1
gene 1 5 19 -2.00431 0 37 -2.00431 1
gene 1 6 19 -1.06792 0 38 -1.06792 1
gene 1 7 19 -8 0 39 -8 1
gene 1 8 19 2.5792 0 40 2.5792 1
gene 1 9 19 -2.71052 0 41 -2.71052 1
gene 1 10 19 -1.47884 0 42 -1.47884 1
gene 1 11 19 -1.32736 0 43 -1.32736 1
gene 1 12 19 -2.29817 0 44 -2.29817 1
gene 1 13 19 1.86477 0 45 1.86477 1
gene 1 14 19 1.49908 0 46 1.49908 1
gene 1 15 19 -0.0760602 0 47 -0.0760602 1
gene 1 16 19 1.84104 0 48 1.84104 1
gene 1 1 20 1.10587 0 49 1.10587 1
gene 1 2 20 -0.259035 0 50 -0.259035 1
gene 1 3 20 0.805657 0 51 0.805657 1
gene 1 4 20 5.38923 0 52 5.38923 1
gene 1 5 20 3.94081 0 53 3.94081 1
gene 1 6 20 -3.54316 0 54 -3.54316 1
gene 1 7 20 2.56349 0 55 2.56349 1
gene 1 8 20 4.09406 0 56 4.09406 1
gene 1 9 20 3.03221 0 57 3.03221 1
gene 1 10 20 0.833489 0 58 0.833489 1
gene 1 11 20 -8 0 59 -8 1
gene 1 12 20 -5.58808 0 60 -5.58808 1
gene 1 13 20 -2.06692 0 61 -2.06692 1
gene 1 14 20 -0.835145 0 62 -0.835145 1
gene 1 15 20 2.18604 0 63 2.18604 1
gene 1 16 20 -0.981043 0 64 -0.981043 1
gene 1 6 26 -1.37715 0 85 -1.37715 1
gene 1 26 19 -1.80148 0 86 -1.80148 1
gene 1 18 20 -3.99891 0 120 -3.99891 1
gene 1 13 35 1.57061 0 121 1.57061 1
gene 1 35 20 0.230646 0 122 0.230646 1
gene 1 19 20 -4.04378 0 189 -4.04378 1
gene 1 9 26 2.36365 0 193 2.36365 1
gene 1 6 58 2.52682 0 201 2.52682 1
gene 1 58 26 -5.69294 0 202 -5.69294 1
gene 1 10 58 -8 0 204 -8 1
gene 1 17 58 0.754827 0 210 0.754827 1
gene 1 9 35 0.709248 0 250 0.709248 1
gene 1 15 87 5.88054 0 319 5.88054 1
gene 1 87 17 2.94511 0 320 2.94511 1
gene 1 3 58 -2.3802 0 336 -2.3802 1
gene 1 6 94 -2.33187 0 342 -2.33187 1
gene 1 94 19 1.81735 0 343 1.81735 1
gene 1 9 95 3.29103 0 344 3.29103 1
gene 1 95 17 3.76143 0 345 3.76143 1
gene 1 10 94 1.12645 0 346 1.12645 1
gene 1 6 96 0.527166 0 349 0.527166 1
gene 1 96 18 2.43308 0 350 2.43308 1
gene 1 16 35 -2.728 0 360 -2.728 1
gene 1 3 98 3.65863 0 362 3.65863 1
gene 1 98 20 3.92233 0 363 3.92233 1
gene 1 7 102 -0.292114 0 371 -0.292114 1
gene 1 102 20 0.46503 0 372 0.46503 1
gene 1 3 109 1.64316 0 400 1.64316 1
gene 1 109 19 -7.34072 0 401 -7.34072 1
gene 1 35 96 1.68839 0 402 1.68839 1
gene 1 6 111 -1.49069 0 405 -1.49069 1
gene 1 111 18 2.24797 0 406 2.24797 1
gene 1 87 98 1.21399 0 411 1.21399 1
gene 1 15 114 4.97114 0 423 4.97114 1
gene 1 114 19 -8 0 424 -8 1
gene 1 1 123 -1.3582 0 454 -1.3582 1
gene 1 123 20 8 0 455 8 1
gene 1 58 131 2.82174 0 486 2.82174 1
gene 1 131 26 4.2649 0 487 4.2649 1
gene 1 9 133 8 0 492 8 1
gene 1 133 35 -2.63143 0 493 -2.63143 1
gene 1 87 137 2.39818 0 502 2.39818 1
gene 1 137 17 -1.12671 0 503 -1.12671 1
gene 1 13 140 3.05088 0 508 3.05088 1
gene 1 140 19 -0.973659 0 509 -0.973659 1
gene 1 109 144 3.71644 0 521 3.71644 1
gene 1 144 19 2.88835 0 522 2.88835 1
gene 1 14 111 -8 0 531 -8 1
gene 1 13 146 2.13654 0 533 2.13654 1
gene 1 146 35 -4.14856 0 534 -4.14856 1
gene 1 96 111 -5.14359 0 536 -5.14359 1
gene 1 102 133 0.390595 0 547 0.390595 1
gene 1 87 94 -3.4789 0 555 -3.4789 1
gene 1 3 156 -3.08044 0 581 -3.08044 1
gene 1 156 109 -3.62113 0 582 -3.62113 1
gene 1 5 165 -2.19644 0 622 -2.19644 1
gene 1 165 17 -1.7167 0 623 -1.7167 1
gene 1 26 169 -4.60386 0 633 -4.60386 1
gene 1 169 19 -0.0408295 0 634 -0.0408295 1
gene 1 3 165 -1.38451 0 639 -1.38451 1
gene 1 6 186 -1.75946 0 715 -1.75946 1
gene 1 186 18 -3.4795 0 716 -3.4795 1
gene 1 102 188 4.78948 0 719 4.78948 1
gene 1 188 133 1.41172 0 720 1.41172 1
gene 1 11 189 -3.88875 0 721 -3.88875 1
gene 1 189 20 6.26978 0 722 6.26978 1
gene 1 3 193 1.57015 0 730 1.57015 1
gene 1 193 109 5.9393 0 731 5.9393 1
gene 1 6 165 -6.19395 0 732 -6.19395 1
gene 1 96 194 2.5515 0 734 2.5515 1
gene 1 194 18 2.87389 0 735 2.87389 1
gene 1 109 137 -0.0791531 0 738 -0.0791531 1
gene 1 35 111 0.62041 0 739 0.62041 1
gene 1 4 196 1.89251 0 745 1.89251 1
gene 1 196 20 -1.31535 0 746 -1.31535 1
gene 1 58 98 -0.592633 0 750 -0.592633 1
gene 1 87 199 -1.62136 0 755 -1.62136 1
gene 1 199 17 -0.539355 0 756 -0.539355 1
gene 1 137 202 1.0464 0 765 1.0464 1
gene 1 202 17 6.23351 0 766 6.23351 1
gene 1 98 133 -6.3685 0 770 -6.3685 1
gene 1 87 19 1.2408 0 774 1.2408 1
gene 1 35 131 0.158688 0 807 0.158688 1
gene 1 5 215 -4.34323 0 816 -4.34323 1
gene 1 215 19 8 0 817 8 1
gene 1 87 217 -2.43893 0 823 -2.43893 1
gene 1 217 94 -0.414866 0 824 -0.414866 1
gene 1 19 96 -1.31153 0 830 -1.31153 1
gene 1 3 220 -4.21575 0 836 -4.21575 1
gene 1 220 98 1.31408 0 837 1.31408 1
gene 1 6 223 0.515736 0 850 0.515736 1
gene 1 223 186 1.87217 0 851 1.87217 1
gene 1 3 199 6.56858 0 856 6.56858 1
gene 1 5 228 0.572172 0 863 0.572172 1
gene 1 228 17 2.31446 0 864 2.31446 1
gene 1 220 202 1.45515 0 886 1.45515 0
gene 1 3 244 -8 0 936 -8 1
gene 1 244 18 -0.858797 0 937 -0.858797 1
gene 1 1 258 3.97967 0 986 3.97967 1
gene 1 258 17 2.44597 0 987 2.44597 1
gene 1 87 269 -1.41366 0 1033 -1.41366 1
gene 1 269 137 0.192112 0 1034 0.192112 1
gene 1 220 123 -0.893327 0 1040 -0.893327 1
gene 1 15 276 5.68228 0 1066 5.68228 1
gene 1 276 114 7.51218 0 1067 7.51218 1
gene 1 223 94 6.50237 0 1073 6.50237 1
gene 1 133 194 -1.65355 0 1077 -1.65355 1
gene 1 3 283 0.227185 0 1085 0.227185 1
gene 1 283 20 4.14448 0 1086 4.14448 1
gene 1 14 287 2.33545 0 1095 2.33545 1
gene 1 287 17 1.00748 0 1096 1.00748 1
gene 1 114 131 0.504686 0 1143 0.504686 1
gene 1 258 308 -6.9218 0 1161 -6.9218 1
gene 1 308 17 1.12894 0 1162 1.12894 1
gene 1 4 156 5.60732 0 1165 5.60732 1
gene 1 87 316 2.64571 0 1199 2.64571 1
gene 1 316 94 2.01035 0 1200 2.01035 1
gene 1 26 196 -1.37971 0 1203 -1.37971 1
gene 1 87 325 2.62908 0 1232 2.62908 1
gene 1 325 17 0.445334 0 1233 0.445334 1
gene 1 165 344 8 0 1316 8 1
gene 1 344 17 -0.0235742 0 1317 -0.0235742 1
gene 1 6 345 4.39866 0 1320 4.39866 1
gene 1 345 17 1.53017 0 1321 1.53017 1
gene 1 14 188 4.94969 0 1335 4.94969 1
gene 1 133 354 2.06187 0 1359 2.06187 1
gene 1 354 194 -1.72747 0 1360 -1.72747 1
gene 1 95 269 3.56496 0 1366 3.56496 1
gene 1 258 356 -0.958551 0 1372 -0.958551 1
gene 1 356 308 4.44986 0 1373 4.44986 1
gene 1 2 367 -1.26473 0 1405 -1.26473 1
gene 1 367 17 -0.322042 0 1406 -0.322042 1
gene 1 16 369 -5.20631 0 1409 -5.20631 1
gene 1 369 35 -4.10658 0 1410 -4.10658 1
gene 1 14 194 -1.70053 0 1426 -1.70053 1
gene 1 14 375 1.2595 0 1441 1.2595 1
gene 1 375 18 -0.693871 0 1442 -0.693871 1
gene 1 144 96 5.77104 0 1470 5.77104 1
gene 1 345 169 1.12344 0 1473 1.12344 1
gene 1 3 385 6.14105 0 1488 6.14105 1
gene 1 385 58 8 0 1489 8 1
gene 1 369 325 -2.70229 0 1540 -2.70229 1
gene 1 3 402 1.83025 0 1567 1.83025 1
gene 1 402 199 -2.80663 0 1568 -2.80663 1
gene 1 26 410 0.173168 0 1604 0.173168 1
gene 1 410 169 -3.33248 0 1605 -3.33248 0
gene 1 6 418 -7.37008 0 1628 -7.37008 1
gene 1 418 18 -6.89907 0 1629 -6.89907 1
gene 1 418 223 1.12389 0 1652 1.12389 1
gene 1 2 422 -2.86606 0 1667 -2.86606 1
gene 1 422 19 -6.23961 0 1668 -6.23961 1
gene 1 14 429 -2.73983 0 1692 -2.73983 1
gene 1 429 287 -3.44763 0 1693 -3.44763 1
gene 1 123 140 6.33118 0 1717 6.33118 1
gene 1 15 438 8 0 1738 8 1
gene 1 438 114 -1.13827 0 1739 -1.13827 1
gene 1 109 287 -1.44861 0 1744 -1.44861 1
gene 1 14 418 -6.37099 0 1749 -6.37099 1
gene 1 402 95 1.7535 0 1774 1.7535 1
gene 1 3 444 -0.104744 0 1786 -0.104744 1
gene 1 444 283 -2.08327 0 1787 -2.08327 1
gene 1 188 19 -3.63767 0 1817 -3.63767 1
gene 1 15 452 -6.00361 0 1823 -6.00361 1
gene 1 452 114 1.20333 0 1824 1.20333 1
gene 1 186 345 -0.699699 0 1825 -0.699699 1
gene 1 269 453 -1.06529 0 1826 -1.06529 1
gene 1 453 137 -2.22042 0 1827 -2.22042 1
gene 1 375 133 -1.68573 0 1852 -1.68573 1
gene 1 354 131 5.44355 0 1862 5.44355 1
gene 1 402 94 -0.459332 0 1874 -0.459332 1
gene 1 5 466 -1.67808 0 1885 -1.67808 1
gene 1 466 19 0.0999914 0 1886 0.0999914 1
gene 1 228 469 1.62416 0 1895 1.62416 1
gene 1 469 17 0.164995 0 1896 0.164995 1
gene 1 4 422 -0.55286 0 1901 -0.55286 1
gene 1 189 470 6.66448 0 1907 6.66448 1
gene 1 470 20 2.19352 0 1908 2.19352 1
gene 1 58 276 -2.69449 0 1910 -2.69449 1
gene 1 9 199 -2.76239 0 1958 -2.76239 1
gene 1 325 496 -1.44346 0 1993 -1.44346 1
gene 1 496 17 -5.36609 0 1994 -5.36609 1
gene 1 109 504 6.16007 0 2028 6.16007 1
gene 1 504 137 -8 0 2029 -8 1
gene 1 3 345 2.49475 0 2058 2.49475 1
gene 1 10 513 -0.368696 0 2060 -0.368696 1
gene 1 513 17 -1.43123 0 2061 -1.43123 1
gene 1 466 140 -6.31718 0 2065 -6.31718 1
gene 1 308 354 0.733022 0 2086 0.733022 1
gene 1 3 525 1.93493 0 2108 1.93493 1
gene 1 525 402 0.858652 0 2109 0.858652 1
gene 1 102 528 -1.2305 0 2118 -1.2305 1
gene 1 528 133 -0.617753 0 2119 -0.617753 1
gene 1 10 531 0.7172 0 2128 0.7172 1
gene 1 531 94 -1.76612 0 2129 -1.76612 1
gene 1 169 20 0.638717 0 2168 0.638717 1
gene 1 344 444 3.46833 0 2179 3.46833 1
gene 1 3 548 3.35685 0 2202 3.35685 1
gene 1 548 165 0.683692 0 2203 0.683692 1
gene 1 375 325 0.62558 0 2209 0.62558 1
gene 1 345 165 -0.129437 0 2233 -0.129437 1
gene 1 15 556 -4.89267 0 2237 -4.89267 1
gene 1 556 438 -3.04886 0 2238 -3.04886 1
gene 1 16 564 1.35423 0 2263 1.35423 1
gene 1 564 35 2.50759 0 2264 2.50759 1
gene 1 438 133 -3.18434 0 2332 -3.18434 1
gene 1 4 586 -1.0537 0 2348 -1.0537 1
gene 1 586 20 -1.20476 0 2349 -1.20476 1
gene 1 102 504 1.57177 0 2355 1.57177 1
gene 1 6 590 -0.905489 0 2360 -0.905489 1
gene 1 590 94 4.43465 0 2361 4.43465 1
gene 1 98 438 5.7271 0 2383 5.7271 1
gene 1 3 96 2.43367 0 2424 2.43367 1
gene 1 4 613 -2.25718 0 2452 -2.25718 1
gene 1 613 18 0.521786 0 2453 0.521786 1
gene 1 452 194 -1.77368 0 2479 -1.77368 1
gene 1 8 453 -1.65262 0 2531 -1.65262 1
gene 1 513 470 4.04204 0 2549 4.04204 1
gene 1 11 636 1.25526 0 2551 1.25526 1
gene 1 636 19 -1.14276 0 2552 -1.14276 1
gene 1 6 638 0.441786 0 2557 0.441786 1
gene 1 638 345 1.8071 0 2558 1.8071 1
gene 1 564 422 -0.398737 0 2595 -0.398737 1
gene 1 3 653 2.25509 0 2604 2.25509 1
gene 1 653 385 5.02463 0 2605 5.02463 1
gene 1 4 654 -3.56726 0 2608 -3.56726 1
gene 1 654 422 -1.60773 0 2609 -1.60773 1
gene 1 10 156 0.636638 0 2611 0.636638 1
gene 1 123 452 -2.49249 0 2639 -2.49249 1
gene 1 4 662 0.970949 0 2643 0.970949 1
gene 1 662 654 -0.910711 0 2644 -0.910711 1
gene 1 140 528 0.486797 0 2651 0.486797 1
gene 1 556 133 2.60757 0 2656 2.60757 1
gene 1 6 668 0.656059 0 2671 0.656059 1
gene 1 668 186 -3.37592 0 2672 -3.37592 1
gene 1 217 669 1.09534 0 2674 1.09534 1
gene 1 669 94 4.51606 0 2675 4.51606 1
gene 1 169 194 3.87977 0 2713 3.87977 1
gene 1 220 679 -1.53637 0 2715 -1.53637 1
gene 1 679 123 -1.28949 0 2716 -1.28949 1
gene 1 5 686 -3.24463 0 2741 -3.24463 1
gene 1 686 165 -1.24606 0 2742 -1.24606 1
gene 1 3 690 0.00994055 0 2753 0.00994055 1
gene 1 690 109 -2.42343 0 2754 -2.42343 1
gene 1 193 654 -2.35444 0 2759 -2.35444 1
gene 1 7 217 -2.20026 0 2761 -2.20026 1
gene 1 87 692 0.453226 0 2765 0.453226 1
gene 1 692 316 -3.5599 0 2766 -3.5599 1
gene 1 418 697 -1.26704 0 2780 -1.26704 1
gene 1 697 18 -0.869709 0 2781 -0.869709 1
gene 1 429 653 5.58728 0 2795 5.58728 1
gene 1 220 700 0.303226 0 2798 0.303226 1
gene 1 700 202 -6.49052 0 2799 -6.49052 1
gene 1 15 702 1.04546 0 2803 1.04546 1
gene 1 702 20 -1.42914 0 2804 -1.42914 1
gene 1 12 504 -1.04907 0 2829 -1.04907 1
gene 1 654 276 0.552694 0 2835 0.552694 1
gene 1 410 711 6.21821 0 2839 6.21821 1
gene 1 711 169 -2.43243 0 2840 -2.43243 1
gene 1 14 714 -2.08524 0 2848 -2.08524 1
gene 1 714 18 3.25431 0 2849 3.25431 1
gene 1 692 711 -2.59968 0 2850 -2.59968 1
gene 1 258 344 1.12144 0 2860 1.12144 1
genomeend 4

/* Organism #5 Fitness: 781 Error: 96 */
genomestart 5
trait 1 0.227499 0.666218 1 0.630105 0.101963 0.428481 0.0484476 0.266142 
node 1 1 1 1
node 2 1 1 1
node 3 1 1 1
node 4 1 1 1
node 5 1 1 1
node 6 1 1 1
node 7 1 1 1
node 8 1 1 1
node 9 1 1 1
node 10 1 1 1
node 11 1 1 1
node 12 1 1 1
node 13 1 1 1
node 14 1 1 1
node 15 1 1 1
node 16 1 1 1
node 17 1 0 2
node 18 1 0 2
node 19 1 0 2
node 20 1 0 2
node 26 1 0 0
node 35 1 0 0
node 58 1 0 0
node 87 1 0 0
node 94 1 0 0
node 95 1 0 0
node 96 1 0 0
node 98 1 0 0
node 102 1 0 0
node 109 1 0 0
node 111 1 0 0
node 114 1 0 0
node 123 1 0 0
node 131 1 0 0
node 133 1 0 0
node 137 1 0 0
node 140 1 0 0
node 144 1 0 0
node 146 1 0 0
node 156 1 0 0
node 165 1 0 0
node 169 1 0 0
node 186 1 0 0
node 188 1 0 0
node 189 1 0 0
node 193 1 0 0
node 194 1 0 0
node 196 1 0 0
node 199 1 0 0
node 202 1 0 0
node 215 1 0 0
node 217 1 0 0
node 220 1 0 0
node 223 1 0 0
node 228 1 0 0
node 244 1 0 0
node 258 1 0 0
node 269 1 0 0
node 276 1 0 0
node 283 1 0 0
node 287 1 0 0
node 308 1 0 0
node 316 1 0 0
node 325 1 0 0
node 344 1 0 0
node 345 1 0 0
node 354 1 0 0
node 356 1 0 0
node 367 1 0 0
node 369 1 0 0
node 375 1 0 0
node 385 1 0 0
node 402 1 0 0
node 410 1 0 0
node 418 1 0 0
node 422 1 0 0
node 429 1 0 0
node 438 1 0 0
node 444 1 0 0
node 452 1 0 0
node 453 1 0 0
node 466 1 0 0
node 469 1 0 0
node 470 1 0 0
node 496 1 0 0
node 504 1 0 0
node 513 1 0 0
node 525 1 0 0
node 528 1 0 0
node 531 1 0 0
node 548 1 0 0
node 556 1 0 0
node 564 1 0 0
node 586 1 0 0
node 590 1 0 0
node 613 1 0 0
node 636 1 0 0
node 638 1 0 0
node 653 1 0 0
node 654 1 0 0
node 662 1 0 0
node 668 1 0 0
node 669 1 0 0
node 679 1 0 0
node 686 1 0 0
node 690 1 0 0
node 692 1 0 0
node 697 1 0 0
node 700 1 0 0
node 702 1 0 0
node 711 1 0 0
node 714 1 0 0
gene 1 1 17 -4.7723 0 1 -4.7723 1
gene 1 2 17 3.70336 0 2 3.70336 1
gene 1 3 17 -0.310278 0 3 -0.310278 1
gene 1 4 17 -6.6703 0 4 -6.6703 1
gene 1 5 17 1.43513 0 5 1.43513 1
gene 1 6 17 -2.2912 0 6 -2.2912 1
gene 1 7 17 2.08213 0 7 2.08213 1
gene 1 8 17 -0.416583 0 8 -0.416583 1
gene 1 9 17 -0.0288882 0 9 -0.0288882 1
gene 1 10 17 -2.69049 0 10 -2.69049 1
gene 1 11 17 2.35929 0 11 2.35929 1
gene 1 12 17 -1.93708 0 12 -1.93708 1
gene 1 13 17 1.44571 0 13 1.44571 1
gene 1 14 17 -3.48441 0 14 -3.48441 1
gene 1 15 17 -0.577575 0 15 -0.577575 1
gene 1 16 17 -2.84646 0 16 -2.84646 1
gene 1 1 18 1.89065 0 17 1.89065 1
gene 1 2 18 -0.877942 0 18 -0.877942 1
gene 1 3 18 0.0245067 0 19 0.0245067 1
gene 1 4 18 4.71344 0 20 4.71344 1
gene 1 5 18 2.01545 0 21 2.01545 1
gene 1 6 18 -2.96483 0 22 -2.96483 1
gene 1 7 18 -2.14778 0 23 -2.14778 1
gene 1 8 18 -1.52313 0 24 -1.52313 1
gene 1 9 18 1.31898 0 25 1.31898 1
gene 1 10 18 -0.409141 0 26 -0.409141 1
gene 1 11 18 1.63691 0 27 1.63691 1
gene 1 12 18 -4.69462 0 28 -4.69462 1
gene 1 13 18 5.84678 0 29 5.84678 1
gene 1 14 18 -1.53441 0 30 -1.53441 0
gene 1 15 18 -6.437 0 31 -6.437 1
gene 1 16 18 5.54484 0 32 5.54484 1
gene 1 1 19 0.324503 0 33 0.324503 1
gene 1 2 19 -0.766707 0 34 -0.766707 1
gene 1 3 19 6.33277 0 35 6.33277 1
gene 1 4 19 0.972643 0 36 0.972643 1
gene 1 5 19 -0.334328 0 37 -0.334328 1
gene 1 6 19 -1.54828 0 38 -1.54828 1
gene 1 7 19 -8 0 39 -8 1
gene 1 8 19 0.123001 0 40 0.123001 1
gene 1 9 19 -1.15936 0 41 -1.15936 1
gene 1 10 19 0.237988 0 42 0.237988 1
gene 1 11 19 -1.94637 0 43 -1.94637 1
gene 1 12 19 -0.0947731 0 44 -0.0947731 1
gene 1 13 19 -0.191071 0 45 -0.191071 1
gene 1 14 19 1.59035 0 46 1.59035 1
gene 1 15 19 -0.867223 0 47 -0.867223 1
gene 1 16 19 3.75062 0 48 3.75062 1
gene 1 1 20 2.70217 0 49 2.70217 1
gene 1 2 20 2.19283 0 50 2.19283 1
gene 1 3 20 -1.58856 0 51 -1.58856 1
gene 1 4 20 3.00154 0 52 3.00154 1
gene 1 5 20 3.94081 0 53 3.94081 1
gene 1 6 20 -3.8128 0 54 -3.8128 1
gene 1 7 20 4.29573 0 55 4.29573 1
gene 1 8 20 4.09406 0 56 4.09406 1
gene 1 9 20 1.40193 0 57 1.40193 1
gene 1 10 20 2.43152 0 58 2.43152 1
gene 1 11 20 -7.5155 0 59 -7.5155 1
gene 1 12 20 -6.55262 0 60 -6.55262 1
gene 1 13 20 -0.0565609 0 61 -0.0565609 1
gene 1 14 20 -2.41205 0 62 -2.41205 1
gene 1 15 20 2.90287 0 63 2.90287 1
gene 1 16 20 -2.16856 0 64 -2.16856 1
gene 1 6 26 -0.508663 0 85 -0.508663 1
gene 1 26 19 -0.735523 0 86 -0.735523 1
gene 1 18 20 0.252564 0 120 0.252564 1
gene 1 13 35 -0.0982953 0 121 -0.0982953 1
gene 1 35 20 -0.852864 0 122 -0.852864 1
gene 1 19 20 -3.3805 0 189 -3.3805 1
gene 1 9 26 0.90304 0 193 0.90304 1
gene 1 6 58 -0.0266604 0 201 -0.0266604 1
gene 1 58 26 -6.2712 0 202 -6.2712 1
gene 1 10 58 -8 0 204 -8 1
gene 1 17 58 1.69852 0 210 1.69852 1
gene 1 9 35 2.8709 0 250 2.8709 1
gene 1 15 87 6.0956 0 319 6.0956 1
gene 1 87 17 4.6711 0 320 4.6711 1
gene 1 3 58 1.10401 0 336 1.10401 1
gene 1 6 94 -4.7773 0 342 -4.7773 1
gene 1 94 19 0.70211 0 343 0.70211 1
gene 1 9 95 -2.46261 0 344 -2.46261 1
gene 1 95 17 3.87605 0 345 3.87605 1
gene 1 10 94 2.88347 0 346 2.88347 1
gene 1 6 96 0.686591 0 349 0.686591 1
gene 1 96 18 4.48718 0 350 4.48718 1
gene 1 16 35 -2.51082 0 360 -2.51082 1
gene 1 3 98 1.27896 0 362 1.27896 1
gene 1 98 20 4.0933 0 363 4.0933 1
gene 1 7 102 -2.6698 0 371 -2.6698 1
gene 1 102 20 1.82871 0 372 1.82871 1
gene 1 3 109 3.28246 0 400 3.28246 1
gene 1 109 19 -8 0 401 -8 1
gene 1 35 96 3.19535 0 402 3.19535 1
gene 1 6 111 -0.987325 0 405 -0.987325 1
gene 1 111 18 2.10883 0 406 2.10883 1
gene 1 87 98 -0.266246 0 411 -0.266246 1
gene 1 15 114 4.97114 0 423 4.97114 1
gene 1 114 19 -0.134396 0 424 -0.134396 1
gene 1 1 123 -1.3582 0 454 -1.3582 1
gene 1 123 20 7.0729 0 455 7.0729 1
gene 1 58 131 3.81027 0 486 3.81027 1
gene 1 131 26 1.3402 0 487 1.3402 1
gene 1 9 133 8 0 492 8 1
gene 1 133 35 -2.63143 0 493 -2.63143 1
gene 1 87 137 2.39818 0 502 2.39818 1
gene 1 137 17 -0.0310149 0 503 -0.0310149 1
gene 1 13 140 3.41238 0 508 3.41238 1
gene 1 140 19 -1.00511 0 509 -1.00511 1
gene 1 109 144 3.71644 0 521 3.71644 1
gene 1 144 19 4.22963 0 522 4.22963 1
gene 1 14 111 -6.87132 0 531 -6.87132 1
gene 1 13 146 2.67095 0 533 2.67095 1
gene 1 146 35 -1.9755 0 534 -1.9755 1
gene 1 96 111 -4.84191 0 536 -4.84191 1
gene 1 102 133 0.310926 0 547 0.310926 1
gene 1 87 94 -2.41777 0 555 -2.41777 1
gene 1 3 156 -2.1172 0 581 -2.1172 1
gene 1 156 109 -2.55616 0 582 -2.55616 1
gene 1 5 165 -2.19644 0 622 -2.19644 1
gene 1 165 17 0.541131 0 623 0.541131 1
gene 1 26 169 -4.60386 0 633 -4.60386 1
gene 1 169 19 -0.174055 0 634 -0.174055 1
gene 1 3 165 1.29046 0 639 1.29046 1
gene 1 6 186 1.9465 0 715 1.9465 1
gene 1 186 18 0.145558 0 716 0.145558 1
gene 1 102 188 3.76272 0 719 3.76272 1
gene 1 188 133 1.41172 0 720 1.41172 1
gene 1 11 189 -3.94431 0 721 -3.94431 1
gene 1 189 20 0.616777 0 722 0.616777 1
gene 1 3 193 1.57015 0 730 1.57015 1
gene 1 193 109 6.72142 0 731 6.72142 1
gene 1 6 165 -8 0 732 -8 1
gene 1 96 194 0.268764 0 734 0.268764 1
gene 1 194 18 0.785093 0 735 0.785093 1
gene 1 109 137 1.19244 0 738 1.19244 1
gene 1 35 111 -0.892411 0 739 -0.892411 1
gene 1 4 196 -0.341939 0 745 -0.341939 1
gene 1 196 20 -0.54129 0 746 -0.54129 1
gene 1 58 98 -2.73496 0 750 -2.73496 1
gene 1 87 199 -2.97598 0 755 -2.97598 1
gene 1 199 17 2.01944 0 756 2.01944 1
gene 1 137 202 0.265461 0 765 0.265461 1
gene 1 202 17 6.23351 0 766 6.23351 1
gene 1 98 133 -7.14591 0 770 -7.14591 1
gene 1 87 19 1.75888 0 774 1.75888 1
gene 1 35 131 -0.770084 0 807 -0.770084 1
gene 1 5 215 -4.91384 0 816 -4.91384 1
gene 1 215 19 7.59314 0 817 7.59314 1
gene 1 87 217 -3.9414 0 823 -3.9414 1
gene 1 217 94 -0.394717 0 824 -0.394717 1
gene 1 19 96 -1.31153 0 830 -1.31153 1
gene 1 3 220 0.432943 0 836 0.432943 1
gene 1 220 98 2.65738 0 837 2.65738 1
gene 1 6 223 -0.862978 0 850 -0.862978 1
gene 1 223 186 0.933706 0 851 0.933706 1
gene 1 3 199 4.85325 0 856 4.85325 1
gene 1 5 228 2.29249 0 863 2.29249 1
gene 1 228 17 2.31446 0 864 2.31446 1
gene 1 220 202 1.63648 0 886 1.63648 0
gene 1 3 244 -8 0 936 -8 1
gene 1 244 18 -0.066686 0 937 -0.066686 1
gene 1 1 258 4.39043 0 986 4.39043 1
gene 1 258 17 -0.467493 0 987 -0.467493 1
gene 1 87 269 -0.66861 0 1033 -0.66861 1
gene 1 269 137 0.192112 0 1034 0.192112 1
gene 1 220 123 -1.40369 0 1040 -1.40369 1
gene 1 15 276 5.88566 0 1066 5.88566 1
gene 1 276 114 1.44951 0 1067 1.44951 1
gene 1 223 94 -2.29004 0 1073 -2.29004 1
gene 1 133 194 -4.02086 0 1077 -4.02086 1
gene 1 3 283 0.763124 0 1085 0.763124 1
gene 1 283 20 2.82913 0 1086 2.82913 1
gene 1 14 287 4.80647 0 1095 4.80647 1
gene 1 287 17 0.377452 0 1096 0.377452 1
gene 1 114 131 -1.06512 0 1143 -1.06512 1
gene 1 258 308 -7.73023 0 1161 -7.73023 1
gene 1 308 17 1.12894 0 1162 1.12894 1
gene 1 4 156 5.56819 0 1165 5.56819 1
gene 1 87 316 1.63703 0 1199 1.63703 1
gene 1 316 94 0.824546 0 1200 0.824546 1
gene 1 26 196 -2.34491 0 1203 -2.34491 1
gene 1 87 325 -2.1883 0 1232 -2.1883 1
gene 1 325 17 0.288062 0 1233 0.288062 1
gene 1 165 344 6.39222 0 1316 6.39222 1
gene 1 344 17 2.01043 0 1317 2.01043 1
gene 1 6 345 1.96419 0 1320 1.96419 1
gene 1 345 17 -2.09525 0 1321 -2.09525 1
gene 1 14 188 0.21306 0 1335 0.21306 1
gene 1 133 354 3.37358 0 1359 3.37358 1
gene 1 354 194 -1.72747 0 1360 -1.72747 1
gene 1 95 269 1.25983 0 1366 1.25983 1
gene 1 258 356 -2.30169 0 1372 -2.30169 1
gene 1 356 308 3.47691 0 1373 3.47691 1
gene 1 2 367 -1.26473 0 1405 -1.26473 1
gene 1 367 17 1.16505 0 1406 1.16505 1
gene 1 16 369 -4.10275 0 1409 -4.10275 1
gene 1 369 35 -4.75273 0 1410 -4.75273 1
gene 1 14 194 -2.0188 0 1426 -2.0188 1
gene 1 14 375 -1.56942 0 1441 -1.56942 1
gene 1 375 18 0.995768 0 1442 0.995768 1
gene 1 144 96 5.2248 0 1470 5.2248 1
gene 1 345 169 -0.0517322 0 1473 -0.0517322 1
gene 1 3 385 8 0 1488 8 1
gene 1 385 58 -1.66709 0 1489 -1.66709 1
gene 1 369 325 -0.571165 0 1540 -0.571165 1
gene 1 3 402 -0.353693 0 1567 -0.353693 1
gene 1 402 199 -0.663399 0 1568 -0.663399 1
gene 1 26 410 1.94756 0 1604 1.94756 1
gene 1 410 169 -5.11879 0 1605 -5.11879 0
gene 1 6 418 -8 0 1628 -8 1
gene 1 418 18 -2.16427 0 1629 -2.16427 1
gene 1 418 223 -1.05742 0 1652 -1.05742 1
gene 1 2 422 -3.29316 0 1667 -3.29316 1
gene 1 422 19 2.1897 0 1668 2.1897 1
gene 1 14 429 1.57689 0 1692 1.57689 1
gene 1 429 287 0.599085 0 1693 0.599085 1
gene 1 123 140 -1.69077 0 1717 -1.69077 1
gene 1 15 438 8 0 1738 8 1
gene 1 438 114 0.443155 0 1739 0.443155 1
gene 1 109 287 0.456539 0 1744 0.456539 1
gene 1 14 418 -7.36188 0 1749 -7.36188 1
gene 1 402 95 0.609752 0 1774 0.609752 1
gene 1 3 444 2.0607 0 1786 2.0607 1
gene 1 444 283 -2.05436 0 1787 -2.05436 1
gene 1 188 19 -1.02055 0 1817 -1.02055 1
gene 1 15 452 -7.63107 0 1823 -7.63107 1
gene 1 452 114 -0.453168 0 1824 -0.453168 1
gene 1 186 345 -1.34355 0 1825 -1.34355 1
gene 1 269 453 -1.04752 0 1826 -1.04752 1
gene 1 453 137 -2.07607 0 1827 -2.07607 1
gene 1 375 133 -1.4725 0 1852 -1.4725 1
gene 1 354 131 0.770656 0 1862 0.770656 1
gene 1 402 94 -0.459332 0 1874 -0.459332 1
gene 1 5 466 -1.67808 0 1885 -1.67808 1
gene 1 466 19 -1.16764 0 1886 -1.16764 1
gene 1 228 469 -1.12054 0 1895 -1.12054 1
gene 1 469 17 1.84584 0 1896 1.84584 1
gene 1 4 422 -0.644619 0 1901 -0.644619 1
gene 1 189 470 7.29217 0 1907 7.29217 1
gene 1 470 20 2.26846 0 1908 2.26846 1
gene 1 58 276 -4.31569 0 1910 -4.31569 1
gene 1 9 199 -2.76239 0 1958 -2.76239 1
gene 1 325 496 2.18476 0 1993 2.18476 1
gene 1 496 17 -6.67657 0 1994 -6.67657 1
gene 1 109 504 4.16249 0 2028 4.16249 1
gene 1 504 137 -7.17707 0 2029 -7.17707 1
gene 1 3 345 3.38036 0 2058 3.38036 1
gene 1 10 513 -1.7451 0 2060 -1.7451 1
gene 1 513 17 0.311282 0 2061 0.311282 1
gene 1 466 140 -5.25183 0 2065 -5.25183 1
gene 1 308 354 1.9831 0 2086 1.9831 1
gene 1 3 525 1.14735 0 2108 1.14735 1
gene 1 525 402 0.0370413 0 2109 0.0370413 1
gene 1 102 528 -0.212893 0 2118 -0.212893 1
gene 1 528 133 0.78673 0 2119 0.78673 1
gene 1 10 531 0.7172 0 2128 0.7172 1
gene 1 531 94 -4.20611 0 2129 -4.20611 1
gene 1 169 20 0.807956 0 2168 0.807956 1
gene 1 344 444 5.30272 0 2179 5.30272 1
gene 1 3 548 3.35685 0 2202 3.35685 1
gene 1 548 165 -1.48637 0 2203 -1.48637 1
gene 1 375 325 -0.57257 0 2209 -0.57257 1
gene 1 345 165 -0.308148 0 2233 -0.308148 1
gene 1 15 556 -7.38452 0 2237 -7.38452 1
gene 1 556 438 2.01767 0 2238 2.01767 1
gene 1 16 564 1.50749 0 2263 1.50749 1
gene 1 564 35 3.02674 0 2264 3.02674 1
gene 1 438 133 -5.48052 0 2332 -5.48052 1
gene 1 4 586 -0.576118 0 2348 -0.576118 1
gene 1 586 20 0.986648 0 2349 0.986648 1
gene 1 102 504 0.46905 0 2355 0.46905 1
gene 1 6 590 -0.951012 0 2360 -0.951012 1
gene 1 590 94 4.6804 0 2361 4.6804 1
gene 1 98 438 7.11525 0 2383 7.11525 1
gene 1 3 96 0.150449 0 2424 0.150449 1
gene 1 4 613 -4.68572 0 2452 -4.68572 1
gene 1 613 18 0.374754 0 2453 0.374754 1
gene 1 452 194 -3.09799 0 2479 -3.09799 1
gene 1 8 453 0.684161 0 2531 0.684161 1
gene 1 513 470 2.42696 0 2549 2.42696 1
gene 1 11 636 1.41546 0 2551 1.41546 1
gene 1 636 19 0.643809 0 2552 0.643809 1
gene 1 6 638 1.03545 0 2557 1.03545 1
gene 1 638 345 4.21019 0 2558 4.21019 1
gene 1 564 422 -0.732456 0 2595 -0.732456 1
gene 1 3 653 1.98624 0 2604 1.98624 1
gene 1 653 385 -1.66724 0 2605 -1.66724 1
gene 1 4 654 -5.7827 0 2608 -5.7827 1
gene 1 654 422 -0.307652 0 2609 -0.307652 1
gene 1 10 156 1.39219 0 2611 1.39219 1
gene 1 123 452 -1.95741 0 2639 -1.95741 1
gene 1 4 662 0.662237 0 2643 0.662237 1
gene 1 662 654 -2.18531 0 2644 -2.18531 1
gene 1 140 528 1.7277 0 2651 1.7277 1
gene 1 556 133 2.40812 0 2656 2.40812 1
gene 1 6 668 0.823987 0 2671 0.823987 1
gene 1 668 186 -2.07633 0 2672 -2.07633 1
gene 1 217 669 -0.51824 0 2674 -0.51824 1
gene 1 669 94 5.42215 0 2675 5.42215 1
gene 1 169 194 -2.25323 0 2713 -2.25323 1
gene 1 220 679 -3.17803 0 2715 -3.17803 1
gene 1 679 123 -1.11541 0 2716 -1.11541 1
gene 1 5 686 -2.84859 0 2741 -2.84859 1
gene 1 686 165 -1.1928 0 2742 -1.1928 1
gene 1 3 690 -0.523969 0 2753 -0.523969 1
gene 1 690 109 -4.04464 0 2754 -4.04464 1
gene 1 193 654 -0.743708 0 2759 -0.743708 1
gene 1 7 217 -1.65183 0 2761 -1.65183 1
gene 1 87 692 2.35968 0 2765 2.35968 1
gene 1 692 316 -3.5599 0 2766 -3.5599 1
gene 1 418 697 -2.70616 0 2780 -2.70616 1
gene 1 697 18 -2.16418 0 2781 -2.16418 1
gene 1 429 653 7.95414 0 2795 7.95414 1
gene 1 220 700 0.0532422 0 2798 0.0532422 1
gene 1 700 202 -2.34691 0 2799 -2.34691 1
gene 1 15 702 -0.844649 0 2803 -0.844649 1
gene 1 702 20 -0.865807 0 2804 -0.865807 1
gene 1 12 504 -1.99032 0 2829 -1.99032 1
gene 1 654 276 1.8319 0 2835 1.8319 1
gene 1 410 711 3.88041 0 2839 3.88041 1
gene 1 711 169 0.71453 0 2840 0.71453 1
gene 1 14 714 -4.5824 0 2848 -4.5824 1
gene 1 714 18 3.74871 0 2849 3.74871 1
gene 1 692 711 -3.58054 0 2850 -3.58054 1
gene 1 258 344 1.31887 0 2860 1.31887 1
genomeend 5

/* Species #211 : (Size 4) (AF 1858.5) (Age 11)  */


/* Organism #6 Fitness: 1488 Error: 156 */
genomestart 6
trait 1 0.425706 0.639273 1 0.630105 1 0 0.19186 0.574209 
node 1 1 1 1
node 2 1 1 1
node 3 1 1 1
node 4 1 1 1
node 5 1 1 1
node 6 1 1 1
node 7 1 1 1
node 8 1 1 1
node 9 1 1 1
node 10 1 1 1
node 11 1 1 1
node 12 1 1 1
node 13 1 1 1
node 14 1 1 1
node 15 1 1 1
node 16 1 1 1
node 17 1 0 2
node 18 1 0 2
node 19 1 0 2
node 20 1 0 2
node 26 1 0 0
node 35 1 0 0
node 58 1 0 0
node 87 1 0 0
node 94 1 0 0
node 95 1 0 0
node 96 1 0 0
node 98 1 0 0
node 102 1 0 0
node 109 1 0 0
node 111 1 0 0
node 114 1 0 0
node 123 1 0 0
node 131 1 0 0
node 133 1 0 0
node 137 1 0 0
node 140 1 0 0
node 144 1 0 0
node 146 1 0 0
node 156 1 0 0
node 165 1 0 0
node 169 1 0 0
node 186 1 0 0
node 188 1 0 0
node 189 1 0 0
node 193 1 0 0
node 194 1 0 0
node 196 1 0 0
node 199 1 0 0
node 202 1 0 0
node 215 1 0 0
node 217 1 0 0
node 220 1 0 0
node 223 1 0 0
node 228 1 0 0
node 244 1 0 0
node 258 1 0 0
node 269 1 0 0
node 276 1 0 0
node 283 1 0 0
node 287 1 0 0
node 308 1 0 0
node 316 1 0 0
node 325 1 0 0
node 344 1 0 0
node 345 1 0 0
node 354 1 0 0
node 356 1 0 0
node 367 1 0 0
node 369 1 0 0
node 375 1 0 0
node 385 1 0 0
node 402 1 0 0
node 410 1 0 0
node 418 1 0 0
node 422 1 0 0
node 429 1 0 0
node 438 1 0 0
node 444 1 0 0
node 452 1 0 0
node 453 1 0 0
node 466 1 0 0
node 469 1 0 0
node 470 1 0 0
node 496 1 0 0
node 504 1 0 0
node 513 1 0 0
node 525 1 0 0
node 528 1 0 0
node 531 1 0 0
node 548 1 0 0
node 556 1 0 0
node 564 1 0 0
node 586 1 0 0
node 590 1 0 0
node 613 1 0 0
node 636 1 0 0
node 638 1 0 0
node 653 1 0 0
node 654 1 0 0
node 662 1 0 0
node 668 1 0 0
node 669 1 0 0
node 679 1 0 0
node 686 1 0 0
node 690 1 0 0
node 692 1 0 0
node 697 1 0 0
node 700 1 0 0
node 702 1 0 0
node 712 1 0 0
node 716 1 0 0
node 718 1 0 0
node 719 1 0 0
gene 1 1 17 -6.8773 0 1 -6.8773 1
gene 1 2 17 -4.00049 0 2 -4.00049 1
gene 1 3 17 0.850817 0 3 0.850817 1
gene 1 4 17 1.48295 0 4 1.48295 1
gene 1 5 17 -1.58991 0 5 -1.58991 1
gene 1 6 17 0.0130761 0 6 0.0130761 1
gene 1 7 17 0.112916 0 7 0.112916 1
gene 1 8 17 5.28123 0 8 5.28123 1
gene 1 9 17 0.841311 0 9 0.841311 1
gene 1 10 17 -1.28951 0 10 -1.28951 1
gene 1 11 17 3.95553 0 11 3.95553 1
gene 1 12 17 -2.63171 0 12 -2.63171 1
gene 1 13 17 -6.42664 0 13 -6.42664 1
gene 1 14 17 -0.72276 0 14 -0.72276 1
gene 1 15 17 -2.21431 0 15 -2.21431 1
gene 1 16 17 -6.15753 0 16 -6.15753 1
gene 1 1 18 -3.92881 0 17 -3.92881 1
gene 1 2 18 4.19361 0 18 4.19361 1
gene 1 3 18 5.6925 0 19 5.6925 1
gene 1 4 18 0.0304379 0 20 0.0304379 1
gene 1 5 18 0.61928 0 21 0.61928 1
gene 1 6 18 -2.51391 0 22 -2.51391 1
gene 1 7 18 0.611662 0 23 0.611662 1
gene 1 8 18 -5.7277 0 24 -5.7277 1
gene 1 9 18 -2.0878 0 25 -2.0878 1
gene 1 10 18 -3.16045 0 26 -3.16045 1
gene 1 11 18 -0.396693 0 27 -0.396693 1
gene 1 12 18 -1.01144 0 28 -1.01144 1
gene 1 13 18 0.77292 0 29 0.77292 1
gene 1 14 18 -0.458115 0 30 -0.458115 1
gene 1 15 18 1.81592 0 31 1.81592 1
gene 1 16 18 -1.81893 0 32 -1.81893 1
gene 1 1 19 -0.266543 0 33 -0.266543 1
gene 1 2 19 -0.857882 0 34 -0.857882 1
gene 1 3 19 -0.984438 0 35 -0.984438 1
gene 1 4 19 -2.97684 0 36 -2.97684 1
gene 1 5 19 3.87234 0 37 3.87234 1
gene 1 6 19 1.56558 0 38 1.56558 1
gene 1 7 19 -8 0 39 -8 1
gene 1 8 19 2.17912 0 40 2.17912 1
gene 1 9 19 -2.47802 0 41 -2.47802 1
gene 1 10 19 0.862175 0 42 0.862175 1
gene 1 11 19 -0.192739 0 43 -0.192739 1
gene 1 12 19 -6.09431 0 44 -6.09431 1
gene 1 13 19 3.87387 0 45 3.87387 1
gene 1 14 19 1.1604 0 46 1.1604 1
gene 1 15 19 -3.56816 0 47 -3.56816 1
gene 1 16 19 1.70165 0 48 1.70165 1
gene 1 1 20 0.225805 0 49 0.225805 1
gene 1 2 20 -2.63216 0 50 -2.63216 1
gene 1 3 20 8 0 51 8 1
gene 1 4 20 3.14299 0 52 3.14299 1
gene 1 5 20 0.432364 0 53 0.432364 1
gene 1 6 20 -2.1721 0 54 -2.1721 1
gene 1 7 20 4.49468 0 55 4.49468 1
gene 1 8 20 0.786995 0 56 0.786995 1
gene 1 9 20 -0.558457 0 57 -0.558457 1
gene 1 10 20 -1.02632 0 58 -1.02632 1
gene 1 11 20 0.62607 0 59 0.62607 1
gene 1 12 20 1.24926 0 60 1.24926 1
gene 1 13 20 3.14587 0 61 3.14587 1
gene 1 14 20 0.328259 0 62 0.328259 1
gene 1 15 20 -1.11057 0 63 -1.11057 1
gene 1 16 20 -1.7511 0 64 -1.7511 1
gene 1 6 26 -4.69465 0 85 -4.69465 1
gene 1 26 19 2.7702 0 86 2.7702 1
gene 1 18 20 4.2135 0 120 4.2135 1
gene 1 13 35 -0.393581 0 121 -0.393581 1
gene 1 35 20 -1.52851 0 122 -1.52851 1
gene 1 19 20 1.02893 0 189 1.02893 1
gene 1 9 26 -6.94059 0 193 -6.94059 1
gene 1 6 58 -2.34899 0 201 -2.34899 1
gene 1 58 26 2.92303 0 202 2.92303 1
gene 1 10 58 -8 0 204 -8 1
gene 1 17 58 0.289864 0 210 0.289864 1
gene 1 9 35 -0.70061 0 250 -0.70061 1
gene 1 15 87 0.511188 0 319 0.511188 1
gene 1 87 17 -0.117417 0 320 -0.117417 1
gene 1 3 58 1.69675 0 336 1.69675 1
gene 1 6 94 2.13446 0 342 2.13446 1
gene 1 94 19 5.14911 0 343 5.14911 1
gene 1 9 95 -8 0 344 -8 1
gene 1 95 17 -0.16504 0 345 -0.16504 1
gene 1 10 94 -2.39609 0 346 -2.39609 1
gene 1 6 96 5.35639 0 349 5.35639 1
gene 1 96 18 -2.81793 0 350 -2.81793 1
gene 1 16 35 -3.73385 0 360 -3.73385 1
gene 1 3 98 4.33587 0 362 4.33587 1
gene 1 98 20 4.35781 0 363 4.35781 1
gene 1 7 102 -0.234474 0 371 -0.234474 1
gene 1 102 20 -0.126888 0 372 -0.126888 1
gene 1 3 109 3.10061 0 400 3.10061 1
gene 1 109 19 0.560894 0 401 0.560894 1
gene 1 35 96 1.52234 0 402 1.52234 1
gene 1 6 111 1.139 0 405 1.139 1
gene 1 111 18 -1.63573 0 406 -1.63573 1
gene 1 87 98 -1.76997 0 411 -1.76997 1
gene 1 15 114 -4.36903 0 423 -4.36903 1
gene 1 114 19 0.697051 0 424 0.697051 1
gene 1 1 123 5.29973 0 454 5.29973 1
gene 1 123 20 3.08981 0 455 3.08981 1
gene 1 58 131 -2.82235 0 486 -2.82235 1
gene 1 131 26 0.548821 0 487 0.548821 1
gene 1 9 133 5.20841 0 492 5.20841 1
gene 1 133 35 3.61912 0 493 3.61912 1
gene 1 87 137 -6.32237 0 502 -6.32237 1
gene 1 137 17 5.17362 0 503 5.17362 1
gene 1 13 140 -1.13731 0 508 -1.13731 1
gene 1 140 19 -0.201115 0 509 -0.201115 1
gene 1 109 144 -2.48073 0 521 -2.48073 1
gene 1 144 19 -4.18227 0 522 -4.18227 1
gene 1 14 111 5.90047 0 531 5.90047 1
gene 1 13 146 1.58004 0 533 1.58004 1
gene 1 146 35 -8 0 534 -8 1
gene 1 96 111 -1.35243 0 536 -1.35243 1
gene 1 102 133 -3.2032 0 547 -3.2032 1
gene 1 87 94 1.66415 0 555 1.66415 1
gene 1 3 156 0.828117 0 581 0.828117 1
gene 1 156 109 2.51177 0 582 2.51177 1
gene 1 5 165 0.851781 0 622 0.851781 1
gene 1 165 17 -3.3694 0 623 -3.3694 1
gene 1 26 169 -3.04954 0 633 -3.04954 1
gene 1 169 19 -3.69238 0 634 -3.69238 1
gene 1 3 165 -1.98459 0 639 -1.98459 1
gene 1 6 186 0.253155 0 715 0.253155 1
gene 1 186 18 0.147708 0 716 0.147708 1
gene 1 102 188 0.474863 0 719 0.474863 1
gene 1 188 133 2.40796 0 720 2.40796 1
gene 1 11 189 -2.00417 0 721 -2.00417 1
gene 1 189 20 -3.60183 0 722 -3.60183 1
gene 1 3 193 1.92685 0 730 1.92685 1
gene 1 193 109 -3.15776 0 731 -3.15776 1
gene 1 6 165 1.85114 0 732 1.85114 1
gene 1 96 194 1.05237 0 734 1.05237 1
gene 1 194 18 4.26747 0 735 4.26747 1
gene 1 109 137 -2.53051 0 738 -2.53051 1
gene 1 35 111 3.68682 0 739 3.68682 1
gene 1 4 196 -3.67966 0 745 -3.67966 1
gene 1 196 20 1.91871 0 746 1.91871 1
gene 1 58 98 -0.745084 0 750 -0.745084 1
gene 1 87 199 -0.778763 0 755 -0.778763 1
gene 1 199 17 -2.13139 0 756 -2.13139 1
gene 1 137 202 -5.63152 0 765 -5.63152 1
gene 1 202 17 1.53345 0 766 1.53345 1
gene 1 98 133 -0.533599 0 770 -0.533599 1
gene 1 87 19 2.98823 0 774 2.98823 1
gene 1 35 131 5.50237 0 807 5.50237 1
gene 1 5 215 1.21514 0 816 1.21514 1
gene 1 215 19 -5.04382 0 817 -5.04382 1
gene 1 87 217 4.54193 0 823 4.54193 1
gene 1 217 94 -4.51604 0 824 -4.51604 1
gene 1 19 96 0.0264295 0 830 0.0264295 1
gene 1 3 220 7.10008 0 836 7.10008 1
gene 1 220 98 -6.54738 0 837 -6.54738 1
gene 1 6 223 -1.65102 0 850 -1.65102 1
gene 1 223 186 5.46528 0 851 5.46528 1
gene 1 3 199 3.81357 0 856 3.81357 1
gene 1 5 228 -7.18279 0 863 -7.18279 1
gene 1 228 17 1.15908 0 864 1.15908 1
gene 1 220 202 2.18727 0 886 2.18727 1
gene 1 3 244 -3.47716 0 936 -3.47716 1
gene 1 244 18 -3.42125 0 937 -3.42125 1
gene 1 1 258 1.88442 0 986 1.88442 1
gene 1 258 17 -1.73412 0 987 -1.73412 1
gene 1 87 269 2.71758 0 1033 2.71758 1
gene 1 269 137 -1.48977 0 1034 -1.48977 1
gene 1 220 123 6.11198 0 1040 6.11198 1
gene 1 15 276 -2.65643 0 1066 -2.65643 1
gene 1 276 114 4.44189 0 1067 4.44189 1
gene 1 223 94 -8 0 1073 -8 1
gene 1 133 194 1.65506 0 1077 1.65506 1
gene 1 3 283 -0.974762 0 1085 -0.974762 1
gene 1 283 20 -0.726103 0 1086 -0.726103 1
gene 1 14 287 3.26313 0 1095 3.26313 1
gene 1 287 17 -0.967508 0 1096 -0.967508 1
gene 1 114 131 0.567793 0 1143 0.567793 1
gene 1 258 308 -1.77729 0 1161 -1.77729 1
gene 1 308 17 0.376586 0 1162 0.376586 1
gene 1 4 156 2.21117 0 1165 2.21117 1
gene 1 87 316 -0.267576 0 1199 -0.267576 1
gene 1 316 94 -1.92918 0 1200 -1.92918 1
gene 1 26 196 1.29649 0 1203 1.29649 1
gene 1 87 325 0.620704 0 1232 0.620704 1
gene 1 325 17 0.372292 0 1233 0.372292 1
gene 1 165 344 -1.2351 0 1316 -1.2351 1
gene 1 344 17 5.73541 0 1317 5.73541 1
gene 1 6 345 1.64764 0 1320 1.64764 1
gene 1 345 17 -2.77318 0 1321 -2.77318 1
gene 1 14 188 -2.2608 0 1335 -2.2608 1
gene 1 133 354 -0.000326211 0 1359 -0.000326211 1
gene 1 354 194 -0.417002 0 1360 -0.417002 1
gene 1 95 269 -0.491423 0 1366 -0.491423 1
gene 1 258 356 2.56411 0 1372 2.56411 1
gene 1 356 308 3.39263 0 1373 3.39263 1
gene 1 2 367 -2.46472 0 1405 -2.46472 1
gene 1 367 17 -3.26484 0 1406 -3.26484 1
gene 1 16 369 -0.0468597 0 1409 -0.0468597 1
gene 1 369 35 -3.62795 0 1410 -3.62795 1
gene 1 14 194 -1.63119 0 1426 -1.63119 1
gene 1 14 375 1.96987 0 1441 1.96987 1
gene 1 375 18 2.25872 0 1442 2.25872 1
gene 1 144 96 2.53583 0 1470 2.53583 1
gene 1 345 169 0.0359778 0 1473 0.0359778 1
gene 1 3 385 -7.26426 0 1488 -7.26426 1
gene 1 385 58 -3.66571 0 1489 -3.66571 1
gene 1 369 325 0.652391 0 1540 0.652391 1
gene 1 3 402 4.09107 0 1567 4.09107 1
gene 1 402 199 -3.34417 0 1568 -3.34417 1
gene 1 26 410 0.709369 0 1604 0.709369 1
gene 1 410 169 2.07162 0 1605 2.07162 1
gene 1 6 418 0.962457 0 1628 0.962457 1
gene 1 418 18 -7.03095 0 1629 -7.03095 1
gene 1 418 223 4.46424 0 1652 4.46424 1
gene 1 2 422 8 0 1667 8 1
gene 1 422 19 3.64177 0 1668 3.64177 1
gene 1 14 429 1.83869 0 1692 1.83869 1
gene 1 429 287 -2.28103 0 1693 -2.28103 1
gene 1 123 140 -3.84722 0 1717 -3.84722 1
gene 1 15 438 2.08213 0 1738 2.08213 1
gene 1 438 114 -2.08788 0 1739 -2.08788 1
gene 1 109 287 2.54316 0 1744 2.54316 1
gene 1 14 418 -1.6462 0 1749 -1.6462 1
gene 1 402 95 -3.61364 0 1774 -3.61364 1
gene 1 3 444 -4.84354 0 1786 -4.84354 1
gene 1 444 283 -5.68463 0 1787 -5.68463 1
gene 1 188 19 -5.08472 0 1817 -5.08472 1
gene 1 15 452 4.79895 0 1823 4.79895 1
gene 1 452 114 -0.602995 0 1824 -0.602995 1
gene 1 186 345 -2.10026 0 1825 -2.10026 1
gene 1 269 453 -0.478729 0 1826 -0.478729 1
gene 1 453 137 -0.135755 0 1827 -0.135755 1
gene 1 375 133 2.76156 0 1852 2.76156 1
gene 1 354 131 -0.806521 0 1862 -0.806521 1
gene 1 402 94 -2.715 0 1874 -2.715 1
gene 1 5 466 -7.85006 0 1885 -7.85006 1
gene 1 466 19 0.433392 0 1886 0.433392 1
gene 1 228 469 0.0210286 0 1895 0.0210286 1
gene 1 469 17 2.06651 0 1896 2.06651 1
gene 1 4 422 3.89169 0 1901 3.89169 1
gene 1 189 470 -1.55678 0 1907 -1.55678 1
gene 1 470 20 -6.34364 0 1908 -6.34364 1
gene 1 58 276 -4.77879 0 1910 -4.77879 1
gene 1 9 199 2.84351 0 1958 2.84351 1
gene 1 325 496 2.68797 0 1993 2.68797 1
gene 1 496 17 1.3983 0 1994 1.3983 1
gene 1 109 504 -3.93902 0 2028 -3.93902 1
gene 1 504 137 2.29371 0 2029 2.29371 1
gene 1 3 345 -1.61783 0 2058 -1.61783 1
gene 1 10 513 2.5036 0 2060 2.5036 1
gene 1 513 17 3.87298 0 2061 3.87298 1
gene 1 466 140 -1.50516 0 2065 -1.50516 1
gene 1 308 354 -4.27194 0 2086 -4.27194 1
gene 1 3 525 -0.445553 0 2108 -0.445553 1
gene 1 525 402 3.07561 0 2109 3.07561 1
gene 1 102 528 -4.04337 0 2118 -4.04337 1
gene 1 528 133 -1.11742 0 2119 -1.11742 1
gene 1 10 531 1.02301 0 2128 1.02301 1
gene 1 531 94 -0.264061 0 2129 -0.264061 1
gene 1 169 20 -3.93037 0 2168 -3.93037 1
gene 1 344 444 -3.17248 0 2179 -3.17248 1
gene 1 3 548 0.967515 0 2202 0.967515 1
gene 1 548 165 0.722954 0 2203 0.722954 0
gene 1 375 325 4.64552 0 2209 4.64552 1
gene 1 345 165 -2.39832 0 2233 -2.39832 1
gene 1 15 556 0.14352 0 2237 0.14352 1
gene 1 556 438 6.81919 0 2238 6.81919 1
gene 1 16 564 1.59255 0 2263 1.59255 1
gene 1 564 35 -0.604009 0 2264 -0.604009 1
gene 1 438 133 1.65508 0 2332 1.65508 1
gene 1 4 586 1.09857 0 2348 1.09857 1
gene 1 586 20 1.45493 0 2349 1.45493 1
gene 1 102 504 2.82886 0 2355 2.82886 0
gene 1 6 590 -1.65416 0 2360 -1.65416 1
gene 1 590 94 -2.77769 0 2361 -2.77769 1
gene 1 98 438 2.57914 0 2383 2.57914 1
gene 1 3 96 1.99951 0 2424 1.99951 1
gene 1 4 613 -1.88905 0 2452 -1.88905 1
gene 1 613 18 1.34451 0 2453 1.34451 1
gene 1 452 194 -4.41006 0 2479 -4.41006 1
gene 1 8 453 -2.35584 0 2531 -2.35584 1
gene 1 513 470 -3.45804 0 2549 -3.45804 1
gene 1 11 636 0.723064 0 2551 0.723064 1
gene 1 636 19 1.22997 0 2552 1.22997 1
gene 1 6 638 1.24633 0 2557 1.24633 1
gene 1 638 345 -1.7174 0 2558 -1.7174 1
gene 1 564 422 -2.18267 0 2595 -2.18267 0
gene 1 3 653 -1.67285 0 2604 -1.67285 1
gene 1 653 385 2.49509 0 2605 2.49509 1
gene 1 4 654 0.20615 0 2608 0.20615 1
gene 1 654 422 2.49116 0 2609 2.49116 1
gene 1 10 156 0.207333 0 2611 0.207333 1
